filename,l1,l2,l3,l4,l5,l6,l7,l8,l9,l10,l11,l12,l13,l14,l15,l16,l17,l18,l19,l20,l21,l22,l23,l24,l25,l26,l27,l28,l29,l30,l31,l32,embed_x,embed_y
0_tr_reg_000_0.obj,-0.06092831,0.19777675,-0.10234234,-0.20113415,0.41081524,0.078090586,-0.2747085,0.23479247,-0.16412891,0.06644111,-0.10912263,0.0543625,-0.014927095,0.114507765,-0.08284934,0.064898394,-0.17605342,-0.19015762,0.10909671,0.123874746,-0.39422292,-0.10862204,-0.030349316,0.21081226,0.06995606,0.3560603,0.07102842,-0.26735553,0.062615745,0.03134599,-0.024284007,0.09742848,279.40198,170.00267
0_tr_reg_001_0.obj,0.22805668,0.33444956,-0.17370395,-0.18310905,-0.26856396,0.053511307,-0.029766204,0.19038571,0.07996153,0.114885785,-0.086409,-0.4292524,0.12760864,-0.05415703,0.107335284,0.086779505,0.25034115,0.14377387,0.071725935,-0.08170336,-0.16970433,0.045895237,0.25236416,-0.19921893,0.104051344,0.16067831,-0.0058599254,-0.110489756,-0.35812506,-0.034730762,0.032028936,-0.043680526,46.288345,209.07399
0_tr_reg_002_0.obj,-0.077404864,0.11506231,-0.19448988,-0.026821325,0.14355125,0.07949267,-0.023820141,0.29243895,0.07668956,0.067195214,0.30880603,-0.3136439,-0.047561552,0.17252903,0.15169434,0.21508478,0.06982757,-0.29332346,-0.09100793,0.17448889,-0.3766776,0.06660343,-0.12918957,-0.042550936,-0.08780107,0.082430996,0.13839173,0.36347988,0.034296006,-0.22238488,0.041300196,0.105837904,185.70518,142.56516
0_tr_reg_003_0.obj,-0.23408361,-0.09391043,0.28938633,0.030146955,-0.13763626,0.1295246,0.34054995,0.09485965,-0.068885684,0.029994318,-0.31554654,0.061968744,-0.17886297,-0.21626659,-0.12436439,0.10908343,-0.054174636,0.30089206,-0.2448639,-0.11449221,0.09045651,0.052494068,-0.115937434,0.32097733,0.0007004001,0.3373611,0.067482896,-0.061209958,0.1636292,-0.17769259,-0.004148382,-0.037843898,34.9961,118.707466
0_tr_reg_004_0.obj,0.25355598,0.14917721,0.31895927,0.1348905,-0.086110994,0.18201853,-0.04832008,-0.065176554,-0.29860327,-0.05019169,0.24031651,0.037503943,0.054220196,-0.0022332456,0.07105696,0.13797574,-0.101858675,0.21575563,0.078021646,-0.19387619,-0.11099751,-0.15788007,-0.16016458,0.1286756,0.29646328,0.2614203,0.3836109,0.13440907,-0.051099032,-0.04439673,0.2296384,0.09846613,263.1021,111.890564
0_tr_reg_005_0.obj,-0.30003285,-0.08625304,0.12767032,-0.20846923,-0.008145165,-0.062549084,-0.18752393,0.21734215,-0.019225912,-0.07409484,0.19235499,0.22175878,-0.1815465,0.27657887,-0.0038841893,0.15665075,-0.21723117,-0.1116493,-0.058813643,-0.20742106,0.07593848,-0.0889582,-0.15938388,-0.2412871,0.4092605,-0.13687585,-0.11750515,0.24690896,0.122990035,0.024753183,-0.21991828,0.042531904,213.96568,190.18912
0_tr_reg_006_0.obj,-0.21224117,-0.00494185,-0.009749139,-0.2413359,0.16116746,0.031674106,-0.06925628,-0.0689019,-0.060069297,-0.0142219225,0.22367099,0.44559816,-0.03632751,-0.34467804,0.054776203,-0.081687085,0.25666344,-0.08207541,0.20721316,-0.035162773,-0.020657158,0.02919665,-0.111144595,-0.052528627,-0.20154907,-0.31865466,0.14918569,0.13238496,-0.090878054,0.15739162,0.2863324,-0.21848649,115.160065,26.949356
0_tr_reg_007_0.obj,0.18878075,0.04968102,-0.008751957,0.30210322,0.1600139,-0.029115992,0.11651691,-0.19278175,-0.20398967,-0.16649629,0.1406972,-0.09060612,-0.13968787,0.39112428,-0.0877203,-0.3605292,0.0756911,-0.10267958,0.09797443,0.10737449,0.1186252,-0.10585309,0.15588853,0.13703068,-0.10663514,-0.18170315,0.100043066,-0.25568062,0.13224488,-0.16870926,-0.33728632,-0.024790866,116.287094,217.89297
0_tr_reg_008_0.obj,0.004432755,-0.2030368,-0.17134684,0.25927052,-0.12515344,-0.20296617,0.09118357,-0.2996095,-0.021901023,-0.18647945,0.076844655,-0.018924167,0.3121995,-0.17382558,-0.0017540418,-0.0005384541,-0.19496426,-0.22418965,0.0023931498,0.10807278,-0.1700852,0.30845666,0.1274281,-0.01953697,0.0136820385,-0.2802821,0.07604577,0.15326247,0.15843245,0.095669836,0.13817795,0.36880326,200.37642,28.880806
0_tr_reg_009_0.obj,0.13127689,-0.16825382,-0.12255426,-0.1478859,0.03245324,-0.10455555,0.40119815,-0.11777667,0.31389022,0.23043086,-0.011709451,-0.045983102,0.053351834,-0.008830295,0.23482549,0.030255657,-0.19982661,0.07994802,-0.073344536,0.17206076,0.22481954,-0.29238626,-0.13334493,0.2538295,-0.22748995,-0.13445993,-0.0035277514,0.0015369318,-0.14435793,-0.041883446,-0.21716285,-0.280609,129.51935,113.49795
1_0_tr_reg_000_0_0.obj,-0.14293863,0.16716808,-0.078691304,-0.29005584,0.2942807,-0.06968861,-0.3360728,0.22371191,-0.081355534,0.1355522,-0.055990364,0.051357348,0.08687855,0.17408125,-0.04327665,0.15827946,-0.24744584,-0.21650913,0.09334859,0.046092935,-0.37469593,-0.14151384,0.09685846,0.01685551,0.33176848,0.21365355,-0.06570987,-0.15650943,-0.047103796,0.14748554,-0.08998818,0.07532085,278.34753,186.43707
1_0_tr_reg_001_0_0.obj,0.05189935,0.24530192,0.07646415,-0.102988005,-0.2533355,-0.018471234,-0.01931353,0.02956656,-0.06377419,-0.04232617,-0.2486998,0.010867967,0.0071272547,-0.17534678,-0.04556247,-0.120188855,0.330377,0.20417415,0.14637312,-0.29182652,0.30787483,0.120756894,0.16391237,-0.22966875,0.09989015,-0.19133827,-0.3041833,-0.20969751,-0.2645457,0.15955791,0.026179003,-0.11891375,36.998962,181.41426
1_0_tr_reg_002_0_0.obj,0.083814956,0.07834108,-0.21572188,0.20187579,-0.15582088,0.022014055,0.024802089,0.19780268,0.14658493,-0.13564917,0.010996695,-0.27114996,-0.24098723,0.07382624,0.10799651,0.10270044,0.33691543,-0.1507428,-0.1966485,0.07070555,0.14552873,0.21731202,-0.06423397,-0.16362005,-0.48699757,-0.017346665,-0.13406475,0.058724765,0.066751406,-0.30270183,-0.025409982,-0.03082284,152.85294,164.78934
1_0_tr_reg_003_0_0.obj,-0.2877674,-0.23346773,0.0844827,0.10525884,0.12817284,0.17401876,-0.112055235,-0.05786601,0.18783309,0.0020648239,-0.42189038,-0.068122774,-0.012761791,-0.12119698,-0.2258985,-0.097135514,-0.06319141,0.19920214,-0.21577218,0.17566283,0.014804224,0.23266678,0.086666964,0.039369013,-0.13254127,0.38184193,-0.18184221,-0.2399631,0.20630656,0.02273819,0.05232042,0.06538757,40.47766,87.490845
1_0_tr_reg_004_0_0.obj,0.2419545,0.18600489,0.2674698,0.41235766,-0.15385683,-0.06605757,0.077026375,-0.24358785,-0.12943828,0.13922232,0.09962056,-0.1329746,0.27165714,-0.011984704,0.25319344,0.25265914,-0.038729277,0.011146926,-0.1577687,-0.07035182,0.047864743,-0.039852973,-0.08078863,-0.037156492,-0.11252517,-0.015630046,-0.04049925,0.3907325,-0.091535866,0.020754347,0.2879721,-0.06435971,230.88383,92.39348
1_0_tr_reg_005_0_0.obj,-0.1570134,-0.17308582,0.06220413,0.0062361844,-0.10759648,-0.2031006,-0.17564388,0.010833984,0.080480814,-0.030789865,0.23281975,0.07943983,-0.13268624,0.2957485,0.07052099,0.1828764,-0.0061770882,-0.18074456,-0.080178395,-0.036557365,0.16479406,0.0018210241,-0.042531133,-0.45089227,0.29626372,-0.27876404,-0.1830417,0.39051297,0.023802744,-0.076132864,-0.11953289,-0.03704155,198.9927,200.15509
1_0_tr_reg_006_0_0.obj,-0.24033493,-0.118232355,0.013713544,-0.15208985,0.30997363,0.08967582,-0.20611492,-0.18585019,-0.02482392,0.04464635,0.13497816,0.30535933,-0.067696206,-0.26265174,-0.006165102,-0.021796415,0.3488626,-0.07438679,0.17906,0.25451347,-0.06734838,0.19210309,-0.063649416,-0.17710535,-0.125821,-0.07483845,0.1591842,0.092053756,-0.08069135,-0.020737551,0.36190572,-0.2038133,92.381775,27.109673
1_0_tr_reg_007_0_0.obj,0.17384078,-0.096819505,0.04330081,0.24763477,0.10209821,0.0808496,-0.08338885,-0.12347149,-0.077958256,-0.098299235,0.13572028,-0.13881485,-0.13896853,0.45007762,-0.27397808,-0.50243795,0.18973857,0.0125031965,0.111143224,0.057401333,0.08749311,-0.14226942,0.21977663,-0.11068072,0.04395347,-0.08574122,-0.0028321836,-0.08614349,0.14082237,-0.0046792305,-0.27333367,-0.060821254,120.26543,203.5655
1_0_tr_reg_008_0_0.obj,-0.034824815,-0.23538412,-0.18454932,0.13262045,-0.18092543,-0.26742724,0.0655498,-0.32021844,0.08893046,-0.266138,0.12114712,0.032544535,0.20277803,-0.103518136,-0.042871922,-0.040310703,-0.22013725,-0.16190597,0.030907622,0.09946792,-0.09413751,0.22996417,0.263059,-0.08129227,0.24056055,-0.30036584,0.10299292,-0.038621403,0.064102,0.07211776,-0.04098135,0.36962235,188.68814,19.944885
1_0_tr_reg_009_0_0.obj,0.09039108,-0.35635242,0.1459292,0.027846755,0.06023435,0.118156396,-0.0057248115,-0.20796303,0.3514868,0.21896017,0.10369274,-0.13652076,-0.08011557,0.24285588,-0.04354572,-0.18223366,0.08544857,0.30233133,-0.047354758,0.22158295,0.27226457,-0.25241905,-0.03773023,-0.1920273,0.073324546,0.0821058,-0.041958455,0.18414614,-0.08912247,-0.057081483,-0.0859048,-0.29658768,107.8161,139.70871
1_tr_reg_000_0.obj,-0.12517738,0.055267874,-0.074169666,-0.2051665,0.2457121,-0.1783914,-0.39120734,0.0987715,0.028125089,0.22569756,-0.023516014,0.05227812,0.18459637,0.20300485,0.028868329,0.2156107,-0.27332747,-0.25717306,0.044661142,0.09004927,-0.30296725,-0.16873576,0.11527852,-0.14077745,0.31668827,0.08857612,-0.17975433,0.0297114,-0.100052215,0.21052659,-0.032791298,0.0019108305,273.03467,198.71346
1_tr_reg_001_0.obj,0.06349479,0.25345054,-0.040121656,-0.23893122,-0.19638671,-0.07516494,-0.026537595,0.048971742,0.020303,0.0073329103,-0.23408984,-0.052025896,0.081886634,-0.12811495,-0.045907907,-0.13498521,0.19739221,0.15508957,0.19905452,-0.21456085,0.17700137,0.03162164,0.26993558,-0.15334612,0.21963446,-0.1749461,-0.2612314,-0.3537155,-0.34463796,0.19642948,-0.10702474,-0.07677185,27.83593,189.36491
1_tr_reg_002_0.obj,0.057005703,0.0147159835,-0.2807549,0.17306611,-0.04062268,-0.029628111,-0.055929318,0.18262672,0.16408715,-0.024706425,0.09630916,-0.32712212,-0.17596239,0.21631716,0.08976297,0.108004,0.3044165,-0.27451882,-0.15596917,0.19042234,0.0031660765,0.18205032,-0.0049516354,-0.27387443,-0.35442314,-0.051671878,-0.13455084,0.20443003,0.05204726,-0.27558997,-0.04243219,-0.044842392,163.33887,161.8561
1_tr_reg_003_0.obj,-0.3618957,-0.2688497,0.09749438,0.11930873,0.094338715,0.16996135,-0.13875009,-0.16671786,0.20863311,-0.020236555,-0.23124917,-0.1853045,0.04569035,-0.0898561,-0.17584261,-0.07591265,0.047086034,0.21741046,-0.17177247,0.2589234,-0.098704584,0.33783662,0.22231416,-0.14964317,0.06706861,0.33283773,-0.042416506,-0.10659477,0.13971065,-0.05372564,0.09633752,0.087923974,53.638924,82.26386
1_tr_reg_004_0.obj,0.3389881,0.054490555,0.28810215,0.1544812,-0.018196596,0.13720955,-0.21907073,-0.08564452,-0.2727155,0.06856263,0.06247034,0.12483007,0.14312766,0.04642578,-0.044965718,0.06020905,-0.21390171,0.17802833,0.11006309,-0.18508406,-0.09339416,-0.27258402,-0.15247986,0.0744858,0.3051885,0.29049045,0.19827747,0.14481004,-0.04752934,0.16852686,0.26047987,0.044258017,268.83878,99.21893
1_tr_reg_005_0.obj,-0.09279154,-0.1501854,0.0022083588,0.010404325,-0.024013441,-0.15943561,-0.28685054,0.18912072,0.13870323,0.06629522,-0.073135704,0.21767814,-0.09981959,0.23522909,0.006605941,0.15585056,-0.23941156,-0.21043058,-0.18493813,-0.14446452,0.24165976,-0.1670913,-0.20959267,-0.2273671,-0.05447932,-0.1217182,-0.41762832,0.24916348,0.12711309,0.15660226,-0.12571156,-0.09643212,214.5216,219.63495
1_tr_reg_006_0.obj,-0.28073004,-0.0982432,0.0113423765,-0.12539284,0.32543698,0.04197573,-0.17726015,-0.23603402,-0.045358308,-0.0030897467,0.14679727,0.31722745,-0.018359464,-0.28628612,0.004406796,-0.033658817,0.30008042,-0.12661459,0.18895428,0.2657072,-0.08713184,0.23636931,-0.029078273,-0.13499849,-0.09736362,-0.1484421,0.15661256,0.052419532,-0.07474476,-0.0055855704,0.33801633,-0.14001644,93.03345,20.532532
1_tr_reg_007_0.obj,0.041044075,-0.042569187,0.18753183,0.21371935,0.38497296,-0.0044366904,-0.40845665,-0.23777838,-0.109993435,0.08056692,0.10661092,0.05094552,-0.10233223,0.4431492,-0.08011113,-0.11201983,0.1405534,-0.145429,0.09568592,0.24369517,0.10314984,-0.12745641,0.060274176,-0.24626347,0.13900252,0.017325036,-0.109183684,-0.0071911286,-0.025790611,-0.06140773,-0.048018266,-0.21619743,148.39705,226.85684
1_tr_reg_008_0.obj,0.08493511,-0.19041325,-0.17148663,0.28717354,-0.1262934,-0.22818397,0.046568118,-0.2249612,-0.11101026,-0.18765433,-0.083890505,0.07762611,0.2604595,-0.14371799,-0.15304735,-0.11832358,-0.18513465,-0.24396382,0.045819875,-0.0018418735,-0.07538522,0.25644934,0.12757161,0.02228577,-0.046466414,-0.29493058,-0.08494454,0.04770804,0.2243979,0.21375607,0.109981954,0.38268298,195.37846,38.05742
1_tr_reg_009_0.obj,0.15348345,-0.30395237,-0.021414477,-0.118958145,0.037019894,0.08221406,0.04266535,-0.16699407,0.4462191,0.286543,0.1475711,-0.24254891,0.031127969,0.14320065,0.034419876,-0.12123293,0.08366308,0.26789606,0.004087555,0.29510307,0.100598015,-0.25992396,0.025031216,-0.1678053,0.059653018,0.096701264,0.046124373,0.16666631,-0.20797431,-0.045157705,-0.05204875,-0.26319918,104.714264,133.26921
2_0_tr_reg_000_0_0.obj,-0.047338087,0.10452697,-0.19821051,-0.1957303,0.32988086,-0.054330993,-0.33766252,0.25697327,0.0013972374,0.21614571,-0.072676644,-0.027046382,0.10916357,0.15794662,0.0005133587,0.20673585,-0.2372598,-0.30652276,0.017847555,0.15180892,-0.43479365,-0.14488597,-0.0048157237,0.037994154,0.042474315,0.2703125,-0.079159655,-0.0052515026,0.009376966,0.122152865,0.026101736,0.055663943,265.48846,187.46907
2_0_tr_reg_001_0_0.obj,0.23057905,0.3521973,-0.15497307,-0.17039004,-0.25944328,0.05980115,-0.011846972,0.18149774,0.036647838,0.10274673,-0.20455305,-0.36919963,0.11475674,-0.108463466,0.047127496,0.002430048,0.31191236,0.16749403,0.10619572,-0.12932348,-0.062771074,0.08200126,0.24692652,-0.18424231,0.035965342,0.10452332,-0.11598195,-0.18297444,-0.34890428,0.030371707,0.04355606,-0.07700448,46.337303,202.7975
2_0_tr_reg_002_0_0.obj,-0.028661886,0.13542952,-0.2216102,0.05127454,0.14823307,0.10521809,0.07483445,0.24691084,0.043410808,0.04530796,0.22729374,-0.36421558,-0.038647346,0.116663665,0.14333953,0.16634457,0.1003324,-0.27660277,-0.101049624,0.2212971,-0.3638122,0.12913473,-0.12483902,0.060245603,-0.22612157,0.10665868,0.16519082,0.27178684,0.06952849,-0.27775505,0.0465931,0.12684643,180.03932,140.15047
2_0_tr_reg_003_0_0.obj,-0.24766281,-0.08845123,0.2959894,-0.0027925693,-0.15258248,0.09319878,0.35797453,0.08263814,-0.04659002,0.039306927,-0.3391087,0.08388702,-0.1560187,-0.24116275,-0.12638326,0.11080877,-0.07398263,0.30270824,-0.23853147,-0.13098377,0.12713593,0.045357812,-0.09410135,0.32499725,0.03620598,0.29562563,0.019783542,-0.09567214,0.12831599,-0.13596809,-0.029187178,-0.043205455,34.331566,119.27501
2_0_tr_reg_004_0_0.obj,0.2771477,0.13957025,0.31860656,0.15275893,-0.08419109,0.11439026,-0.11905517,-0.10875686,-0.290574,0.024450388,0.16938758,0.058587216,0.13723306,0.0011233526,0.08372283,0.18746269,-0.15974262,0.18700248,0.07533662,-0.18606247,-0.11754934,-0.18550923,-0.13174197,0.07109929,0.33196586,0.25587973,0.29382715,0.17130214,-0.09762405,0.03392121,0.27638045,0.06855651,262.90573,106.05273
2_0_tr_reg_005_0_0.obj,-0.24964514,-0.16941045,0.064426035,-0.13557866,-0.013847569,-0.15691726,-0.22501314,0.15339257,0.060890134,-0.034269005,0.1452645,0.23359144,-0.14946921,0.28485334,0.0077251145,0.16625023,-0.22895552,-0.19046046,-0.08669745,-0.13648486,0.14494738,-0.09319077,-0.14689763,-0.29036197,0.30899101,-0.21235634,-0.22382899,0.27270493,0.11563924,0.052000884,-0.20982546,0.013237303,211.39058,199.79413
2_0_tr_reg_006_0_0.obj,-0.21647285,-0.13725317,0.07352813,-0.14545059,0.18782403,-0.006494774,-0.19257022,-0.20002685,-0.09516952,-0.014222617,0.1782836,0.45114163,-0.064661734,-0.27814502,0.00937676,0.0048361425,0.28711244,-0.08800108,0.18987529,0.08864073,0.057726443,0.14530244,-0.10146169,-0.20448767,-0.05374769,-0.2412004,0.10813868,0.14710364,-0.07108204,0.05202679,0.34251025,-0.19743197,104.00981,17.99955
2_0_tr_reg_007_0_0.obj,0.19016902,0.0033441728,0.029248687,0.3141818,0.2125024,-0.00237679,-0.093979314,-0.18878661,-0.15015663,-0.107926294,0.12296326,-0.090362966,-0.16573015,0.47591382,-0.15222336,-0.37199542,0.17017256,-0.1168369,0.10097715,0.1471188,0.16349214,-0.102410816,0.14956014,-0.067318894,-0.063249834,-0.13006198,-0.030054927,-0.17295672,0.10932639,-0.13016728,-0.27416942,-0.08522742,126.04911,215.40828
2_0_tr_reg_008_0_0.obj,0.23387198,-0.1380901,-0.14796683,0.21757224,-0.13453473,-0.012002523,0.10075399,0.09216341,-0.18513241,0.018018799,-0.10280881,-0.042838626,0.21059072,-0.10356623,-0.19587082,-0.11183392,-0.11904841,-0.17922153,0.0052780565,-0.1316993,-0.18233958,0.13149206,-0.14821081,0.0875534,-0.22568595,-0.06801268,-0.068275355,0.3885204,0.311068,0.22628583,0.25425178,0.31551,199.96681,59.732796
2_0_tr_reg_009_0_0.obj,0.13286233,-0.12801051,-0.21286735,-0.20483953,0.024072487,-0.1352685,0.43647346,-0.11412506,0.28435037,0.19155128,0.026088163,-0.07471203,0.12614872,-0.07076864,0.2180067,0.0006331505,-0.23211564,0.017849414,-0.01563756,0.19432583,0.048371617,-0.2612169,-0.032920018,0.33829835,-0.19568484,-0.1400866,0.114879705,-0.08519353,-0.14820765,-0.022917477,-0.23516595,-0.17189302,129.02657,105.527596
2_1_0_tr_reg_000_0_0_0.obj,0.021337617,0.04787949,-0.22052102,-0.10606161,0.23161747,-0.13339901,-0.36286473,0.23821613,0.12057899,0.2766696,-0.1662485,-0.019033786,0.12488613,0.18370993,0.039330922,0.22586675,-0.24859977,-0.31496558,-0.0748168,0.11196682,-0.24813645,-0.1984352,-0.025601711,-0.05952868,-0.114056125,0.18323712,-0.28674954,0.06651613,-0.009707275,0.18950397,0.011561928,-0.053465802,259.50952,207.49747
2_1_0_tr_reg_001_0_0_0.obj,0.04819829,0.23449042,0.122252226,-0.028332483,-0.25097594,0.010005615,-0.010651033,0.0071522873,-0.106335655,-0.089667745,-0.22121884,0.031285778,-0.041832715,-0.17650856,-0.045054838,-0.12686782,0.3848491,0.2086064,0.12730321,-0.2958587,0.35592157,0.16489384,0.11441582,-0.23480122,0.027155243,-0.19675866,-0.28977636,-0.17388861,-0.20709477,0.10997936,0.066359386,-0.11354084,41.52407,178.49078
2_1_0_tr_reg_002_0_0_0.obj,0.08721607,0.033114236,-0.24833462,0.18720971,-0.104713224,-0.028455295,-0.10407132,0.20779166,0.2052946,-0.07780186,-0.034119345,-0.21763188,-0.224788,0.13529678,0.10681622,0.13646096,0.25815114,-0.20707399,-0.21096031,0.09412775,0.1678611,0.15061675,-0.07306242,-0.23229532,-0.48327175,-0.013054657,-0.23952003,0.07422623,0.05805636,-0.23208994,-0.035829466,-0.070951894,154.78741,165.57622
2_1_0_tr_reg_003_0_0_0.obj,-0.25471747,-0.20747225,0.07643815,0.11313587,0.12166568,0.1716984,-0.03170243,-0.044906847,0.18247111,0.00953825,-0.43302915,-0.077572785,-0.00827955,-0.1485639,-0.1994673,-0.078598626,-0.11872527,0.19971175,-0.23139673,0.1714847,-0.0059304344,0.19505782,0.053234305,0.15301053,-0.17605452,0.3976696,-0.13833162,-0.2641773,0.20654956,-0.0028958719,0.038104698,0.08751352,37.064224,89.4057
2_1_0_tr_reg_004_0_0_0.obj,0.22820465,0.14380336,0.25003448,0.45616925,-0.14232142,-0.07529487,0.08662429,-0.3223193,-0.07236341,0.1395143,0.057667956,-0.2028732,0.2758985,-0.009253729,0.22827055,0.18462263,0.05413375,0.02786227,-0.15735008,0.014934899,0.10767375,0.036185905,-0.00042109517,-0.093495235,-0.14846776,-0.05177939,-0.09757687,0.3325007,-0.11184422,-0.0065215,0.2685281,-0.08911084,226.68051,92.520424
2_1_0_tr_reg_005_0_0_0.obj,-0.18636598,-0.19721588,0.11315343,-0.003940257,-0.088584006,-0.20087028,-0.19495003,-0.02314388,0.06300007,-0.04156281,0.19933622,0.1369174,-0.13799404,0.29103413,0.044385415,0.17830403,-0.055697326,-0.14914614,-0.07528648,-0.04475131,0.19400556,-0.008071508,-0.043986894,-0.43150052,0.35853246,-0.2580793,-0.18512629,0.335297,0.032793194,-0.059528,-0.13674329,-0.03348855,200.78886,199.78317
2_1_0_tr_reg_006_0_0_0.obj,-0.23114473,-0.046859395,-0.015034641,-0.219795,0.25831002,0.077949904,-0.15215975,-0.10104143,-0.041115887,0.010560766,0.23423022,0.3649849,-0.086284086,-0.2797592,0.037417106,-0.043801274,0.33780494,-0.097296834,0.2046427,0.12755081,-0.068396345,0.10458778,-0.101750396,-0.13923785,-0.16274369,-0.19876695,0.19055374,0.13496555,-0.094858065,0.035788998,0.32247275,-0.22112906,103.431076,26.692795
2_1_0_tr_reg_007_0_0_0.obj,0.1451837,-0.15775351,0.05192528,0.21169497,-0.01421831,0.16226242,-0.030916207,-0.03791333,-0.0521159,-0.084952556,0.15508474,-0.14326152,-0.16058637,0.3752205,-0.32219929,-0.53838766,0.24524033,0.11918715,0.08420149,-0.034080945,0.046996813,-0.13638078,0.21297106,-0.14292145,0.036992293,-0.047888454,0.057493143,0.045239676,0.18598552,0.026532667,-0.21199684,-0.06631225,114.09993,194.186
2_1_0_tr_reg_008_0_0_0.obj,0.06767085,-0.16715103,-0.2270186,0.2778836,-0.09575592,-0.22458641,0.09116523,-0.20894858,-0.09872813,-0.17795505,-0.054925133,0.0021225475,0.26762208,-0.11722426,-0.123106495,-0.11985127,-0.18431166,-0.27988148,0.0347553,0.056254517,-0.14139605,0.27298382,0.15108955,0.05685144,-0.07447368,-0.2911171,-0.039074086,0.036133688,0.22676593,0.1528775,0.06638499,0.39780298,195.76889,37.067154
2_1_0_tr_reg_009_0_0_0.obj,0.08797284,-0.26845044,0.13386565,0.029424725,0.10142521,0.04104002,0.15135208,-0.20871179,0.3084824,0.18995279,-0.011480172,0.022227993,-0.093865864,0.1519809,0.12624998,-0.051346865,-0.10645079,0.24895349,-0.124751,0.15880115,0.42300668,-0.31897682,-0.2151526,0.049584046,-0.14056517,0.0030307558,-0.10201878,0.08117122,-0.075520575,-0.06309689,-0.13475372,-0.36398923,121.53457,132.82343
2_1_tr_reg_000_0_0.obj,0.0031786524,0.0137960585,-0.21353401,-0.040252537,0.15156284,-0.17564295,-0.40025613,0.17863712,0.2036137,0.2594064,-0.12538385,-0.046653323,0.13075905,0.19021238,0.0789482,0.23200877,-0.17074832,-0.32143998,-0.11025174,0.11619282,-0.14718975,-0.13907324,0.01137928,-0.21186377,-0.12741096,0.074164346,-0.36693338,0.14654315,-0.053600725,0.18357275,0.026276309,-0.085959785,252.70966,210.45743
2_1_tr_reg_001_0_0.obj,0.10589006,0.26250622,-0.075228706,-0.18628295,-0.22065768,-0.071329474,-0.016552353,0.037250374,0.026663788,0.014472036,-0.2802263,-0.11191252,0.10863107,-0.15693131,-0.03358994,-0.1167165,0.22942035,0.15234269,0.1749125,-0.1868522,0.16599871,0.08547838,0.2848676,-0.1633057,0.14123906,-0.14404672,-0.27803296,-0.35021642,-0.34189808,0.17679389,-0.058347616,-0.06848253,31.037529,190.3355
2_1_tr_reg_002_0_0.obj,0.07244224,0.07595041,-0.22550076,0.1865363,-0.13853703,0.021280937,0.011017071,0.20638119,0.14242443,-0.10302018,0.03861711,-0.302229,-0.2312701,0.103569515,0.10243357,0.10954615,0.36846793,-0.17167035,-0.18165937,0.09413105,0.09698692,0.21913983,-0.042197842,-0.20774555,-0.44042382,-0.018110314,-0.12628552,0.11536954,0.050594155,-0.30412853,-0.014713057,-0.047359783,155.20224,164.02118
2_1_tr_reg_003_0_0.obj,-0.33917117,-0.2668987,0.105393685,0.110261135,0.14175257,0.13347189,-0.24393038,-0.22160816,0.19552417,0.019923832,-0.10914922,-0.1632024,0.059654925,-0.01984849,-0.13066293,-0.053742815,0.13575202,0.1737072,-0.10477603,0.30031413,-0.10687032,0.31097463,0.2588884,-0.30866086,0.15483324,0.25944647,-0.041845758,0.0045453818,0.061860077,-0.035403006,0.15610206,0.012521774,62.059143,80.30563
2_1_tr_reg_004_0_0.obj,0.3031864,0.030481534,0.32177407,0.26053637,-0.06355265,0.054220308,-0.19383577,-0.18065034,-0.19949794,0.11952382,0.09895882,0.12105704,0.2187799,0.01720367,0.069445536,0.15808237,-0.20471242,0.119180985,0.009796821,-0.161874,-0.020276476,-0.23243158,-0.17966613,-0.019711131,0.17421687,0.1698793,0.09198925,0.3338437,-0.057723876,0.18745194,0.33847433,-0.01911587,257.51035,92.14188
2_1_tr_reg_005_0_0.obj,-0.06738395,-0.11916455,-0.059125144,0.010747637,-0.0362129,-0.15365085,-0.25155583,0.23892637,0.15262337,0.045237478,-0.08162022,0.20157035,-0.124506176,0.20096757,0.03496488,0.16829588,-0.21473353,-0.23708557,-0.19834118,-0.1467559,0.25015825,-0.14968678,-0.24604112,-0.18450586,-0.17506652,-0.13001141,-0.41687497,0.22786447,0.13877285,0.12551329,-0.122400515,-0.09100093,215.72733,222.44577
2_1_tr_reg_006_0_0.obj,-0.24427675,-0.06682594,-0.026992396,-0.19114405,0.2977711,0.07166497,-0.17537792,-0.1354662,-0.031805307,0.0026548454,0.21526879,0.3316705,-0.09375328,-0.25502378,0.020475708,-0.037325438,0.34759563,-0.1274133,0.19566257,0.20790726,-0.08371346,0.15582667,-0.07826787,-0.15672548,-0.1474705,-0.16086794,0.19131643,0.10452433,-0.08539624,-0.0112431245,0.31577644,-0.19962704,98.287186,25.311417
2_1_tr_reg_007_0_0.obj,0.10336906,-0.0039061205,0.20640564,0.24248926,0.43639997,0.014471408,-0.3571646,-0.29188323,-0.107354335,0.10504712,0.04166825,0.066488616,-0.09365333,0.39894488,0.008071365,-0.046891563,0.0798773,-0.09710452,0.06687335,0.28438377,0.17745078,-0.15783763,-0.028793734,-0.14106172,0.033614084,0.079171434,-0.10087688,-0.08070954,-0.05474203,-0.107292615,-0.016048959,-0.26159286,146.48506,231.23128
2_1_tr_reg_008_0_0.obj,0.27090555,-0.14028536,-0.14830162,0.14570312,-0.029499678,0.048616976,0.031498767,0.16560431,-0.2567433,0.054115023,-0.15287425,0.03010496,0.10182211,-0.032526657,-0.2989065,-0.20214942,-0.024013309,-0.16813707,0.10020943,-0.13224255,-0.15103231,0.07525484,-0.18977064,0.0645932,-0.21635236,-0.023711594,-0.10475334,0.34603325,0.33081675,0.24443604,0.24931304,0.25066817,195.05243,66.274376
2_1_tr_reg_009_0_0.obj,0.14708306,-0.2855156,-0.11565899,-0.18011808,-0.0040916214,0.056469172,0.0070293676,-0.10642338,0.4393982,0.26232782,0.18967548,-0.28883868,0.05124317,0.14580016,-0.0069179167,-0.14089504,0.11693979,0.21615198,0.052079685,0.2891987,-0.043972973,-0.23384875,0.13301851,-0.21117254,0.11812783,0.098794684,0.10765261,0.14710742,-0.20954123,-0.03322735,-0.07159139,-0.19657195,99.26102,132.16042
2_tr_reg_000_0.obj,-0.14547372,0.26408926,-0.029030172,-0.18662693,0.437915,0.15723637,-0.19845924,0.20755415,-0.23633084,-0.078248,0.0139151225,0.09209476,-0.12293299,0.101141095,-0.051890742,0.003233328,-0.0781707,-0.14623794,0.14216825,0.09689454,-0.33083415,-0.03181932,-0.06961417,0.24073829,0.10586316,0.27394217,0.18720414,-0.3038662,0.08376755,-0.08146075,-0.055607628,0.12260228,273.00058,160.83025
2_tr_reg_001_0.obj,0.22720136,0.35876352,-0.10721702,-0.10517676,-0.27692688,0.11921993,0.017557697,0.27717322,-0.029749269,0.048208106,-0.2962416,-0.2500103,-0.012620956,-0.15068394,-0.000859299,-0.03159226,0.36748654,0.17303587,0.05483686,-0.25351542,0.0936824,0.09460199,0.08789601,-0.12870438,-0.15852095,0.08220675,-0.21222664,-0.15229084,-0.23436476,0.049242273,0.07828522,-0.11771705,54.544785,191.9852
2_tr_reg_002_0.obj,-0.22355744,0.12801236,-0.08000845,-0.040594265,0.117536284,0.062509455,-0.06122665,0.19109589,-0.015147966,-0.114677966,0.4577708,-0.1736554,-0.10643167,0.17559028,0.12850025,0.1589653,0.13143158,-0.2562244,-0.0007749747,0.096638046,-0.2965299,0.1790491,-0.049010944,-0.18289112,0.18419822,-0.097440034,0.19532387,0.32952902,0.03147949,-0.24600294,0.006138045,0.17535527,197.50394,145.66629
2_tr_reg_003_0.obj,-0.2558722,-0.25833172,0.24410209,0.08301225,0.05600952,0.17903154,0.032414325,-0.098507576,0.12492182,0.014546751,-0.41647455,0.066288315,-0.071443535,-0.18106464,-0.20089912,-0.06408104,-0.106799416,0.33455217,-0.2143098,0.062146563,0.164646,0.1109025,-0.013573393,0.17416623,-0.046875548,0.36630204,-0.11424048,-0.24114828,0.16416226,0.00019735962,0.037881844,-0.018590953,34.801414,99.26059
2_tr_reg_004_0.obj,0.26464397,0.18940298,0.29127628,0.117096394,-0.04224808,0.21628754,-0.029760964,0.01951304,-0.3863351,-0.074779674,0.15056251,0.06560203,-0.0064466726,0.004040617,0.00027561447,0.06911387,-0.08338197,0.19586188,0.114500664,-0.22796835,-0.10944707,-0.15324306,-0.19014642,0.20952666,0.2513418,0.28589484,0.3691798,0.04421845,0.0035334642,-0.04975269,0.18647023,0.11278608,265.9176,116.086815
2_tr_reg_005_0.obj,-0.29357493,0.054788873,0.07968275,-0.30964625,0.023167698,0.06251855,-0.074571274,0.2261733,-0.07290655,-0.24304378,0.33320832,0.1994443,-0.25511765,0.18012263,0.06065603,0.12246289,-0.13386644,-0.011752242,0.04510095,-0.19469175,0.0017632606,-0.022436699,-0.15346867,-0.12883833,0.44755694,-0.092583425,0.15661402,0.06170766,0.07332136,-0.110043675,-0.22543857,0.10883743,218.59589,171.68259
2_tr_reg_006_0.obj,-0.23190388,-0.06791557,0.01737279,-0.16831401,0.21179396,0.002628167,-0.11940218,-0.17478551,-0.08734797,-0.027710432,0.230555,0.41360435,-0.038605206,-0.31387922,0.04278402,-0.029821556,0.2903287,-0.12874216,0.20680952,0.09763064,-0.029198725,0.1425281,-0.08962835,-0.12194172,-0.12599593,-0.28631037,0.16864146,0.13790591,-0.079969026,0.052075423,0.32856074,-0.16837895,106.436264,20.464226
2_tr_reg_007_0.obj,0.23408689,0.046437874,0.0003396051,0.36893123,0.27658638,-0.037031796,-0.044213183,-0.28186122,-0.14704266,-0.08968105,0.067221135,-0.07832366,-0.12941992,0.39434052,-0.016689826,-0.22831915,0.09893043,-0.15387633,0.053483013,0.2546709,0.20486604,-0.05433414,0.06640637,0.038332168,-0.22584343,-0.09223243,-0.008655556,-0.24999373,0.07957751,-0.22547273,-0.20526306,-0.09650549,125.573456,226.46515
2_tr_reg_008_0.obj,0.0092035085,-0.20110989,-0.20587431,0.26445845,-0.115255035,-0.23339124,0.07882276,-0.2863371,-0.039230697,-0.23565109,-0.016958436,0.030845823,0.24908195,-0.14401847,-0.100198425,-0.099539034,-0.18527246,-0.23963729,0.032377742,0.08732191,-0.10795301,0.29739156,0.19452828,0.01573533,0.0027298867,-0.30660766,0.00920849,-0.020368468,0.18401928,0.12008957,0.041857675,0.3833904,192.94485,31.448524
2_tr_reg_009_0.obj,0.07262813,-0.13368265,-0.22440206,-0.2324216,-0.016644038,-0.07732708,0.51318693,-0.068779975,0.2457247,0.19577737,0.03661815,-0.11490013,0.14133768,-0.17144759,0.16693561,-0.023493256,-0.16405085,0.037751712,-0.012103817,0.19316469,-0.09574407,-0.1795374,-0.0037362776,0.37847158,-0.20109506,-0.08823204,0.22766142,-0.024632867,-0.106405355,-0.044242963,-0.16925497,-0.11852431,125.66303,99.61478
3_0_tr_reg_000_0_0.obj,-0.11883368,0.18242833,-0.096734755,-0.24737866,0.38679683,0.02166975,-0.30858517,0.24713759,-0.15662512,0.07257523,-0.09987035,0.09744079,0.010461941,0.12528774,-0.08368338,0.09818999,-0.22114895,-0.22109707,0.1102083,0.0819491,-0.38576013,-0.10640789,-0.0021394615,0.15201211,0.16867946,0.29088226,0.012914229,-0.2379863,0.04909569,0.08860279,-0.04936959,0.10713374,278.8053,175.21855
3_0_tr_reg_001_0_0.obj,0.15708329,0.25946298,-0.12730186,-0.2100599,-0.24959615,-0.018097408,-0.07368565,0.06060353,0.121737406,0.104185335,-0.06968729,-0.3682139,0.1826017,-0.060184944,0.09471448,0.06299344,0.19803198,0.17099188,0.11611918,-0.044578034,-0.12669373,0.050961435,0.33426222,-0.25900778,0.2735058,0.081949726,-0.03236951,-0.16109407,-0.41083685,0.018698772,0.005744977,-0.029113984,36.679176,209.64214
3_0_tr_reg_002_0_0.obj,-0.09193215,0.12577794,-0.20198174,-0.0112332925,0.12702233,0.09936116,0.014567075,0.29009944,0.06438532,0.0338829,0.29497954,-0.3334746,-0.051838875,0.14025182,0.14256778,0.19226538,0.09647336,-0.2840434,-0.09414205,0.17447169,-0.3745901,0.12304252,-0.123149104,-0.027407408,-0.11132,0.07267358,0.15157841,0.34212187,0.052579954,-0.24600704,0.040669832,0.13404147,184.86343,141.8796
3_0_tr_reg_003_0_0.obj,-0.21937971,-0.15911295,0.27974397,0.057831064,-0.05029667,0.12635416,0.20347385,0.034558468,0.006881504,0.009760607,-0.39709312,0.13234104,-0.17921343,-0.18659557,-0.15248415,0.046176407,-0.10839381,0.29924634,-0.25229344,-0.07422384,0.20997101,0.03321955,-0.12705049,0.29004902,-0.07741494,0.33703506,-0.06900087,-0.17494681,0.18377185,-0.08937929,-0.016051631,-0.05755552,31.775917,110.88134
3_0_tr_reg_004_0_0.obj,0.2672677,0.039896533,0.32506448,0.19655018,-0.108721964,0.09726264,-0.16393308,-0.1349733,-0.20420927,0.061826397,0.18617214,0.03857974,0.18682434,0.034849633,0.053452272,0.16362634,-0.20267203,0.1759443,0.029515356,-0.17173621,-0.111238204,-0.20416544,-0.12909181,-0.006523015,0.32506675,0.23174776,0.22776528,0.28890064,-0.06053617,0.101335354,0.28464586,0.077780195,261.2326,100.20753
3_0_tr_reg_005_0_0.obj,-0.31266734,-0.072216265,0.15429969,-0.2278937,-0.034502838,-0.035832793,-0.13339928,0.16213918,-0.03974754,-0.1395759,0.26022053,0.22675225,-0.21302773,0.24383792,0.015640318,0.13092986,-0.13523194,-0.04602316,-0.018825954,-0.20385778,0.100213766,-0.041771974,-0.13205689,-0.26787156,0.46002015,-0.17125733,-0.036425203,0.21839245,0.09903119,-0.0352877,-0.21525306,0.040588863,212.89203,185.42052
3_0_tr_reg_006_0_0.obj,-0.23189428,0.0014778636,0.0060582235,-0.23160903,0.2141442,0.0076542157,-0.15306899,-0.09370388,-0.07965641,-0.023656253,0.19674653,0.45853946,-0.054586407,-0.2943017,0.039860405,-0.073420614,0.277111,-0.11815706,0.22854866,-0.0024946,0.014874179,0.056103222,-0.081922956,-0.09952921,-0.14653978,-0.3228776,0.08747915,0.070222996,-0.1134412,0.15387549,0.26975626,-0.22665016,112.91953,23.22644
3_0_tr_reg_007_0_0.obj,0.192321,0.021736808,0.0042125382,0.29714915,0.16332096,-0.005338034,0.009521436,-0.16077383,-0.17721653,-0.14372429,0.13678227,-0.09825989,-0.15964864,0.44439003,-0.15787695,-0.41042534,0.14410631,-0.10097025,0.109661005,0.09643042,0.13072245,-0.11327497,0.17645277,0.018709483,-0.06753236,-0.16586259,0.025624448,-0.20372985,0.13213108,-0.11980927,-0.32047635,-0.04868275,120.4095,213.96881
3_0_tr_reg_008_0_0.obj,-0.036541138,-0.2270181,-0.1444288,0.20766352,-0.16191411,-0.21842274,0.10426726,-0.35053027,0.02544214,-0.26128107,0.11236748,0.019853024,0.24394049,-0.16987044,-0.021441283,-0.025872782,-0.1907052,-0.15602343,0.017350797,0.10948114,-0.11584452,0.30058807,0.19460204,-0.04584823,0.14959322,-0.2874647,0.12929107,0.04476662,0.11332931,0.056155987,0.06367691,0.37883767,191.6593,23.887543
3_0_tr_reg_009_0_0.obj,0.12439064,-0.19374526,-0.19486193,-0.28533283,-0.012143439,-0.06648921,0.41815218,-0.07780874,0.3556119,0.26398015,0.0557385,-0.11703596,0.13815352,-0.09751594,0.1328328,-0.07003546,-0.15088058,0.11132536,0.010166432,0.19351897,-0.015019027,-0.29385006,0.006955775,0.27175885,-0.11746203,-0.07512543,0.14074422,-0.0005118129,-0.17901069,0.03444307,-0.1871156,-0.19327556,122.52222,106.42679
3_1_0_tr_reg_000_0_0_0.obj,-0.13106889,0.189055,-0.085429825,-0.25655344,0.38423985,0.015855005,-0.30268916,0.21707836,-0.14253905,0.08690525,-0.08191803,0.07142792,0.035626702,0.12360576,-0.073514886,0.099887654,-0.20740075,-0.20346574,0.11640407,0.10149149,-0.40945077,-0.10337142,0.042146638,0.13483948,0.21220377,0.29391596,0.028594436,-0.23919028,0.016711434,0.08624592,-0.047405075,0.09871643,278.96518,176.36168
3_1_0_tr_reg_001_0_0_0.obj,0.0011783014,0.20557167,0.083086796,-0.11942445,-0.19174913,-0.06983811,-0.026215924,-0.033526316,-0.06488993,-0.063490264,-0.24452715,0.084712125,0.03247919,-0.1720402,-0.06963712,-0.15367174,0.2526661,0.16925661,0.17831859,-0.26123896,0.31291083,0.107894935,0.19608256,-0.18753809,0.1625915,-0.25199297,-0.31532514,-0.28050455,-0.25338727,0.20609923,-0.02142469,-0.08884596,29.40271,181.07959
3_1_0_tr_reg_002_0_0_0.obj,0.05517547,0.03678663,-0.2108157,0.2140065,-0.13472533,-0.041758154,-0.0072599933,0.12408001,0.11037042,-0.17160237,0.11121074,-0.21694355,-0.24949175,0.14178558,0.10178081,0.066196986,0.37430096,-0.21103992,-0.13877909,0.09014858,0.16973312,0.2277297,-0.018935164,-0.26500577,-0.39017493,-0.15856741,-0.13220203,0.11039445,0.065917216,-0.3044458,-0.054972168,-0.03852686,158.1588,170.44858
3_1_0_tr_reg_003_0_0_0.obj,-0.33157393,-0.2828835,0.08399853,0.12258728,0.1312028,0.13428713,-0.15838851,-0.16305715,0.23438656,-0.018321898,-0.34504,-0.09080251,0.052801274,-0.1105391,-0.19312496,-0.09007382,-0.062344443,0.19212861,-0.19360362,0.23487791,-0.00238503,0.2810003,0.16384864,-0.064018644,-0.0361131,0.32012254,-0.16448139,-0.2068314,0.16867623,0.03612571,0.06490654,0.084233165,46.068336,83.260025
3_1_0_tr_reg_004_0_0_0.obj,0.18400984,0.23172943,0.29989156,0.3566964,-0.15466504,-0.076117195,0.07251407,-0.28805923,-0.16067527,0.085529916,0.18161467,-0.15046674,0.2429511,0.002787608,0.31061646,0.30710563,-0.00048514994,0.04613636,-0.11465491,-0.04886112,0.020538677,0.0042423354,-0.014094797,-0.079808384,0.059436265,-0.026588403,0.05254075,0.3220328,-0.16351594,-0.07832404,0.2630022,-0.036335558,229.92331,97.99445
3_1_0_tr_reg_005_0_0_0.obj,-0.1616276,-0.18946753,0.07054775,0.018163433,-0.09622304,-0.20757872,-0.19605537,0.0013395128,0.08624075,-0.020793894,0.2039649,0.0952166,-0.12437469,0.29737633,0.05919181,0.18372831,-0.029585505,-0.1819975,-0.09151399,-0.03137502,0.17422625,-0.004533569,-0.044577662,-0.4497289,0.28986004,-0.264502,-0.2074396,0.3836252,0.034940287,-0.056900274,-0.11721125,-0.04280763,199.65363,201.36308
3_1_0_tr_reg_006_0_0_0.obj,-0.2653476,-0.12259654,0.038680535,-0.113939084,0.32016164,0.073924325,-0.19922677,-0.24210589,-0.03701567,0.021711223,0.115895525,0.3039394,-0.017276328,-0.28913108,-0.006461614,-0.025881656,0.30939996,-0.07310181,0.18036179,0.27021047,-0.0730994,0.2349946,-0.036953777,-0.15476409,-0.08616856,-0.089620575,0.15009847,0.061742604,-0.07660115,-0.006055065,0.37030858,-0.15561843,90.6672,23.265793
3_1_0_tr_reg_007_0_0_0.obj,0.19566602,-0.06893945,0.012353053,0.2485714,0.09580195,0.05086051,-0.046094876,-0.13079473,-0.08707538,-0.123089775,0.12649897,-0.12858976,-0.11918648,0.4285685,-0.26149747,-0.5128341,0.14557157,-0.0068572187,0.11953975,0.04743847,0.083310954,-0.15560502,0.23678218,-0.043223348,0.013852274,-0.11402502,0.010467339,-0.15595077,0.14045492,0.0072077475,-0.30671316,-0.0340022,118.80931,205.63547
3_1_0_tr_reg_008_0_0_0.obj,-0.025951622,-0.24830104,-0.15719296,0.0429924,-0.19858018,-0.21592753,0.035828475,-0.31279263,0.19532137,-0.32375658,0.26390684,0.026170626,0.059334278,-0.025751563,-0.014349009,-0.055998906,-0.185088,-0.06468491,0.025208442,0.12806052,-0.053894855,0.13239355,0.26341736,-0.12058124,0.3216341,-0.22390828,0.23326409,-0.10255862,0.0036739865,-0.047409892,-0.1276592,0.32893413,180.35136,13.51297
3_1_0_tr_reg_009_0_0_0.obj,0.10078778,-0.32554996,0.13889405,0.010862788,0.092682816,0.105501994,0.04215784,-0.2279656,0.3587823,0.22371934,0.07712601,-0.10702318,-0.08399523,0.20636283,0.01707442,-0.15067567,0.065602265,0.29645133,-0.052681733,0.23559159,0.32746205,-0.26782846,-0.08988024,-0.12798363,0.008447418,0.058229,-0.05643968,0.14217646,-0.12265103,-0.068847515,-0.08788392,-0.3375115,111.783554,138.0036
3_1_tr_reg_000_0_0.obj,-0.14461511,0.060293734,-0.08253337,-0.21675006,0.22817081,-0.19784799,-0.38528818,0.09214684,0.020759225,0.19560649,-0.056136496,0.08436106,0.19165857,0.17047869,0.014178069,0.20330827,-0.28912622,-0.25673047,0.05677671,0.06801622,-0.27877834,-0.14028716,0.13594079,-0.13308616,0.33678126,0.05286966,-0.20514204,-0.024257997,-0.09961089,0.23306489,-0.048569944,0.028102592,274.91144,198.93564
3_1_tr_reg_001_0_0.obj,-0.015507554,0.1816255,0.0005221236,-0.21820554,-0.14384885,-0.12421363,-0.022866812,-0.036752623,0.00633853,-0.03668659,-0.21225843,0.06643141,0.07979978,-0.1408752,-0.068401806,-0.1674024,0.13844968,0.12676717,0.2114267,-0.19578527,0.22524844,0.041340258,0.27338782,-0.122739315,0.24991429,-0.26249355,-0.26911268,-0.3844886,-0.29663485,0.22779797,-0.12937394,-0.05133782,21.851349,186.03958
3_1_tr_reg_002_0_0.obj,0.072242156,0.039744794,-0.26129317,0.19348559,-0.09248816,-0.035947453,-0.024863794,0.15834825,0.14513893,-0.09621917,0.09032063,-0.28234765,-0.21032962,0.16596448,0.112245195,0.103999004,0.3361701,-0.24463056,-0.15559073,0.14671308,0.088564344,0.20815575,-0.01972525,-0.25591156,-0.4000258,-0.093284056,-0.13337517,0.14090826,0.0498573,-0.30051178,-0.04433516,-0.042281717,159.91696,165.21567
3_1_tr_reg_003_0_0.obj,-0.35645643,-0.27317765,0.10759243,0.13034992,0.09786823,0.18879522,-0.10699831,-0.12912223,0.19902499,-0.009886412,-0.28070214,-0.16990775,0.02261264,-0.09990222,-0.20245555,-0.083601914,0.016136013,0.21996604,-0.199668,0.23932122,-0.08573829,0.31499118,0.17746349,-0.07587326,0.008826842,0.36390537,-0.05819813,-0.123520344,0.17891464,-0.05336787,0.08238775,0.090325356,50.00054,84.202324
3_1_tr_reg_004_0_0.obj,0.29027653,0.13806547,0.30727798,0.121532604,-0.005528422,0.17202492,-0.12328428,-0.06843844,-0.34616926,-0.017855512,0.16361281,0.108472876,0.053974833,0.03306606,0.019659113,0.098443404,-0.13612404,0.18829547,0.12810315,-0.18289196,-0.10745527,-0.21327464,-0.16362117,0.14097862,0.31483403,0.2822258,0.3395952,0.076851435,-0.050198715,0.017414944,0.22579877,0.06224465,266.57312,110.13193
3_1_tr_reg_005_0_0.obj,-0.15717196,-0.19722413,0.0069956305,-0.03875208,-0.046919003,-0.18611342,-0.23890643,0.16144137,0.13125794,0.005905467,0.032762848,0.22315143,-0.13812454,0.26552632,0.009876655,0.1568011,-0.22523408,-0.21733847,-0.1514587,-0.12861875,0.23656705,-0.12005226,-0.18324092,-0.2801797,0.08773273,-0.2084984,-0.3486074,0.27860105,0.13499516,0.09168247,-0.18318017,-0.045470264,211.15225,211.74704
3_1_tr_reg_006_0_0.obj,-0.2554508,-0.1260149,0.06342184,-0.08563066,0.29336676,0.072893,-0.18438007,-0.2519732,-0.0488886,0.0043040398,0.13358362,0.3035546,-0.029139267,-0.29221156,0.006793775,-0.008260313,0.323002,-0.06411283,0.16544425,0.25889352,-0.047148738,0.24813274,-0.056211077,-0.16316257,-0.09213812,-0.09545038,0.15709421,0.08685478,-0.0657708,-0.033801075,0.38231233,-0.14842564,90.82264,23.731812
3_1_tr_reg_007_0_0.obj,0.121053286,-0.01681066,0.1438058,0.27265435,0.36669534,-0.025684007,-0.3318471,-0.2716526,-0.12520912,0.025949325,0.09148229,0.022818653,-0.107000984,0.46977141,-0.085439146,-0.18648084,0.11525366,-0.14911531,0.10238813,0.24345522,0.1523423,-0.14213118,0.08698105,-0.17031707,0.05927869,-0.026662696,-0.09966465,-0.114895344,0.0009073916,-0.08528123,-0.13023204,-0.18628448,142.06616,225.23387
3_1_tr_reg_008_0_0.obj,-0.009857679,-0.21882826,-0.16358721,0.23421766,-0.1645066,-0.24830838,0.051742103,-0.32598448,-0.002988609,-0.24487719,0.05096725,0.03662555,0.2587372,-0.14942595,-0.056627292,-0.038016316,-0.1844816,-0.19851264,0.033295352,0.07495791,-0.09841308,0.29512814,0.21405429,-0.0655698,0.124010324,-0.3140998,0.04072499,0.03036505,0.12282382,0.11631893,0.06593592,0.37181222,194.20468,25.634277
3_1_tr_reg_009_0_0.obj,0.13229905,-0.32311028,-0.008796928,-0.106922716,0.0042932704,0.06276447,-0.0070746983,-0.16361274,0.43126202,0.25667298,0.16617487,-0.23884016,0.018665925,0.18926749,-0.008632968,-0.1451397,0.0915528,0.26312122,0.015388154,0.26666668,0.08981066,-0.2529179,0.07877477,-0.23492216,0.1454682,0.08226157,0.04047052,0.1742725,-0.19144543,-0.035770502,-0.08048226,-0.23502673,101.966125,135.53555
3_2_0_tr_reg_000_0_0_0.obj,-0.1319103,0.173318,-0.11882532,-0.27935353,0.3415651,-0.028372262,-0.31880754,0.24658492,-0.09654036,0.116087906,-0.07085614,0.052145675,0.06593639,0.13425982,-0.052436307,0.14343295,-0.23521608,-0.2358681,0.097333714,0.083219424,-0.41532207,-0.11408176,0.05310325,0.08672699,0.23335491,0.2564116,-0.019437507,-0.18179278,-0.0052762623,0.11872752,-0.054308772,0.10171923,277.91403,181.41893
3_2_0_tr_reg_001_0_0_0.obj,0.16970967,0.28673437,-0.11758512,-0.20231716,-0.24457946,-0.01384499,-0.056594666,0.068598114,0.08832811,0.086449035,-0.17215604,-0.31987587,0.15326956,-0.09161976,0.04476323,-0.010803146,0.25468898,0.17921874,0.14396355,-0.092056766,-0.019024903,0.07295304,0.32053012,-0.2421114,0.20656326,0.02725381,-0.13673934,-0.23449224,-0.40739098,0.06826914,-0.006703226,-0.06378541,36.93264,203.31606
3_2_0_tr_reg_002_0_0_0.obj,-0.07005393,0.1327519,-0.18471035,0.021780698,0.12534761,0.08403675,0.04874971,0.22707611,0.03785438,0.024362925,0.33362865,-0.33911356,-0.03191296,0.14049646,0.16027118,0.1815162,0.11414851,-0.2835673,-0.07298081,0.1934797,-0.3672443,0.13492347,-0.10330536,-0.025207719,-0.08923936,0.03275791,0.18511268,0.34825465,0.034211304,-0.2671292,0.048126243,0.13574688,185.45863,141.39009
3_2_0_tr_reg_003_0_0_0.obj,-0.22579403,-0.11548411,0.3066132,0.029585933,-0.11786813,0.115425244,0.3007267,0.06186358,-0.04718321,0.027370812,-0.3484411,0.11190689,-0.17725915,-0.2150823,-0.1280248,0.09636301,-0.07781537,0.3140272,-0.244074,-0.117133014,0.1607604,0.028742595,-0.121855564,0.31113392,-0.005809306,0.3247172,0.009089273,-0.10684971,0.1537908,-0.13420936,-0.011375681,-0.063210204,33.5474,116.56074
3_2_0_tr_reg_004_0_0_0.obj,0.2884578,0.121633716,0.322192,0.15043186,-0.07007076,0.14931856,-0.116421126,-0.08050104,-0.31707814,-0.0010481703,0.15961276,0.08832481,0.096224315,0.006377269,0.039126936,0.13891056,-0.15160953,0.19770247,0.09041002,-0.2055832,-0.099883266,-0.19466224,-0.16392942,0.10249344,0.3136711,0.2686494,0.30547872,0.15068543,-0.054547615,0.03804184,0.26332533,0.07917962,265.26007,107.0196
3_2_0_tr_reg_005_0_0_0.obj,-0.11223008,-0.19565699,-0.020656021,0.014603953,-0.0384041,-0.18538432,-0.25223538,0.15851599,0.1574569,0.027547752,0.008221305,0.19506855,-0.13497832,0.26767293,0.022648202,0.15931512,-0.20278746,-0.2353975,-0.17832273,-0.097757444,0.24765137,-0.12684643,-0.19450474,-0.27752465,-0.018355358,-0.18590842,-0.3756292,0.28831497,0.13755374,0.08321634,-0.15493974,-0.07293938,210.87521,216.18257
3_2_0_tr_reg_006_0_0_0.obj,-0.2543571,-0.1288656,0.0735098,-0.0979764,0.27782807,0.019354036,-0.19835778,-0.260786,-0.07275825,-0.0036126391,0.15117711,0.37284714,-0.02159925,-0.28481874,0.009435863,-0.0013315595,0.28859586,-0.09827872,0.18424107,0.21167035,-0.01330845,0.21358313,-0.055055138,-0.17068149,-0.050788946,-0.17338951,0.1280028,0.092424765,-0.078975014,0.012203406,0.36234188,-0.15817048,95.56507,18.668854
3_2_0_tr_reg_007_0_0_0.obj,0.1954465,0.032684747,0.057558253,0.33681172,0.32835558,-0.03535104,-0.1702852,-0.2708386,-0.15316659,-0.051249187,0.10111021,-0.04869168,-0.13173705,0.46471617,-0.053113036,-0.2246532,0.11177079,-0.1707624,0.085444726,0.2523961,0.17904404,-0.09872841,0.07579969,-0.055059806,-0.09388694,-0.07335411,-0.041083086,-0.194737,0.0543017,-0.18095766,-0.19805332,-0.12373158,132.23729,224.34311
3_2_0_tr_reg_008_0_0_0.obj,0.17964686,-0.15702608,-0.16220665,0.26403636,-0.12605433,-0.09300204,0.09478255,-0.01951386,-0.1651594,-0.05160107,-0.036819603,-0.025019504,0.2549878,-0.10704311,-0.13830148,-0.08741693,-0.15637875,-0.24242377,0.0018969133,-0.076064415,-0.1735592,0.18843658,-0.08950397,0.062723555,-0.19338946,-0.17569126,-0.057187404,0.35568783,0.30141276,0.20768948,0.22653694,0.35781008,201.28049,52.586983
3_2_0_tr_reg_009_0_0_0.obj,0.11533377,-0.10757274,-0.1782752,-0.11455705,0.02499588,-0.13466774,0.4627357,-0.11946742,0.23252565,0.15415865,0.015061617,-0.036650762,0.05523619,-0.050344158,0.28195465,0.06536887,-0.21158883,-0.0022259234,-0.07489692,0.1701723,0.16488425,-0.21183382,-0.12377637,0.32059276,-0.2934699,-0.18439327,0.0763501,-0.035643585,-0.10312094,-0.10522047,-0.21874763,-0.21913216,133.59792,108.050644
3_2_1_0_tr_reg_000_0_0_0_0.obj,0.09857207,0.030205337,-0.24710119,-0.020111416,0.17465182,-0.11151568,-0.31347665,0.238866,0.16750772,0.27523074,-0.21668307,-0.056084517,0.10605663,0.153604,0.049920954,0.20043279,-0.20911595,-0.28704455,-0.12822434,0.106111534,-0.16870189,-0.19413379,-0.0663253,-0.04100571,-0.2925954,0.18808426,-0.32432413,0.08516789,0.013742784,0.17329662,0.037231173,-0.08450119,253.26822,214.70609
3_2_1_0_tr_reg_001_0_0_0_0.obj,0.07151112,0.2667856,0.08591541,-0.05296062,-0.26508698,0.028056541,-0.013923831,0.06309903,-0.09298386,-0.06363366,-0.23752645,-0.013524402,-0.045174513,-0.16912247,-0.035826318,-0.109728605,0.39972037,0.20683895,0.11773675,-0.30178222,0.32283923,0.15436628,0.11496559,-0.242534,0.0058797644,-0.15862435,-0.289767,-0.16515836,-0.22411391,0.101078,0.06455708,-0.1280259,43.706635,180.12396
3_2_1_0_tr_reg_002_0_0_0_0.obj,0.057809234,0.041948214,-0.17708385,0.21501465,-0.14474154,-0.043584313,-0.06496679,0.12543906,0.12219447,-0.17396602,0.06644821,-0.17009576,-0.27221367,0.1495999,0.08970159,0.051329337,0.38229772,-0.18058498,-0.13784356,0.049039785,0.24235469,0.19437139,-0.01902827,-0.2972491,-0.3885901,-0.15778928,-0.19642837,0.07478749,0.047374494,-0.2661197,-0.06262832,-0.0795696,155.92924,173.40952
3_2_1_0_tr_reg_003_0_0_0_0.obj,-0.28070062,-0.22395264,0.09700142,0.10195229,0.11942883,0.17618969,-0.08572114,-0.07234088,0.18248436,-8.313702e-05,-0.42958847,-0.059514128,-0.0043459404,-0.14904433,-0.21681572,-0.09384112,-0.07334947,0.2205673,-0.21158648,0.16752787,0.022194434,0.22770949,0.08299263,0.07078473,-0.12731892,0.38117152,-0.16718392,-0.26112914,0.19189537,0.0207816,0.057515208,0.0679189,39.42811,88.42299
3_2_1_0_tr_reg_004_0_0_0_0.obj,0.23741151,0.136167,0.24000053,0.4548524,-0.15627304,-0.06868056,0.08362476,-0.29476848,-0.06334829,0.14727442,0.060752913,-0.21223247,0.27659464,-0.006176159,0.21571098,0.18392308,0.04762166,0.022166917,-0.16637076,0.004432798,0.090290874,0.027581008,-0.010019569,-0.09689945,-0.16140464,-0.038010694,-0.09734057,0.36137602,-0.09655239,0.0041597905,0.2720502,-0.08043239,227.17513,91.92662
3_2_1_0_tr_reg_005_0_0_0_0.obj,-0.13401444,-0.20337284,0.059541788,0.056543145,-0.06710224,-0.20974712,-0.26095247,0.027791454,0.11269499,0.007710627,0.09296469,0.15103069,-0.12725589,0.29639328,0.040651232,0.17465849,-0.07892494,-0.19795638,-0.13189438,-0.04799841,0.24657468,-0.049620315,-0.09589326,-0.41998196,0.15585357,-0.23054609,-0.31946206,0.3418603,0.07001875,0.008808326,-0.11389792,-0.088780165,201.86041,208.94846
3_2_1_0_tr_reg_006_0_0_0_0.obj,-0.2732985,-0.11966201,0.024073698,-0.11961056,0.30779445,0.016469087,-0.19097313,-0.24503894,-0.052734688,0.004827143,0.16362093,0.35092154,-0.007828954,-0.27742738,0.0017728013,-0.02305182,0.27614793,-0.13617858,0.1903607,0.24172106,-0.07818178,0.20948714,-0.027677635,-0.15440542,-0.06532897,-0.17780346,0.14900446,0.087418415,-0.07551835,0.022975186,0.34084627,-0.14862481,95.16786,18.85698
3_2_1_0_tr_reg_007_0_0_0_0.obj,0.14968297,-0.119393595,0.050297312,0.22982733,0.058646202,0.13773735,-0.06029227,-0.078620195,-0.07256163,-0.09043508,0.16798563,-0.15399364,-0.17320102,0.41627014,-0.29092452,-0.5138357,0.2740598,0.059476893,0.102928445,0.033285774,0.06822974,-0.11069216,0.20471077,-0.15680063,0.03446345,-0.06812472,0.034926835,0.008046318,0.15363957,-0.023041513,-0.21821943,-0.07631143,117.71115,198.28311
3_2_1_0_tr_reg_008_0_0_0_0.obj,-0.034922622,-0.22386084,-0.1938681,0.20513898,-0.14979684,-0.24996126,0.07217311,-0.32011914,0.04383683,-0.25339982,0.070461094,0.013376155,0.23820345,-0.12733549,-0.053643815,-0.054929163,-0.20441277,-0.19903232,0.018965801,0.111578606,-0.11803685,0.27995765,0.24329026,-0.047116235,0.13478473,-0.30043912,0.07220917,-0.013600725,0.11677023,0.084960856,0.006184701,0.37897152,191.80121,24.013687
3_2_1_0_tr_reg_009_0_0_0_0.obj,0.08255444,-0.3380876,0.17589973,0.026930526,0.071003035,0.09326545,0.084681556,-0.23143168,0.33098835,0.2050787,0.048719198,-0.046410583,-0.0900281,0.19316897,0.02561429,-0.13946876,-0.0027320473,0.31498563,-0.080722064,0.18190672,0.37254837,-0.29204696,-0.1255347,-0.078255616,0.0060983887,0.040700022,-0.067691594,0.14413957,-0.08710765,-0.051000696,-0.10886768,-0.34233028,114.37452,137.52919
3_2_1_tr_reg_000_0_0_0.obj,-0.03577013,0.028171955,-0.17793223,-0.092789136,0.19926648,-0.18489447,-0.4110591,0.16627634,0.1470081,0.26745456,-0.09967898,-0.0044585997,0.15821959,0.20244963,0.06658039,0.23691891,-0.22426307,-0.32424816,-0.066275924,0.108709686,-0.20960537,-0.16652772,0.032140035,-0.18245338,-0.007008553,0.08059807,-0.32454842,0.12554398,-0.059822418,0.21058357,0.01212884,-0.06423408,258.89532,206.32268
3_2_1_tr_reg_001_0_0_0.obj,0.11399293,0.24472612,-0.089409575,-0.22958113,-0.20853387,-0.08234969,-0.030951891,0.002768103,0.076904535,0.051782582,-0.1890711,-0.19320561,0.15885925,-0.105098374,0.0030485978,-0.08763206,0.18885574,0.16065338,0.1913275,-0.11683666,0.0709044,0.044449266,0.34077778,-0.18696915,0.26525223,-0.10675426,-0.19084573,-0.32888794,-0.40175614,0.1469084,-0.086119734,-0.05442979,28.596718,197.73843
3_2_1_tr_reg_002_0_0_0.obj,0.03680626,0.009098614,-0.21664152,0.1879632,-0.095713265,-0.091029756,-0.024466263,0.06293772,0.09193902,-0.16574328,0.21697162,-0.20823184,-0.23097971,0.2156171,0.10165046,0.037457246,0.37217054,-0.25613028,-0.07737029,0.13342366,0.1310504,0.2099099,0.038258698,-0.3276777,-0.25089553,-0.24430743,-0.085317224,0.15239663,0.03462111,-0.3078934,-0.091334395,-0.030012887,163.41391,172.98248
3_2_1_tr_reg_003_0_0_0.obj,-0.33288622,-0.23837006,0.06941893,0.121210136,0.16295947,0.08130449,-0.28787524,-0.21626127,0.183039,0.022856198,-0.06609427,-0.16999622,0.0735176,0.029822607,-0.11473514,-0.034321386,0.14497128,0.08458702,-0.08333964,0.31697732,-0.13484222,0.31334087,0.28917658,-0.357874,0.174509,0.19785671,-0.06703406,0.03173948,0.04423832,-0.026211442,0.14310141,0.015551465,64.402626,78.62622
3_2_1_tr_reg_004_0_0_0.obj,0.26629058,0.091527395,0.34161073,0.17062464,-0.07003577,0.09270019,-0.16862153,-0.16773634,-0.25500572,0.04559879,0.1701153,0.08937456,0.15643066,0.017685382,0.0871988,0.18188658,-0.16544321,0.18905653,0.0708262,-0.16183393,-0.07927372,-0.20049165,-0.12431541,0.00950454,0.34812048,0.22663385,0.24764173,0.20436317,-0.110660695,0.06743379,0.29189086,0.0367338,262.13412,102.91536
3_2_1_tr_reg_005_0_0_0.obj,-0.010117157,-0.042904068,-0.02403487,0.028533168,-0.070477694,-0.09628286,-0.21649651,0.26885775,0.12904139,0.0225562,-0.19147407,0.21462548,-0.13960053,0.127665,0.018868117,0.14050828,-0.22274773,-0.145003,-0.21294004,-0.22369635,0.31628668,-0.17255716,-0.27996984,-0.072440416,-0.2627812,-0.044694424,-0.43153328,0.096328,0.12997003,0.14769569,-0.11281224,-0.10022832,216.96811,228.92523
3_2_1_tr_reg_006_0_0_0.obj,-0.21756636,-0.017158259,-0.031218491,-0.22642313,0.20133427,0.07213357,-0.11915573,-0.0646958,-0.048254114,-0.027181963,0.26253548,0.37162173,-0.10080638,-0.29244554,0.04704474,-0.05551754,0.35115376,-0.09932469,0.20232163,0.06816646,-0.057437703,0.09719998,-0.10600637,-0.13938777,-0.18825375,-0.24249406,0.19921263,0.14852569,-0.085960306,0.045247823,0.3036709,-0.21241526,107.683945,27.792778
3_2_1_tr_reg_007_0_0_0.obj,0.110931985,0.026808556,0.21207424,0.25872713,0.43811202,-0.010286887,-0.3135231,-0.3255099,-0.1279784,0.09725857,0.042182904,0.08356247,-0.08115983,0.37460905,0.059289515,-0.015046901,0.0564024,-0.10649524,0.06260332,0.28568617,0.20765616,-0.15322371,-0.04606466,-0.09729302,0.005699959,0.045321457,-0.089594126,-0.10552699,-0.07341967,-0.1303131,-0.017707912,-0.26705575,144.72559,233.37321
3_2_1_tr_reg_008_0_0_0.obj,0.2460608,-0.17427641,-0.10267178,0.124771774,-0.0020419303,0.07140048,-0.026690371,0.17606372,-0.274943,0.047425404,-0.14340343,0.09640758,0.046443127,0.00053148944,-0.3358506,-0.21126018,-0.016141443,-0.14517558,0.11639884,-0.14972466,-0.11530034,0.04963785,-0.21871324,0.028559217,-0.16122338,-0.0043484624,-0.109350234,0.35049877,0.3482338,0.24855964,0.24814087,0.227422,192.85597,69.25235
3_2_1_tr_reg_009_0_0_0.obj,0.14886941,-0.3055603,-0.04074625,-0.18061438,0.0035625782,0.03850484,0.108810544,-0.1386848,0.47284493,0.29760346,0.11040286,-0.18553667,0.030423377,0.104428984,0.054874934,-0.11515464,0.030836672,0.2595916,-0.0031236073,0.24620384,0.16313209,-0.30682227,-0.00791665,-0.1104639,0.035980366,0.027127089,-0.00080592674,0.14163347,-0.22630364,-0.0048331856,-0.10800725,-0.28944722,108.859856,131.0235
3_2_tr_reg_000_0_0.obj,-0.12235964,0.20972015,-0.04992236,-0.20504685,0.43505073,0.10253452,-0.28815442,0.22186635,-0.20429961,0.025387634,-0.061089866,0.09216277,-0.046918094,0.12750544,-0.08972793,0.0479114,-0.1475744,-0.18034746,0.12416353,0.10457588,-0.38001993,-0.07993334,-0.034868184,0.18327655,0.13326508,0.3276042,0.092361555,-0.25346252,0.07642065,0.01956468,-0.025014969,0.100405894,275.42868,168.3756
3_2_tr_reg_001_0_0.obj,0.1718627,0.32551363,-0.05342075,-0.14126536,-0.26717514,0.050046396,-0.007315418,0.15698266,-0.022880988,0.030109053,-0.295958,-0.17659742,0.032788932,-0.16223425,-0.029377397,-0.0913167,0.35453597,0.20217475,0.12854537,-0.24977556,0.16282956,0.10094698,0.1783464,-0.18417706,-0.0021005187,-0.028590692,-0.25772986,-0.23273627,-0.29835004,0.114176065,0.03575788,-0.11683589,44.296783,189.4193
3_2_tr_reg_002_0_0.obj,-0.16391492,0.100497924,-0.18042943,-0.017476315,0.14205134,0.08294079,-0.04868297,0.27089742,0.060920957,0.000919171,0.32851857,-0.29422686,-0.0763694,0.17144616,0.1136212,0.17815419,0.13220339,-0.3017137,-0.076096125,0.1755904,-0.35888395,0.1640719,-0.08205467,-0.12736475,-0.022526264,0.02284032,0.12292154,0.36157635,0.058843303,-0.23583016,0.03421716,0.13545758,187.485,144.78595
3_2_tr_reg_003_0_0.obj,-0.24854814,-0.2961855,0.25260952,0.066748105,0.05946998,0.17529622,-0.048006307,-0.13939463,0.143556,0.020213578,-0.40101093,0.11341048,-0.03235536,-0.18655488,-0.2111049,-0.09287771,-0.09631251,0.35226387,-0.18014114,0.0475728,0.1987106,0.10494164,-0.004334827,0.0889264,-0.017350223,0.3294448,-0.16000527,-0.21119191,0.14664558,0.08526508,0.08113378,-0.03998413,35.31127,97.15068
3_2_tr_reg_004_0_0.obj,0.2579284,0.18082769,0.3056268,0.12137484,-0.054847427,0.20862725,-0.03282291,-0.008999468,-0.3637707,-0.07786797,0.1891309,0.059762996,0.0016242248,0.0064376956,0.027393054,0.08901082,-0.08300202,0.20393886,0.10611529,-0.21980534,-0.10140473,-0.15265606,-0.18322709,0.18609251,0.269718,0.27150458,0.3818765,0.06495313,-0.014258795,-0.0588107,0.1922668,0.10726858,265.04785,115.250046
3_2_tr_reg_005_0_0.obj,-0.30301213,0.0687646,0.085214525,-0.30942145,0.050826363,0.08039093,-0.12881103,0.26246473,-0.07254845,-0.2319341,0.30791712,0.19252591,-0.25767735,0.2000024,0.03569354,0.119563036,-0.1470739,-0.023453595,0.034094438,-0.1989635,-0.02040459,-0.03670646,-0.15571307,-0.119558215,0.43387276,-0.041295227,0.13255028,0.03933938,0.08882592,-0.0886399,-0.2290654,0.111811616,219.49222,171.77364
3_2_tr_reg_006_0_0.obj,-0.19718617,0.03473871,-0.047154844,-0.24825329,0.15636104,0.078940846,-0.065276004,-0.011308794,-0.032281607,-0.036257036,0.25618544,0.38544473,-0.08629258,-0.3223389,0.06556599,-0.09655406,0.32170135,-0.07578169,0.19519426,-0.026790775,-0.038007066,0.034051828,-0.120068565,-0.07320135,-0.26046708,-0.2868855,0.17619565,0.13843432,-0.088211104,0.11529998,0.27470598,-0.22833413,114.074066,31.12754
3_2_tr_reg_007_0_0.obj,0.19860096,0.085307375,0.065618195,0.3366378,0.3637431,-0.053728033,-0.08319805,-0.3080121,-0.17033426,-0.025871797,0.03691186,-0.010794992,-0.12456488,0.37553734,0.072081186,-0.083416976,0.052139778,-0.16455759,0.042071883,0.29145768,0.24231105,-0.07372478,-0.030592533,0.051019315,-0.19591388,-0.04486943,-0.031673256,-0.24067453,0.020466972,-0.2609831,-0.14995256,-0.15574175,130.61722,233.4267
3_2_tr_reg_008_0_0.obj,-0.041071665,-0.23666355,-0.17699929,0.2028044,-0.16038525,-0.25364006,0.077511944,-0.3267549,0.04197217,-0.26740196,0.06947544,0.042077586,0.21862851,-0.13267623,-0.0668325,-0.06323132,-0.20162654,-0.18786271,0.020084634,0.09777282,-0.091022894,0.27450857,0.2378832,-0.047128856,0.14063221,-0.31031853,0.06914048,-0.022993032,0.123271815,0.08723394,-0.001004488,0.37514457,191.13242,23.895317
3_2_tr_reg_009_0_0.obj,0.028598055,-0.12654254,-0.18937159,-0.21299495,0.009906579,-0.106021754,0.54792184,-0.11311496,0.19514611,0.16033933,0.105638854,-0.056000605,0.103751235,-0.15551995,0.23353852,0.026957097,-0.15615492,0.005894311,-0.011328967,0.19395229,-0.032427676,-0.14817078,-0.054245725,0.35372224,-0.1730255,-0.18384367,0.24702889,0.028332828,-0.1070117,-0.10575193,-0.16657099,-0.14180337,130.0137,99.44357
3_tr_reg_000_0.obj,-0.07422734,0.20444651,-0.078296624,-0.13754171,0.4604241,0.1367419,-0.22898792,0.1973327,-0.21960197,-0.0008760947,-0.11147418,0.091536954,-0.08021207,0.08738863,-0.097539194,-0.0043515875,-0.10659622,-0.17274086,0.11885074,0.14596532,-0.34202433,-0.05288775,-0.0766869,0.25821432,-0.02545574,0.33804026,0.11242785,-0.3026969,0.12150815,-0.02729616,-0.004855301,0.09623013,279.087,162.42026
3_tr_reg_001_0.obj,0.22385944,0.36052197,-0.12718308,-0.12518242,-0.26664886,0.073591955,-0.010388057,0.22755465,0.0025137665,0.05669926,-0.2927436,-0.27561176,0.029030181,-0.13351102,0.014443614,-0.02854814,0.35157195,0.15893121,0.07977116,-0.20942266,0.08543039,0.09991225,0.15551303,-0.16129467,-0.097874664,0.05738684,-0.22782078,-0.20734632,-0.2886682,0.052876964,0.045666877,-0.111992806,50.11445,194.1284
3_tr_reg_002_0.obj,-0.22621223,0.18890397,-0.061614595,-0.10929409,0.08066854,0.11591633,-0.033941813,0.2577302,-0.012248656,-0.112076685,0.44699678,-0.20001756,-0.09257559,0.12517136,0.13150448,0.1646541,0.09557747,-0.18449396,-0.00096847326,0.033407625,-0.34302852,0.14867757,-0.059050232,-0.10969595,0.22299536,-0.02205051,0.24865706,0.28162545,0.00366293,-0.23524892,-0.0021366864,0.2059459,200.47498,143.5131
3_tr_reg_003_0.obj,-0.2697006,-0.21954352,0.32925653,0.050592206,-0.0433875,0.16526736,0.1827684,-0.014573092,0.027014608,0.017281085,-0.34797204,0.11352871,-0.17264178,-0.17488194,-0.17783605,0.012783807,-0.074453995,0.35591328,-0.23803689,-0.049350474,0.19689769,0.05132993,-0.08868376,0.23624262,0.02029644,0.34244087,-0.028689038,-0.14066426,0.17241585,-0.09585516,-0.006062504,-0.06684118,34.530304,109.98355
3_tr_reg_004_0.obj,0.27316353,0.16235287,0.28425664,0.12490416,-0.011330724,0.2281944,-0.035824463,-0.0011011669,-0.3672373,-0.06538792,0.15919766,0.06273338,0.0066194455,0.012177973,-0.01616605,0.038699873,-0.09946264,0.19605145,0.11853161,-0.1931924,-0.12679419,-0.17147811,-0.19110192,0.22462772,0.24008867,0.30093178,0.38360268,0.044434812,0.016083173,-0.03674224,0.18566684,0.11487115,266.40665,115.74135
3_tr_reg_005_0.obj,-0.31458217,0.04362843,0.08897852,-0.30572602,0.022037804,0.05225448,-0.09260288,0.28800264,-0.07607177,-0.22234362,0.23940352,0.23112406,-0.26167315,0.18076687,0.021747882,0.14223893,-0.21149139,-0.030324081,-0.0056530302,-0.23130837,0.015420288,-0.050242636,-0.19105874,-0.07678601,0.40043816,-0.037168164,0.08921172,0.036146104,0.12739564,-0.07092069,-0.25499475,0.11652099,219.83928,173.34889
3_tr_reg_006_0.obj,-0.07567324,0.17673343,-0.051997565,-0.22424003,-0.022305619,0.06709799,0.044607975,0.13472228,-0.07323538,-0.12442431,0.2338955,0.3658081,-0.08140535,-0.28055045,0.077057146,-0.20074475,0.21617146,-0.023056673,0.17110215,-0.29705128,0.0315134,-0.11785255,-0.10311696,0.072543636,-0.32616916,-0.34841552,0.1261351,0.052507594,-0.05861873,0.23511149,0.11011821,-0.17644049,125.59346,45.204178
3_tr_reg_007_0.obj,0.21101952,0.036667142,0.03012618,0.3226294,0.25722104,-0.038067978,-0.10906856,-0.23537113,-0.1452161,-0.09228507,0.10767532,-0.057284188,-0.14358684,0.4612289,-0.09281847,-0.3112686,0.123509325,-0.14592718,0.0982409,0.18445387,0.19454286,-0.12118604,0.11722723,-0.034676585,-0.09823378,-0.13084117,-0.04186793,-0.22081667,0.07026439,-0.14371806,-0.2633558,-0.10467746,127.601654,220.26352
3_tr_reg_008_0.obj,-0.04197339,-0.25863603,-0.15187413,0.07589245,-0.19454457,-0.22589295,0.04962355,-0.32223806,0.17574608,-0.3297146,0.24192216,0.04211618,0.058907393,-0.028138425,-0.032346398,-0.06825865,-0.18609498,-0.08582883,0.0148420315,0.12431381,-0.04174489,0.15177739,0.26522323,-0.11211971,0.29571617,-0.24819861,0.21023059,-0.09626773,0.033905327,-0.037472494,-0.12999652,0.3318825,181.37294,14.307808
3_tr_reg_009_0.obj,0.1230741,-0.07882126,-0.15953025,-0.085762314,0.045288358,-0.10436044,0.4407039,-0.106959015,0.21331611,0.15485238,0.049972013,-0.05572542,0.0033686326,-0.010109678,0.3257551,0.110733725,-0.1521127,-0.0036248954,-0.09173037,0.18218224,0.19930923,-0.19300912,-0.17960155,0.2689884,-0.3257222,-0.16973391,0.07940311,0.021071417,-0.107390605,-0.17702033,-0.18523572,-0.26167944,135.05804,110.45739
4_0_tr_reg_000_0_0.obj,-0.08360293,0.21509019,-0.098347366,-0.19887403,0.4235085,0.081795014,-0.2337748,0.21265827,-0.19956502,0.021170544,-0.124965325,0.09287608,-0.03335937,0.077860154,-0.09145993,0.029061375,-0.15856972,-0.18472801,0.13250163,0.12034411,-0.36406833,-0.07282346,-0.027826346,0.24959515,0.0603644,0.31404668,0.08430905,-0.330583,0.074419044,0.017173437,-0.0405026,0.11105552,280.31836,166.83441
4_0_tr_reg_001_0_0.obj,0.20773493,0.29777667,-0.19354285,-0.20027001,-0.23062253,0.018667031,-0.048295245,0.13581409,0.109432496,0.124923736,-0.08013173,-0.4299458,0.17097113,-0.04699556,0.104615495,0.08003557,0.20476918,0.12631808,0.09078366,-0.023907363,-0.1998291,0.04622161,0.2986231,-0.20083529,0.15935457,0.14852984,-0.0012384306,-0.14345875,-0.3757198,-0.016037924,0.015525763,-0.02589421,42.219154,210.82016
4_0_tr_reg_002_0_0.obj,-0.103361644,0.17984502,-0.15886691,-0.038630407,0.14389187,0.102964096,0.018462708,0.2518913,0.027908823,0.008949843,0.3628412,-0.31619614,-0.027671712,0.13631646,0.16938157,0.19028613,0.07837392,-0.25943893,-0.047912776,0.1580846,-0.4040677,0.105634004,-0.09751352,-0.0052325935,-0.008420948,0.05691141,0.22086887,0.30775416,0.008496054,-0.24802989,0.034536734,0.15528288,189.81645,140.44455
4_0_tr_reg_003_0_0.obj,-0.26367444,-0.07761035,0.27505124,0.0009524404,-0.114070885,0.08335863,0.35501838,0.088386185,-0.06422767,0.02794887,-0.36157766,0.0948274,-0.15500002,-0.2303186,-0.1418356,0.09496889,-0.10007703,0.26611298,-0.23260388,-0.1146447,0.10859554,0.0534029,-0.08563912,0.3555319,0.025320025,0.28995612,0.010318036,-0.13723499,0.15195197,-0.13143842,-0.056026522,-0.022822004,33.29901,118.79938
4_0_tr_reg_004_0_0.obj,0.2654091,0.07812763,0.3327572,0.16640785,-0.07906861,0.12300604,-0.14051497,-0.12140957,-0.25743774,0.025794787,0.20841567,0.08059827,0.13193539,0.018354943,0.06775841,0.16622613,-0.1676781,0.18263094,0.06266455,-0.17881729,-0.09935622,-0.19962558,-0.16202801,0.038871836,0.31984982,0.23475091,0.2851181,0.2380785,-0.064243294,0.05426077,0.28332874,0.06883485,262.7727,103.9827
4_0_tr_reg_005_0_0.obj,-0.31989148,-0.036578108,0.115075,-0.26095542,0.012948662,0.022470796,-0.08591287,0.19056694,-0.08383292,-0.24476565,0.26062503,0.28140038,-0.2774301,0.19353405,0.027658071,0.13160086,-0.17751251,-0.02917915,-0.0072423504,-0.20051548,0.09066975,-0.01612,-0.1974276,-0.14939639,0.39903992,-0.11117974,0.07214262,0.08702712,0.15335122,-0.099216364,-0.2376805,0.08626873,217.56685,176.65002
4_0_tr_reg_006_0_0.obj,-0.25622594,-0.044002306,0.026568953,-0.18286856,0.23699056,-0.03054611,-0.14124647,-0.18777598,-0.10364055,-0.034769375,0.19411817,0.44133744,-0.01706967,-0.30589405,0.03204915,-0.047128487,0.26002482,-0.14981465,0.23318477,0.080299765,-0.010983925,0.13669617,-0.050081033,-0.10049554,-0.0808978,-0.32791272,0.112796366,0.06124195,-0.103811,0.102642275,0.28955618,-0.16260828,107.82178,18.320023
4_0_tr_reg_007_0_0.obj,0.16615404,0.019262806,-0.028099386,0.289399,0.10336817,0.0046929033,0.16444221,-0.1552467,-0.18755594,-0.18763366,0.15166885,-0.12778822,-0.14061633,0.35704425,-0.13281797,-0.42041278,0.10939409,-0.06899241,0.0933046,0.0785478,0.0758386,-0.074494846,0.1870763,0.14212377,-0.1076899,-0.18476208,0.12948087,-0.22267307,0.16695024,-0.1525106,-0.33592483,0.010599612,113.62573,213.59848
4_0_tr_reg_008_0_0.obj,0.029677158,-0.20210235,-0.15421177,0.28334707,-0.12686306,-0.1983784,0.10531108,-0.2733504,-0.08978878,-0.20737371,0.017815918,0.029339708,0.27690998,-0.17393357,-0.07853184,-0.06854772,-0.17612536,-0.22534643,0.026082061,0.053251658,-0.12713428,0.30592757,0.106726944,0.024034036,-0.025769172,-0.29466474,0.031098066,0.11583472,0.21554409,0.12761004,0.13254163,0.3920184,195.7077,34.9181
4_0_tr_reg_009_0_0.obj,0.090288155,-0.102184504,-0.1286764,-0.11303089,0.019648438,-0.13580704,0.48930466,-0.14779037,0.19796377,0.1439433,0.08851719,-0.022496795,0.028217591,-0.02984384,0.31576765,0.09626772,-0.17962839,0.009788265,-0.06663783,0.16222753,0.19277455,-0.19824584,-0.1462697,0.2761742,-0.2184084,-0.2303876,0.11374023,0.03272937,-0.12363114,-0.15681008,-0.2082125,-0.24041967,134.84435,107.94189
4_1_0_tr_reg_000_0_0_0.obj,-0.039999787,0.05971377,-0.18876722,-0.15949091,0.23804188,-0.14784813,-0.3708993,0.21505785,0.09101441,0.27672586,-0.11666855,-0.019870622,0.16410719,0.18384703,0.034233958,0.236718,-0.2574263,-0.3095583,-0.036052674,0.1104162,-0.3150385,-0.17652102,0.033982515,-0.090758644,0.040641867,0.16637127,-0.24671297,0.07470447,-0.04129489,0.20311944,0.007508218,-0.020829335,263.71616,202.25061
4_1_0_tr_reg_001_0_0_0.obj,-0.019828754,0.17079854,0.035212673,-0.1650403,-0.16952476,-0.11796101,-0.033262476,-0.07048529,-0.012679447,-0.046239283,-0.23714791,0.06580582,0.08843488,-0.17379445,-0.06782461,-0.14509799,0.18077959,0.14870484,0.19564894,-0.19873905,0.2492216,0.10016808,0.26884517,-0.17129251,0.24002238,-0.2532486,-0.29251024,-0.33988264,-0.28690913,0.22194465,-0.05894188,-0.04968667,24.19117,184.56393
4_1_0_tr_reg_002_0_0_0.obj,0.06160945,0.047404245,-0.26884347,0.19389288,-0.061240382,-0.018939355,-0.02512249,0.17226143,0.15389092,-0.06842375,0.07531754,-0.30847904,-0.184566,0.1491845,0.120994896,0.12900934,0.31128392,-0.2542295,-0.17159058,0.17512321,0.038761355,0.21641195,-0.032731753,-0.22158065,-0.4220414,-0.04650171,-0.12374584,0.14890368,0.05544261,-0.30133015,-0.018860875,-0.026975036,160.48639,161.76126
4_1_0_tr_reg_003_0_0_0.obj,-0.32892543,-0.21220621,0.08995675,0.1317664,0.14138968,0.14852242,-0.06298577,-0.08815667,0.16150372,-0.02726041,-0.39033067,-0.09480357,0.013962427,-0.12627408,-0.21259165,-0.08927791,-0.09323395,0.16298829,-0.21799034,0.20388255,-0.042141158,0.27022523,0.12125683,0.09101545,-0.09566171,0.35308746,-0.13844831,-0.26133817,0.2189233,-0.015132297,0.027139416,0.13320823,40.2974,85.80373
4_1_0_tr_reg_004_0_0_0.obj,0.14905313,0.27272713,0.303767,0.288902,-0.17558445,-0.05617833,0.10544064,-0.2580064,-0.19415845,0.020869814,0.23599921,-0.1579859,0.18478501,-0.0062379236,0.33346313,0.3295986,0.029651968,0.07996054,-0.08046951,-0.07011028,0.0040834844,0.035503745,-0.0014624869,-0.06222839,0.14989905,-0.021377472,0.14457257,0.2521252,-0.18839104,-0.16153339,0.22445342,0.0037177901,230.53333,102.57167
4_1_0_tr_reg_005_0_0_0.obj,-0.113429874,-0.0922205,-0.012696951,0.019880686,-0.0872616,-0.15965685,-0.18466012,0.07784797,0.080470905,-0.034100186,0.28370425,-0.015754186,-0.16074452,0.30859566,0.11942882,0.19315147,0.114815205,-0.22123171,-0.07294248,-0.003589874,0.117115036,0.03847679,-0.05563598,-0.47482017,0.18125923,-0.26282412,-0.15622647,0.4198085,0.0015277247,-0.14472617,-0.07855047,-0.053773258,194.27536,198.17343
4_1_0_tr_reg_006_0_0_0.obj,-0.25103077,-0.12620334,0.061659195,-0.08450642,0.3323351,0.12010319,-0.16782252,-0.25849307,-0.021720262,0.04178085,0.09189703,0.2471958,-0.0010004145,-0.30469543,-0.0014233671,-0.023521334,0.30494365,-0.01990263,0.16073765,0.30694166,-0.09124853,0.2465703,-0.048420973,-0.11368713,-0.10113329,-0.0135906255,0.17743118,0.05507367,-0.07281078,-0.03869004,0.39492956,-0.13989466,86.93634,26.69448
4_1_0_tr_reg_007_0_0_0.obj,0.15280515,-0.12612611,0.04516558,0.20811208,0.009990773,0.12896745,0.016820414,-0.06381566,-0.08281313,-0.10644656,0.1685732,-0.14197364,-0.13760705,0.3829843,-0.30650282,-0.5506558,0.19362785,0.094087414,0.10754381,-0.025961945,0.030395893,-0.15874694,0.2314316,-0.061584115,0.060912535,-0.080841765,0.08709672,-0.02339794,0.17835043,0.02349458,-0.26538703,-0.03913939,113.92926,197.5354
4_1_0_tr_reg_008_0_0_0.obj,-0.049362473,-0.2640566,-0.12872829,0.088737205,-0.19127865,-0.20523213,0.06568904,-0.33172905,0.15296319,-0.3210615,0.25951928,0.03480656,0.083300896,-0.039405912,-0.030285116,-0.063930556,-0.19073455,-0.076384045,0.0142798275,0.11851945,-0.06961329,0.16334438,0.24678913,-0.11129803,0.3132802,-0.24348496,0.23342969,-0.03485288,0.048897143,-0.028001558,-0.09494331,0.33938447,182.14215,14.874718
4_1_0_tr_reg_009_0_0_0.obj,0.1238934,-0.26864317,0.117973775,0.01759535,0.10901195,0.072167076,0.100040555,-0.22261402,0.34706622,0.21177095,0.0037960499,-0.05603161,-0.084050484,0.17305425,0.09747768,-0.09259259,-0.026606092,0.27659082,-0.08890319,0.21057388,0.39248678,-0.30686998,-0.15991935,-0.010742936,-0.10924703,0.045401044,-0.092845835,0.06179917,-0.12258985,-0.071597226,-0.11806685,-0.3662836,118.15522,134.71094
4_1_tr_reg_000_0_0.obj,-0.12696008,0.09391186,-0.10519117,-0.25332263,0.29845667,-0.13096242,-0.3799055,0.16594991,-0.03365145,0.1992575,-0.0605611,0.07723323,0.14312486,0.17634292,-0.019160016,0.19061862,-0.26309657,-0.26956436,0.076468684,0.0874552,-0.35354206,-0.15080336,0.088995844,-0.061134398,0.28049907,0.15186603,-0.13818704,-0.05042391,-0.055724602,0.1991002,-0.034020294,0.03032662,274.79645,193.1381
4_1_tr_reg_001_0_0.obj,0.0012558241,0.14537607,-0.07563684,-0.24828662,-0.11999521,-0.16411561,-0.02928052,-0.09076711,0.08947253,0.0069399183,-0.15873945,-0.041765805,0.17172222,-0.11034616,-0.033534747,-0.1292763,0.049851004,0.1016661,0.21138175,-0.07217014,0.08629185,0.023100989,0.36958757,-0.109949246,0.33368257,-0.20681228,-0.18323608,-0.41464746,-0.34702605,0.20171227,-0.16261938,-0.0033867767,18.432922,194.46948
4_1_tr_reg_002_0_0.obj,0.064674705,0.0431652,-0.27067676,0.1797296,-0.061267775,0.010092161,-0.012606547,0.19961579,0.16538446,-0.038327847,0.04860962,-0.34724188,-0.18669072,0.15627709,0.09570674,0.115731485,0.317774,-0.22783384,-0.17891707,0.1784137,0.013657474,0.20609316,-0.026685331,-0.20986171,-0.4181696,0.0044607054,-0.119019195,0.15220399,0.056423545,-0.29905912,-0.023029635,-0.037681267,159.71846,160.04355
4_1_tr_reg_003_0_0.obj,-0.37005296,-0.28844255,0.11059713,0.13246386,0.10174246,0.16051218,-0.16449957,-0.18546951,0.19819967,-0.033651475,-0.18541695,-0.17391461,0.029068496,-0.048895855,-0.1794541,-0.092242,0.07337464,0.20608701,-0.15663978,0.26412854,-0.08046084,0.3400344,0.2347129,-0.19978587,0.106618136,0.29562885,-0.04173267,-0.076150544,0.14254582,-0.06175,0.087763816,0.078246385,56.124725,81.66344
4_1_tr_reg_004_0_0.obj,0.31424522,-0.01756398,0.27439022,0.1813509,-0.0047374,0.10047393,-0.2861443,-0.10771676,-0.19536316,0.10982035,0.06569587,0.13430467,0.1846489,0.08708175,-0.05420841,0.0528446,-0.25309548,0.13090967,0.07729555,-0.16205375,-0.081087545,-0.29092827,-0.14928854,-0.011494779,0.2876957,0.2426354,0.10617582,0.24267444,-0.028783519,0.24088117,0.26614633,0.024869164,267.06653,91.84938
4_1_tr_reg_005_0_0.obj,-0.06820647,-0.092619516,-0.06643796,0.020511875,-0.025290763,-0.16003796,-0.30255392,0.23568237,0.16341844,0.07180204,-0.12747741,0.17009267,-0.08316093,0.20321462,0.026575485,0.17448272,-0.22284429,-0.24182564,-0.20223236,-0.13528073,0.22090383,-0.14024974,-0.19672671,-0.20559134,-0.15558192,-0.0943783,-0.45443353,0.1969671,0.11021819,0.15791625,-0.109713376,-0.08874251,218.77814,222.42738
4_1_tr_reg_006_0_0.obj,-0.2391561,-0.07879567,-0.014721982,-0.23012362,0.23409791,0.09220254,-0.12287869,-0.10228943,-0.035981137,0.00977894,0.20539145,0.36961165,-0.08230808,-0.31903726,0.020343054,-0.041780036,0.3291009,-0.066301845,0.19235197,0.12703872,-0.06935418,0.13039008,-0.11791126,-0.13224554,-0.17002778,-0.17050102,0.20555267,0.14435662,-0.06802675,0.030609656,0.33925653,-0.20705958,101.89081,28.309296
4_1_tr_reg_007_0_0.obj,0.1061348,0.037885346,0.15176523,0.23125952,0.4479064,-0.031850882,-0.37473905,-0.28263384,-0.12839757,0.09401689,0.065116614,0.064790055,-0.07606922,0.39796546,0.01228115,-0.043601967,0.09177861,-0.17812078,0.0956209,0.30036783,0.12382163,-0.1403079,0.015941724,-0.13754046,0.0135654835,0.034776133,-0.092336625,-0.11615886,-0.06654972,-0.10597271,-0.029305425,-0.23500685,145.6795,231.5828
4_1_tr_reg_008_0_0.obj,0.05584785,-0.19746633,-0.1414397,0.28007022,-0.13914278,-0.214617,0.06419443,-0.27143756,-0.11079903,-0.20057823,-0.020784676,0.06412941,0.28286165,-0.17790593,-0.10383607,-0.06907771,-0.17585889,-0.21899527,0.05009821,0.01892271,-0.1023196,0.29148686,0.11733066,0.0019734986,0.00851066,-0.2974976,-0.013296364,0.09642509,0.19768417,0.17452456,0.15047453,0.38828576,196.48102,35.162163
4_1_tr_reg_009_0_0.obj,0.081897385,-0.36915162,0.03664603,-0.065042846,-0.009714892,0.06134036,-0.026026346,-0.18080524,0.398766,0.22503951,0.175975,-0.2111633,0.0010653329,0.2162615,-0.063255206,-0.17311025,0.08966917,0.26892257,0.008432238,0.24510722,0.09082238,-0.22516592,0.10915059,-0.27300656,0.21100189,0.07018295,0.041135155,0.20124213,-0.1380337,-0.031627566,-0.09025525,-0.20622234,100.0889,137.2248
4_2_0_tr_reg_000_0_0_0.obj,-0.094915494,0.21961872,-0.11938837,-0.25455678,0.35357273,0.057199005,-0.27547643,0.30035117,-0.1365171,0.08283725,-0.077629834,0.0055208215,0.010555149,0.12652268,-0.06945114,0.10569217,-0.18355206,-0.20781673,0.09622339,0.076914854,-0.4315059,-0.098253086,-0.0031160193,0.15621726,0.15506692,0.32498336,0.041640688,-0.20203452,0.03313651,0.055518642,-0.044749755,0.12222805,275.34753,173.84189
4_2_0_tr_reg_001_0_0_0.obj,0.2581541,0.34711054,-0.2193129,-0.15761305,-0.23126765,0.068166226,-0.021094613,0.21390913,0.067939624,0.113899775,-0.19323198,-0.42299142,0.11377709,-0.07593663,0.06744984,0.033769127,0.27999705,0.11757473,0.07312087,-0.07373097,-0.12827802,0.07282237,0.23239338,-0.15681902,-0.02497989,0.16005546,-0.087180816,-0.17136046,-0.3248149,-0.0038137662,0.036692657,-0.06254533,49.33468,205.7659
4_2_0_tr_reg_002_0_0_0.obj,-0.023557572,0.08617186,-0.24016759,0.071050495,0.13352364,0.117240414,0.08155844,0.27657777,0.06643848,0.06180618,0.14713916,-0.37198052,-0.06713271,0.11633647,0.093258455,0.14044249,0.11329174,-0.2651618,-0.1360125,0.2241996,-0.33106148,0.13875946,-0.1382051,0.05732069,-0.3010905,0.13971393,0.10900001,0.27116257,0.11825543,-0.27029267,0.041306634,0.11120688,176.00038,141.35925
4_2_0_tr_reg_003_0_0_0.obj,-0.27907118,-0.041578285,0.27141485,-0.034576047,-0.14142329,0.052144572,0.4088488,0.107361145,-0.08288207,0.035881273,-0.33217192,0.08286773,-0.14200251,-0.23769371,-0.12461645,0.118552014,-0.10054887,0.24781734,-0.21826354,-0.13699493,0.081354894,0.05254656,-0.06713882,0.3677806,0.07915092,0.2503482,0.030630145,-0.11945606,0.1239363,-0.13918349,-0.07997453,-0.012706649,34.366753,122.34754
4_2_0_tr_reg_004_0_0_0.obj,0.2809436,0.005296536,0.3020346,0.2026653,-0.07969521,0.08146244,-0.20548368,-0.13931139,-0.16853668,0.10004163,0.14927188,0.053742424,0.21579845,0.05399378,0.027950011,0.14174688,-0.24336462,0.1509547,0.023860471,-0.15267631,-0.113847286,-0.24020202,-0.12872894,-0.021605384,0.30487707,0.2344551,0.17245142,0.30794483,-0.052928355,0.16306563,0.2852647,0.057785682,262.46588,95.81114
4_2_0_tr_reg_005_0_0_0.obj,-0.2721446,-0.19058792,0.12853482,-0.1454254,-0.03175189,-0.13040428,-0.18591851,0.0976271,0.019184822,-0.07634442,0.1732694,0.27157712,-0.15162449,0.2512937,-0.011464078,0.14828624,-0.23504393,-0.12091101,-0.064005546,-0.155138,0.14795049,-0.073390335,-0.14685029,-0.2816681,0.38944235,-0.20416252,-0.15454273,0.26509783,0.13069256,0.04120132,-0.19416553,0.037530426,211.04272,195.26869
4_2_0_tr_reg_006_0_0_0.obj,-0.18376854,-0.12952866,0.038031783,-0.18829161,0.18094124,0.10057199,-0.17784779,-0.11139322,-0.041752335,0.04255395,0.1720143,0.36013237,-0.1152355,-0.28067368,0.0011178214,0.0006487012,0.37830463,-0.009018866,0.17233424,0.117790654,0.0024968388,0.1269023,-0.12355692,-0.22742867,-0.13306889,-0.106064096,0.16746914,0.18669736,-0.073538035,0.002792595,0.37505874,-0.25089476,97.73033,32.45999
4_2_0_tr_reg_007_0_0_0.obj,0.23241249,0.06882824,-0.0021635971,0.34030017,0.25420868,-0.05377755,-0.0026544181,-0.25993565,-0.18834476,-0.12373611,0.08625781,-0.055441327,-0.123223834,0.39546335,-0.036125,-0.2662242,0.055556707,-0.15083328,0.08316899,0.19971967,0.17356771,-0.09388873,0.09933839,0.100123115,-0.16968544,-0.123191364,0.032229032,-0.2982336,0.089960426,-0.19567968,-0.26408347,-0.061201338,122.01628,224.78378
4_2_0_tr_reg_008_0_0_0.obj,0.1981367,-0.1630632,-0.08206841,0.20036195,-0.09766262,0.0059807366,0.07476331,0.05880435,-0.26381406,-0.024763139,-0.070932865,0.057707816,0.16927178,-0.1172681,-0.23268367,-0.14135823,-0.08599006,-0.15531158,0.07040234,-0.1492813,-0.14985718,0.1511361,-0.18090451,0.07300555,-0.14889023,-0.097037844,-0.033981092,0.3824961,0.33599654,0.22154373,0.28370523,0.33155695,197.55777,60.76629
4_2_0_tr_reg_009_0_0_0.obj,0.1033497,-0.1473696,-0.2430968,-0.20694982,-0.021674719,-0.05825931,0.48299834,-0.059469905,0.2813937,0.19565994,0.0048109586,-0.14934073,0.14364387,-0.14966609,0.12960337,-0.06859426,-0.16458471,0.05100847,-0.023369355,0.20221661,-0.097996935,-0.19443828,0.017770544,0.37969062,-0.24409857,-0.04976784,0.19700076,-0.05741669,-0.08778198,-0.022807395,-0.1828543,-0.108698994,124.00721,100.5217
4_2_1_0_tr_reg_000_0_0_0_0.obj,-0.11401487,0.19449124,-0.10670746,-0.23586254,0.3779004,0.030002717,-0.27386314,0.25702575,-0.17462064,0.04467951,-0.15196061,0.10166501,-0.008905943,0.10296551,-0.10827525,0.06469947,-0.21320315,-0.21017328,0.11169533,0.06982412,-0.35669369,-0.08418618,-0.0002639948,0.19521756,0.13148032,0.2879472,0.00048405002,-0.30519304,0.07076754,0.079325065,-0.07516607,0.123188384,280.98633,172.41383
4_2_1_0_tr_reg_001_0_0_0_0.obj,-0.0006355771,0.19802421,0.06452636,-0.1520186,-0.22204386,-0.08258546,-0.057652578,-0.054730006,-0.013736671,-0.035611488,-0.20760304,-0.0021232667,0.07491771,-0.16447766,-0.03427593,-0.0951479,0.2614602,0.1912815,0.17954414,-0.21022514,0.2422026,0.13057399,0.26111633,-0.26238838,0.26361823,-0.20469789,-0.27309048,-0.25838724,-0.3210884,0.16924578,-0.0018198474,-0.070785075,29.408302,185.33908
4_2_1_0_tr_reg_002_0_0_0_0.obj,0.087427676,0.096855715,-0.21051951,0.17086615,-0.1716522,0.057295628,0.01583977,0.2615223,0.14909837,-0.11905938,-0.065560676,-0.27577594,-0.2566883,0.05251919,0.07057959,0.09752176,0.33327532,-0.10784593,-0.20973587,0.030610701,0.14046723,0.20342956,-0.07074303,-0.14225754,-0.4909864,0.057225604,-0.16371532,0.025485525,0.072007544,-0.27504396,-0.020478886,-0.033771094,149.41476,164.39923
4_2_1_0_tr_reg_003_0_0_0_0.obj,-0.27390566,-0.18764243,0.0689038,0.107561275,0.10349805,0.18370597,-0.020748204,-0.008212479,0.17617299,0.0076087173,-0.4249771,-0.113936365,-0.02567612,-0.14005788,-0.21138585,-0.07448161,-0.08318069,0.19230276,-0.24228178,0.16659081,-0.03460972,0.22165446,0.06799134,0.13352889,-0.17076825,0.4073806,-0.13077737,-0.24549024,0.21576943,-0.031127892,0.030112734,0.09616453,37.97953,88.95463
4_2_1_0_tr_reg_004_0_0_0_0.obj,0.18106346,0.25100586,0.27564687,0.37815195,-0.15666561,-0.087293714,0.12340093,-0.31058624,-0.14243145,0.073605396,0.1560049,-0.19476537,0.22572774,-0.011063556,0.32147354,0.27716196,0.078437306,0.03972996,-0.119157,-0.012809935,0.07591361,0.05696238,0.013846593,-0.07932805,-0.019254567,-0.07144584,0.017704831,0.2688086,-0.17887662,-0.12101923,0.23647155,-0.06298822,225.59326,97.49279
4_2_1_0_tr_reg_005_0_0_0_0.obj,-0.20965669,-0.22307053,0.14433755,-0.034482736,-0.061995402,-0.17084807,-0.19461861,0.0016316893,0.04112268,-0.041619122,0.1904043,0.19775166,-0.15411927,0.28858763,0.011487138,0.16045853,-0.11101736,-0.13297111,-0.076010406,-0.076358765,0.19695014,-0.041816622,-0.09737249,-0.3844271,0.36589915,-0.23347783,-0.17500457,0.33720937,0.079135194,-0.02795582,-0.14702365,-0.029049577,203.98705,199.18536
4_2_1_0_tr_reg_006_0_0_0_0.obj,-0.18426687,-0.022136344,-0.021656016,-0.24415167,0.13457261,0.075508654,-0.10110016,-0.025751418,-0.034469683,-0.0077115493,0.23738329,0.40685305,-0.09941974,-0.3143365,0.04637693,-0.060547978,0.33269194,-0.050472543,0.18575136,-0.018479677,-0.008557928,0.03848585,-0.13183261,-0.13778171,-0.22046822,-0.25011244,0.16609646,0.18057151,-0.08339795,0.10278272,0.30625796,-0.253929,111.08414,30.75608
4_2_1_0_tr_reg_007_0_0_0_0.obj,0.13419695,-0.18671383,0.056620624,0.19091077,-0.04673792,0.16349675,-0.035455365,-0.026306352,-0.02488614,-0.0711481,0.15990868,-0.13197662,-0.14389063,0.35795465,-0.33217174,-0.5382967,0.21940407,0.14488345,0.07834361,-0.06059708,0.033033982,-0.16093336,0.21965106,-0.15004054,0.05863827,-0.040100414,0.06814916,0.07063214,0.18817902,0.059145726,-0.21035747,-0.06690342,113.006226,191.9903
4_2_1_0_tr_reg_008_0_0_0_0.obj,0.111243926,-0.19126756,-0.18270531,0.32094273,-0.13628621,-0.19870798,0.10262338,-0.14806741,-0.123301655,-0.16571249,-0.07264854,0.024750507,0.21551871,-0.07467952,-0.18863139,-0.1743969,-0.15390933,-0.26352704,0.007243668,-0.028316798,-0.076534145,0.22594565,0.09350328,0.048739716,-0.13873158,-0.28871307,-0.10297741,0.12530737,0.29648775,0.19566919,0.07154921,0.3678737,195.82101,42.851196
4_2_1_0_tr_reg_009_0_0_0_0.obj,0.1018077,-0.2249088,0.09814168,0.073909104,0.11045429,0.018024933,0.21583697,-0.22019996,0.28498226,0.163942,0.011543558,-0.034977335,-0.103083625,0.1809575,0.17942421,-0.01656515,-0.115121394,0.20587869,-0.1425492,0.19517036,0.410376,-0.2871425,-0.20799874,0.103420615,-0.18727297,-0.014973505,-0.066035114,0.046846744,-0.06647009,-0.14515395,-0.17054035,-0.34026235,124.18066,130.53783
4_2_1_tr_reg_000_0_0_0.obj,0.054551687,-0.007297669,-0.24166334,0.016384698,0.1227103,-0.13231055,-0.35272655,0.20504327,0.23370695,0.2532774,-0.12601696,-0.09551916,0.09312835,0.17732507,0.08318263,0.21550609,-0.119252004,-0.31210503,-0.15283827,0.12576723,-0.11836163,-0.12424808,-0.045066867,-0.19521056,-0.26994058,0.0956011,-0.3553482,0.20035207,-0.014871607,0.14131634,0.055029627,-0.09996709,248.62589,214.7156
4_2_1_tr_reg_001_0_0_0.obj,0.030298227,0.17095134,-0.0671053,-0.22843014,-0.16137502,-0.14362743,-0.039277714,-0.06659888,0.07456198,0.018692372,-0.20820257,-0.06197342,0.17033412,-0.13504109,-0.036735695,-0.11382993,0.10376012,0.12654726,0.20199543,-0.105795726,0.10748811,0.0502191,0.3551538,-0.15133601,0.3036813,-0.18220556,-0.22300246,-0.38087088,-0.35731015,0.20779961,-0.11100448,-0.024411704,21.684265,193.8414
4_2_1_tr_reg_002_0_0_0.obj,0.035554532,0.020895109,-0.25597054,0.18836279,-0.057352167,-0.05744927,-0.016708734,0.10566065,0.11147158,-0.105443574,0.1812306,-0.29006365,-0.19088653,0.2025102,0.10567396,0.08244801,0.352135,-0.27756587,-0.10987574,0.18915765,0.02863358,0.23184326,0.029551143,-0.29018837,-0.29462272,-0.14976148,-0.071096644,0.18281548,0.045440286,-0.31949326,-0.051865935,-0.015466792,164.4894,166.33939
4_2_1_tr_reg_003_0_0_0.obj,-0.37878057,-0.27630854,0.14563803,0.17447218,0.06646046,0.14177468,-0.115296535,-0.22028747,0.16300192,-0.060529735,-0.12057606,-0.19092636,0.0481302,-0.05302491,-0.1620877,-0.09580253,0.10166984,0.2040791,-0.1526495,0.24895741,-0.08959877,0.37007618,0.25305307,-0.20723444,0.14174762,0.2425402,-0.009613476,-0.019593762,0.14831336,-0.08470409,0.101857804,0.11051331,57.94288,80.73481
4_2_1_tr_reg_004_0_0_0.obj,0.2949527,0.013148819,0.32326117,0.18094091,-0.034363616,0.09455794,-0.23172681,-0.15565962,-0.24051511,0.07392058,0.116001435,0.17220545,0.15898365,0.02805483,0.018288227,0.11537017,-0.200921,0.15921108,0.084464274,-0.17518666,-0.03694966,-0.24740753,-0.17714468,-0.0049884384,0.2926867,0.20290121,0.16798566,0.24663997,-0.061392453,0.16980267,0.3086736,0.011122672,265.68164,96.427704
4_2_1_tr_reg_005_0_0_0.obj,-0.03588585,-0.06869056,-0.03898923,0.02374343,-0.0595592,-0.11591693,-0.25363263,0.26780957,0.13980295,0.04487126,-0.15810257,0.19739965,-0.11822216,0.15903144,0.021286549,0.15576127,-0.21908548,-0.18625633,-0.21179739,-0.1993127,0.2726721,-0.16091302,-0.25667226,-0.13283688,-0.22473846,-0.06787802,-0.44073927,0.16354586,0.13125521,0.15627402,-0.104794435,-0.0978949,217.3535,226.32312
4_2_1_tr_reg_006_0_0_0.obj,-0.25471792,-0.07829381,-0.011227984,-0.15820836,0.3278285,0.064437516,-0.176949,-0.18966006,-0.042925354,-0.0008721846,0.17004563,0.32325518,-0.05777274,-0.273799,0.011391352,-0.04313879,0.32480124,-0.12982605,0.19983728,0.24604595,-0.08210729,0.20066386,-0.06460693,-0.12796517,-0.13727315,-0.14830722,0.17404383,0.06093604,-0.081296116,-0.012669884,0.33077124,-0.16726238,95.33852,22.372726
4_2_1_tr_reg_007_0_0_0.obj,0.06985806,-0.031472817,0.19271196,0.24779779,0.41931382,0.015489285,-0.38841036,-0.2662959,-0.10993039,0.08744481,0.07579107,0.037455183,-0.10422064,0.42452496,-0.035228614,-0.065907866,0.120714515,-0.12879844,0.07090581,0.28827962,0.13269326,-0.110193454,0.008204782,-0.2021468,0.07470233,0.06636978,-0.09886453,-0.03556412,-0.025883218,-0.11236352,-0.016732577,-0.22276987,147.38422,228.89352
4_2_1_tr_reg_008_0_0_0.obj,0.20848659,-0.15780656,-0.14128831,0.04366109,0.10170921,0.13476002,-0.07006359,0.25078356,-0.28313345,0.08901563,-0.15386893,0.065617844,-0.047171984,0.09112455,-0.39160702,-0.24039204,0.057268135,-0.1403293,0.14984606,-0.080007784,-0.17715728,0.02660337,-0.2003644,-0.006956979,-0.1214148,0.088914104,-0.08445955,0.30759212,0.3491446,0.18543516,0.20251052,0.17293483,188.59676,75.39133
4_2_1_tr_reg_009_0_0_0.obj,0.110533245,-0.29484582,-0.18218122,-0.13226026,-0.017525597,0.09972554,0.059394795,-0.057875577,0.35886133,0.18611008,0.26208857,-0.33164373,0.004116151,0.1416893,-0.08385426,-0.21315496,0.20914565,0.14814568,0.0627447,0.299091,-0.1888905,-0.134146,0.18866585,-0.18068214,0.04478041,0.09614412,0.23868757,0.18158618,-0.091635175,-0.09544978,-0.060007874,-0.122802,93.86179,128.77953
4_2_tr_reg_000_0_0.obj,-0.16563725,0.23059978,-0.03303326,-0.22537705,0.42645645,0.12450008,-0.28013912,0.2549891,-0.2024953,-0.02694237,0.01059481,0.096830636,-0.09783804,0.14887117,-0.068655744,0.047022402,-0.12987594,-0.17950208,0.12047884,0.0715189,-0.3545088,-0.06900469,-0.06190267,0.1704316,0.16474755,0.2876711,0.11833974,-0.23849496,0.08260142,-0.016011562,-0.06170904,0.11426837,271.58533,166.55663
4_2_tr_reg_001_0_0.obj,0.17261401,0.27773556,-0.14874297,-0.21830533,-0.23774545,-0.015392833,-0.047584582,0.07320922,0.10510085,0.097908124,-0.13106525,-0.35838377,0.17568773,-0.08119892,0.06064737,0.013727366,0.21967526,0.16394185,0.13703413,-0.056580797,-0.09570666,0.063659154,0.3360816,-0.22265604,0.2275015,0.0607991,-0.075948104,-0.22037749,-0.4063272,0.046963744,-0.010656165,-0.03557097,36.86682,206.89963
4_2_tr_reg_002_0_0.obj,-0.26705372,0.17016214,0.017229617,-0.1351252,0.055256113,0.16476934,0.008108682,0.21064419,-0.04905129,-0.19301401,0.4784174,-0.10678381,-0.1595824,0.07040145,0.109003015,0.102175646,0.13889544,-0.07318816,0.038877714,-0.019105041,-0.25921735,0.1667017,-0.07816299,-0.0973345,0.2678281,-0.045878567,0.32242763,0.22601306,0.021234488,-0.25643456,-0.0026222714,0.20409699,205.67578,144.72772
4_2_tr_reg_003_0_0.obj,-0.2960223,-0.24074408,0.21362479,0.107408345,0.09008379,0.15833642,0.029850395,-0.10922144,0.11780168,-0.010051155,-0.42032498,0.026471302,-0.044276558,-0.1698949,-0.20541224,-0.07028294,-0.12370722,0.2805171,-0.21807541,0.10492293,0.106427476,0.16646995,0.031342927,0.18494041,-0.04716314,0.35228145,-0.120504595,-0.27493095,0.19012053,-0.014068955,0.01794967,0.045167897,34.835457,96.2229
4_2_tr_reg_004_0_0.obj,0.182123,0.262461,0.2421031,0.122301735,0.05506734,0.24999976,0.034824185,0.025824439,-0.4540886,-0.1670334,0.1401097,0.048468083,-0.075345315,0.0005747215,-0.0012304748,-0.009514775,0.02159883,0.15056863,0.15378197,-0.16992815,-0.11772868,-0.039509527,-0.16719618,0.26440772,0.17324017,0.23104744,0.39584422,-0.079707205,0.05173557,-0.14755592,0.12846814,0.13701391,264.62988,123.98489
4_2_tr_reg_005_0_0.obj,-0.27874878,0.15229873,0.051423475,-0.22457604,0.085253954,0.15599123,-0.041746195,0.22475277,-0.13584572,-0.37115428,0.2785504,0.21749097,-0.31399935,0.08324406,0.116777755,0.107858926,-0.11401373,0.008655113,0.032770995,-0.16895808,0.011318147,0.051118437,-0.23445521,0.031786405,0.22887391,-0.015294452,0.25453353,-0.10724551,0.12934887,-0.2156263,-0.18659857,0.14799613,222.14377,163.5736
4_2_tr_reg_006_0_0.obj,-0.23941156,-0.08097572,0.003264529,-0.17610763,0.28089163,0.069430046,-0.16579385,-0.16780315,-0.056608364,-0.002093027,0.18327887,0.35470366,-0.06628579,-0.29391536,0.013357521,-0.042883743,0.3361205,-0.100094795,0.20729132,0.18508299,-0.054781985,0.17866085,-0.08575382,-0.14178078,-0.13791978,-0.17273779,0.17654257,0.09387917,-0.0817184,0.00914952,0.34427997,-0.18328503,98.778046,23.611923
4_2_tr_reg_007_0_0.obj,0.21059798,0.062874936,0.029120462,0.36266628,0.31669748,-0.057426233,-0.0756055,-0.29498932,-0.17363793,-0.08099247,0.087413795,-0.04809366,-0.12427741,0.4095396,0.020002449,-0.16217254,0.058468517,-0.18146482,0.055858392,0.26788026,0.19621578,-0.06397268,0.035760015,0.041644238,-0.17646477,-0.084108226,0.0032692924,-0.24302265,0.064429834,-0.24652474,-0.19656412,-0.09368449,127.80456,228.92375
4_2_tr_reg_008_0_0.obj,0.0028109243,-0.25070673,-0.13566145,0.03498629,-0.21049918,-0.18927675,0.010493673,-0.31671757,0.20496407,-0.32448214,0.29717952,0.014160401,0.042043578,-0.008468794,-0.008489009,-0.055432875,-0.16204043,-0.023260634,0.034905925,0.1238527,-0.04311417,0.112691045,0.251666,-0.15671773,0.3532413,-0.19295743,0.2604382,-0.08222423,-0.018487634,-0.06192318,-0.109208345,0.31247592,178.90112,12.5589905
4_2_tr_reg_009_0_0.obj,0.008457523,-0.14177303,-0.21704474,-0.18479064,-0.0045832703,0.03061027,0.49793467,-0.040312856,0.20765911,0.17379229,0.0096146725,-0.18690415,0.14068112,-0.23281556,0.06425415,-0.099471554,-0.0644964,0.06831331,-0.012197261,0.23389933,-0.24543333,-0.06633434,0.037206236,0.39344388,-0.24003497,0.03003709,0.30631486,-0.0097400565,-0.023086714,-0.07675631,-0.08379321,-0.035901777,118.04137,96.534195
4_3_0_tr_reg_000_0_0_0.obj,-0.12186661,0.23523821,-0.08102115,-0.24238783,0.38741285,0.052205548,-0.25583124,0.21781616,-0.16164945,0.048453126,-0.044118468,0.039772473,0.014317538,0.10992375,-0.04663839,0.09432708,-0.18164952,-0.18646336,0.121149234,0.10837341,-0.42596683,-0.08558811,0.02583781,0.1802672,0.19586222,0.3071549,0.09852109,-0.25883785,0.0134826945,0.024503775,-0.047460843,0.121867985,275.28674,171.6767
4_3_0_tr_reg_001_0_0_0.obj,0.11374264,0.17659895,-0.13108188,-0.22054309,-0.17251956,-0.083502464,-0.06809059,-0.056726854,0.15557525,0.09402115,-0.07763753,-0.32038477,0.22858751,-0.051445626,0.06125684,0.0048184725,0.11649241,0.14321892,0.15574759,0.038687088,-0.105542675,0.04851698,0.39068064,-0.22115663,0.35241592,0.012596886,-0.051229384,-0.2515145,-0.41571045,0.064121634,-0.055067375,-0.0013984083,28.416626,208.79834
4_3_0_tr_reg_002_0_0_0.obj,-0.02953686,0.107845925,-0.22101158,0.028415786,0.15558486,0.09734943,0.044306923,0.27175647,0.06893574,0.07596178,0.22758122,-0.3433327,-0.040390994,0.13631387,0.14012533,0.18677796,0.06234163,-0.2831122,-0.114290416,0.2133024,-0.36874336,0.08089399,-0.1496631,0.053132053,-0.2234808,0.12713593,0.14627317,0.30578458,0.07521055,-0.24966544,0.046372786,0.10924345,180.60326,140.30774
4_3_0_tr_reg_003_0_0_0.obj,-0.2252317,-0.110716484,0.2684903,0.049774803,-0.058023725,0.110863,0.2529077,0.044373687,-0.028021837,0.0012399778,-0.39625674,0.115767196,-0.17035332,-0.20937006,-0.1370116,0.07226213,-0.11410744,0.27784663,-0.2455719,-0.07235394,0.16444509,0.051230855,-0.112179965,0.33466142,-0.059998628,0.33588517,-0.028858446,-0.1985561,0.171824,-0.12248031,-0.026541801,-0.029771779,31.584267,113.29437
4_3_0_tr_reg_004_0_0_0.obj,0.20769392,0.17901959,0.327717,0.13055247,-0.08961029,0.09541318,-0.077078104,-0.15137713,-0.25650233,-0.018757269,0.26185456,0.018757952,0.10885383,0.013136482,0.17533435,0.24035542,-0.113736965,0.1925378,0.058869343,-0.14914143,-0.10498506,-0.14026304,-0.08881761,0.037634455,0.3667707,0.20861568,0.34704676,0.1466539,-0.14617664,-0.06469462,0.23439252,0.050837427,257.8374,110.10199
4_3_0_tr_reg_005_0_0_0.obj,-0.29188272,-0.025140835,0.14044267,-0.27233535,-0.055329114,0.029732024,-0.02021103,0.16845162,-0.08658855,-0.23213199,0.30952084,0.2445233,-0.263128,0.15631858,0.05205519,0.13545522,-0.11073569,0.0273441,0.01322236,-0.2212114,0.09009933,-0.008769656,-0.18000746,-0.17360196,0.44428894,-0.13645795,0.12147686,0.14568672,0.10151745,-0.122060135,-0.20148979,0.072060965,216.45929,175.52261
4_3_0_tr_reg_006_0_0_0.obj,-0.23351206,-0.016840506,0.024071567,-0.19518897,0.20731874,-0.022454528,-0.13020165,-0.15595713,-0.10494581,-0.040492818,0.19927137,0.45290998,-0.025832769,-0.3103897,0.042347956,-0.06052704,0.2690665,-0.13360062,0.23425564,0.026004072,0.013878385,0.10556313,-0.06496367,-0.09671774,-0.11579276,-0.34789988,0.099181585,0.06741757,-0.10846352,0.12788421,0.2830937,-0.1843922,111.1756,20.460785
4_3_0_tr_reg_007_0_0_0.obj,0.184165,0.016539985,0.01868389,0.29171556,0.1563488,0.007598784,0.03603806,-0.15256704,-0.19433233,-0.14815845,0.13228738,-0.09234596,-0.16781741,0.4423765,-0.16437776,-0.41735944,0.13397111,-0.07787272,0.10761297,0.078738734,0.12716775,-0.12082259,0.17282294,0.04130746,-0.05118582,-0.15589015,0.042622365,-0.20290375,0.1461341,-0.12189335,-0.32855165,-0.04762309,119.2341,213.37454
4_3_0_tr_reg_008_0_0_0.obj,-0.002541133,-0.20404513,-0.19271189,0.2650722,-0.11939326,-0.21843334,0.09444726,-0.296305,-0.028989885,-0.22195047,0.030243339,0.0081858225,0.27619773,-0.16213298,-0.053382825,-0.0568354,-0.19096392,-0.23554593,0.015303748,0.1007551,-0.13804623,0.30914792,0.16324747,0.008640591,-0.0012605713,-0.29963896,0.047421932,0.05511446,0.17923443,0.10206171,0.080032445,0.3805653,194.40599,31.078354
4_3_0_tr_reg_009_0_0_0.obj,0.08037583,-0.16907156,-0.21394122,-0.20677432,-0.01422821,-0.10711502,0.48884973,-0.10367503,0.28095794,0.17210792,0.01752675,-0.09304366,0.14266387,-0.12743896,0.1419126,-0.06507766,-0.2206964,0.046428192,-0.017426636,0.18814139,-0.0343837,-0.21776387,0.023079347,0.38208526,-0.17801705,-0.11545314,0.16925716,-0.085510895,-0.09578158,-0.0047060507,-0.23019801,-0.10808884,126.11406,101.47774
4_3_1_0_tr_reg_000_0_0_0_0.obj,-0.09891679,0.1992025,-0.09659638,-0.20681699,0.42907378,0.05760199,-0.2559562,0.18531123,-0.18242793,0.050029118,-0.119478874,0.08845674,0.005513239,0.08036154,-0.08806083,0.04488224,-0.17244613,-0.19289614,0.13332787,0.14082874,-0.39245048,-0.07450968,0.0069162315,0.21896867,0.0982212,0.31261972,0.07348806,-0.30918857,0.05553612,0.041361045,-0.026464539,0.10498432,280.51822,169.66287
4_3_1_0_tr_reg_001_0_0_0_0.obj,-0.0765686,0.10285932,0.0017194743,-0.1690551,-0.058406822,-0.15211004,-0.032051016,-0.10984893,-0.0020956707,-0.09726536,-0.20981942,0.16564977,0.065014265,-0.14457485,-0.110467136,-0.21307833,0.06490362,0.07708883,0.21006165,-0.1364167,0.24354301,0.066261545,0.2735183,-0.0608231,0.21458854,-0.30265474,-0.2622434,-0.4558509,-0.20535052,0.23713364,-0.15471548,0.0021921138,16.498062,183.89857
4_3_1_0_tr_reg_002_0_0_0_0.obj,0.03339252,0.022775713,-0.24425574,0.1982175,-0.072118826,-0.06486544,-0.0036718517,0.08328732,0.09670286,-0.14030631,0.19246353,-0.26096025,-0.20120026,0.18365224,0.10981393,0.06942899,0.363774,-0.27074003,-0.101348035,0.17398025,0.058861043,0.24426562,0.029384928,-0.28536767,-0.30258524,-0.18229508,-0.06254165,0.16236873,0.05049588,-0.32495505,-0.053737197,-0.009425672,163.80286,168.27536
4_3_1_0_tr_reg_003_0_0_0_0.obj,-0.39270264,-0.24646388,0.109097086,0.17564635,0.09341392,0.12042371,-0.07221107,-0.20631969,0.19312423,-0.069169946,-0.21796477,-0.18010052,0.08615265,-0.10671353,-0.1602099,-0.07838585,-0.034402587,0.16963074,-0.19256335,0.25621343,-0.10863081,0.36199147,0.23712194,-0.059337396,0.06629004,0.26700905,-0.04189779,-0.14487208,0.16997175,-0.05608568,0.055114076,0.17277966,50.636734,79.71446
4_3_1_0_tr_reg_004_0_0_0_0.obj,0.14678003,0.24702743,0.29598153,0.32100073,-0.16270849,-0.07407208,0.09686899,-0.29966486,-0.17459786,0.034357615,0.22847709,-0.17097493,0.19941549,0.0026009977,0.3235154,0.30495322,0.06261083,0.061403345,-0.08233955,-0.032114405,0.025409123,0.059390623,0.022695767,-0.10160367,0.1250214,-0.05843028,0.10528497,0.26709172,-0.18853317,-0.154191,0.23162496,-0.012735481,227.88248,100.854416
4_3_1_0_tr_reg_005_0_0_0_0.obj,-0.14491914,-0.16293861,0.12915082,0.05766609,-0.16782866,-0.18920776,-0.18267222,-0.026139354,0.051863007,-0.07216132,0.15585914,0.11952159,-0.15022367,0.25213975,0.052075196,0.15758504,0.045138083,-0.10574469,-0.090041764,-0.09920662,0.27505004,0.03191121,-0.04132865,-0.47579724,0.259521,-0.27710786,-0.24261165,0.3422354,0.032968447,-0.056138817,-0.09522735,-0.07001291,195.99509,203.90079
4_3_1_0_tr_reg_006_0_0_0_0.obj,-0.27808744,-0.102318734,0.036981873,-0.088609666,0.3448366,0.089589365,-0.1971951,-0.24167854,-0.020751828,0.032932837,0.11595723,0.24622159,-0.0062997877,-0.27258834,0.009950701,-0.010566422,0.31127322,-0.075623505,0.15486352,0.3115222,-0.11317171,0.24993674,-0.022467047,-0.14624667,-0.10223733,-0.044349786,0.15788656,0.0627263,-0.073207736,-0.03766718,0.37252313,-0.14478716,87.71,25.147507
4_3_1_0_tr_reg_007_0_0_0_0.obj,0.19356777,-0.03984747,-0.029010577,0.26059002,0.07726466,0.057348724,0.034574963,-0.10986624,-0.11365875,-0.1575699,0.14279099,-0.15684271,-0.1409036,0.39599088,-0.23786761,-0.5112328,0.17658664,-0.022848142,0.11241134,0.05312988,0.062126968,-0.10595258,0.2316362,0.0067133666,-0.05604821,-0.13580094,0.059750944,-0.1662086,0.16273205,-0.052319076,-0.30715904,-0.006135087,116.320786,206.41647
