filename,l1,l2,l3,l4,l5,l6,l7,l8,l9,l10,l11,l12,l13,l14,l15,l16,l17,l18,l19,l20,l21,l22,l23,l24,l25,l26,l27,l28,l29,l30,l31,l32,embed_x,embed_y
0_tr_reg_000_0.obj,0.22242877,0.008991302,0.113871105,0.13663082,0.076116726,0.38045636,-0.15280128,-0.09329249,0.19148849,-0.0007323363,-0.07436093,0.081875876,0.1663631,0.34149498,-0.040066518,0.084715255,-0.17305855,0.34796223,-0.07478834,0.18109737,-0.1384986,0.120950274,-0.07037444,-0.14177735,-0.081405275,0.26785317,0.30140978,-0.10812392,-0.24612822,0.16572179,-0.094102815,-0.090269916,244.37766,206.42175
0_tr_reg_001_0.obj,-0.14770417,-0.24635419,-0.04093627,-0.26683593,0.050004285,0.0025162497,-0.09461982,-0.21168333,-0.29864,0.2530076,0.1005642,-0.06458222,0.09778329,-0.15135346,0.24419917,0.099071585,0.22151612,-0.2988863,-0.06717061,-0.07070811,-0.062192395,0.22204319,-0.11371196,0.28224972,0.013376762,-0.05522481,-0.0120679205,-0.035997372,0.43192667,0.17210019,-0.06472119,0.015077344,96.246124,43.731995
0_tr_reg_002_0.obj,-0.009753176,0.005433425,-0.115184546,0.15213074,0.24008124,0.19687241,0.20369379,0.15864,-0.06996549,0.06886452,-0.026986897,0.16890971,0.06926716,-0.13269207,-0.013679821,-0.012693991,0.17764556,-0.191037,0.06898994,0.30544543,0.4286344,-0.13528174,0.14851628,-0.046683986,0.22733931,-0.1798907,-0.39929932,-0.144421,-0.08318353,0.07325182,-0.06125804,0.25691462,130.41649,18.632751
0_tr_reg_003_0.obj,0.03490554,-0.16379724,-0.23857248,-0.410032,0.11727385,-0.25960287,0.03389328,-0.027677067,0.1569216,0.18779641,-0.27177486,-0.13702227,0.25241897,-0.0828492,-0.0023507285,0.026440147,0.12134267,-0.2975962,-0.07765004,-0.16068245,-0.20109509,-0.12901768,0.02345253,0.17668249,-0.32085755,-0.07299215,-0.28504267,0.06547934,0.08663929,-0.08463955,0.07152667,0.04946632,76.58641,75.32805
0_tr_reg_004_0.obj,-0.09211515,0.014792863,0.23258708,0.23634979,-0.00162965,-0.094735675,-0.041097723,-0.0851332,-0.27044132,0.07148738,0.12009429,0.09583348,-0.12440264,0.21192478,0.1890134,-0.08921373,-0.18657432,0.19991966,-0.013443118,-0.22998391,0.42108792,0.23601392,-0.05024626,-0.06570229,-0.34420082,0.01851831,0.050276533,0.2044507,-0.14220433,-0.30576378,0.028523576,-0.11005663,113.356926,204.46469
0_tr_reg_005_0.obj,-0.09789232,-0.15776429,-0.07266421,-0.082239464,0.0011254533,0.025620036,0.105802804,-0.048358798,-0.21132064,-0.057486672,-0.05521686,0.039831113,0.14296874,0.04779756,0.07901928,-0.30086905,-0.09516833,0.1014843,-0.08214659,-0.42393097,0.42226765,0.010063476,0.10307073,0.14029117,0.044472653,0.13904096,-0.057462674,0.11859354,-0.36808822,0.37717775,-0.10286169,-0.16018467,229.55563,113.0818
0_tr_reg_006_0.obj,0.064936034,0.1763902,-0.083099425,-0.08929487,-0.31473893,-0.34890655,0.14588623,0.076817326,0.045450162,-0.19364662,-0.07185348,0.17524017,-0.2776528,-0.13117516,-0.081191316,0.043319926,-0.11986582,-0.14718115,0.093437195,0.06729145,-0.17078109,0.17400996,0.008493848,-0.11088125,0.4072624,0.38625118,0.051313005,0.22366698,0.1740474,-0.0128971515,-0.06361368,-0.016965566,108.59973,265.07648
0_tr_reg_007_0.obj,-0.33174196,-0.3696149,-0.10513865,0.2599452,-0.20467183,0.15421441,0.027298484,0.01661377,-0.12772861,-0.08162901,0.14749901,-0.05602329,-0.18251453,0.23424928,-0.021820853,-0.03242341,-0.09893054,0.05152769,0.15341869,-0.008366005,-0.16513622,-0.067315295,-0.11118961,0.006197793,-0.30066013,-0.23036064,0.30923107,0.20788644,0.30167714,-0.07986847,0.08931758,-0.050070196,50.476715,216.69028
0_tr_reg_008_0.obj,-0.034142353,-0.025683753,0.18738943,0.09503418,-0.24652399,-0.12456117,-0.17876345,0.14697823,0.13298824,0.17289862,0.09781333,0.2974098,-0.064278364,0.13943288,0.3553604,0.19081557,0.05362408,0.24286738,0.115630336,-0.11513289,-0.2617738,-0.2848994,0.3030259,-0.18159387,0.11490698,-0.091042,-0.21055248,-0.115763105,-0.0696508,-0.19489533,-0.060029455,-0.060581364,176.73186,190.51631
0_tr_reg_009_0.obj,-0.25700513,-0.24068862,-0.11034556,0.07588628,-0.15923569,-0.09406004,0.0013098639,0.320596,0.33427685,-0.24718243,0.022731287,-0.054878846,0.24783666,-0.244395,-0.2319632,-0.2888179,-0.26169464,-0.12838735,0.14620394,-0.10849822,0.00034163694,-0.050415136,-0.2319813,-0.16944954,-0.18159318,-0.09448304,-0.113560855,-0.11612078,-0.009475273,0.04909859,-0.0642344,0.09087077,52.696846,138.23854
1_0_tr_reg_000_0_0.obj,0.2158733,-0.06823116,0.053220645,0.026882445,0.019925846,0.34857038,-0.09857972,-0.23854196,0.18241668,-0.019638464,-0.04957474,-0.04029289,0.1188948,0.37319255,-0.085997924,0.08042173,-0.166009,0.282618,-0.15095456,0.14529422,-0.22930907,0.0799937,-0.06270256,0.0010002662,-0.02608591,0.17972034,0.37690648,-0.033669244,-0.21238299,0.2893893,-0.08750604,-0.15725449,259.8967,164.13507
1_0_tr_reg_001_0_0.obj,-0.078805774,-0.18188724,0.068312116,0.091057256,0.12567754,0.3350015,-0.21291363,0.048297312,-0.21697259,0.1888835,0.033673517,0.11431492,0.35551783,-0.13858895,0.24556355,0.033823907,0.047825888,-0.03758567,0.18537006,-0.053516015,0.16683796,0.34823298,-0.10432297,0.0358716,-0.044294104,0.2502988,0.09819096,-0.24607113,0.21044524,0.27296314,-0.11074554,-0.00015948013,159.76256,114.12284
1_0_tr_reg_002_0_0.obj,0.11966468,0.22445247,-0.078867145,0.061710242,0.24704711,0.18793464,0.2148715,0.021456355,0.13784923,0.07252817,0.117149636,-0.08996082,0.007280946,-0.15102571,-0.110203125,-0.052514464,0.038399745,-0.24747436,-0.029419059,0.2930035,0.25595218,-0.051710412,0.08740851,0.037306618,0.2947732,-0.2889197,-0.3612111,-0.17111373,-0.1826572,0.12226727,-0.08377169,0.2938459,177.63489,46.74666
1_0_tr_reg_003_0_0.obj,0.08342698,-0.019048179,-0.094561435,-0.050768796,0.20753096,0.14663593,0.0052991104,0.19541322,0.07964297,-0.03843654,-0.5138176,0.23486121,0.32298934,0.168475,0.0031282927,-0.059846923,-0.04511179,0.22484119,0.022732211,-0.052799117,0.024838764,-0.18799604,0.15157112,-0.13293317,-0.2289741,0.38943055,-0.045550626,-0.0033075525,-0.26135084,0.07737169,0.001975313,0.046073604,191.11212,106.97254
1_0_tr_reg_004_0_0.obj,-0.023693644,0.24997963,0.13986397,0.25458488,-0.03171801,-0.0029521154,0.0629686,0.06882132,0.14728801,0.04909691,0.411702,-0.11213159,-0.16939165,-0.049808573,0.026702553,-0.23692718,-0.37031326,-0.08011202,-0.026995117,-0.122213714,0.2864424,0.23803706,-0.13231175,-0.089838244,-0.02862738,-0.3137902,-0.20452888,0.03914014,-0.13532749,-0.14593397,-0.077304505,0.19215092,146.6649,171.6333
1_0_tr_reg_005_0_0.obj,-0.034754336,-0.17479108,-0.019076778,-0.049391896,0.05007906,0.13952862,0.028024929,-0.0672384,-0.17452137,-0.08159717,-0.12947294,0.05694568,0.21100761,0.14489792,0.0641109,-0.23672538,-0.10181252,0.2315496,-0.08163044,-0.34648526,0.3131174,0.018572282,0.081957154,0.09402477,-0.022634085,0.2587565,0.10149176,0.071754076,-0.40588453,0.3891155,-0.09946133,-0.20435217,222.62659,116.63522
1_0_tr_reg_006_0_0.obj,0.111834936,0.21535616,-0.00037388172,0.00955629,-0.31854466,-0.27474564,-0.011239711,0.03137546,0.03913306,-0.11311241,-0.043135144,0.026892718,-0.1692404,-0.17820795,-0.17553502,0.07604673,-0.11284812,-0.010231827,0.22722678,-0.032867584,-0.16418397,0.41619077,-0.1253222,-0.11237152,0.23848054,0.40593642,0.22394665,0.16367121,0.111523844,-0.08955098,-0.048006456,-0.18340056,165.3787,248.35742
1_0_tr_reg_007_0_0.obj,-0.23681527,-0.28114477,-0.13219531,0.15540963,-0.036338244,0.16612697,0.06307262,-0.00864885,0.010222829,-0.057468813,0.12319484,-0.22204305,-0.084806256,0.11243657,-0.24086125,0.048668515,0.12108482,-0.005657154,0.12197719,0.21020533,-0.23089173,-0.25009987,-0.09594856,0.034647297,-0.29347125,-0.46524078,0.17113537,0.041726977,0.22797127,-0.15772821,0.17799163,0.0037576596,14.626488,163.00775
1_0_tr_reg_008_0_0.obj,-0.04869395,-0.1297381,-0.010225792,0.23947397,-0.3383467,0.032195136,-0.13256676,0.0964645,-0.031217797,0.17792444,-0.003259754,0.09455407,0.029627217,0.047451213,0.03098803,0.25122863,0.21700916,0.2013398,0.45440274,0.02949625,0.010261161,0.13414906,0.01623332,-0.24501,-0.07347911,-0.18614206,-0.056240942,-0.08399499,-0.18953478,-0.3555339,-0.015453135,-0.29317555,138.18417,148.94176
1_0_tr_reg_009_0_0.obj,-0.15854998,0.1455681,0.042851783,0.08317862,0.06336951,-0.16244897,-0.15625599,0.28739566,0.0784513,-0.3117025,-0.121383265,-0.22485045,0.1434193,-0.48388398,-0.23746502,-0.19979213,0.06815857,0.067554854,0.20144863,-0.29546088,0.10008463,-0.08217351,-0.099929444,-0.06183469,-0.12665612,0.09183425,0.038502675,-0.24244222,-0.05911773,-0.091824114,0.13999201,-0.062834434,125.07806,106.442055
1_tr_reg_000_0.obj,0.25529233,0.060006358,0.08018132,0.07244787,0.08011525,0.39586952,-0.07755924,-0.21631297,0.29056942,0.034197684,0.083463535,-0.102039434,0.11639746,0.3121713,-0.08457251,0.03582964,-0.24280348,0.19715695,-0.14913048,0.18454906,-0.17062056,0.17770678,-0.11173848,-0.032007795,-0.004961901,0.08352823,0.24232039,-0.10946159,-0.28673425,0.26818848,-0.13966624,-0.039001927,227.01459,147.10847
1_tr_reg_001_0.obj,-0.086684704,-0.20693743,0.073375635,0.11013806,0.07282988,0.34506705,-0.2344162,0.05184573,-0.15519463,0.17158997,0.037780765,0.11866141,0.35121313,-0.09027968,0.2454841,0.034748517,-0.02029448,-0.0056300033,0.19920889,-0.06544232,0.08892242,0.35749602,-0.12173891,0.008394519,-0.07060413,0.27625632,0.15847851,-0.22361705,0.218289,0.27445835,-0.11622703,-0.014345371,172.7439,125.96087
1_tr_reg_002_0.obj,0.16967441,0.31709763,-0.011034547,-0.020825818,0.25646886,0.16230674,0.16633049,-0.097446874,0.28730112,0.055749994,0.17170763,-0.23157778,-0.059747145,-0.022711445,-0.19380137,-0.017081838,-0.0034245735,-0.1570747,-0.16401388,0.30570334,-0.043243278,-0.09722886,0.06712638,0.08983576,0.2633205,-0.3145579,-0.20070247,-0.16115764,-0.18880317,0.09053751,-0.03991295,0.2849756,209.81323,34.593575
1_tr_reg_003_0.obj,0.0075080614,-0.04816416,-0.14904554,-0.38794625,0.008318147,-0.37527367,-0.020455455,-0.09132462,0.17014557,0.134378,-0.084234685,-0.30695695,0.14958641,-0.21084139,-0.041115485,-0.0301954,0.069185816,-0.33058634,-0.060775544,-0.2822376,-0.21020673,-0.025375018,-0.04475374,0.2505343,-0.23648804,-0.16702859,-0.20281011,0.029242434,0.097943224,-0.09458238,0.07585369,-0.018967547,22.069733,70.03412
1_tr_reg_004_0.obj,0.05419062,0.2981928,0.24048346,0.16838133,0.07396797,-0.0933355,0.041280758,-0.06655792,0.058651827,0.07691163,0.41366526,-0.15771164,-0.25866634,0.06396057,0.05741983,-0.15176624,-0.30503544,-0.020339692,-0.16742775,-0.058238894,0.24286827,0.19733673,-0.14296427,-0.0550054,-0.16113135,-0.2790352,-0.0964853,0.106189616,-0.118193924,-0.29790613,0.007860539,0.15969314,125.3546,162.48294
1_tr_reg_005_0.obj,0.010271504,0.020261554,-0.1091495,-0.2587996,0.013075427,-0.0039399737,0.23327918,-0.3317853,0.0011231736,0.011448522,0.18323539,-0.3138158,-0.08904612,0.06665751,-0.07754931,-0.18162929,-0.0356749,-0.14764863,-0.24314088,-0.14222717,0.085215256,-0.081104174,0.07447636,0.322628,0.1906613,-0.3150561,-0.103549644,0.112875514,-0.29580677,0.3037593,-0.07682606,-0.041226126,201.2187,67.4787
1_tr_reg_006_0.obj,0.053202596,0.16765223,-0.04967469,0.05518159,-0.32510966,-0.22401078,0.092850834,0.09020096,0.0523414,-0.20924674,-0.053198073,0.13181463,-0.2127727,-0.11014768,-0.1780687,0.026335208,-0.17950118,-0.02885722,0.19168425,0.052249935,-0.1109971,0.33042198,-0.09798313,-0.15593006,0.30551797,0.44610143,0.19500622,0.20572051,0.12292839,-0.0057277638,-0.09385305,-0.09894678,143.1065,259.77203
1_tr_reg_007_0.obj,-0.2841033,-0.07260725,0.079949304,0.21797757,0.16379972,0.018238138,-0.03964816,0.15955277,-0.3015635,-0.32911244,-0.10129526,0.06315093,-0.14790213,0.040021766,-0.10783024,-0.14494166,0.11717447,0.29523453,-0.10965276,-0.06150234,0.15178134,-0.40943822,0.002929594,-0.025991859,-0.23956637,0.009344799,0.2565221,0.03794661,0.15856202,-0.08523027,0.26512662,0.028580077,69.05075,154.53845
1_tr_reg_008_0.obj,0.1922229,0.03945232,0.0351159,-0.05282015,-0.28845736,-0.16162753,-0.10963903,-0.06493849,-0.2017797,0.1052764,-0.15045692,0.111921765,-0.10612927,-0.024931686,0.069687895,0.2775504,0.38983777,0.22781019,0.064218566,-0.017507412,0.03263969,-0.20397523,0.2118037,-0.04685378,0.34068915,-0.19997898,-0.072292015,-0.09594069,-0.23141082,-0.0768228,0.051546164,-0.3471805,157.12195,144.20605
1_tr_reg_009_0.obj,-0.0042514754,0.10820638,0.08868527,-0.069037914,-0.039306033,-0.21874453,-0.1988763,0.108816065,-0.15429345,-0.27187294,-0.07062167,-0.11295816,0.0006728576,-0.49992076,-0.11397102,-0.06146871,0.3247801,0.038853273,-0.08803918,-0.21855633,0.10803801,-0.18898001,0.008125367,0.10325598,0.34747073,-0.03399932,0.051062714,-0.27674264,0.07769417,0.14730936,0.12713963,-0.16458504,68.88212,100.34905
2_0_tr_reg_000_0_0.obj,0.25274533,0.05656247,0.11503295,0.13827302,0.106760316,0.39655262,-0.13606161,-0.11649456,0.25358444,0.024626927,-0.023098847,0.034229632,0.1409493,0.33956426,-0.06573691,0.10712779,-0.17014638,0.30674013,-0.09678501,0.24066842,-0.18073086,0.124725305,-0.072506115,-0.1298639,-0.05449971,0.19795035,0.26468402,-0.13240397,-0.2406172,0.14832604,-0.09950645,-0.045126386,226.76495,204.83476
2_0_tr_reg_001_0_0.obj,-0.10884243,-0.20297326,0.02055426,-0.08715189,0.11953008,0.2122395,-0.16951135,-0.06834054,-0.29031783,0.25083175,0.08163212,0.04062409,0.25552842,-0.21322961,0.26609397,0.089437656,0.18932773,-0.21526001,0.07667389,-0.010100704,0.08404763,0.3162446,-0.12601879,0.15918395,0.02791652,0.085204475,0.009506159,-0.2025231,0.37862912,0.24713024,-0.09689214,0.041152775,138.76903,83.19287
2_0_tr_reg_002_0_0.obj,0.12252083,0.13810776,-0.099049225,0.059036247,0.2961521,0.25517952,0.20780285,0.028479025,0.038954344,0.09728008,0.009234082,0.010856419,0.08067257,-0.08288623,-0.0867705,0.0056885635,0.1618919,-0.162078,-0.011227054,0.33820897,0.29738012,-0.12853193,0.16541111,0.027261863,0.30127516,-0.20704004,-0.3429158,-0.19589937,-0.21703775,0.15606563,-0.073119245,0.23921122,179.24222,10.0
2_0_tr_reg_003_0_0.obj,0.108253196,-0.09844079,-0.21149464,-0.34406298,0.23424888,-0.063230686,0.05590273,0.08861666,0.13880825,0.12237348,-0.49460477,0.067933835,0.37372568,0.042678725,-0.004599119,-0.011702764,0.06304291,-0.074847415,-0.05607172,-0.09799386,-0.07821442,-0.17096215,0.09770375,0.008433796,-0.35386607,0.19674426,-0.24903631,0.06788473,-0.10643369,-0.03719833,0.06577644,0.07489217,160.00008,69.03545
2_0_tr_reg_004_0_0.obj,0.045048732,0.23405607,0.28191915,0.0904308,0.14622614,-0.20781259,0.034177456,-0.14203131,-0.21074212,0.12857336,0.26836807,-0.066285685,-0.2532538,0.08812313,0.13867927,-0.04924884,-0.08467745,0.0068669533,-0.18398865,-0.037457462,0.36883053,0.14228062,-0.074898325,-0.0038658679,-0.24581066,-0.2182483,-0.0859282,0.15779072,-0.06377866,-0.4205916,0.09140629,0.06834072,91.86576,169.4121
2_0_tr_reg_005_0_0.obj,0.019372672,-0.15294468,-0.07115221,-0.1310298,0.072054826,0.1635338,0.088657774,-0.16895281,-0.14148197,-0.015847193,-0.071588926,-0.037764784,0.21655074,0.11384297,0.04359147,-0.22517003,-0.053796127,0.11306047,-0.120124795,-0.29089007,0.31597275,0.028506622,0.09154375,0.17599453,0.06264451,0.11528333,-0.0057628397,0.03837606,-0.4569925,0.45767248,-0.1377477,-0.18882403,252.52905,118.98236
2_0_tr_reg_006_0_0.obj,-0.06223837,0.058171038,-0.1254603,-0.022603067,-0.07235867,-0.19746342,0.32553923,0.163267,-0.08323571,-0.2735188,-0.21405262,0.35273898,-0.25478938,0.06868442,-0.038236387,-0.029043445,-0.08821898,-0.093069464,-0.015457055,0.21714346,0.043045625,-0.16819915,0.15120797,-0.13743992,0.2892267,0.36353928,-0.046684083,0.27418163,0.12603422,0.021657394,-0.020732937,0.17327315,132.46167,205.85535
2_0_tr_reg_007_0_0.obj,-0.27503693,-0.35669434,-0.16303669,0.18911856,-0.12785496,0.18432906,0.058076978,-0.020008175,-0.0516561,-0.059936944,0.120026246,-0.18528003,-0.10354805,0.16262905,-0.19467989,0.023349913,0.057109784,0.0027233246,0.15327674,0.13566503,-0.20629013,-0.17229909,-0.11391614,0.044939186,-0.29093206,-0.4105339,0.24344796,0.103732,0.24903095,-0.09421153,0.14552586,-0.048831135,23.120857,182.9642
2_0_tr_reg_008_0_0.obj,-0.011438571,-0.038824353,0.1309327,0.05397509,-0.23983988,-0.1706193,-0.1534787,0.16263908,0.078123495,0.16920583,0.04281064,0.31533003,-0.07491601,0.10733483,0.33258718,0.1837093,0.12276915,0.21442285,0.07080156,-0.09686099,-0.21360478,-0.338789,0.31241855,-0.17247209,0.17750339,-0.13619582,-0.26920426,-0.119572654,-0.08646463,-0.17714426,-0.049139116,-0.053574856,180.49908,181.49536
2_0_tr_reg_009_0_0.obj,-0.26176834,-0.18180536,-0.13115583,-0.028636942,-0.1638364,-0.20330043,0.07505781,0.261361,0.2969931,-0.21918535,0.015232754,-0.07108204,0.19543117,-0.25271425,-0.19908082,-0.33912173,-0.31326348,-0.18560615,0.082864635,-0.22682181,0.045046818,-0.065392375,-0.18102556,-0.08987524,-0.1844911,-0.105808124,-0.20374528,0.0046363077,0.014865056,0.0435198,-0.051962867,0.10211056,24.940346,127.6341
2_1_0_tr_reg_000_0_0_0.obj,0.2678608,0.048589174,0.08626404,0.08656519,0.10486243,0.3822648,-0.10297864,-0.19213529,0.28305876,0.024467552,0.015944911,-0.051342078,0.111910865,0.34445927,-0.10980127,0.11131229,-0.17080349,0.2434945,-0.14367436,0.26491314,-0.24089982,0.12715866,-0.08879159,-0.06343688,-0.028501,0.12950611,0.28077754,-0.11236033,-0.2157884,0.18488882,-0.099015705,-0.045660187,209.17508,192.59631
2_1_0_tr_reg_001_0_0_0.obj,-0.05697452,-0.16818848,0.06638357,0.14074756,0.123938784,0.36198336,-0.20244238,0.094983436,-0.1841622,0.16953251,0.011465316,0.15431426,0.36805782,-0.118793614,0.2324009,0.016430825,0.012149484,0.001592896,0.20751025,-0.03942708,0.20371911,0.3256075,-0.08763166,-0.016933758,-0.043389235,0.27052072,0.08205152,-0.2524543,0.14874877,0.27544782,-0.116535634,0.0056005074,193.07945,137.1784
2_1_0_tr_reg_002_0_0_0.obj,0.009328824,0.011811085,-0.12338951,0.15071808,0.23546922,0.23478557,0.19360617,0.1396823,-0.040096045,0.08080982,-0.009788333,0.12499884,0.08300762,-0.15171073,-0.03061597,0.0032432026,0.17803347,-0.21322234,0.08186719,0.32451716,0.38834724,-0.118083246,0.13861118,-0.025655972,0.25480014,-0.20193751,-0.37604442,-0.17639153,-0.0657671,0.115577646,-0.06863933,0.25521228,131.7515,21.778244
2_1_0_tr_reg_003_0_0_0.obj,0.08602043,-0.050034337,-0.14494866,-0.16886221,0.24587937,0.086948335,0.047821257,0.16881461,0.054141972,0.015584889,-0.53091687,0.20710805,0.35452977,0.10842985,0.013860292,-0.053130753,0.026798896,0.13037123,-0.003919569,-0.08031478,0.05313064,-0.21671256,0.17057192,-0.08419686,-0.26123506,0.32584947,-0.16687627,0.028880041,-0.23222384,0.046475496,0.033406183,0.053921364,178.60773,83.30274
2_1_0_tr_reg_004_0_0_0.obj,-0.07055268,0.09949386,0.14865763,0.38487306,-0.074301906,0.07635054,-0.030612411,0.09164089,0.11066178,0.026036093,0.2549316,0.017270664,-0.051385056,0.11326577,0.052559532,-0.22017208,-0.4285638,0.13866316,0.076151624,-0.22903953,0.31562126,0.30933893,-0.12009768,-0.16450343,-0.21927077,-0.0892541,-0.05960168,0.077266686,-0.23268627,-0.15094376,-0.08753962,0.034469854,171.6064,211.44669
2_1_0_tr_reg_005_0_0_0.obj,0.06824766,-0.12984653,-0.0047058985,-0.07467883,0.06456755,0.20506847,0.00939727,-0.15862349,-0.13392317,-0.07014399,-0.13726953,0.016680097,0.19580112,0.20616406,0.019360412,-0.15498301,-0.053276513,0.2784546,-0.13464637,-0.23100187,0.2198674,-0.0052654212,0.08938364,0.109699704,0.03943853,0.2300745,0.16088276,0.028771877,-0.45676968,0.41991654,-0.10328865,-0.23895763,253.53088,128.93883
2_1_0_tr_reg_006_0_0_0.obj,-0.031603348,0.068934105,-0.13879044,0.0014107282,-0.19689874,-0.20212206,0.28831285,0.12620157,-0.067617066,-0.27988404,-0.15496466,0.2612264,-0.2641626,-0.014493131,-0.11160055,-0.008235906,-0.15633462,-0.12760852,0.09799011,0.17217219,-0.008506068,0.07360605,0.021968912,-0.12709457,0.2824468,0.44134682,0.09404314,0.3196327,0.20866843,0.037955526,-0.04682161,0.061584063,123.271706,231.35074
2_1_0_tr_reg_007_0_0_0.obj,-0.23874697,-0.21456052,-0.08649805,0.030052057,0.061677158,0.02366357,0.04746006,-0.046098497,-0.16217285,-0.13288306,0.06186091,-0.2107426,-0.16893882,0.04243482,-0.18784803,0.031581838,0.24191236,0.0157917,-0.04881589,0.1309208,-0.17287485,-0.36289284,-0.06652825,0.10832751,-0.26694945,-0.3942949,0.17481633,0.086952105,0.31671298,-0.1870256,0.2545906,-0.0053514945,17.634521,146.2026
2_1_0_tr_reg_008_0_0_0.obj,-0.01070205,-0.06549819,-0.021217614,0.17291582,-0.26915184,-0.0026874943,-0.11311625,0.05674415,-0.13993926,0.17708442,-0.055908386,0.024192806,0.043765634,-0.06259098,0.0034746884,0.24790408,0.2829104,0.16079584,0.454766,0.009876114,0.13938206,0.17022552,-0.023498723,-0.20390481,-0.108540796,-0.19459207,-0.082262166,-0.07412859,-0.20516479,-0.3805902,0.026631135,-0.3192634,134.21294,147.04573
2_1_0_tr_reg_009_0_0_0.obj,0.01705935,0.28255808,0.13328901,0.055246796,0.27425393,-0.06974925,-0.23266764,0.13229446,-0.06284511,-0.118170016,-0.19228384,-0.22059718,0.18356253,-0.42475072,-0.1618776,0.009914403,0.2631577,0.107577704,0.1683608,-0.15814175,0.15731819,0.028965056,-0.03405241,-0.0029530276,-0.13314034,0.17256197,0.053463448,-0.34368476,-0.058276027,-0.17434956,0.17829168,-0.091519885,113.36653,101.53105
2_1_tr_reg_000_0_0.obj,0.26483497,0.112217136,0.041883487,0.025351448,0.12259313,0.34952104,-0.020652378,-0.24177636,0.3862362,0.07605228,0.16007374,-0.20430462,0.07788021,0.26249257,-0.13631979,0.05992172,-0.19984794,0.054552346,-0.17001511,0.2724519,-0.25384885,0.14827521,-0.10821986,0.014682728,0.02558408,-0.08376493,0.122797236,-0.13818443,-0.23264578,0.19648698,-0.13356511,0.050105065,206.3157,152.39258
2_1_tr_reg_001_0_0.obj,-0.05908912,-0.17894945,0.06721403,0.14425778,0.12291407,0.36915216,-0.20400436,0.096315876,-0.17871666,0.15521385,0.0062944326,0.15715179,0.37227547,-0.10453075,0.22751114,0.010841989,0.004833652,0.020548834,0.2024143,-0.043169327,0.19706284,0.3126544,-0.08694838,-0.020626795,-0.051731486,0.28027248,0.09730104,-0.24960646,0.1375627,0.285653,-0.115491636,-0.0028227612,193.07529,137.17435
2_1_tr_reg_002_0_0.obj,0.06498871,0.22848135,-0.07123245,0.08975149,0.22376534,0.13074675,0.21802297,0.050186682,0.14444748,0.053724516,0.1604902,-0.106373616,-0.032188572,-0.191072,-0.11071366,-0.09448485,-0.003619164,-0.28671286,-0.02292424,0.24693495,0.2748427,-0.022910414,0.04943267,0.036209334,0.24939847,-0.33212075,-0.38524777,-0.13530426,-0.12915032,0.061616264,-0.078508906,0.32290375,173.87361,46.604202
2_1_tr_reg_003_0_0.obj,0.063079566,-0.050370574,-0.15406255,-0.37207356,0.111336686,-0.2613576,-0.03474816,-0.02572777,0.20256558,0.1715933,-0.2651079,-0.21338251,0.30147526,-0.12166369,-0.06977421,-0.02130823,0.036263354,-0.21660618,-0.019686298,-0.2397389,-0.16114163,-0.004288862,-0.05271756,0.12018577,-0.44702092,-0.05069097,-0.23476899,0.03237856,-0.014656008,-0.1778039,0.10834214,-0.00017464046,95.61958,74.25615
2_1_tr_reg_004_0_0.obj,-0.06783342,0.1730108,0.18540248,0.32024917,-0.04775686,-0.00019515894,0.0073152552,0.043798976,0.080970466,0.05281768,0.34682655,-0.052402854,-0.14530863,0.078295186,0.07444071,-0.21749437,-0.39883572,0.06215874,0.011023369,-0.19838405,0.32079694,0.27456594,-0.12581372,-0.12861905,-0.1949365,-0.20567079,-0.10864451,0.09292067,-0.18837896,-0.22573672,-0.05835885,0.0902252,143.95776,180.35352
2_1_tr_reg_005_0_0.obj,0.05733514,-0.11234531,-0.058602955,-0.18453185,0.061076205,0.1692614,0.105282284,-0.2819968,-0.09633552,-0.054835223,-0.05847383,-0.10189662,0.120340586,0.22848071,-0.04106592,-0.16187514,-0.02529252,0.17226654,-0.22025372,-0.18579492,0.1581031,-0.065771736,0.11007227,0.21913166,0.11458276,0.06335849,0.10753339,0.067409754,-0.46173194,0.44632927,-0.10298309,-0.20949237,259.46283,92.50275
2_1_tr_reg_006_0_0.obj,0.13681045,0.22940472,0.014473841,0.002000602,-0.2825418,-0.2561228,-0.04501472,0.035214797,0.054046474,-0.06887682,-0.039025795,0.043532636,-0.1340393,-0.2035698,-0.14995831,0.11302982,-0.07673461,-0.03213349,0.22376218,0.019727897,-0.17462426,0.45300755,-0.13530006,-0.1332298,0.2719633,0.41902643,0.18223709,0.091485046,0.11892148,-0.0981728,-0.0786061,-0.15415135,178.33176,241.71631
2_1_tr_reg_007_0_0.obj,-0.22788484,-0.010879209,0.10346724,0.18791682,0.23112075,0.039152663,-0.05401184,0.13421865,-0.24465916,-0.30663663,-0.0896219,0.014432822,-0.13649227,0.034769565,-0.14910556,-0.09966515,0.1834268,0.31421605,-0.15583268,0.0075142607,0.09551326,-0.4834377,0.03350968,-0.01848954,-0.20866722,-0.055972245,0.22330256,-0.03847943,0.1202326,-0.10373506,0.29161912,0.051243916,74.096565,139.44481
2_1_tr_reg_008_0_0.obj,0.17014031,0.047511585,-0.0016293791,0.0019567932,-0.25229418,-0.08477626,-0.108940735,-0.077126,-0.2410776,0.12628925,-0.11623594,-0.05202603,-0.010992362,-0.14742297,-0.04208856,0.25713912,0.41571623,0.18411359,0.23413353,-0.01643043,0.18220802,-0.0021906581,0.06921898,-0.056958936,0.19316275,-0.23764026,-0.05069325,-0.13643253,-0.29805392,-0.14569235,0.054653168,-0.41114125,127.36325,129.24858
2_1_tr_reg_009_0_0.obj,0.11741237,0.26159438,0.09966474,-0.17031202,-0.038000725,-0.3083411,-0.21200228,-0.0054064067,-0.07154203,-0.12214351,-0.031697635,-0.24522711,-0.035069257,-0.52153254,-0.10234225,0.03239482,0.29894772,-0.07694829,-0.04425436,-0.21353796,-0.008198018,0.010207231,-0.03517641,0.144382,0.29517257,-0.005273933,0.04422419,-0.24151601,0.10594005,0.0044702897,0.13482675,-0.17163521,83.07747,105.243
2_tr_reg_000_0.obj,0.3007231,0.24439119,0.10319403,0.103841595,0.1762774,0.3027527,-0.044379387,-0.13763702,0.4001893,0.0718862,0.17888488,-0.14182197,0.033319842,0.22124726,-0.13398582,0.07240626,-0.20499681,0.08575584,-0.1495423,0.32480505,-0.19609049,0.19280322,-0.13126805,-0.09499441,-0.002718038,-0.024926426,0.067022726,-0.16089833,-0.2338856,0.033287033,-0.11465646,0.122425,204.85428,156.7542
2_tr_reg_001_0.obj,-0.11112088,-0.20848776,-0.00030950815,-0.07034659,0.06198189,0.2297233,-0.17608216,-0.07832884,-0.2144983,0.26688,0.100842066,0.0011281674,0.265947,-0.19185865,0.24245185,0.07526355,0.10360123,-0.22808498,0.11404233,-0.040558908,0.035949547,0.39221278,-0.1640643,0.15047963,0.004159323,0.09112096,0.04787393,-0.17703348,0.3767681,0.2555564,-0.11768037,0.030583166,138.14493,82.1879
2_tr_reg_002_0.obj,-0.024708098,-0.08759385,-0.11261293,0.24918126,0.13020605,0.28318268,0.11434722,0.23479132,-0.08112527,0.076781526,-0.03042811,0.26109532,0.14353758,-0.1285947,0.054197505,0.024908157,0.13847308,-0.14236797,0.20800105,0.302961,0.4161033,-0.038950644,0.101017915,-0.14432435,0.20173623,-0.07338931,-0.32596576,-0.20467423,-0.026036896,0.098109245,-0.10161694,0.18514933,94.3728,13.155952
2_tr_reg_003_0.obj,0.1306025,-0.035727534,-0.17367914,-0.3731661,0.20912817,-0.1614351,-0.008831675,0.013133664,0.17548962,0.18954498,-0.41200456,-0.07458827,0.34961703,-0.032846756,-0.025052857,0.021061258,0.0589206,-0.16233528,-0.040893212,-0.14228266,-0.1384909,-0.041560683,0.013313087,0.06566353,-0.43678012,0.100490145,-0.24191228,0.048114274,-0.03991925,-0.15329619,0.095653124,0.051904373,146.4388,65.99918
2_tr_reg_004_0.obj,0.03696949,0.19980842,0.29093805,0.10841882,0.16213875,-0.18966167,0.009577184,-0.14262068,-0.20493667,0.13771014,0.22206537,-0.043789726,-0.22868668,0.13830134,0.12878528,-0.016347433,-0.07537666,0.051152803,-0.17209132,-0.008162737,0.33599266,0.14734681,-0.08742886,-0.03763414,-0.3205095,-0.17948234,-0.04649677,0.15901498,-0.05613031,-0.4659759,0.108135134,0.056017958,88.092545,171.28687
2_tr_reg_005_0.obj,0.042043004,-0.02555302,-0.096791945,-0.24603327,-0.04438029,0.042511884,0.18555306,-0.36152738,0.04099319,-0.0132374475,0.15508926,-0.30156323,-0.05805417,0.14855675,-0.07338474,-0.17728329,-0.11421689,-0.062571555,-0.25097367,-0.17077544,0.020350782,-0.047218807,0.04577507,0.3018496,0.16680889,-0.22668558,0.014525028,0.12246763,-0.3377889,0.3781459,-0.10246666,-0.11263069,210.53244,64.08319
2_tr_reg_006_0.obj,-0.009702438,0.11688374,-0.10832613,-0.046412766,-0.23453751,-0.28045738,0.25222376,0.0909214,-0.054292526,-0.2591107,-0.08208585,0.23681076,-0.34277344,-0.046472333,-0.049225915,0.01424551,-0.13605939,-0.16925324,0.050299883,0.15057305,-0.07545495,0.06794948,0.025073992,-0.10715348,0.3332093,0.37417886,0.05488571,0.31070536,0.24525784,-0.010200562,-0.03600898,0.06856938,114.399475,233.39984
2_tr_reg_007_0.obj,-0.2695426,-0.33281142,-0.13877347,0.26023516,-0.18561843,0.15345587,0.056533806,0.011899693,-0.006286129,-0.03205509,0.14154291,-0.1442063,-0.118550956,0.21848483,-0.15994708,-0.0006487505,-0.080316685,0.020673113,0.21734007,0.092847124,-0.18126684,-0.047058772,-0.14357272,-0.03123185,-0.3657181,-0.3444354,0.24121144,0.15756516,0.19654776,-0.1742771,0.11373525,-0.047554288,39.50653,202.95624
2_tr_reg_008_0.obj,-0.014036765,-0.06911337,0.12571555,0.067039266,-0.27225733,-0.11246154,-0.17505762,0.14758185,0.13389543,0.1876216,0.047607455,0.30902177,-0.046954673,0.15829435,0.3334189,0.20605947,0.085801706,0.23820727,0.10597907,-0.09692392,-0.28091806,-0.2913291,0.29330993,-0.18690506,0.12745927,-0.10624752,-0.21966049,-0.105399184,-0.07766657,-0.17733628,-0.061389536,-0.07825563,179.40382,186.45694
2_tr_reg_009_0.obj,-0.23042777,-0.2317096,-0.09243863,0.1144881,-0.15379123,-0.04582485,-0.034363963,0.2949531,0.37129757,-0.20227325,0.045438107,-0.077917114,0.26603517,-0.19645514,-0.23653303,-0.24762812,-0.2808674,-0.10379298,0.18751995,-0.06314506,-0.057435043,0.029952278,-0.26175806,-0.2003698,-0.22732995,-0.09526833,-0.081492044,-0.14693682,-0.034943018,7.215361e-05,-0.07538044,0.08075349,95.28099,139.4751
3_0_tr_reg_000_0_0.obj,0.26451808,0.05792486,0.1044768,0.110581845,0.11062371,0.37478393,-0.12162267,-0.14182547,0.23787025,0.008422719,-0.045325063,0.02318777,0.120491356,0.35871637,-0.0867112,0.10738244,-0.16296911,0.3135596,-0.12783992,0.23815854,-0.19107518,0.10782214,-0.06777838,-0.10785774,-0.058027346,0.21043561,0.29275173,-0.09603979,-0.23844679,0.1502667,-0.080933064,-0.059707887,226.21637,203.83362
3_0_tr_reg_001_0_0.obj,-0.119573005,-0.20323941,-0.014880209,-0.2036642,0.080727875,0.08004036,-0.13028212,-0.16177967,-0.29443476,0.26847956,0.10152155,-0.03644297,0.14674263,-0.2074386,0.2471676,0.111929834,0.23499252,-0.29373193,-0.016896652,-0.022320403,-0.009507156,0.2666425,-0.12834667,0.23946579,0.049545344,-0.031872522,-0.023657588,-0.12578925,0.4290512,0.19736512,-0.07769018,0.042638008,123.68689,56.630775
3_0_tr_reg_002_0_0.obj,0.06560168,0.09547839,-0.08861096,0.13628133,0.3019759,0.2582603,0.19356924,0.12648565,-0.03293702,0.08723412,-0.018860767,0.12077497,0.10213105,-0.11909644,-0.03284719,-0.0005873483,0.15343685,-0.16481619,0.06723575,0.3343307,0.40200317,-0.07895731,0.14730667,-0.04463213,0.23806381,-0.119121365,-0.36347982,-0.18381652,-0.14617027,0.09388146,-0.06977712,0.26289487,145.86801,16.462975
3_0_tr_reg_003_0_0.obj,0.097170725,-0.073673084,-0.18421555,-0.40867347,0.10826878,-0.276452,-0.0064347973,-0.094140075,0.1822242,0.21866603,-0.23137867,-0.21405411,0.23635323,-0.08151017,-0.021745387,0.03134902,0.0864677,-0.28345394,-0.08260815,-0.19099945,-0.20978937,-0.021572338,-0.016890068,0.1948167,-0.35536724,-0.09929255,-0.24643278,0.0649715,0.042215146,-0.1392474,0.0811405,0.009822932,68.716415,73.73463
3_0_tr_reg_004_0_0.obj,-0.040672094,0.100260355,0.28233707,0.17226867,0.105272785,-0.14869604,-0.021124357,-0.12559032,-0.34657758,0.088568576,0.107706144,0.0857447,-0.16720222,0.18220346,0.18109304,-0.040913153,-0.057944823,0.1839531,-0.09392793,-0.13842143,0.45516577,0.14194635,-0.006678505,-0.023837177,-0.30998063,-0.03671189,0.013465012,0.18200856,-0.12663436,-0.36695036,0.08700111,-0.06953737,97.13333,200.83746
3_0_tr_reg_005_0_0.obj,-0.043067846,-0.15450382,-0.09060224,-0.16520996,0.011902497,0.054559834,0.11482286,-0.15946026,-0.1686339,-0.07012763,-0.048357435,-0.06722657,0.1296811,0.08802085,0.026211623,-0.26097304,-0.038042825,0.09827475,-0.14871876,-0.36612532,0.29680532,-0.048037607,0.11408936,0.21527843,0.1008213,0.06986766,-0.0016891523,0.089415364,-0.42181638,0.44137904,-0.10403888,-0.19955696,260.39264,114.7769
3_0_tr_reg_006_0_0.obj,0.049645998,0.15993753,-0.09499065,-0.048016254,-0.30954835,-0.28007862,0.17642152,0.06872739,0.018008044,-0.20732181,-0.07583907,0.16858935,-0.2658368,-0.11079714,-0.12455534,0.036820784,-0.14165585,-0.13195497,0.12973458,0.09356389,-0.120120406,0.22664627,-0.022715589,-0.115148365,0.38283473,0.41506708,0.105193466,0.2505073,0.17621133,0.015211776,-0.07470598,-0.03251098,105.21936,263.8792
3_0_tr_reg_007_0_0.obj,-0.3066107,-0.33871365,-0.12494131,0.17823634,-0.07348578,0.16547057,0.032213073,0.0078092217,-0.15658721,-0.13937491,0.08437155,-0.11846646,-0.15699486,0.14939952,-0.14417599,0.0074631907,0.117409036,0.066574745,0.06563501,0.10994371,-0.18772623,-0.28405926,-0.07727486,0.05661123,-0.25359654,-0.341542,0.28137517,0.111031175,0.32153127,-0.07390283,0.18729775,-0.031483177,35.3024,174.92084
3_0_tr_reg_008_0_0.obj,-0.091079175,0.01415367,0.21625866,0.05948318,-0.18630321,-0.12590066,-0.11696154,0.14179948,0.16466418,0.11811136,0.14829282,0.2650033,-0.08596534,0.14400604,0.4006544,0.096231036,-0.071079455,0.21165653,0.06393589,-0.21258232,-0.27220535,-0.36728442,0.36040017,-0.1092638,0.083612084,-0.043655127,-0.21177997,-0.051141504,-0.024019249,-0.12356253,-0.057255648,0.014863056,147.60976,203.83432
3_0_tr_reg_009_0_0.obj,-0.20803836,-0.25270578,-0.06291661,0.20110059,-0.10488372,0.079426974,-0.088889815,0.33675402,0.33627912,-0.20987596,0.016608603,-0.020418972,0.29906416,-0.17044555,-0.21595359,-0.19317722,-0.22711523,-0.033689156,0.22306958,0.031977475,-0.058201075,0.023592485,-0.26122075,-0.249577,-0.21003498,-0.021516012,0.008608148,-0.22896029,-0.02268731,0.03859244,-0.07489505,0.08319439,99.10811,141.18817
3_1_0_tr_reg_000_0_0_0.obj,0.23035581,-0.034753177,0.029997157,-0.024009613,0.05147706,0.3584121,-0.047844045,-0.27666253,0.14815092,-0.021879138,-0.06518214,-0.066401206,0.10979853,0.35821953,-0.10786134,0.05515447,-0.14349133,0.26067048,-0.18810906,0.13593902,-0.177836,0.05048172,-0.029340804,0.05373576,0.032416675,0.15720727,0.35282168,-0.015147712,-0.25603414,0.35137185,-0.07995472,-0.14819509,260.71393,162.50662
3_1_0_tr_reg_001_0_0_0.obj,-0.083632626,-0.1734479,0.039063465,-0.011268163,0.15425777,0.26676276,-0.18078212,-0.016237944,-0.28141075,0.23171467,0.055992063,0.07158514,0.30879733,-0.21307433,0.25102443,0.057012506,0.15793294,-0.1559839,0.11449933,-0.023299912,0.17269641,0.33325624,-0.10984422,0.117969826,0.020155622,0.15046725,0.015609403,-0.24391384,0.29048437,0.2762134,-0.103794046,0.034288738,142.02747,88.972664
3_1_0_tr_reg_002_0_0_0.obj,0.059498876,0.1424506,-0.10049234,0.11122492,0.26400194,0.19918407,0.22618821,0.09513398,0.04084895,0.081839755,0.052123714,0.02642307,0.044566058,-0.15545802,-0.06447052,-0.047568373,0.089170486,-0.24029985,0.033513416,0.29409754,0.3701351,-0.069052786,0.120346986,0.00052606664,0.2561083,-0.23196766,-0.40239862,-0.15467784,-0.14800033,0.093806066,-0.07907275,0.29663256,158.3395,35.425415
3_1_0_tr_reg_003_0_0_0.obj,0.09991915,-0.056213435,-0.15360598,-0.17766891,0.2334187,0.07279717,0.062491614,0.16022263,0.050673626,0.019794365,-0.53094363,0.21874534,0.3300805,0.13501386,0.026203362,-0.053921882,0.024750339,0.13044716,-0.03154723,-0.087514624,0.047624182,-0.23516564,0.19265367,-0.06927772,-0.22000311,0.33009365,-0.15978919,0.05292437,-0.24310732,0.07136135,0.024222415,0.051016442,179.29355,83.73271
3_1_0_tr_reg_004_0_0_0.obj,-0.095843986,0.16089432,0.16458471,0.31820917,-0.047976,-0.017780323,0.036160447,0.06667636,0.0076902066,0.06414957,0.34258074,-0.025369644,-0.14335635,0.010312538,0.091120586,-0.23160625,-0.34739473,0.00082868634,0.03061543,-0.1981782,0.4079167,0.2713872,-0.11033643,-0.10655998,-0.13778712,-0.24777217,-0.17171948,0.088483945,-0.1488241,-0.20810872,-0.06133702,0.10974532,143.43542,180.40436
3_1_0_tr_reg_005_0_0_0.obj,-0.04063428,-0.17937222,-0.0514601,-0.08138809,0.044584166,0.11661136,0.053024147,-0.07662995,-0.18386842,-0.07419186,-0.11580844,0.03456124,0.2033024,0.107260995,0.058364607,-0.24596046,-0.058948264,0.18397309,-0.09431283,-0.3570624,0.33161947,-0.013694858,0.104715884,0.13255467,0.033095893,0.20462832,0.0486387,0.058458216,-0.40972108,0.42686552,-0.10253719,-0.2005482,227.65192,119.42359
3_1_0_tr_reg_006_0_0_0.obj,0.11802068,0.20018652,-0.037059743,-0.06679179,-0.3404027,-0.3218527,0.03805633,0.027804956,0.055516977,-0.08936972,-0.024291987,0.07289792,-0.19166301,-0.19521038,-0.1325666,0.09207233,-0.08779761,-0.10863042,0.17885314,0.012956295,-0.1751533,0.38068727,-0.086512834,-0.09892972,0.34944573,0.3784873,0.116636306,0.16519319,0.14964019,-0.058941822,-0.083454214,-0.13032238,153.55148,255.11682
3_1_0_tr_reg_007_0_0_0.obj,-0.32679087,-0.35705203,-0.13980933,0.23599525,-0.1315337,0.16862884,0.050427124,0.03404547,-0.14218439,-0.11022562,0.10672314,-0.102695286,-0.15320253,0.15058523,-0.13189454,-0.021953167,0.026410772,0.0318154,0.14095765,0.07044532,-0.13195209,-0.17175531,-0.11238497,0.024912111,-0.29897863,-0.34376147,0.26053047,0.15822256,0.31420797,-0.10009605,0.16093542,-0.0299141,34.985367,195.20746
3_1_0_tr_reg_008_0_0_0.obj,-0.007746008,-0.12313374,0.00944943,0.18284896,-0.3140146,0.008755254,-0.15456463,0.06658107,-0.089982666,0.2116182,-0.046576194,0.12038852,0.046141047,0.03536965,0.07719569,0.28997552,0.27718848,0.21296711,0.42012712,0.016220016,0.029275708,0.10402561,0.050468404,-0.21777222,-0.052047472,-0.17147776,-0.07325892,-0.09440202,-0.19198874,-0.3410389,-0.0035443122,-0.31796625,139.3638,148.85878
3_1_0_tr_reg_009_0_0_0.obj,-0.05557178,0.24078216,0.11305986,0.06377139,0.22200532,-0.115958944,-0.20082077,0.17395267,-0.06820834,-0.18397641,-0.19468479,-0.2239748,0.17040639,-0.44159353,-0.18042724,-0.06829331,0.21653162,0.12067344,0.18407817,-0.25201243,0.17476633,-0.035937827,-0.015786745,0.006400306,-0.1374182,0.16892393,0.06470169,-0.2999122,-0.07274665,-0.12976791,0.18739833,-0.10567296,108.27469,103.25604
3_1_tr_reg_000_0_0.obj,0.2768468,0.0862709,0.07107812,0.065274335,0.1218388,0.38445976,-0.06708364,-0.21234423,0.32338613,0.038324483,0.059708226,-0.101822205,0.092955925,0.32725284,-0.13130748,0.09748345,-0.17318405,0.18912782,-0.1657927,0.2840311,-0.24629915,0.114834815,-0.082622126,-0.033444792,0.0083794845,0.053335592,0.23075667,-0.12298545,-0.23318586,0.19866925,-0.1049829,-0.0047192443,208.87909,171.69072
3_1_tr_reg_001_0_0.obj,-0.06476106,-0.1803052,0.056934364,0.1255816,0.115209594,0.37291697,-0.2131802,0.06905066,-0.16292034,0.17173262,0.032120563,0.11682999,0.36031333,-0.13082163,0.21560709,0.03344743,0.019573344,-0.036476888,0.20020516,-0.0107247075,0.13717376,0.34428397,-0.11929359,0.008254106,-0.03758101,0.2421852,0.11402492,-0.2613666,0.20987393,0.29012546,-0.114092015,0.017128438,179.52081,130.43353
3_1_tr_reg_002_0_0.obj,0.09589026,0.20563236,-0.06725607,0.09872807,0.291574,0.21033688,0.21728398,0.061372355,0.09541515,0.07992811,0.083412945,-0.020295022,0.022538021,-0.12628853,-0.095723994,-0.033381645,0.07286836,-0.21803461,-0.006568177,0.3339719,0.29458982,-0.07502038,0.11439207,0.007024957,0.26683813,-0.24502192,-0.36564413,-0.17272452,-0.16585,0.08129913,-0.07191998,0.31683806,176.72171,20.883331
3_1_tr_reg_003_0_0.obj,0.045988284,-0.06269201,-0.16435175,-0.38147557,0.06789743,-0.30859506,-0.018902043,-0.069258705,0.20218024,0.17219071,-0.18660878,-0.25949734,0.23074704,-0.13351499,-0.06276149,-0.011047666,0.047422256,-0.27788818,-0.042525444,-0.23779467,-0.20696095,-0.013163793,-0.05063707,0.18109104,-0.38069296,-0.12566207,-0.22822963,0.04858444,0.0434192,-0.16106637,0.09702468,-0.00256923,34.11309,68.99918
3_1_tr_reg_004_0_0.obj,-0.029222798,0.2289453,0.20457561,0.28892523,0.0014979115,-0.03281895,0.025766896,0.030455109,0.06238559,0.06799534,0.37322798,-0.07035393,-0.17979631,0.04346371,0.068431355,-0.2026236,-0.3529615,0.016236847,-0.039682966,-0.13798903,0.338959,0.25656322,-0.13108805,-0.11297814,-0.16024762,-0.2532992,-0.14496548,0.08172425,-0.16363087,-0.25583464,-0.042463433,0.13535415,140.59518,172.8066
3_1_tr_reg_005_0_0.obj,0.049192827,0.06776169,-0.13072032,-0.22537524,0.05903703,0.05796689,0.24308525,-0.29068276,0.040117823,0.015811985,0.14896725,-0.305461,-0.07017914,0.041303337,-0.12938392,-0.15876703,0.003933671,-0.16171598,-0.23216239,-0.050155453,0.08068194,-0.11470819,0.09213009,0.30542687,0.25169477,-0.34820634,-0.13163523,0.04976047,-0.2991776,0.32573473,-0.06640189,0.01714059,200.94174,67.587555
3_1_tr_reg_006_0_0.obj,0.09301494,0.18817203,-0.06398727,-0.034643788,-0.3533753,-0.28454643,0.08546329,0.04309353,0.062406465,-0.14329442,-0.03181771,0.0935526,-0.2140665,-0.16681169,-0.15712526,0.061287694,-0.12436155,-0.09525141,0.18524255,0.025541635,-0.15186736,0.34488612,-0.06891884,-0.10980946,0.36904216,0.38807458,0.12532692,0.19523989,0.13243558,-0.015660098,-0.08916931,-0.12114769,141.03926,261.3632
3_1_tr_reg_007_0_0.obj,-0.1918425,0.013116952,0.10593236,0.11902754,0.27800885,0.01553516,-0.043992527,0.1053945,-0.2380169,-0.28143957,-0.06811597,-0.025294695,-0.12542331,-0.0056469794,-0.16532582,-0.07029667,0.25247866,0.26641524,-0.1958347,0.05727143,0.089483656,-0.5033005,0.03058882,0.004548784,-0.19235833,-0.115251854,0.16786207,-0.06397828,0.13114189,-0.14047109,0.3087679,0.06657345,72.02794,128.43878
3_1_tr_reg_008_0_0.obj,0.1112882,-0.010006576,0.10331,0.023224538,-0.2680048,-0.15510377,-0.16486263,0.056733154,-0.047633953,0.16985972,-0.06690861,0.2587409,-0.09091135,0.08918193,0.23246278,0.27608493,0.28167054,0.26331896,0.0684467,-0.03342253,-0.12629609,-0.2817525,0.28826517,-0.13784496,0.25463676,-0.18059835,-0.18045144,-0.124078274,-0.17401728,-0.17228138,-0.00044229464,-0.20906456,170.31038,155.11389
3_1_tr_reg_009_0_0.obj,0.026470702,0.103309594,0.104211755,-0.084449746,-0.04252121,-0.24134623,-0.17433758,0.06834621,-0.19403742,-0.19766605,-0.011737502,-0.055966675,-0.08050606,-0.4889744,-0.040337343,0.011309037,0.3764651,-0.03173257,-0.13621405,-0.106958665,0.12404399,-0.20066826,0.018151525,0.091353156,0.40752947,-0.13315809,-0.043853022,-0.26767564,0.13304332,0.10092365,0.11580213,-0.111585125,63.49359,98.315674
3_2_0_tr_reg_000_0_0_0.obj,0.26555777,0.07166012,0.113637276,0.13137148,0.110711485,0.3668104,-0.12788339,-0.13463654,0.27366382,0.016385334,-0.0032897163,0.0030481624,0.10624065,0.352242,-0.09159869,0.112247534,-0.17730287,0.29506308,-0.12438474,0.25572038,-0.21355416,0.12414336,-0.086029105,-0.119048744,-0.06727247,0.17789185,0.2770707,-0.11193496,-0.22545971,0.118301146,-0.086991884,-0.039180994,212.60568,204.0621
3_2_0_tr_reg_001_0_0_0.obj,-0.12904228,-0.21023166,-0.020389602,-0.21223186,0.087235436,0.06794818,-0.11513017,-0.16423796,-0.31470954,0.2531407,0.09994549,-0.030252025,0.12360272,-0.2039946,0.24700196,0.101786956,0.24667092,-0.29794332,-0.045927912,-0.020161092,0.0050656297,0.23708656,-0.12433661,0.24681997,0.05608722,-0.048472635,-0.031775765,-0.11053801,0.43304998,0.20128082,-0.068828575,0.05189015,118.69455,53.439316
3_2_0_tr_reg_002_0_0_0.obj,0.039162353,0.06732071,-0.10869903,0.13833274,0.2680044,0.23144834,0.20329069,0.13528183,-0.03491132,0.087525725,-0.009418509,0.11740391,0.09145896,-0.14266391,-0.024421012,-0.015269393,0.1475853,-0.19926494,0.07838963,0.30673078,0.41803938,-0.08054746,0.14031412,-0.035381157,0.23801811,-0.15542993,-0.39024907,-0.16841158,-0.12735109,0.09792207,-0.07739141,0.26171532,142.18085,18.241196
3_2_0_tr_reg_003_0_0_0.obj,0.113515176,-0.073373094,-0.18241778,-0.3963637,0.17846562,-0.201311,-0.015697299,-0.029180666,0.16351591,0.21700132,-0.3520366,-0.1246061,0.32492954,-0.05396209,-0.016782839,0.033323612,0.09153586,-0.20767072,-0.055880178,-0.16427322,-0.15891965,-0.032997496,-0.0022180818,0.11714604,-0.42077717,0.021976957,-0.24979195,0.048822723,-0.0038150446,-0.14678213,0.09140453,0.028151287,135.98653,68.75063
3_2_0_tr_reg_004_0_0_0.obj,-0.04478403,0.17266808,0.24872486,0.2544997,0.02732582,-0.111639835,0.0107382685,-0.03618809,-0.13711177,0.094506025,0.29405144,-0.0012664725,-0.19295087,0.091851614,0.14762688,-0.14809623,-0.24634598,0.06156952,-0.05615047,-0.16259545,0.43907067,0.25308728,-0.09744582,-0.081202395,-0.23875648,-0.18262523,-0.103269875,0.14450397,-0.14012419,-0.33537322,0.0035247,0.04796823,122.29875,181.88437
3_2_0_tr_reg_005_0_0_0.obj,0.008639919,-0.10981484,-0.0821703,-0.20096937,0.04106856,0.084704876,0.12719683,-0.24148121,-0.13658243,-0.068448305,-0.0257533,-0.13305603,0.10083388,0.12929021,-0.025371335,-0.22458683,-0.012309344,0.10448361,-0.20331143,-0.2841991,0.23093283,-0.06936695,0.11016726,0.24806169,0.12679741,0.012853049,0.029753115,0.07663212,-0.4532665,0.44093052,-0.09664535,-0.20124868,256.0166,82.474205
3_2_0_tr_reg_006_0_0_0.obj,-0.03572598,0.05914315,-0.12564424,-0.039937727,-0.16061981,-0.22646345,0.28033465,0.13789071,-0.053072438,-0.27943242,-0.16442361,0.3096771,-0.28220254,0.024464183,-0.041513573,0.0004736022,-0.12778072,-0.13471514,0.011456916,0.21069469,-0.063029885,-0.049568456,0.0708015,-0.13822351,0.30935216,0.40236613,0.035974562,0.28498018,0.22070646,0.028038302,-0.03367202,0.13068847,132.77283,226.41486
3_2_0_tr_reg_007_0_0_0.obj,-0.35225898,-0.3317692,-0.11089511,0.25508654,-0.106290035,0.16866161,0.044525355,0.06503104,-0.19891934,-0.16413702,0.09411519,-0.04326589,-0.19509226,0.14420642,-0.09824309,-0.047803447,0.030731441,0.065735266,0.09219022,0.05899526,-0.090195045,-0.22110628,-0.09290995,0.01716918,-0.25531816,-0.2891778,0.27878937,0.16295107,0.35201606,-0.07461417,0.1694748,0.00037055186,38.97973,200.7707
3_2_0_tr_reg_008_0_0_0.obj,0.054128174,-0.086494684,0.09956379,0.07938326,-0.30272055,-0.12553433,-0.20050414,0.086966954,-0.03191606,0.19602923,-0.030507293,0.26575983,-0.04293471,0.09242701,0.2284186,0.2892495,0.2768764,0.26752076,0.15942669,-0.019542752,-0.13422638,-0.20026436,0.22608303,-0.18797886,0.16226082,-0.1816296,-0.17023377,-0.14565565,-0.15976226,-0.23251049,-0.02194099,-0.22978367,168.352,155.37572
3_2_0_tr_reg_009_0_0_0.obj,-0.27253366,-0.18003686,-0.16850112,-0.051279876,-0.15391937,-0.18951242,0.15987922,0.25926515,0.2385556,-0.22355247,-0.054779124,-0.007395824,0.16498235,-0.20247968,-0.1667342,-0.35752496,-0.33262485,-0.19147247,0.06086934,-0.25560677,0.097489595,-0.15251641,-0.08951017,-0.04691232,-0.15399657,-0.0609957,-0.21543248,0.09919365,0.05142187,0.11641896,-0.032022934,0.12607229,10.721352,101.8624
3_2_1_0_tr_reg_000_0_0_0_0.obj,0.29872972,0.1318193,0.08619527,0.07568536,0.13377823,0.33769125,-0.0710744,-0.1995124,0.33551532,0.033460166,0.058978803,-0.092893235,0.038988788,0.33968157,-0.14533654,0.14047903,-0.14010291,0.20489259,-0.1776346,0.32668963,-0.28916055,0.084192336,-0.066106364,-0.052389912,0.002138103,0.05185351,0.22772788,-0.109892294,-0.19779675,0.104373634,-0.07401722,0.006827198,204.10855,169.75763
3_2_1_0_tr_reg_001_0_0_0_0.obj,-0.0937427,-0.20835777,0.03743929,0.107963495,0.12203232,0.349068,-0.18664077,0.07185535,-0.21641438,0.18253559,0.02812508,0.13358523,0.36065552,-0.1435871,0.22836825,0.011644042,0.05417997,-0.051040664,0.18656269,-0.0469443,0.20544305,0.32163095,-0.09613381,0.032220278,-0.02925532,0.21913983,0.062047295,-0.2426677,0.20083265,0.3031339,-0.11721848,0.013135238,159.63455,112.45833
3_2_1_0_tr_reg_002_0_0_0_0.obj,-0.027610775,-0.051813833,-0.14068826,0.14964722,0.19786838,0.202975,0.18697755,0.15214007,-0.0838566,0.056614526,-0.029651968,0.1559367,0.075729966,-0.17279755,-0.025166906,-0.0005775198,0.20625818,-0.22002019,0.077788435,0.3039371,0.4111538,-0.14119238,0.12891051,-0.025898851,0.25320035,-0.21387732,-0.3778829,-0.15887123,-0.019252285,0.12023138,-0.05599635,0.2296617,123.29936,18.553925
3_2_1_0_tr_reg_003_0_0_0_0.obj,0.093627244,-0.05832963,-0.15427539,-0.2120219,0.25977615,0.043133102,0.05524307,0.15439236,0.044208016,0.05675066,-0.52210313,0.18477476,0.36141253,0.08552774,0.02048392,-0.03686585,0.07210913,0.08462709,-0.016794717,-0.087983765,0.07031482,-0.2163822,0.16961673,-0.064000055,-0.28829467,0.2803736,-0.22174622,0.031248404,-0.22152616,0.0036179377,0.049429078,0.05297487,171.89592,77.24224
3_2_1_0_tr_reg_004_0_0_0_0.obj,-0.09335825,0.12486667,0.24084377,0.3486198,0.051013574,-0.0070025083,-0.021696387,0.031124953,-0.022038598,0.06839364,0.25542837,0.03609029,-0.12558107,0.16593267,0.092910774,-0.15364785,-0.30285856,0.15499373,-0.007351524,-0.1372588,0.35412434,0.23154235,-0.08987783,-0.15420346,-0.32150447,-0.14123052,-0.07582217,0.111572124,-0.1601126,-0.35590956,-0.00021001195,0.07400685,125.08716,183.1292
3_2_1_0_tr_reg_005_0_0_0_0.obj,-0.008125218,-0.13024768,-0.068248965,-0.16331607,0.032797497,0.082120664,0.09847668,-0.18463361,-0.16822247,-0.08190429,-0.063416846,-0.07368289,0.1255813,0.12078068,0.007982951,-0.2369785,-0.02698503,0.14705619,-0.16934693,-0.33160895,0.2711028,-0.053176843,0.11247261,0.20993297,0.0988222,0.092442445,0.046956923,0.080796085,-0.4481205,0.43675786,-0.096233286,-0.21696977,260.9756,114.17446
3_2_1_0_tr_reg_006_0_0_0_0.obj,-0.042910285,0.075281575,-0.12425636,-0.024654392,-0.18300794,-0.23298669,0.27972692,0.15089262,-0.034060456,-0.29660004,-0.16214137,0.28474236,-0.26195678,-0.0041548773,-0.079740725,-0.020571554,-0.15827082,-0.12750965,0.054548644,0.17955619,-0.05270593,-0.006551243,0.048271753,-0.14287971,0.2931028,0.4264623,0.0577395,0.29128402,0.20988591,0.026100244,-0.041066755,0.10613239,128.75302,228.6863
3_2_1_0_tr_reg_007_0_0_0_0.obj,-0.11747768,-0.055826165,-0.0038523313,-0.02411719,0.22055307,0.054949127,0.0068706293,-0.063508965,-0.02138954,-0.11775965,0.060054332,-0.22728637,-0.09723813,0.0008782543,-0.23429689,0.07447862,0.3105498,0.043277293,-0.17656006,0.21860372,-0.21679154,-0.44471034,-0.008323955,0.12475271,-0.15713097,-0.37524256,0.106829844,-0.064515226,0.272673,-0.1381911,0.26613897,0.06504578,43.05876,107.609276
3_2_1_0_tr_reg_008_0_0_0_0.obj,0.0062632975,-0.008643061,-0.041783225,0.11623124,-0.22711682,-0.086195104,-0.068809174,0.03951161,-0.22389546,0.14154574,-0.06816322,-0.046098933,0.018632581,-0.18736556,-0.042552374,0.19078654,0.32630748,0.09672269,0.4074954,-0.034729958,0.27353138,0.14634283,-0.034482572,-0.14387566,-0.053487245,-0.24495478,-0.13611364,-0.069352716,-0.2303236,-0.35157874,0.051820766,-0.31932142,124.49593,139.14359
3_2_1_0_tr_reg_009_0_0_0_0.obj,-0.027295552,0.20563276,0.11490089,0.1302118,0.18578576,-0.03902866,-0.26016828,0.20558941,0.017740902,-0.19091545,-0.20798548,-0.17951252,0.21921606,-0.38470957,-0.17813998,-0.052650243,0.13062228,0.16021773,0.22783859,-0.19670197,0.09481035,0.06157041,-0.0863857,-0.07951708,-0.1818728,0.25505146,0.13815504,-0.32752112,-0.07879987,-0.123420864,0.14321718,-0.10803198,119.26375,102.66487
3_2_1_tr_reg_000_0_0_0.obj,0.28720477,0.15410562,0.061728504,0.05779844,0.148613,0.33217993,-0.03489876,-0.20688936,0.39068365,0.06741407,0.13827744,-0.1642503,0.04189381,0.27853122,-0.15586945,0.113046855,-0.15277272,0.09231739,-0.17130755,0.34370083,-0.2859477,0.11396154,-0.08998338,-0.026314594,0.025869468,-0.059229344,0.13106437,-0.14562194,-0.19588126,0.1076403,-0.10144207,0.06919384,204.97275,155.75696
3_2_1_tr_reg_001_0_0_0.obj,-0.0714876,-0.19026011,0.056021243,0.092484385,0.120986156,0.35383224,-0.21477035,0.049177255,-0.19076148,0.18001172,0.02796682,0.10913816,0.3606098,-0.1355838,0.22676653,0.039771415,0.04777909,-0.040232867,0.18521297,-0.029216306,0.13404687,0.33865175,-0.1117659,0.033646364,-0.033994704,0.24825165,0.11350373,-0.25728354,0.21712591,0.29747579,-0.11339561,0.0034400527,177.65623,129.23949
3_2_1_tr_reg_002_0_0_0.obj,0.044599164,0.1172975,-0.10080014,0.16834317,0.21523453,0.21585579,0.20619062,0.13304967,0.084814504,0.09075158,0.08927405,0.043344177,0.048475794,-0.15676332,-0.04693913,-0.051283814,0.03076219,-0.2582608,0.07624902,0.303735,0.3588467,-0.011601139,0.07330978,-0.049199805,0.23248239,-0.24375477,-0.40688694,-0.16460334,-0.117670864,0.07193956,-0.10829994,0.3103212,153.14629,41.20424
3_2_1_tr_reg_003_0_0_0.obj,0.10915182,-0.034111377,-0.14644559,-0.3902126,0.08983367,-0.29360992,-0.03492826,-0.11827993,0.18251975,0.2363986,-0.18144849,-0.25373226,0.21925598,-0.10572432,-0.024710666,0.037514947,0.06400333,-0.2904843,-0.06448447,-0.19910875,-0.20835751,0.04885444,-0.0517135,0.19645013,-0.36087075,-0.120604366,-0.22398306,0.049606953,0.047750194,-0.17459218,0.08017283,-0.0037047167,48.39553,69.32947
3_2_1_tr_reg_004_0_0_0.obj,0.054132786,0.24816146,0.30826506,0.1477107,0.16559584,-0.15238506,0.0008340449,-0.11905878,-0.11910148,0.10578404,0.27923334,-0.055244006,-0.23830335,0.15277736,0.11625496,-0.05611108,-0.1515187,0.08640478,-0.19418868,-0.022186073,0.30978218,0.14271905,-0.08629139,-0.055892684,-0.29028937,-0.18314019,-0.052795198,0.1365405,-0.11347189,-0.4355491,0.07896481,0.083945766,97.40219,168.92006
3_2_1_tr_reg_005_0_0_0.obj,0.033683836,-0.08909976,-0.08192809,-0.21077476,0.018687585,0.09283567,0.13460982,-0.2860121,-0.102134824,-0.07053881,-0.010807479,-0.15323101,0.06002256,0.1732972,-0.053319313,-0.19529638,-0.022546466,0.112297185,-0.23233569,-0.23518702,0.16835116,-0.08282712,0.10914962,0.25707972,0.15535548,-0.014658808,0.064062975,0.08880552,-0.44757006,0.4413327,-0.09386118,-0.20350389,250.9201,74.89366
3_2_1_tr_reg_006_0_0_0.obj,0.1576417,0.24541146,0.03673781,-0.018359026,-0.25338995,-0.250772,-0.09166409,0.009163372,0.05201362,-0.017287808,-0.0525173,0.0018764727,-0.10122057,-0.19376872,-0.14026664,0.13573407,-0.056657318,-0.012495026,0.2270212,-0.00051390484,-0.211533,0.47981054,-0.14548941,-0.12223797,0.21423578,0.41050842,0.20561592,0.06259836,0.10129187,-0.13415892,-0.0581407,-0.1666487,200.22612,235.87204
3_2_1_tr_reg_007_0_0_0.obj,-0.29379526,-0.06969884,0.08265101,0.25806507,0.15374023,0.02259411,-0.03473585,0.1848586,-0.30541128,-0.32880312,-0.10066041,0.09667965,-0.14437212,0.026835317,-0.10092193,-0.15394053,0.10380294,0.29502648,-0.0797013,-0.06556356,0.19761102,-0.38559148,0.009520719,-0.043606367,-0.22948937,0.0091063185,0.2254162,0.04046062,0.15123978,-0.093471706,0.25174543,0.034421165,68.141716,155.48833
3_2_1_tr_reg_008_0_0_0.obj,0.08816174,-0.031000914,-0.0042436174,0.089358695,-0.26580608,-0.031804387,-0.12513363,-0.017578764,-0.1958245,0.16199018,-0.10024378,-0.0108711915,0.029046804,-0.0823293,-0.018501025,0.27546626,0.38676733,0.20516099,0.34428853,0.004534276,0.14881046,0.039476637,0.048951358,-0.12842566,0.050270036,-0.24323504,-0.055176724,-0.12835361,-0.28688973,-0.25594208,0.04811136,-0.39098227,133.05544,133.09001
3_2_1_tr_reg_009_0_0_0.obj,0.03591126,0.22379783,0.106819026,-0.062389184,0.008021308,-0.22641611,-0.24980956,0.08286071,-0.09795943,-0.19390905,-0.10071175,-0.22322612,0.04831247,-0.5299399,-0.13733228,-0.02713996,0.2934098,0.0357203,0.027220575,-0.27528557,0.07210102,-0.036435623,-0.017151298,0.10544779,0.23171845,0.053157367,0.08923199,-0.31005287,0.03501637,0.041531947,0.1464653,-0.1895812,88.65934,104.63112
3_2_tr_reg_000_0_0.obj,0.28589898,0.14540106,0.078544386,0.100106195,0.1594613,0.39562,-0.059407976,-0.15917674,0.35643324,0.061868943,0.08506071,-0.08884875,0.09461082,0.28778484,-0.13022915,0.09777002,-0.16447972,0.15959404,-0.1429599,0.328243,-0.21299678,0.12476181,-0.08233403,-0.07420711,0.024610825,0.021794153,0.14967306,-0.16908951,-0.24657644,0.14994399,-0.1125232,0.062340092,207.59695,157.31754
3_2_tr_reg_001_0_0.obj,-0.12731703,-0.22276689,-0.025334245,-0.14495723,0.07548287,0.144902,-0.12678449,-0.12289563,-0.2776172,0.2644381,0.11441487,-0.012661101,0.17000063,-0.21280974,0.23930044,0.1035769,0.22248036,-0.29430073,0.020638373,0.011157954,0.024348276,0.27215138,-0.13631557,0.20904027,0.05848443,-0.044289835,-0.029278615,-0.15271774,0.43108544,0.22732754,-0.090143465,0.05837718,128.28598,61.694077
3_2_tr_reg_002_0_0.obj,0.027503422,0.041341897,-0.08850037,0.16785519,0.25682086,0.22363693,0.1654102,0.17478473,-0.04520982,0.055493336,-0.020225942,0.17023917,0.08352292,-0.15193768,-0.012198401,0.0147945555,0.17427652,-0.17520137,0.081831045,0.3519371,0.39718506,-0.111353226,0.12855494,-0.08286855,0.23968323,-0.13430104,-0.37279642,-0.20015782,-0.07350257,0.06457935,-0.06270904,0.26362798,139.64282,15.401718
3_2_tr_reg_003_0_0.obj,0.116769806,-0.069313586,-0.18259683,-0.41202617,0.13543707,-0.24364474,-0.009136972,-0.07786023,0.18748696,0.22662643,-0.28125972,-0.18108317,0.28043267,-0.061015166,-0.019673033,0.03111128,0.0686691,-0.25652632,-0.07367336,-0.1763644,-0.20329596,-0.009294407,-0.014834648,0.16447648,-0.38179874,-0.044377577,-0.2434433,0.06436617,0.017898431,-0.13803981,0.07640425,0.019246431,86.32627,75.00705
3_2_tr_reg_004_0_0.obj,-0.027098745,0.16055255,0.27209103,0.1655683,0.10405181,-0.16533704,0.0211672,-0.103383556,-0.25822252,0.1265079,0.23440221,0.008798077,-0.20221044,0.10120048,0.17113209,-0.08246565,-0.11667596,0.047074907,-0.11160875,-0.10874922,0.45783854,0.19185513,-0.06335669,-0.029078413,-0.26881582,-0.17761293,-0.0927668,0.16706672,-0.08385622,-0.39242452,0.06297559,0.033228036,99.431076,180.44089
3_2_tr_reg_005_0_0.obj,0.038189325,-0.067086145,-0.11492819,-0.25766766,-0.023504471,0.059444517,0.17126161,-0.3464669,-0.023032375,-0.044886462,0.071929485,-0.24924172,-0.0028671606,0.15234162,-0.08688194,-0.17744094,-0.04509679,-0.005448656,-0.25327483,-0.18162178,0.06649257,-0.07220817,0.071570486,0.30077523,0.1865929,-0.14707674,0.03488583,0.10146693,-0.3741085,0.4256768,-0.09693511,-0.16111079,230.6669,59.356194
3_2_tr_reg_006_0_0.obj,-0.0273771,0.08230231,-0.109314054,-0.031617183,-0.1884083,-0.22828327,0.25439996,0.12899674,-0.03347573,-0.2761571,-0.13773797,0.29237804,-0.2873204,0.004729752,-0.052027773,0.006044525,-0.14642265,-0.13440417,0.027712062,0.20478584,-0.08793611,0.016374212,0.035832323,-0.14619376,0.32150307,0.41877306,0.06557794,0.27673072,0.23405592,0.024068799,-0.0448756,0.11636465,123.898125,230.92015
3_2_tr_reg_007_0_0.obj,-0.3175514,-0.35649106,-0.15530255,0.23854128,-0.187243,0.14516519,0.0720481,0.0143225,-0.11660653,-0.066199765,0.13069688,-0.10796804,-0.16695733,0.19040893,-0.101244785,-0.030954488,-0.06254121,-0.0037627858,0.17908926,0.028016673,-0.13863686,-0.06766374,-0.12541665,0.024544926,-0.32055858,-0.3084722,0.26114842,0.21777992,0.29850152,-0.11197907,0.11714301,-0.040618047,44.521263,209.07632
3_2_tr_reg_008_0_0.obj,-0.035785135,-0.06710906,0.14495681,0.070453815,-0.25481173,-0.11457248,-0.16460381,0.15228167,0.12877789,0.17736727,0.064770766,0.31239238,-0.04217738,0.15181404,0.35202643,0.18230595,0.062292527,0.23690967,0.104387075,-0.12533331,-0.2626153,-0.316283,0.3155532,-0.17097533,0.11859548,-0.094956286,-0.22769032,-0.10070736,-0.07044056,-0.15911995,-0.06333718,-0.06564346,177.96347,188.83414
3_2_tr_reg_009_0_0.obj,-0.27401683,-0.17026263,-0.1372833,-0.004641792,-0.17435074,-0.18466051,0.11490168,0.2650204,0.25227302,-0.21709733,0.0010132911,-0.034913987,0.1659448,-0.22640122,-0.18400364,-0.35828805,-0.346775,-0.17600021,0.09065644,-0.25413463,0.104270235,-0.06895303,-0.15191509,-0.082633406,-0.18561134,-0.093431585,-0.20223787,0.06960917,0.038427837,0.05634869,-0.038038842,0.107306756,14.357651,116.20539
3_tr_reg_000_0.obj,0.26175836,0.054888405,0.09775431,0.10644908,0.11426518,0.38886294,-0.112591475,-0.15634795,0.25944924,0.016462142,-0.01591568,-0.0047768974,0.12311319,0.3502686,-0.09658792,0.10456661,-0.16917251,0.28181863,-0.13136753,0.25536805,-0.20415905,0.11873432,-0.07886789,-0.09400313,-0.043090105,0.17578714,0.28302154,-0.11137145,-0.2329612,0.17000784,-0.0923532,-0.043685436,222.18564,202.17032
3_tr_reg_001_0.obj,-0.16963367,-0.2659785,-0.07879864,-0.34145755,0.08656074,-0.0816192,0.0014705515,-0.18022679,-0.3542781,0.17037128,0.0056464723,0.04852903,0.011634248,-0.06803366,0.29786432,0.07764545,0.23142505,-0.2964095,-0.15797131,-0.060955185,-0.0703077,0.043174267,-0.003654361,0.276076,0.039655942,0.023342807,-0.050749496,0.07468328,0.42513114,0.15742046,-0.019439725,0.07283915,71.67557,51.939972
3_tr_reg_002_0.obj,-0.08435285,-0.14968126,-0.1602641,0.21823321,0.09120561,0.21483633,0.15193458,0.21628053,-0.09894639,0.057955302,-0.029563945,0.23034188,0.09657797,-0.17321956,0.023936357,0.00050824287,0.16602549,-0.21859059,0.16958073,0.27068192,0.42122754,-0.0861108,0.090555094,-0.08567089,0.21544057,-0.17890652,-0.35792688,-0.14934137,0.0474957,0.11456023,-0.08277373,0.19240852,93.73291,13.108864
3_tr_reg_003_0.obj,0.14032242,-0.017909544,-0.14224331,-0.2626545,0.2617164,0.0070000896,0.017346697,0.12064399,0.10797765,0.10894295,-0.51964015,0.1212905,0.38970593,0.058900286,0.0017625574,-0.017083598,0.032586455,0.03155298,-0.017639728,-0.090513684,0.0060350006,-0.11319863,0.0974394,-0.065796316,-0.3673685,0.2803594,-0.21156038,0.033522025,-0.18531482,-0.06429784,0.06641478,0.06247942,163.85861,70.89378
3_tr_reg_004_0.obj,0.017551782,0.14008763,0.30262044,0.13219495,0.1290113,-0.15920949,-0.024250623,-0.16684817,-0.29435223,0.10254425,0.1478973,0.038703635,-0.18967219,0.20397657,0.17633203,-0.021648536,-0.08392146,0.16839713,-0.14848308,-0.10604783,0.39433584,0.16581108,-0.03654468,-0.019894198,-0.32309234,-0.03280608,0.03293123,0.18916559,-0.12834941,-0.385229,0.085074864,-0.055283554,92.838684,195.64716
3_tr_reg_005_0.obj,0.012398027,-0.06510441,-0.10549118,-0.25448355,0.002336556,0.031990603,0.17440264,-0.31272942,-0.082678065,-0.064270444,0.037936892,-0.2093752,0.0030790041,0.14170755,-0.07396307,-0.19863528,-0.0077567217,0.032807942,-0.25247648,-0.22625846,0.13490008,-0.10719069,0.10993139,0.29771113,0.18186408,-0.1087497,0.013735048,0.10903065,-0.40479717,0.40753296,-0.08094609,-0.17105557,237.62885,60.44207
3_tr_reg_006_0.obj,0.09939924,0.18433264,-0.040454388,-0.00804371,-0.35337347,-0.2637967,0.043532975,0.04733398,0.06859626,-0.14335495,-0.03409278,0.09479279,-0.1918854,-0.15344648,-0.16183491,0.06364195,-0.12921357,-0.046573333,0.18649697,0.016613323,-0.16506203,0.366276,-0.08757293,-0.12518677,0.35416082,0.40817484,0.16686234,0.16974352,0.11569909,-0.011738302,-0.09374104,-0.14199165,149.09848,257.30475
3_tr_reg_007_0.obj,-0.3393099,-0.3423704,-0.11834558,0.27111894,-0.19519803,0.13754866,0.049092237,0.047292255,-0.19042924,-0.101997174,0.112608515,-0.025742387,-0.20234457,0.19706713,-0.019780345,-0.065715425,-0.10815789,0.043205686,0.15896764,-0.053360194,-0.0787654,-0.04922302,-0.107712105,0.011292245,-0.30080912,-0.19518355,0.2989321,0.2569134,0.3274313,-0.08049185,0.11231659,-0.04099986,56.95633,229.7362
3_tr_reg_008_0.obj,-0.13357441,0.022120444,0.20951194,0.02813542,-0.17000264,-0.109311074,-0.089686655,0.12328884,0.1865363,0.0952152,0.19272101,0.20992257,-0.1043257,0.14070646,0.41353324,0.052201957,-0.14492768,0.16646917,0.045996293,-0.26253656,-0.31808886,-0.37503815,0.36014816,-0.054352846,0.06173609,-0.027011853,-0.1754186,-0.010289198,0.043964818,-0.07779851,-0.05004723,0.05691671,96.448715,220.31055
3_tr_reg_009_0.obj,-0.2636496,-0.16674241,-0.13019082,-0.016819831,-0.15469556,-0.18615301,0.10474964,0.27823797,0.266554,-0.24807607,-0.02211796,-0.031480573,0.18399441,-0.22359763,-0.19259179,-0.3678503,-0.34891844,-0.15631133,0.06864279,-0.24626257,0.08545673,-0.09278343,-0.15434805,-0.08978663,-0.17890386,-0.048675336,-0.1752415,0.049695328,0.019183941,0.080676146,-0.04245971,0.11219152,14.511978,116.342125
4_0_tr_reg_000_0_0.obj,0.22990759,0.011421659,0.10783861,0.11619134,0.084025845,0.38183492,-0.13662711,-0.123329215,0.18525513,-0.0041473713,-0.077857085,0.06262237,0.15313765,0.35369682,-0.052153032,0.085623264,-0.16775346,0.34566507,-0.09872181,0.17909014,-0.14612326,0.10520815,-0.056301583,-0.11187436,-0.06491115,0.25829655,0.31526706,-0.09082873,-0.25109217,0.19034256,-0.08739114,-0.09583049,245.36533,203.96515
4_0_tr_reg_001_0_0.obj,-0.12851292,-0.22125615,-0.026223263,-0.29338187,0.057357162,-0.07102707,-0.0812333,-0.22935496,-0.32368797,0.24393077,0.0929975,-0.060345788,0.034637723,-0.13248336,0.2600899,0.11225246,0.23527358,-0.30134365,-0.11493746,-0.06933789,-0.06749059,0.183856,-0.09752772,0.28868553,0.0039582597,-0.062191058,-0.018411547,0.0072161704,0.43719783,0.110653505,-0.035795182,0.01833453,65.55298,40.73436
4_0_tr_reg_002_0_0.obj,0.0018190293,0.03688165,-0.093355455,0.16074103,0.25448418,0.1941824,0.18954515,0.16354492,-0.0736643,0.056004617,-0.00856498,0.15278643,0.06329866,-0.16556293,-0.014250142,-0.018201405,0.1696332,-0.1949836,0.06790504,0.3083177,0.44028875,-0.10878535,0.12591067,-0.054075386,0.22579858,-0.17416371,-0.39302716,-0.15912041,-0.07599965,0.05971231,-0.05885192,0.26488575,133.95248,18.885956
4_0_tr_reg_003_0_0.obj,0.04577766,-0.11646807,-0.20602639,-0.40632787,0.1187293,-0.26478392,0.0033317348,-0.037597835,0.17382859,0.17424992,-0.2711365,-0.18427393,0.272781,-0.10194348,-0.03702795,0.004625615,0.099997126,-0.2649034,-0.06325166,-0.20482464,-0.1935421,-0.080237746,-0.008504575,0.17114478,-0.3747766,-0.06633123,-0.25382683,0.055087946,0.048529133,-0.11728681,0.09343249,0.01910959,76.98238,75.32838
4_0_tr_reg_004_0_0.obj,-0.031680852,0.08099652,0.28513333,0.12860903,0.10146892,-0.16379766,-0.033830445,-0.16084224,-0.3345755,0.084623165,0.09196329,0.068531886,-0.16803075,0.2217901,0.19063002,-0.019049844,-0.060232617,0.20335259,-0.11287791,-0.15266518,0.3848818,0.120929435,0.001469196,-0.0071614073,-0.3470925,-0.0016699506,0.0582017,0.20306377,-0.117950365,-0.37540773,0.1011807,-0.10025863,95.02057,200.80905
4_0_tr_reg_005_0_0.obj,-0.051684596,-0.17943636,-0.048224915,-0.024235642,0.07236634,0.13913114,0.05132556,-0.011197439,-0.20999624,-0.045207296,-0.13229965,0.108785816,0.2325025,0.08528463,0.085797206,-0.24292764,-0.06391928,0.1777173,-0.04441817,-0.33735153,0.41125417,0.028583815,0.10024901,0.078937635,0.0054382537,0.24877222,0.002448172,0.05309955,-0.37511232,0.3879445,-0.10568334,-0.163953,217.64807,99.09971
4_0_tr_reg_006_0_0.obj,0.07237848,0.18430215,-0.076178744,-0.08039313,-0.32748643,-0.3305688,0.13906366,0.061240572,0.04112422,-0.20674689,-0.06547295,0.14570528,-0.269836,-0.14081384,-0.11279302,0.039873116,-0.12328017,-0.12518379,0.10762051,0.05691323,-0.1631349,0.19799039,-0.008840332,-0.10287465,0.4090544,0.38993883,0.091350496,0.22113848,0.16214426,0.0047362787,-0.064080596,-0.05293482,110.912186,265.262
4_0_tr_reg_007_0_0.obj,-0.34443903,-0.3607372,-0.113977686,0.270823,-0.18140925,0.17880501,0.03844718,0.038100738,-0.16622576,-0.10602213,0.12540054,-0.040161785,-0.18806003,0.20767443,-0.039142296,-0.0443662,-0.06922985,0.0535405,0.1444483,0.0018977129,-0.1249344,-0.10654847,-0.09941183,0.01744222,-0.27259505,-0.2375511,0.31282163,0.20328332,0.32799205,-0.048949465,0.111206174,-0.030662725,49.510414,215.77002
4_0_tr_reg_008_0_0.obj,-0.087293185,-0.002480834,0.19306876,0.040792856,-0.19102237,-0.12538178,-0.103378676,0.13762867,0.15531608,0.10897311,0.14007527,0.2711586,-0.09471668,0.15142454,0.40343958,0.08965808,-0.06661586,0.20191221,0.039019044,-0.20866123,-0.2719761,-0.3918088,0.3667542,-0.10018131,0.10967368,-0.0505293,-0.21782626,-0.04237574,-0.023051381,-0.09567598,-0.060310133,0.017317435,148.05215,203.55495
4_0_tr_reg_009_0_0.obj,-0.25550237,-0.20006001,-0.11475337,0.049736295,-0.18344764,-0.14927845,0.020762978,0.2912159,0.3431713,-0.22069974,0.05006554,-0.08611691,0.2075671,-0.25187802,-0.22892779,-0.29482448,-0.27951443,-0.16118139,0.14305714,-0.13960081,-0.009594217,-0.022560934,-0.22749484,-0.15034062,-0.17915823,-0.14007515,-0.15963936,-0.07874094,-0.009195435,-0.0016683221,-0.06625275,0.09340645,50.766983,138.55605
4_1_0_tr_reg_000_0_0_0.obj,0.23023854,-0.024593325,0.06920955,0.038899694,0.077260755,0.38754728,-0.08599407,-0.220489,0.15948357,-0.0021277515,-0.0659787,-0.0060199434,0.13982576,0.3702182,-0.07542476,0.07106713,-0.1537034,0.3048656,-0.15191175,0.15975475,-0.15318504,0.081491664,-0.03995294,-0.018778654,-0.016982542,0.2025772,0.33382165,-0.05036743,-0.26692024,0.28671202,-0.09199205,-0.12764867,260.7981,165.78911
4_1_0_tr_reg_001_0_0_0.obj,-0.084298104,-0.198608,0.063972615,0.11362059,0.10768355,0.34981355,-0.2161113,0.06942635,-0.19218376,0.1746494,0.025430094,0.13214633,0.36089903,-0.11782125,0.23942097,0.028063482,0.02157142,-0.015997289,0.19762413,-0.05188089,0.14948872,0.3363166,-0.10527671,0.0135757215,-0.055288654,0.26026714,0.11455497,-0.24009618,0.20569375,0.2784984,-0.11199071,-0.0012411701,174.63116,126.88018
4_1_0_tr_reg_002_0_0_0.obj,-0.0045169047,0.011321674,-0.1260823,0.17339373,0.21132612,0.21112303,0.19746457,0.16819094,-0.045820888,0.08214443,0.0021561817,0.14252557,0.082328185,-0.16494383,-0.006394398,-0.02511674,0.1361737,-0.22377716,0.11252808,0.2868356,0.43907577,-0.0651181,0.113240056,-0.055379733,0.2216603,-0.18297413,-0.40662232,-0.15312186,-0.08144466,0.08219041,-0.09054079,0.25316724,126.30448,20.657211
4_1_0_tr_reg_003_0_0_0.obj,0.07098984,-0.053049944,-0.14020084,-0.14631546,0.2312181,0.085276514,0.052114137,0.17844841,0.042188752,-0.0065410403,-0.5307512,0.21611801,0.34007984,0.1140871,0.009182727,-0.064710744,0.024698751,0.15276746,-0.00044603838,-0.09185221,0.068897866,-0.2385778,0.1851923,-0.08427413,-0.23478667,0.32903156,-0.15174672,0.027915003,-0.2506159,0.06623905,0.028027132,0.044673666,180.35777,84.95023
4_1_0_tr_reg_004_0_0_0.obj,-0.024336448,0.23747835,0.18742652,0.28918347,-0.022354744,-0.0006478608,0.023161395,0.0415147,0.13756941,0.05173629,0.38459247,-0.09277789,-0.1651505,0.044330474,0.045967456,-0.2184347,-0.40058985,0.021936484,-0.028794853,-0.15608697,0.2814917,0.25403202,-0.1293426,-0.11484597,-0.13879855,-0.24779736,-0.1365686,0.06821171,-0.18385407,-0.20893478,-0.060010042,0.13944146,145.15262,173.15697
4_1_0_tr_reg_005_0_0_0.obj,-0.032799523,-0.18156724,-0.041380737,-0.093434475,0.02423036,0.10687141,0.042333443,-0.097767234,-0.18154871,-0.08803718,-0.125565,0.027385231,0.1803606,0.13925861,0.05668988,-0.22542728,-0.04898682,0.21955816,-0.10872312,-0.35788018,0.28335887,-0.040697522,0.11526121,0.13623476,0.035057645,0.20745297,0.08845185,0.07238451,-0.41713753,0.4139329,-0.09476731,-0.2302667,231.76686,121.342155
4_1_0_tr_reg_006_0_0_0.obj,0.15241319,0.2646498,0.08654917,0.017613238,-0.20077795,-0.20154397,-0.14549142,-0.00016171193,0.086289525,0.018129636,-0.05236969,-0.04438551,-0.0476515,-0.13829407,-0.12704071,0.12066998,-0.10483537,0.046136323,0.2449503,-0.03702515,-0.21982841,0.5179258,-0.17657796,-0.14428678,0.056166764,0.39957047,0.2363279,0.030735292,0.033362076,-0.20211962,-0.038476355,-0.16165794,204.31454,235.24559
4_1_0_tr_reg_007_0_0_0.obj,-0.28203815,-0.34293842,-0.15310033,0.12386431,-0.07788843,0.12860253,0.06558154,-0.03744503,-0.1021526,-0.08491809,0.10837925,-0.19069387,-0.12903582,0.12520202,-0.178131,0.019234603,0.116686046,-0.013031858,0.08574136,0.12567948,-0.20446064,-0.23616987,-0.101156294,0.07889753,-0.2901054,-0.42084733,0.21273088,0.1214465,0.29585698,-0.11686251,0.17545076,-0.03682195,15.532829,170.98923
4_1_0_tr_reg_008_0_0_0.obj,0.013010262,-0.092853576,-0.008933113,0.17572847,-0.29289418,0.00013933195,-0.12881368,0.05318677,-0.12710233,0.1825061,-0.061320677,0.065221176,0.042847093,-0.016316503,0.021815617,0.2698663,0.31138,0.20461418,0.41821572,0.017388392,0.10633263,0.09447294,0.03689441,-0.19980714,-0.034348916,-0.20870052,-0.07978161,-0.10282577,-0.24122496,-0.33069482,0.013763147,-0.3423412,135.99496,147.24338
4_1_0_tr_reg_009_0_0_0.obj,-0.10098396,0.22422472,0.09740263,0.06710722,0.1890647,-0.14531209,-0.1669647,0.20214394,-0.048187904,-0.21585052,-0.1681253,-0.23871575,0.14822204,-0.46454304,-0.195574,-0.11174188,0.18942389,0.09584568,0.1920852,-0.28487578,0.1805011,-0.080894515,-0.010601762,0.010194371,-0.13001138,0.12632333,0.042019375,-0.27911678,-0.07075429,-0.11636246,0.18906577,-0.089329794,109.04877,104.12249
4_1_tr_reg_000_0_0.obj,0.26852548,0.054343663,0.03213682,-0.022230955,0.08609273,0.35610515,-0.01971656,-0.2986032,0.2849117,0.029862469,0.06249752,-0.16036604,0.0648921,0.33716103,-0.13978,0.073788196,-0.16246186,0.15872434,-0.21304183,0.22779608,-0.24953578,0.07740335,-0.059279695,0.055440012,0.05180034,0.008736281,0.2479031,-0.06299331,-0.24883102,0.2793803,-0.101628065,-0.05369037,218.27774,144.46591
4_1_tr_reg_001_0_0.obj,-0.07258287,-0.19524927,0.06527333,0.11289171,0.090027206,0.3561088,-0.22729719,0.06183758,-0.15123071,0.17456922,0.029733323,0.12062397,0.36348093,-0.10612426,0.23267408,0.03351638,-0.008558852,-0.014891749,0.20136982,-0.046018396,0.106845714,0.35447088,-0.1215403,0.0034211273,-0.06146975,0.2682927,0.13642408,-0.23885365,0.20825662,0.2802961,-0.11661207,-0.0028868406,173.53023,126.48983
4_1_tr_reg_002_0_0.obj,0.13475119,0.27161577,-0.038017847,0.029596338,0.29221302,0.17118704,0.20244718,-0.022351354,0.1587165,0.05348518,0.120762154,-0.12209967,-0.036867164,-0.10396844,-0.15061562,-0.019155314,0.07614637,-0.19999173,-0.10275709,0.34219152,0.15247029,-0.118748695,0.10506741,0.063098125,0.30055687,-0.29874504,-0.2987395,-0.172762,-0.16582887,0.08867813,-0.04380968,0.3082668,204.29004,37.80094
4_1_tr_reg_003_0_0.obj,0.061124716,-0.06366901,-0.16832103,-0.39366883,0.09270587,-0.2948788,-0.022247788,-0.064370684,0.18979186,0.18236952,-0.22224034,-0.2377401,0.25207663,-0.1283812,-0.051365167,0.00019564066,0.06647354,-0.27150038,-0.04758916,-0.22769287,-0.19764175,-0.013330357,-0.042231604,0.17699698,-0.38342857,-0.09283858,-0.2314658,0.045235585,0.039842084,-0.1553772,0.09634422,0.00094489264,54.24591,71.08825
4_1_tr_reg_004_0_0.obj,0.014596411,0.24803083,0.26831025,0.22894596,0.04518934,-0.105633974,0.0029091807,-0.04670982,0.0021879608,0.08099247,0.35296756,-0.0660732,-0.22422309,0.113671586,0.11006935,-0.14044318,-0.30153918,0.06433366,-0.11081378,-0.11743447,0.3068042,0.22865571,-0.116528004,-0.096386865,-0.23304398,-0.20528552,-0.092382185,0.12273574,-0.15848266,-0.35162613,0.002206568,0.09320769,117.92149,169.59947
4_1_tr_reg_005_0_0.obj,0.057969082,0.016267527,-0.11800918,-0.28319237,-0.0032419332,-0.001930825,0.21320158,-0.36727592,0.03965243,-0.011187201,0.14181478,-0.31933406,-0.09531679,0.11980158,-0.11624039,-0.1343454,-0.023712635,-0.10354172,-0.27567953,-0.10532741,-0.012856342,-0.104621805,0.076588474,0.32688788,0.1996,-0.27259484,-0.030103954,0.12080056,-0.28315723,0.31699413,-0.060470708,-0.08326415,201.6728,67.36275
4_1_tr_reg_006_0_0.obj,0.1079214,0.19601825,-0.008709874,0.033972763,-0.32151654,-0.24081872,-0.0040579177,0.07225671,0.08519823,-0.14002451,-0.043711226,0.09675285,-0.15371248,-0.16015795,-0.17021175,0.072016686,-0.13136972,-0.004721142,0.20487225,0.02800314,-0.17192227,0.39181352,-0.117574915,-0.15894991,0.30594432,0.43577418,0.18895304,0.12636766,0.108885445,-0.043513212,-0.095594086,-0.14233738,153.17969,255.18088
4_1_tr_reg_007_0_0.obj,-0.2900099,-0.06939497,0.08028877,0.24929002,0.15356626,0.02181558,-0.041027892,0.18481565,-0.29111028,-0.33092126,-0.114530265,0.08499165,-0.13055281,0.02994857,-0.1128242,-0.1546207,0.1007003,0.30446902,-0.07905505,-0.07396317,0.17766078,-0.39172885,0.008326199,-0.042855747,-0.23924036,0.02309237,0.24153641,0.034077592,0.14468224,-0.08489763,0.25648665,0.027134567,68.30105,155.39323
4_1_tr_reg_008_0_0.obj,0.13595195,-0.012008701,0.06197917,0.009628825,-0.29951137,-0.15849552,-0.14791974,0.016693484,-0.11966539,0.14157584,-0.10543424,0.1888802,-0.08497585,0.027029332,0.14695483,0.28456303,0.34757826,0.25303194,0.10406171,-0.025743324,-0.0431228,-0.24799025,0.24899878,-0.10984373,0.2832384,-0.21290755,-0.13661987,-0.12746125,-0.21353441,-0.1467998,0.022830404,-0.2947669,160.78484,148.43463
4_1_tr_reg_009_0_0.obj,0.01892825,0.13893174,0.093241595,-0.091728866,-0.051008735,-0.24036656,-0.18466136,0.082246035,-0.14749818,-0.21678317,-0.030283315,-0.11998801,-0.027370235,-0.52219266,-0.085184775,-0.03399905,0.33468285,-0.021333957,-0.08757348,-0.18778606,0.11723663,-0.15642214,0.008980763,0.10731048,0.3887166,-0.08808015,-0.011893541,-0.28116977,0.082255855,0.12116353,0.108466655,-0.14000188,66.702065,99.63451
4_2_0_tr_reg_000_0_0_0.obj,0.26637977,0.05955561,0.09790837,0.09361969,0.11906357,0.38624042,-0.10633563,-0.16669036,0.24750975,0.018115543,-0.030471524,0.0009118269,0.11453782,0.36226848,-0.09196861,0.11218597,-0.15658732,0.2941005,-0.14113435,0.25123546,-0.20507437,0.09893851,-0.059925225,-0.085560046,-0.038477782,0.18232912,0.285935,-0.09660122,-0.23673366,0.1685661,-0.08418475,-0.051043835,223.77487,201.23593
4_2_0_tr_reg_001_0_0_0.obj,-0.11427628,-0.20929487,0.02538117,-0.04577021,0.10270188,0.23670073,-0.18843533,-0.031971227,-0.26805863,0.24730371,0.0711808,0.062162995,0.28344122,-0.2008994,0.27057973,0.08215522,0.14849351,-0.18387069,0.120771095,-0.031164227,0.08500753,0.34260684,-0.1291818,0.12775947,0.0019046058,0.1288194,0.03440857,-0.20490865,0.36809903,0.24302348,-0.101244725,0.032794047,140.11946,85.610504
4_2_0_tr_reg_002_0_0_0.obj,0.06390677,0.11899199,-0.08845355,0.10330961,0.29912427,0.21353094,0.20996189,0.094635665,-0.015713906,0.07730022,0.0077288905,0.07005582,0.06206542,-0.13475934,-0.05136233,-0.0150259705,0.16205905,-0.18951638,0.02109385,0.31931058,0.37980932,-0.11995164,0.15391384,-0.0026959488,0.26215187,-0.19244984,-0.38285276,-0.1726076,-0.15192379,0.095474906,-0.061061893,0.272221,158.1795,23.322968
4_2_0_tr_reg_003_0_0_0.obj,0.12596923,-0.06333055,-0.18778305,-0.38538235,0.20135702,-0.16052753,0.0012593195,0.02108412,0.16443975,0.18571144,-0.42212933,-0.057876598,0.35684955,-0.029498773,-0.016550357,0.013875342,0.07258576,-0.15437028,-0.047971107,-0.15270454,-0.12319775,-0.06858001,0.027334604,0.06569895,-0.41552582,0.101879105,-0.2527888,0.05323,-0.058601536,-0.124048576,0.08848634,0.041675832,147.04369,65.96012
4_2_0_tr_reg_004_0_0_0.obj,0.078309655,0.26874706,0.3117211,0.085954994,0.15678903,-0.19508964,0.014586118,-0.15867804,-0.15562733,0.10806956,0.28549418,-0.07220125,-0.26876307,0.13092653,0.13492665,-0.04111089,-0.1211035,0.0541447,-0.22227442,-0.028434228,0.3029092,0.131152,-0.0720154,-0.0137694115,-0.24641182,-0.18250772,-0.05007744,0.15377945,-0.09382878,-0.41708052,0.086166345,0.0681872,92.55809,168.57903
4_2_0_tr_reg_005_0_0_0.obj,0.046812974,-0.11428491,-0.05808326,-0.18216214,0.03085827,0.14035559,0.094696715,-0.2719214,-0.10561497,-0.060968187,-0.041280713,-0.11283221,0.1116695,0.19693281,-0.024152061,-0.18181314,-0.037175503,0.16314414,-0.21088222,-0.23841663,0.17451258,-0.05162124,0.10024093,0.2239907,0.11515311,0.05385113,0.09749196,0.07125578,-0.45905045,0.45130867,-0.10738542,-0.22605152,259.53192,92.60696
4_2_0_tr_reg_006_0_0_0.obj,0.003771571,0.11982944,-0.106830895,-0.0469065,-0.22690234,-0.27413866,0.23807073,0.11290185,-0.010932273,-0.27251825,-0.11742921,0.24813743,-0.3044372,-0.039952636,-0.07410455,0.014357979,-0.1407985,-0.14499184,0.045685068,0.172501,-0.10740009,0.05103732,0.026567403,-0.1340309,0.34726024,0.4067633,0.06497144,0.2738553,0.2187047,0.0059087374,-0.04360142,0.07547838,112.8515,234.98027
4_2_0_tr_reg_007_0_0_0.obj,-0.3226444,-0.36301327,-0.1516063,0.24297886,-0.16420689,0.18134946,0.062251076,0.021749018,-0.10527921,-0.08367985,0.12864898,-0.11137661,-0.15413696,0.18458687,-0.1230174,-0.022243122,-0.023489216,0.0097445585,0.15932654,0.07093454,-0.16042525,-0.12886341,-0.11609521,0.028198821,-0.28798163,-0.33491302,0.27088004,0.16763203,0.30309772,-0.0759563,0.12218174,-0.024037533,38.16002,200.36462
4_2_0_tr_reg_008_0_0_0.obj,-0.0026659619,-0.025376681,0.15410687,0.045164753,-0.23135449,-0.1518868,-0.14268558,0.1362254,0.09020309,0.14575644,0.042835455,0.31632802,-0.077752076,0.13467509,0.34896773,0.17350131,0.08539683,0.23901784,0.048415516,-0.121666916,-0.21986157,-0.36596823,0.3445199,-0.15096943,0.17944163,-0.09947427,-0.24321684,-0.09603497,-0.09354484,-0.1386922,-0.050808184,-0.06587453,180.20808,183.81714
4_2_0_tr_reg_009_0_0_0.obj,-0.26833498,-0.16195387,-0.146237,-0.036012374,-0.17949392,-0.20845558,0.123870544,0.24463493,0.27536175,-0.21582857,0.013264737,-0.05393435,0.14995758,-0.225662,-0.17357357,-0.35265017,-0.34447065,-0.20846893,0.06698984,-0.2493326,0.058419622,-0.0982535,-0.13351838,-0.04960245,-0.15271832,-0.11359813,-0.2151642,0.06427074,0.05050387,0.07867286,-0.049563695,0.12187499,13.505913,114.16693
4_2_1_0_tr_reg_000_0_0_0_0.obj,0.28369132,0.09269631,0.089261174,0.08625388,0.12315988,0.36749825,-0.08667582,-0.19261579,0.30981046,0.031936742,0.039501123,-0.06582893,0.07648715,0.3485162,-0.12474006,0.123171285,-0.15838917,0.23193048,-0.16274878,0.2965615,-0.25566664,0.10514993,-0.07702519,-0.06445723,-0.015712075,0.091797546,0.2502165,-0.111784205,-0.21794519,0.14305304,-0.08893688,-0.016282082,206.11813,182.57753
4_2_1_0_tr_reg_001_0_0_0_0.obj,-0.057540357,-0.17340294,0.071163684,0.1264893,0.11534398,0.36134133,-0.22032258,0.074041046,-0.16957708,0.16637567,0.017587278,0.13046265,0.3666367,-0.11694625,0.22694622,0.027017413,0.008925531,-0.0014611537,0.19971693,-0.039444204,0.15400238,0.3398974,-0.10607437,-0.0029384478,-0.04829866,0.27637592,0.11964713,-0.25459185,0.17399177,0.28351015,-0.114120804,-0.0022036813,190.8591,136.04013
4_2_1_0_tr_reg_002_0_0_0_0.obj,0.016544044,0.05811304,-0.10253191,0.14045985,0.25714666,0.19651425,0.20318858,0.14254476,-0.056281425,0.06765467,-0.0026953937,0.12233787,0.06406494,-0.16307795,-0.022737868,-0.023755318,0.16347463,-0.20457211,0.062867664,0.2949973,0.43063042,-0.108690254,0.13904697,-0.029938355,0.24129944,-0.18685223,-0.40017575,-0.15700759,-0.10296421,0.08043653,-0.0643479,0.26283553,139.59595,21.713661
4_2_1_0_tr_reg_003_0_0_0_0.obj,0.0920694,-0.034767054,-0.12612835,-0.14299949,0.24752896,0.10141945,0.033517454,0.16361366,0.048954513,0.010776986,-0.5305352,0.20376232,0.35422352,0.11673834,0.00703676,-0.05430108,0.01768256,0.15869692,0.0029983527,-0.08282422,0.06863715,-0.19998395,0.16319317,-0.091674,-0.27452,0.32935816,-0.14722657,0.019860698,-0.25385493,0.04063552,0.03355417,0.040911756,183.19531,88.73062
4_2_1_0_tr_reg_004_0_0_0_0.obj,-0.1596827,-0.0821872,0.103172325,0.45394954,-0.13076602,0.14134814,-0.03552592,0.11866146,-0.007203566,0.005644877,0.15916285,0.14732224,-0.023150181,0.19387178,0.07827156,-0.16724469,-0.36253446,0.20501286,0.17035878,-0.19632651,0.32005724,0.27639273,-0.083306685,-0.18820582,-0.2426835,0.015052989,0.045426983,0.118269,-0.14349765,-0.11595082,-0.07674865,-0.044182952,160.82208,217.9589
4_2_1_0_tr_reg_005_0_0_0_0.obj,0.037255872,-0.10972949,-0.047075108,-0.16703993,0.044393193,0.12302286,0.085966974,-0.23776996,-0.1452642,-0.078956135,-0.07871633,-0.07049211,0.10576786,0.19955815,-0.014808228,-0.17917725,-0.009442314,0.20639074,-0.20647322,-0.25580615,0.20246476,-0.08012368,0.12663397,0.20702964,0.10869036,0.10029223,0.1049099,0.08009787,-0.46235058,0.42499945,-0.088424355,-0.23456053,260.78683,101.378975
4_2_1_0_tr_reg_006_0_0_0_0.obj,-0.08781719,-0.014179411,-0.16671617,-0.050969448,-0.11765434,-0.21597238,0.35214025,0.14664768,-0.16096081,-0.24453552,-0.21403211,0.3322485,-0.23710458,0.038399376,-0.013617185,-0.040063888,-0.0896567,-0.13312179,0.046988387,0.12504426,0.08864403,-0.12077557,0.15061255,-0.08442516,0.24046026,0.36860296,-0.04091155,0.35005516,0.16280772,0.045645237,-0.023983937,0.10670026,131.75775,202.94905
4_2_1_0_tr_reg_007_0_0_0_0.obj,-0.22181165,-0.14549558,-0.037352663,0.02117498,0.1420354,-0.00070961827,0.0111565385,-0.015559272,-0.20161943,-0.19313821,0.0062186727,-0.18119566,-0.16357753,0.014301,-0.20237224,0.0053187725,0.2789358,0.09442294,-0.12583897,0.105789654,-0.109808624,-0.42482784,-0.056615107,0.09085098,-0.26263797,-0.31013095,0.19205697,0.048321374,0.28493392,-0.1886537,0.29927355,0.0033491775,39.315033,116.7381
4_2_1_0_tr_reg_008_0_0_0_0.obj,0.04429693,-0.02357778,-0.038510233,0.135651,-0.24369463,-0.009672121,-0.091774896,0.015419593,-0.18716915,0.15669684,-0.0800714,-0.04002605,0.04182355,-0.12193711,-0.055666305,0.23935531,0.33423027,0.14552708,0.42273706,0.015282994,0.20634948,0.16188413,-0.028995233,-0.15853247,-0.04439858,-0.22037235,-0.070241585,-0.08912257,-0.25042278,-0.32411787,0.043286134,-0.35385275,128.46075,141.76302
4_2_1_0_tr_reg_009_0_0_0_0.obj,-0.0076960977,0.2587539,0.12965088,0.06454498,0.23241116,-0.095313646,-0.23397513,0.14243673,-0.080419056,-0.15485558,-0.21101364,-0.20885839,0.17729986,-0.4070528,-0.16439855,-0.032315813,0.23843817,0.15612426,0.16509458,-0.24276462,0.16865203,-0.008644599,-0.0032461267,0.014229171,-0.12636188,0.187582,0.084720396,-0.3114017,-0.094764434,-0.13158016,0.18629791,-0.13278542,110.83816,102.216324
4_2_1_tr_reg_000_0_0_0.obj,0.2871344,0.13875307,0.0489158,0.023001352,0.12927945,0.3036989,-0.02168069,-0.24670301,0.3842798,0.06369969,0.1436411,-0.19240253,0.016615568,0.2924677,-0.1644846,0.1205881,-0.13968508,0.08226671,-0.1950845,0.33227837,-0.31632897,0.09098254,-0.08069646,0.009498964,0.032154135,-0.085331105,0.14490704,-0.11549211,-0.18189758,0.11187354,-0.091886066,0.04385219,205.08087,154.66869
4_2_1_tr_reg_001_0_0_0.obj,-0.046684973,-0.16052379,0.07773841,0.12911978,0.13037825,0.36094365,-0.21496007,0.078742616,-0.18006133,0.1584381,0.007682312,0.13891262,0.37021536,-0.11437103,0.2276999,0.019431487,0.011570192,0.01708993,0.19508044,-0.044334676,0.18397981,0.32806164,-0.09306816,-0.010087339,-0.046257284,0.2921946,0.11076255,-0.2580109,0.13980697,0.28421062,-0.113913044,-0.008209493,192.84242,137.05913
4_2_1_tr_reg_002_0_0_0.obj,0.08315645,0.19342455,-0.078398466,0.09694207,0.25830328,0.1873117,0.21348795,0.056926604,0.1345575,0.07226235,0.11260903,-0.05110034,0.0019469092,-0.14046763,-0.1064539,-0.040786166,0.056929983,-0.24858546,-0.017649088,0.32975626,0.25673655,-0.075507894,0.08699519,0.013317724,0.26838344,-0.29646966,-0.3722738,-0.17176856,-0.14078741,0.07809183,-0.07933465,0.32322866,174.36237,44.51609
4_2_1_tr_reg_003_0_0_0.obj,0.078472905,-0.08136996,-0.17689778,-0.40271142,0.14447057,-0.23728973,-0.023350399,-0.032537255,0.17358968,0.19500905,-0.30837083,-0.17078505,0.32159564,-0.099116966,-0.036678743,0.010004275,0.07205113,-0.23479763,-0.038063772,-0.19561176,-0.1799332,-0.014260355,-0.030432355,0.13664074,-0.4141936,-0.0049953167,-0.23087591,0.041075747,0.021932013,-0.1412214,0.0911003,0.018652406,97.6241,74.31783
4_2_1_tr_reg_004_0_0_0.obj,-0.024847534,0.20115145,0.25551605,0.28085542,0.013455092,-0.06348774,-0.01343228,-0.020938922,-0.0002485567,0.06602911,0.3210857,-0.028598623,-0.18295266,0.1390296,0.11455476,-0.16179468,-0.33466527,0.117983975,-0.0588101,-0.17070219,0.33324638,0.24713066,-0.104069546,-0.11578133,-0.25472197,-0.16060469,-0.07274667,0.12318177,-0.19668299,-0.31841016,-0.016361466,0.05643921,124.27047,179.82083
4_2_1_tr_reg_005_0_0_0.obj,0.014563308,-0.11762322,-0.0698051,-0.20514344,0.0143261915,0.091292724,0.11601094,-0.2743079,-0.12204307,-0.07240037,-0.023583278,-0.12896577,0.07429703,0.18240473,-0.025631906,-0.19354622,-0.017526316,0.14031295,-0.2218251,-0.26413086,0.17152043,-0.08733693,0.1168241,0.24865922,0.13169855,0.018790754,0.07830443,0.09341264,-0.44116786,0.4356033,-0.094932966,-0.22378662,255.23656,81.13245
4_2_1_tr_reg_006_0_0_0.obj,0.15905939,0.25662297,0.04369754,-0.011539021,-0.24507476,-0.24323846,-0.09726609,0.013019413,0.052361406,-0.016852772,-0.055905536,0.004905162,-0.09819032,-0.19727351,-0.13712266,0.13987349,-0.0528175,-0.008907977,0.22904532,0.009490192,-0.20580286,0.47888446,-0.14533728,-0.12896125,0.21845031,0.41463166,0.20243025,0.045029547,0.09756408,-0.13545004,-0.06215363,-0.16003302,200.3246,235.85806
4_2_1_tr_reg_007_0_0_0.obj,-0.25842458,-0.041788418,0.088233106,0.20610374,0.21127917,0.040246606,-0.03781684,0.1493707,-0.27920538,-0.31687623,-0.08381775,0.047555186,-0.14281401,0.03159677,-0.13229798,-0.12080293,0.17151943,0.2988138,-0.14130217,-0.0050073643,0.13989455,-0.46374238,0.028999193,-0.020874755,-0.20458655,-0.05343785,0.20714265,-0.01072284,0.13807468,-0.09865302,0.2759432,0.052751113,74.2066,143.52765
4_2_1_tr_reg_008_0_0_0.obj,0.14439005,0.05236674,-0.024484154,-0.03261602,-0.21476719,-0.19054458,-0.0542993,-0.072734624,-0.2836592,0.05889298,-0.08155913,-0.12354226,-0.06254172,-0.23492682,-0.093620285,0.20171608,0.4207832,0.09858541,0.19342953,-0.018781265,0.24885224,-0.019192593,0.011118832,-0.028059779,0.15667865,-0.28597686,-0.07915138,-0.09184644,-0.25835156,-0.19727868,0.092793636,-0.38290265,115.653854,131.13255
4_2_1_tr_reg_009_0_0_0.obj,0.08623222,0.2418726,0.12268587,-0.12357479,0.007651343,-0.27484816,-0.22177942,0.03242741,-0.12066765,-0.14130503,-0.04785732,-0.20127076,-0.02036709,-0.5444151,-0.08919627,0.03629914,0.34343743,-0.053384807,-0.033481546,-0.17515081,0.053926867,-0.031227866,-0.023863811,0.11425887,0.29538092,-0.020501504,0.019186867,-0.28728682,0.108397186,-0.0067426567,0.14133844,-0.14848305,83.18599,104.98476
4_2_tr_reg_000_0_0.obj,0.25819546,0.09732902,0.11523754,0.1459455,0.13480672,0.4062129,-0.1123307,-0.12850547,0.31624833,0.04880216,0.05851828,-0.023949591,0.1166548,0.31583554,-0.08723429,0.10625007,-0.18400158,0.23462208,-0.1099622,0.2911596,-0.20280486,0.14624123,-0.092646204,-0.11694242,-0.032545008,0.110114224,0.21281059,-0.16231148,-0.227982,0.13355124,-0.11285276,0.020169647,206.69083,187.39041
4_2_tr_reg_001_0_0.obj,-0.122715235,-0.22250178,0.00056874513,-0.11952445,0.062167555,0.18306181,-0.1679462,-0.09680993,-0.23586628,0.2797846,0.1013059,0.0065661846,0.24634162,-0.19119963,0.26407552,0.098611735,0.14549825,-0.24637909,0.088320196,-0.03547279,0.0061482834,0.35148504,-0.14478585,0.17003892,0.007269038,0.06353204,0.018213654,-0.16391781,0.4069763,0.22637004,-0.1078716,0.03296682,135.92186,78.02002
4_2_tr_reg_002_0_0.obj,-0.0785505,-0.17801104,-0.14318264,0.22269782,0.072275214,0.24815741,0.11304675,0.23447725,-0.13704418,0.06788036,-0.059038315,0.27467537,0.15335234,-0.1531272,0.060713943,0.0037608796,0.18114454,-0.14213784,0.19913489,0.20475538,0.43899903,-0.08834185,0.12890838,-0.095379315,0.21902019,-0.105521716,-0.32469136,-0.1714739,0.0122554805,0.16275789,-0.08240127,0.12766127,91.57305,12.583466
4_2_tr_reg_003_0_0.obj,0.117314965,-0.057921667,-0.17394033,-0.39873022,0.16189687,-0.21654856,-0.019079763,-0.030813735,0.17995504,0.20930031,-0.34294036,-0.14024699,0.32599157,-0.063185215,-0.02766307,0.019501286,0.06517227,-0.206586,-0.0479577,-0.18104109,-0.16493545,-0.015489186,-0.0119065875,0.11460945,-0.42219627,0.022203434,-0.24136339,0.05221073,-0.01795527,-0.15191081,0.08982924,0.020796826,128.57896,71.68721
4_2_tr_reg_004_0_0.obj,0.109621055,0.21805984,0.29903793,-0.035748426,0.2301529,-0.22398542,0.0108176125,-0.23617283,-0.2669156,0.12753282,0.15504032,-0.0664611,-0.23821516,0.15426213,0.1244367,0.05560275,0.040382367,0.05984918,-0.26617533,0.044838525,0.25714487,0.050361454,-0.039336227,0.045430448,-0.28047386,-0.11627546,0.02113061,0.16397694,-0.032783695,-0.42479125,0.15443572,0.019432606,71.31974,176.22173
4_2_tr_reg_005_0_0.obj,0.104790755,0.044255976,-0.10116775,-0.27544236,-0.0024469462,0.019363383,0.19715916,-0.39333957,0.097910695,-0.002854421,0.1516555,-0.3354459,-0.11308868,0.15855609,-0.13245074,-0.09110605,-0.05295807,-0.092175,-0.28917205,-0.047812015,-0.09354105,-0.08983801,0.058437727,0.314354,0.1862326,-0.26430306,0.01740888,0.12263652,-0.25526303,0.29654604,-0.05448817,-0.07672601,201.74364,67.36372
4_2_tr_reg_006_0_0.obj,0.03170912,0.14981365,-0.09845403,-0.050076853,-0.27897146,-0.28027797,0.20628266,0.08660712,0.0051965984,-0.2529225,-0.09780598,0.19769058,-0.28735957,-0.085947186,-0.11258841,0.022632405,-0.14270307,-0.1317179,0.09039388,0.12608953,-0.11566217,0.1373038,0.0015943644,-0.120410115,0.37987,0.4142809,0.09834598,0.25968388,0.1914146,0.022625081,-0.057957552,0.0075894077,97.76178,246.71667
4_2_tr_reg_007_0_0.obj,-0.25473845,-0.34261003,-0.15605505,0.12769613,-0.084035315,0.14787947,0.05893747,-0.05004257,-0.054791734,-0.057606224,0.112963066,-0.21817696,-0.09870008,0.13848096,-0.20126405,0.037347663,0.10896564,-0.011018126,0.1107927,0.14399937,-0.22861113,-0.21543498,-0.105464585,0.0725836,-0.3011919,-0.4367636,0.2161061,0.09533373,0.25112918,-0.115280084,0.1684584,-0.050800312,16.292488,172.33401
4_2_tr_reg_008_0_0.obj,0.028204717,-0.050572604,0.12314183,0.059185404,-0.30579853,-0.15971218,-0.20780759,0.105189905,0.02646798,0.2115554,0.016899828,0.26326835,-0.060139187,0.09026057,0.28093684,0.2562945,0.20951577,0.2495084,0.14051445,-0.08677906,-0.19601458,-0.21858199,0.24969289,-0.17765403,0.15352629,-0.17605956,-0.20536831,-0.13216569,-0.12794328,-0.23884347,-0.03012242,-0.17667644,179.32977,163.59103
4_2_tr_reg_009_0_0.obj,-0.24723783,-0.18439855,-0.11003904,0.051223673,-0.19447686,-0.16053197,0.01846141,0.27811748,0.35561636,-0.20757799,0.06345714,-0.098944575,0.19566357,-0.24134144,-0.23052508,-0.28933856,-0.28928158,-0.16025272,0.1481504,-0.14191797,-0.022036728,5.665264e-05,-0.23132819,-0.15366887,-0.18395889,-0.15222384,-0.16370782,-0.07370847,-0.024558017,-0.026861863,-0.06898243,0.08776888,50.464813,138.7284
4_3_0_tr_reg_000_0_0_0.obj,0.25385112,0.050983135,0.11166399,0.115612194,0.10826873,0.37664866,-0.1286672,-0.13362476,0.22284718,0.0064267614,-0.05324522,0.03715869,0.12858123,0.35852605,-0.071744144,0.09948104,-0.16970465,0.3272525,-0.119682334,0.21691637,-0.1748573,0.1098786,-0.06533474,-0.112834476,-0.069789305,0.22964677,0.29811388,-0.09244398,-0.24225469,0.15322596,-0.08121805,-0.066223204,227.92078,204.16551
4_3_0_tr_reg_001_0_0_0.obj,-0.1303666,-0.20107661,-0.0040320912,-0.24713154,0.07180323,0.011123742,-0.12521307,-0.19028737,-0.31795585,0.26398602,0.09755268,-0.04379622,0.111654416,-0.18843669,0.2657785,0.10617981,0.22836539,-0.28635922,-0.05435266,-0.06876581,-0.023348391,0.25380704,-0.12038737,0.25883722,0.025982803,-0.023366446,-0.01988628,-0.0752411,0.43205324,0.15858118,-0.06412852,0.026688851,109.60898,49.6317
4_3_0_tr_reg_002_0_0_0.obj,0.00084393955,0.003591144,-0.099405974,0.17349792,0.23863743,0.23391868,0.17150266,0.17948017,-0.10391637,0.07404485,-0.033621736,0.19028772,0.11501491,-0.1501324,0.019498684,-0.015739767,0.16617943,-0.16335091,0.117791474,0.27569896,0.47005183,-0.07931289,0.13711463,-0.07097794,0.20749006,-0.110742204,-0.37899682,-0.17051528,-0.09844827,0.08919438,-0.07282255,0.22461502,115.81363,15.126587
4_3_0_tr_reg_003_0_0_0.obj,0.08836094,-0.07063289,-0.17529637,-0.401194,0.111686535,-0.2777506,-0.020038743,-0.071619056,0.17626953,0.21319625,-0.24801342,-0.20795907,0.25828993,-0.10067527,-0.028715605,0.027147468,0.08629795,-0.26874825,-0.058716718,-0.20050706,-0.19319905,-0.011386176,-0.028241575,0.1728515,-0.3824071,-0.078496136,-0.24346218,0.053003337,0.03723286,-0.15868732,0.09022103,0.005787135,71.993805,74.22214
4_3_0_tr_reg_004_0_0_0.obj,-0.037835903,0.087316506,0.2873598,0.16983204,0.09672499,-0.13960591,-0.03199802,-0.13645193,-0.31685594,0.07977298,0.118804246,0.08038392,-0.16835234,0.21684903,0.19351028,-0.040169254,-0.095875785,0.20546423,-0.10057733,-0.1589623,0.40860602,0.14754419,-0.0059964443,-0.02515809,-0.3321928,-0.00511578,0.043132402,0.19772701,-0.13011535,-0.3626722,0.07932797,-0.08363996,96.58617,200.6318
4_3_0_tr_reg_005_0_0_0.obj,-0.01547863,-0.1596935,-0.06320852,-0.1428784,0.033737462,0.10460883,0.07914875,-0.1638652,-0.16926841,-0.07707955,-0.08210657,-0.043504238,0.15490022,0.13143937,0.025775991,-0.22944424,-0.029578233,0.16723,-0.1499724,-0.3334625,0.27094504,-0.048297554,0.11301279,0.19069336,0.07866841,0.12527831,0.060462963,0.07044609,-0.43890992,0.44283187,-0.10143627,-0.2233879,259.76154,115.89585
4_3_0_tr_reg_006_0_0_0.obj,0.058171093,0.18768863,-0.07504013,-0.05250316,-0.3306877,-0.31783327,0.14562862,0.07327338,0.048870835,-0.21011908,-0.054531094,0.13950072,-0.26289383,-0.14271235,-0.12862135,0.02606737,-0.14686018,-0.12184496,0.13498978,0.051345766,-0.13854031,0.23097885,-0.029478662,-0.11505181,0.38115636,0.39618266,0.09580231,0.22938655,0.15513034,-0.008021658,-0.073673874,-0.053470407,112.2493,265.29437
4_3_0_tr_reg_007_0_0_0.obj,-0.26779178,-0.30250034,-0.112758055,0.13525836,-0.021512952,0.17254591,0.029974008,-0.020140307,-0.10939585,-0.12818936,0.0878773,-0.16157703,-0.13667215,0.13803768,-0.17897503,0.039218947,0.17180991,0.06457871,0.030072503,0.16555957,-0.23430368,-0.3407883,-0.05699497,0.075339444,-0.22609733,-0.37890694,0.26123974,0.055491276,0.29671782,-0.07024962,0.19850358,-0.018459018,37.858063,166.01602
4_3_0_tr_reg_008_0_0_0.obj,-0.04719429,0.0032146107,0.18452743,0.028686672,-0.20345996,-0.14524251,-0.10730004,0.12311278,0.11027918,0.109601736,0.09718953,0.2827037,-0.096407756,0.13411699,0.38503048,0.11245281,-0.004894366,0.22287244,0.03010101,-0.20053174,-0.23161681,-0.40989015,0.38633353,-0.09515144,0.16283979,-0.0698631,-0.22864752,-0.054290216,-0.061676957,-0.08604506,-0.050213657,-0.02962698,155.4642,199.37808
4_3_0_tr_reg_009_0_0_0.obj,-0.22016859,-0.23721819,-0.07972928,0.19184631,-0.11614318,0.04686488,-0.06470568,0.3292148,0.36408657,-0.17961726,0.06711226,-0.065757655,0.2541487,-0.20309396,-0.22999279,-0.16974978,-0.1808181,-0.08761964,0.23170868,0.057324298,-0.082654595,-0.0036381066,-0.25181222,-0.24080391,-0.19574712,-0.146477,-0.07475533,-0.23464984,-0.009019758,-0.03198857,-0.067189716,0.10491943,98.86355,141.05568
4_3_1_0_tr_reg_000_0_0_0_0.obj,0.18613873,-0.079337865,0.04477107,0.008613609,0.03076274,0.35087729,-0.06511671,-0.22551663,0.061090183,-0.03853595,-0.11030111,0.01636678,0.14721507,0.35510197,-0.056275032,0.02442513,-0.13136171,0.3261354,-0.14356275,0.06185679,-0.073401324,0.044841137,0.0031241798,0.023149502,0.028628126,0.23042691,0.34707442,-0.016214723,-0.31399775,0.3646362,-0.09597634,-0.19294953,263.52563,154.67834
4_3_1_0_tr_reg_001_0_0_0_0.obj,-0.09926753,-0.21029107,0.04263948,0.06608041,0.10178634,0.33028364,-0.2101912,0.03663894,-0.20669083,0.20408724,0.046243865,0.10130609,0.34349856,-0.14512475,0.24435438,0.049376324,0.059278864,-0.081271164,0.18436371,-0.03777393,0.10945871,0.35138127,-0.12065056,0.055501208,-0.037212756,0.21463084,0.09981557,-0.23460418,0.27550808,0.27780288,-0.11146567,0.014655406,149.32619,103.82677
4_3_1_0_tr_reg_002_0_0_0_0.obj,0.059297167,0.1154399,-0.0939525,0.12255244,0.28089893,0.22025284,0.20944165,0.10560398,0.013035087,0.08119687,0.026744602,0.06493918,0.059375044,-0.13958609,-0.054210473,-0.017393928,0.13482355,-0.20951498,0.037044555,0.330443,0.36864373,-0.09544554,0.13252303,-0.016554605,0.25779265,-0.20595418,-0.3866774,-0.17552799,-0.1371958,0.09002759,-0.0737871,0.28613377,157.81413,26.477493
4_3_1_0_tr_reg_003_0_0_0_0.obj,0.1077915,-0.038207978,-0.13635366,-0.17938247,0.25334942,0.070933394,0.03573742,0.15284917,0.05940752,0.040677402,-0.53177047,0.18568973,0.36436373,0.10360382,0.007845017,-0.043763,0.031783592,0.12326914,-0.0068469304,-0.08652527,0.0641652,-0.18747999,0.15328312,-0.08293103,-0.2977569,0.3084927,-0.17807178,0.02666381,-0.246865,0.012123394,0.04226856,0.043311942,174.7092,80.710175
4_3_1_0_tr_reg_004_0_0_0_0.obj,-0.059415482,0.16244239,0.24419631,0.2867043,0.00082887814,-0.07677663,-0.006641573,-0.0126864305,-0.060129136,0.07399546,0.3033607,-0.0015699982,-0.17627731,0.12321654,0.13804297,-0.16478123,-0.3086083,0.10098187,-0.034067072,-0.18866834,0.38213655,0.25285485,-0.09707784,-0.10919809,-0.2583796,-0.16399778,-0.087586425,0.1362324,-0.16889718,-0.3232308,-0.0136911925,0.044523083,124.966934,182.5813
4_3_1_0_tr_reg_005_0_0_0_0.obj,-0.031483546,-0.1714905,-0.017136138,0.015918799,0.087512836,0.17020606,0.009697836,0.01516589,-0.20986077,-0.06138631,-0.1682719,0.14376605,0.24420677,0.10749175,0.08460089,-0.20858777,-0.055724,0.23990723,-0.027550884,-0.3025343,0.38096076,0.028602147,0.095652655,0.038576975,-0.019844905,0.31066415,0.06297728,0.032540653,-0.36472443,0.3609723,-0.091628484,-0.17396343,216.37773,98.11981
4_3_1_0_tr_reg_006_0_0_0_0.obj,0.1464507,0.2376671,-0.002785356,-0.057299208,-0.3042213,-0.314616,-0.02238155,0.028524699,0.07910082,-0.03339753,-0.01648309,0.041045737,-0.14360265,-0.22684349,-0.12253685,0.115356095,-0.06962121,-0.10309404,0.1980108,0.008697977,-0.18427269,0.43568763,-0.11143526,-0.108572036,0.3165248,0.37514803,0.10312497,0.094825834,0.13420339,-0.10087345,-0.0907773,-0.12835102,167.47368,246.63766
4_3_1_0_tr_reg_007_0_0_0_0.obj,-0.31739563,-0.36016876,-0.14541931,0.1943202,-0.11942208,0.1648488,0.05540934,-0.0022477114,-0.13732664,-0.1078812,0.11217745,-0.12968482,-0.15923578,0.16208154,-0.13395369,-0.010146691,0.04996117,0.019583715,0.103598006,0.08436983,-0.17327794,-0.2031898,-0.101482086,0.05908479,-0.27428892,-0.35466298,0.27083662,0.15052672,0.32185155,-0.07116151,0.1550077,-0.031704307,32.2592,188.05928
