filename,l1,l2,l3,l4,l5,l6,l7,l8,l9,l10,l11,l12,l13,l14,l15,l16,l17,l18,l19,l20,l21,l22,l23,l24,l25,l26,l27,l28,l29,l30,l31,l32,embed_x,embed_y
0_tr_reg_000_0.obj,0.09665579,0.12843105,0.26452047,-0.021366341,-0.046690386,0.04358758,0.059554987,0.06741726,-0.3252927,-0.10454354,0.21511373,0.21603101,-0.07598999,-0.13147654,0.03264895,0.30047137,-0.012961286,-0.1056221,0.08175185,-0.3117071,-0.11708708,-0.031072602,-0.35447216,0.14356676,0.0026585308,0.024254724,0.16601045,0.33304077,0.022548217,-0.045124028,0.38696805,0.000913361,854.2895051400429,309.00659875227007
0_tr_reg_001_0.obj,0.05931443,-0.07893595,0.23776707,0.25561357,-0.07324681,-0.131707,-0.10836896,-0.35077187,-0.27573818,0.03741873,-0.22584814,-0.007125873,0.17587857,-0.120378286,-0.12223244,0.076665476,0.18407206,-0.14265296,-0.15909146,0.13559462,-0.11275739,0.24609812,0.31919727,-0.23175786,0.3010883,0.05690846,-0.10030718,-0.07142405,-0.117074154,0.11705815,0.2269984,0.036769185,1382.4299248721998,483.6518199506915
0_tr_reg_002_0.obj,-0.06751256,0.29353836,0.21710266,0.13247989,-0.03882907,0.11017907,0.2363442,0.30432078,-0.26127854,-0.13084671,-0.15576047,0.19074638,-0.32979515,0.04429678,-0.10271841,-0.021988917,-0.0030212742,0.07487759,-0.031375073,-0.13217668,0.23814572,0.12317095,-0.062422168,0.15634064,0.0892463,-0.042733986,-0.0070657125,-0.21530727,0.2370768,-0.2087031,-0.34317288,0.12906954,1459.678169017815,1009.8788936694959
0_tr_reg_003_0.obj,-0.27703106,0.1010851,0.052985482,0.00025212317,0.05960829,-0.0147160115,0.02571743,-0.04511811,0.26918784,0.12849155,-0.16236104,-0.14538142,0.23547305,0.013889245,-0.0033664883,-0.29910308,-0.2345976,0.25267613,-0.12957534,-0.1575983,-0.22483227,-0.23356046,0.28035894,-0.10167855,-0.24303131,0.06502555,-0.26043877,0.16791761,0.04963624,0.29462382,0.034614094,-0.13359523,767.9646969797836,1312.7888023709806
0_tr_reg_004_0.obj,0.35793665,-0.17918476,0.028721128,0.12490839,0.07649059,0.099229544,-0.3179207,-0.120883934,-0.10868276,0.14282931,0.04138496,-0.053319357,0.1854774,0.32485947,0.17063479,0.20841311,-0.40678638,-0.15137103,-0.083062,0.062482037,-0.047550175,-0.21137269,-0.09681679,0.21476804,0.11831646,0.20434374,0.13717529,-0.099667266,0.1259694,-0.020648621,-0.12779194,0.15474713,651.0338607679236,1237.5749430662954
0_tr_reg_005_0.obj,-0.05752131,0.1324048,-0.15016612,-0.42234266,0.2889901,-0.20471416,-0.07803918,0.032021504,-0.052609067,-0.096685246,0.15686797,0.08049599,-0.08622736,0.16292971,0.005728624,-0.0010436641,0.07857195,-0.06788924,0.098077156,0.11803654,-0.08805524,-0.19503619,0.21290536,-0.066681296,0.34790346,-0.007068274,0.040246226,-0.46081337,-0.14720465,0.021689942,-0.26601613,-0.10304604,566.528407579988,885.0490648918668
0_tr_reg_006_0.obj,-0.17982052,0.38233846,-0.066414386,0.06409171,0.35698,0.34276175,0.084241375,0.19295773,0.1855035,0.02066506,-0.0679959,-0.24456227,0.04423795,-0.089976236,0.18156989,-0.07173271,0.08361235,0.056291573,0.010393064,0.27610376,-0.24004176,0.08123269,-0.14617643,-0.0027588748,-0.14432961,0.26381895,0.053438857,0.05960223,-0.26822877,-0.1242653,-0.008242027,0.14101039,623.5515429239504,362.89244278502315
0_tr_reg_007_0.obj,-0.062050026,-0.51618403,0.0220928,0.27050132,0.037544355,0.20335157,-0.16597502,0.11565748,-0.017436072,-0.20278037,0.039998636,-0.060602352,-0.2528767,0.2598091,-0.41840944,-0.25248063,0.06578322,0.009784528,0.07835996,-0.040521745,0.03710345,-0.0055312836,-0.018681882,-0.0057234024,0.28911144,0.033347316,0.05982401,0.11133874,0.0964471,0.12055731,-0.083550364,-0.09959118,349.43458783049226,1005.3026527887188
0_tr_reg_008_0.obj,0.067786664,-0.10688717,-0.26541886,0.13971835,-0.04194646,-0.13601184,0.33378753,-0.040078882,0.13587411,-0.024913654,0.22918606,-0.42837754,-0.06028655,0.26908857,0.014402387,-0.20705034,0.17874001,-0.1300928,0.058162052,-0.006274993,0.05490248,-0.043192077,0.06762627,0.028026136,-0.17249195,-0.23818605,0.04310331,0.30783194,-0.23898754,-0.21855442,-0.0601986,-0.17987165,217.49395389057156,595.9269495797878
0_tr_reg_009_0.obj,-0.026959725,-0.02176802,0.10028707,0.018449029,-0.08693077,-0.090812534,-0.13084844,0.043624565,0.37019762,0.14635374,0.030816618,0.11348168,-0.23030151,-0.10921355,0.11401398,0.1780136,0.1652208,0.05893293,-0.12060466,0.3600683,0.32888472,-0.08044145,-0.2357262,-0.2523202,-0.00702793,0.24396436,-0.0018786256,0.20857708,-0.3362955,-0.016983017,0.06289982,-0.20585422,1139.772359045477,304.57021943828
1_0_tr_reg_000_0_0.obj,0.0063376273,0.13603644,0.36015815,0.1296475,0.027080053,0.0069211195,-0.047120243,-0.009823235,-0.46866456,-0.092186846,0.14182566,0.10190039,-0.02017227,0.01685188,-0.048908096,0.1297797,0.11803397,-0.21824329,-0.0207814,-0.32555395,-0.19419254,0.031112837,-0.1794288,-0.03241081,-0.020706225,-0.104469106,-0.0035504154,0.38830975,0.1428016,0.010740595,0.3336727,-0.13920029,751.504327374649,436.60088830318927
1_0_tr_reg_001_0_0.obj,-0.0022727097,-0.05898846,0.104177795,0.1907364,-0.18632022,-0.23997183,-0.04069151,-0.3678806,-0.0879393,0.010518463,-0.18727879,-0.04722619,0.22553426,-0.25229388,0.06279154,0.15734015,0.14089885,-0.17703035,-0.13284989,0.20992756,0.04422352,0.42209256,0.18792197,-0.26706895,0.12255172,-0.1687459,-0.1382521,-0.08449681,-0.12705114,0.021710413,0.16344967,0.1373979,1330.4857554959638,412.31523008148565
1_0_tr_reg_002_0_0.obj,-0.06558104,0.09454447,0.077997334,-0.1098846,-0.14607742,-0.14120574,0.22577664,0.10691255,0.1134656,-0.042341534,-0.03394414,0.34377187,-0.16405185,-0.17240968,0.031676553,0.20500112,-0.3451696,0.16916318,-0.11488936,-0.055757076,0.22765075,-0.04253857,0.033249624,0.23631886,0.14496303,-0.006207201,0.08830457,-0.42824608,0.08053263,-0.062247276,-0.27990654,0.23589705,935.2425003139259,1193.3947673043067
1_0_tr_reg_003_0_0.obj,-0.33184606,0.11219485,-0.043819807,-0.10289651,0.12386595,-0.07692426,-0.022850264,-0.06476412,0.33662483,0.082702175,-0.06118824,-0.1480783,0.2317735,0.022606483,0.08651513,-0.21871197,-0.19955127,0.1362614,-0.120839976,-0.070420615,-0.265116,-0.1944627,0.1799433,-0.16979635,-0.33833396,0.05990006,-0.25359043,0.21909393,0.027999377,0.26674607,0.07019759,-0.17009988,361.12031434289344,848.2601861006194
1_0_tr_reg_004_0_0.obj,0.32129672,-0.23573472,-0.009419812,0.10774116,0.07217796,0.09544596,-0.29497918,-0.087637946,-0.06671275,0.14242691,0.06775522,0.008300475,0.21546721,0.19448882,0.1614364,0.27181542,-0.44964287,-0.25811824,-0.10818607,0.09568395,-0.09870315,-0.15358643,-0.119591884,0.23642486,0.13496713,0.12971261,0.12190912,-0.019967197,0.08031522,0.08015463,-0.04452847,0.22032098,717.0340709592912,1166.6428525951876
1_0_tr_reg_005_0_0.obj,-0.015701206,0.15889962,-0.15245087,-0.33287203,0.33963767,-0.15270777,-0.15604778,0.042685002,-0.23460604,-0.07617781,0.11881836,0.07489657,-0.06569925,0.22689195,-0.08103791,-0.049530745,0.17716798,-0.1927777,0.059623692,0.07244646,-0.24450336,-0.15480915,0.29250103,-0.11397226,0.2576322,0.023569917,0.012214561,-0.37216154,-0.025037905,0.0721654,-0.17466383,-0.16926587,502.88210606348946,777.2916457293493
1_0_tr_reg_006_0_0.obj,-0.20791367,0.38291296,-0.06407977,0.05440882,0.33460605,0.31574327,0.07276007,0.15517308,0.1760011,0.0010766033,-0.08345061,-0.25197834,0.06379451,-0.10368285,0.18142602,-0.0713117,0.07884009,0.043478932,-0.017787231,0.27583936,-0.2804108,0.115460895,-0.13893247,-0.041325048,-0.16107208,0.28225026,0.06341858,0.07904216,-0.23673904,-0.13180296,0.014651688,0.14424863,626.6926270859749,351.4941570907035
1_0_tr_reg_007_0_0.obj,0.008634859,-0.22162782,0.23702738,0.40194583,0.04051892,0.2563116,-0.20266151,0.16478392,-0.06326548,0.041289125,-0.111981764,-0.09054292,-0.13859677,0.13165116,-0.23612599,-0.2090684,0.1457011,0.04277975,0.19605248,-0.00027547035,0.25054845,-0.01292765,-0.13152006,-0.019207826,0.3826144,-0.1292869,-0.10116963,0.17362384,-0.2524526,0.10017521,-0.057111558,-0.11147902,525.0561796578534,972.9886766409617
1_0_tr_reg_008_0_0.obj,-0.07868526,-0.24073082,-0.21804067,0.0719214,-0.0925147,-0.18129344,0.29092002,-0.053443104,0.30085418,-0.10928503,0.23665217,-0.11849795,-0.056131627,-0.19359727,-0.0540402,-0.1129285,-0.028644612,-0.22024904,-0.119610086,0.21751438,-0.1794817,-0.002063599,0.0551879,0.022414504,0.07055961,-0.11704597,0.29296815,0.28102776,-0.39198172,-0.02560741,0.06985499,0.18982625,1284.230634123903,1393.7826154782283
1_0_tr_reg_009_0_0.obj,0.117725596,-0.1622998,0.16105801,0.17218061,-0.20265692,0.06114834,-0.16836065,0.0662893,0.19013697,0.15874508,-0.01848812,0.12756464,-0.23810728,-0.17569025,-0.03505177,0.17748943,0.21386442,0.027704993,-0.12323819,0.28556985,0.21462919,-0.014354522,-0.21574505,-0.15469758,-0.017399412,0.3749305,0.14867921,0.2736599,-0.26881856,-0.0041030035,0.21482587,-0.11005281,1041.4350183121182,336.1938121283674
1_tr_reg_000_0.obj,-0.09402525,0.21177967,0.045076333,-0.33325472,0.1837754,0.04144963,-0.10951258,0.26283184,-0.07783345,-0.15152012,0.31685227,0.34711426,-0.15572411,-0.118703976,0.062346786,0.1651755,-0.0881097,-0.1100061,0.20474185,-0.19239452,-0.16818528,-0.20113805,-0.3550178,0.10419554,-0.026198536,-0.044375442,0.18191141,0.096581556,-0.029302953,0.1591716,0.14028914,-0.043068875,695.7783281480423,16.90787401337343
1_tr_reg_001_0.obj,0.22130552,-0.011706508,0.04810755,0.19778875,-0.020234179,-0.038286522,-0.12410375,-0.26355293,-0.32942975,0.078192666,-0.30255154,-0.11412459,0.11219956,0.0003103993,-0.12274438,-0.03849026,0.37867796,-0.12877357,-0.039374545,0.19866571,-0.087954424,0.26267323,0.34875116,-0.24769346,0.110895336,0.15384172,-0.11515475,-0.15381365,-0.08958297,0.019055255,0.17987363,-0.006376942,1261.9060855096545,677.021912285208
1_tr_reg_002_0.obj,-0.3501292,0.12303536,0.1436271,0.029470805,-0.10759066,-0.013081143,0.06219494,0.0035279694,-0.02810389,-0.27129683,0.010854535,0.015126171,-0.13385,-0.116849765,0.14513403,0.08961065,0.09455986,-0.12091796,-0.12824443,0.08234936,0.18095715,0.44447175,-0.36412454,-0.20356528,-0.13935894,-0.16264342,-0.004479631,0.18666202,0.20999002,-0.3067825,-0.11280727,0.083394945,859.4315154687633,1108.234020532389
1_tr_reg_003_0.obj,-0.22344972,0.12398288,0.13791962,0.14453484,0.033304416,0.060578212,0.09221635,0.03217754,0.1931,0.13273962,-0.19953239,-0.17856663,0.16630703,0.05112176,-0.07364266,-0.356701,-0.19654225,0.2741245,-0.14082511,-0.22257042,-0.17589772,-0.24258502,0.2557892,-0.04931169,-0.2366505,0.07422861,-0.25383753,0.21397556,0.046915904,0.24066125,0.0007265169,-0.13523936,751.7247899751275,1396.3027676716217
1_tr_reg_004_0.obj,0.20319903,-0.110560514,-0.20883496,-0.12886868,-0.03077392,0.07744539,-0.20641536,0.175178,-0.01038095,0.09889136,0.11418674,0.14373454,0.1987754,-0.18988161,0.12841588,0.25897297,-0.26377127,-0.3399209,0.15731095,-0.09670116,-0.12226972,0.06121018,-0.31366837,0.15901233,-0.16237018,-0.18099986,-2.0626614e-05,0.1989268,-0.024637295,0.19837573,0.22773282,0.22629674,1568.4738990443816,588.2992696620344
1_tr_reg_005_0.obj,-0.2913694,-0.032007925,-0.20189089,-0.35307124,0.20389101,-0.1335801,-0.23762847,0.004842699,-0.036740456,-0.14093623,0.23224312,0.20784226,-0.037140712,-0.10580145,0.057522465,0.19264904,0.21277002,-0.39863625,-0.0025791384,0.17707847,-0.18438798,0.16048782,-0.10122546,-0.24529713,-0.016856113,-0.19861728,0.005990697,0.07204449,0.04584966,0.09717369,0.106712244,-0.1667352,1258.428749342274,192.48564631340184
1_tr_reg_006_0.obj,-0.035687827,0.24180569,-0.3391774,-0.188115,0.19510572,0.35649186,0.0248304,0.11407626,0.046440918,0.18754421,-0.2702998,-0.18258455,0.11242233,-0.07157173,0.141024,-0.00929073,0.27769023,0.20421466,0.15373246,0.29959112,-0.1031356,0.18944794,0.10392436,-0.096807055,-0.012514121,0.30026367,0.027027428,-0.083547704,-0.106742285,-0.14344876,0.025441272,0.0057881796,484.1314865097365,212.37489902282027
1_tr_reg_007_0.obj,-0.1537102,-0.5010233,-0.18852764,-0.009220542,0.02765983,0.03410093,-0.30159742,0.029959448,0.1367793,-0.28489488,0.07496481,-0.030126141,-0.2749852,0.2892824,-0.29190964,-0.19597836,0.07056914,-0.060314517,-0.010590383,0.1134988,-0.013577883,0.049636707,-0.05017917,-0.21660548,0.022655921,0.1331958,0.07264489,0.002913128,0.26441076,0.043086775,-0.15361434,-0.11836646,926.8527266785331,811.0775170433479
1_tr_reg_008_0.obj,0.052844603,-0.14482911,-0.3077707,0.05244592,-0.056630507,-0.20683542,0.34589538,-0.024305865,0.16031548,-0.055273406,0.2800652,-0.34339452,-0.12878022,0.30753627,0.029768014,-0.16040708,0.13377352,-0.121570624,0.03683855,-0.010618855,0.06596558,-0.10619365,0.070133515,0.028584676,-0.15115502,-0.23474823,0.074010074,0.282294,-0.17409395,-0.20943196,-0.104538865,-0.21427703,267.8148508991703,577.3799006229898
1_tr_reg_009_0.obj,0.03033588,-0.1264883,0.03904291,-0.34032768,-0.08972233,-0.18068498,-0.15221964,-0.13431653,0.36143017,0.04539003,0.1617318,0.18134093,-0.14784874,-0.09324126,0.12724969,0.21457845,0.1236009,0.22516969,-0.07287773,0.25080228,0.19430697,-0.18260787,-0.14442636,-0.22278947,-0.10880156,0.37881196,0.050200105,0.010888599,-0.027137393,0.024299072,0.15021531,-0.20407863,1056.6219416936744,959.0835671337982
2_0_tr_reg_000_0_0.obj,0.012483347,0.24103563,0.23157424,-0.091875166,0.027243908,0.09681506,0.076676786,0.23502208,-0.2050373,-0.14482476,0.22926727,0.26327664,-0.15634185,-0.15026781,0.06947243,0.26011708,-0.09811546,-0.041659866,0.12921576,-0.29703975,-0.07712958,-0.09509008,-0.42934725,0.19735008,-0.004484822,0.028728727,0.18878104,0.2349615,-0.020406643,-0.017481046,0.23646076,0.033914186,850.9353400881979,259.95408575135195
2_0_tr_reg_001_0_0.obj,0.12964897,-0.041581225,-0.06409495,0.14892873,-0.15977535,-0.17773575,-0.074002914,-0.30482358,-0.16287294,-0.0034939575,-0.21737468,-0.109385855,0.17248528,-0.17788541,0.0388512,0.088556044,0.29669052,-0.22787313,-0.069772616,0.23542091,-0.006957426,0.47206664,0.20774579,-0.27927876,-0.09800728,-0.07491174,-0.11863977,-0.13981849,-0.036407623,-0.050763123,0.17125832,0.12958732,1267.858302725463,500.66640347018557
2_0_tr_reg_002_0_0.obj,-0.17116062,0.27790266,0.13415939,-0.004218699,-0.0376981,-0.010354831,0.2175097,0.27891886,-0.06060935,-0.13477851,-0.0970312,0.26213774,-0.31456438,-0.0048647164,0.0054367087,0.054171745,-0.15877335,0.09046766,-0.09928033,-0.0557771,0.2544287,0.086457886,-0.06598912,0.13196975,0.039269358,-0.063352495,-0.004224684,-0.32422844,0.22307919,-0.19639197,-0.42485988,0.16442746,1545.7493055326613,920.2762796414706
2_0_tr_reg_003_0_0.obj,-0.1060812,0.12933773,0.05507868,-0.124609396,0.014467448,0.06400448,0.027641555,-0.0045355344,0.11924732,0.25357938,-0.21394375,-0.0019170871,0.2148003,-0.11250566,-0.10324473,-0.2481177,-0.081566624,0.38878435,0.017496765,-0.20383388,-0.16906404,-0.30821946,0.39106378,-0.0052503743,-0.013612776,0.08190905,-0.18845263,0.013006374,-0.028472226,0.3493215,0.13124765,-0.1849571,879.1816977354696,1374.7787626414056
2_0_tr_reg_004_0_0.obj,0.32201582,-0.24131586,-0.15979432,-0.008377184,0.001482743,0.042292222,-0.26357862,0.011291915,0.0690516,0.10525657,0.09966827,0.035174266,0.19799589,0.07985579,0.13335377,0.24669859,-0.49384484,-0.25075915,-0.043723166,0.04132258,-0.08038319,-0.11623026,-0.16791067,0.2834759,-0.07783696,0.071350224,0.090589516,-0.101037666,0.109459,0.09450606,-0.035447925,0.31495366,727.093411516486,1056.9208267653385
2_0_tr_reg_005_0_0.obj,-0.06953465,0.11906038,-0.20213991,-0.43065134,0.32149127,-0.15689406,-0.13219264,0.080723904,-0.10318431,-0.1079751,0.1803022,0.13014418,-0.107922114,0.13598965,-0.075635485,-0.009589883,0.14743334,-0.13981706,0.08951548,0.106921665,-0.2190204,-0.17525311,0.23038718,-0.08534843,0.26960742,0.04863916,0.06312968,-0.3966005,-0.09155579,0.08325952,-0.16057241,-0.1333921,487.5244005199348,853.377530317155
2_0_tr_reg_006_0_0.obj,-0.17068109,0.29989588,-0.14317779,-0.005226099,0.25705734,0.4057891,0.035851505,0.17517915,0.075315595,0.026417669,-0.15727103,-0.20385656,0.035473187,-0.12523991,0.11333961,-0.038455885,0.17195757,0.12477125,0.039461363,0.2947813,-0.25973824,0.21225111,-0.050292265,-0.048404083,-0.041463956,0.36657184,0.15474519,-0.00982592,-0.16112974,-0.1756335,0.02047161,0.15941705,608.6828349436462,278.6238139408864
2_0_tr_reg_007_0_0.obj,0.032043636,-0.33871916,0.079278946,0.21223813,0.027186105,0.2845958,-0.24108592,0.14589949,0.041636232,0.0030673218,-0.093932986,-0.03966851,-0.087310605,0.051209733,-0.26745105,-0.22996338,0.102867045,0.14330825,0.35527524,-0.015820922,0.30197993,0.00784506,-0.16816658,0.055981543,0.37491918,-0.17546469,-0.08968808,0.013480509,-0.16965483,0.17205068,-0.057075977,-0.05910873,513.380962996109,992.0501188952369
2_0_tr_reg_008_0_0.obj,0.28377897,0.061292183,-0.3360139,-0.1916974,0.038445584,0.06039995,0.27343622,0.0018955721,0.10232584,0.122566305,0.1724272,-0.21550086,0.07039148,0.14262933,0.09409635,-0.20912883,0.18905042,0.160954,0.26790535,-0.14747404,0.05653245,-0.27778965,0.0854951,0.25224403,-0.34476155,-0.12809718,0.015071661,0.008287413,-0.050909445,-0.09385835,-0.0018953405,-0.23059213,213.82966251969617,401.3989467072881
2_0_tr_reg_009_0_0.obj,-0.11977695,0.02216555,0.050248276,0.06515855,-0.08926027,0.08622147,-0.16675971,0.29938814,0.30888566,0.0902451,-0.06309674,0.17838147,-0.3456697,-0.18948753,-0.006582007,0.0691024,0.22763707,0.03829294,-0.02208632,0.32122535,0.3481791,0.06314287,-0.22486684,-0.19951418,0.0040048454,0.17074937,0.020594453,0.099482864,-0.3335186,0.036068983,-0.047074396,-0.138534,1163.2105959135151,343.8851251452914
2_1_0_tr_reg_000_0_0_0.obj,-0.093113564,0.12186906,0.29989472,0.03242842,0.07689886,-0.00612188,-0.05600257,0.014631778,-0.4074366,-0.12287718,0.19417347,0.16822317,-0.034265507,-0.06272711,-0.059711747,0.14211836,0.11336538,-0.25073108,-0.024670837,-0.2861036,-0.2856095,0.029731477,-0.16947936,-0.033000987,-0.03279336,-0.10275464,0.03942714,0.37835488,0.12797885,0.062398843,0.3680967,-0.13285819,762.7598830316732,380.84329727512403
2_1_0_tr_reg_001_0_0_0.obj,0.22637014,-0.107811496,-0.04870846,0.14724258,-0.10562792,-0.10128601,-0.11109979,-0.25236446,-0.29594815,-0.033959404,-0.23170595,-0.039522458,0.054953683,-0.0849004,-0.1700253,0.007708952,0.35929686,-0.19700257,-0.059560847,0.1776295,-0.12163834,0.3644274,0.32034382,-0.21986075,-0.03048437,0.1521363,-0.044302955,-0.21560487,0.03177109,0.007367136,0.21849316,0.09775965,1190.9444057476499,624.9523145758974
2_1_0_tr_reg_002_0_0_0.obj,-0.1367541,-0.014971781,0.012664256,-0.1525131,-0.21954915,-0.1272561,0.15632702,0.038110644,0.17038314,-0.06524876,-0.06343495,0.37400678,-0.05832032,-0.31886145,0.00028798802,0.21016558,-0.34788755,0.1724892,-0.06992756,-0.0773656,0.20852594,0.107011996,-0.015312563,0.19313942,0.056300826,-0.043891467,0.05300071,-0.38477066,0.14810315,0.008008736,-0.13947213,0.29899865,213.92092399816386,1302.542764622772
2_1_0_tr_reg_003_0_0_0.obj,-0.24502271,0.0029860258,-0.06379427,-0.21454047,-0.0017557411,-0.049414925,-0.029238325,-0.08933359,0.24829544,0.11847362,-0.11004323,0.020593496,0.2409921,-0.16675484,-0.06362426,-0.16671602,-0.19313319,0.2581801,-0.07810001,-0.11962952,-0.33431304,-0.20659412,0.37392274,-0.07256669,-0.12431812,0.11289671,-0.11400332,0.04027179,0.06896878,0.3959728,0.18816535,-0.09463199,887.0510175178275,1340.6327396907816
2_1_0_tr_reg_004_0_0_0.obj,0.31511414,-0.20544101,0.14295088,0.20590942,0.09399134,0.101821214,-0.2906248,-0.20042793,-0.14719212,0.17605574,0.0041690944,-0.051261898,0.2012175,0.3187323,0.14822714,0.19305071,-0.34825802,-0.10905572,-0.10088234,0.08957577,-0.022349203,-0.22815886,-0.028731493,0.17228557,0.3048809,0.17568845,0.1250658,-0.048274424,0.03818384,0.019202583,-0.10330997,0.08043921,575.8362213288542,1237.4723524535261
2_1_0_tr_reg_005_0_0_0.obj,-0.10841959,0.08992248,-0.21685797,-0.432766,0.32651317,-0.12325511,-0.18764722,0.13014631,-0.064644635,-0.10897317,0.20474946,0.16432995,-0.12447707,0.09873821,-0.081147686,0.005448123,0.14953998,-0.17562692,0.10058323,0.11574035,-0.232337,-0.17494929,0.17255965,-0.091463394,0.25011617,0.02266905,0.0722721,-0.34411594,-0.10810909,0.12739672,-0.13743326,-0.14861865,472.5595591389558,850.646626756405
2_1_0_tr_reg_006_0_0_0.obj,-0.13987678,0.29592946,-0.27073506,-0.14289482,0.2715769,0.37055755,0.012451823,0.11339344,0.05732847,0.092230305,-0.20752618,-0.18669799,0.108099736,-0.079378515,0.17017555,0.006075304,0.19665778,0.13621089,0.07576858,0.315867,-0.23811965,0.21199414,0.01572719,-0.09415783,-0.051534694,0.34210786,0.082648255,-0.037962437,-0.07095165,-0.16063713,0.027256621,0.072949395,548.5735087000124,248.49765310209955
2_1_0_tr_reg_007_0_0_0.obj,-0.033355124,-0.39630592,0.17298217,0.3663658,0.07090989,0.20873386,-0.20373178,0.08072618,-0.05927098,-0.06199548,-0.020644724,-0.104796745,-0.14877836,0.24533902,-0.31125766,-0.23873001,0.097643256,0.011905217,0.13442688,-0.0343399,0.13653836,-0.055644605,-0.057554573,-0.02483404,0.39847988,-0.08943542,-0.048331134,0.19655506,-0.10174305,0.14162779,-0.05793571,-0.17315008,413.7594561141566,1000.4880348271836
2_1_0_tr_reg_008_0_0_0.obj,0.036766548,-0.23256963,-0.13091284,0.11440515,0.0944141,-0.02905985,0.15218762,0.068557054,0.276675,-0.07069276,0.21834536,0.04127802,-0.11946578,-0.21163945,-0.12448099,-0.14097735,-0.014324836,-0.28451705,0.010740912,0.2824033,-0.050522465,-0.0917581,0.0133539755,0.14868635,0.14971673,-0.14487562,0.21096738,0.05683227,-0.50677705,0.18884751,-0.011592292,0.27076298,1004.543907500278,510.9882939483279
2_1_0_tr_reg_009_0_0_0.obj,0.19907054,-0.18587391,0.2703273,0.16705978,-0.15747501,0.012748439,-0.17788538,-0.1726808,0.0001703837,0.16804354,0.0071348464,0.071892306,-0.049459197,-0.09300508,-0.025064403,0.22192386,0.15675811,0.016049363,-0.19041121,0.18624546,0.015807098,-0.07562918,-0.10315719,-0.15193853,0.026770568,0.46105796,0.13894664,0.30217537,-0.1694083,0.024880676,0.38032785,-0.10312608,940.7110547946002,309.94358233834123
2_1_tr_reg_000_0_0.obj,0.025079988,0.12419734,0.17593202,-0.17892054,0.098247446,0.030413399,-0.17086807,0.09672217,-0.29739484,-0.04951635,0.24601464,0.3166293,-0.023526497,-0.14313348,-0.010308575,0.21483116,-5.022715e-05,-0.20004678,0.11476673,-0.25690275,-0.302371,-0.13697553,-0.21149556,0.06279081,0.004531097,0.003092982,0.14364856,0.24027984,-0.012324046,0.19071542,0.3930627,-0.0735241,729.6699720992391,126.21536593350856
2_1_tr_reg_001_0_0.obj,0.19339314,-0.05304965,0.0368381,0.23221307,-0.13367419,-0.13627641,-0.08107269,-0.31006852,-0.2629147,0.031341534,-0.25048614,-0.116207086,0.15128718,-0.1169517,-0.059478655,0.0354852,0.33780947,-0.20347336,-0.056836948,0.1931504,-0.017331183,0.39695162,0.27031514,-0.25469548,0.039409027,-0.012971484,-0.11881137,-0.11990487,-0.0947334,-0.013970425,0.20057306,0.07844916,1274.503577409258,565.7076803704583
2_1_tr_reg_002_0_0.obj,-0.32064787,0.13948117,0.10851666,-0.033779517,-0.20678951,-0.07411004,0.21638821,0.13526356,0.11186302,-0.1852932,-0.061660092,0.21259432,-0.2690026,-0.1469785,0.06574186,0.09574957,-0.114811026,0.13272402,-0.18464607,0.019604882,0.28829744,0.24742553,-0.17606631,0.006438759,-0.11628556,-0.044507872,0.021034725,-0.14143604,0.26840118,-0.29487297,-0.28948888,0.16954122,1571.401575288102,1012.1264058492181
2_1_tr_reg_003_0_0.obj,-0.030856965,-0.04457983,0.06224889,-0.03323244,-0.10619023,0.013742508,0.08624024,-0.03997979,0.062521234,0.16129127,-0.13636865,0.030878011,0.13945639,-0.11618355,-0.25629714,-0.23257796,-0.119438484,0.33581644,-0.07709943,-0.28148893,-0.26092747,-0.30104697,0.4393128,0.072299145,-0.036018357,0.16035369,-0.05748019,0.037222303,0.07782199,0.32675755,0.21141723,-0.1048865,870.7496920984775,1451.5705314510715
2_1_tr_reg_004_0_0.obj,0.3417183,-0.19145119,-0.1721965,0.036635038,0.004811881,0.053982675,-0.2618292,-0.015350773,0.02813686,0.13011622,0.092565514,-0.051465094,0.24324308,0.13381271,0.20548409,0.2519784,-0.45603028,-0.30295834,-0.060564697,0.06429069,-0.060008068,-0.056163896,-0.18566675,0.24133995,-0.11673195,0.015058831,0.06364569,-0.040290274,0.11756134,0.03834825,-0.060042765,0.2944152,749.1436179139678,1079.5865926372235
2_1_tr_reg_005_0_0.obj,-0.27855647,0.041519146,-0.12126243,-0.24873328,0.285051,-0.15976027,-0.24712735,-0.0281871,-0.13945019,-0.1035127,0.2077059,0.1322976,0.0028691643,0.019669946,0.023518138,0.09027389,0.2515531,-0.4110928,-0.036466576,0.109992124,-0.26791087,0.071667574,0.02433283,-0.2858619,-0.01444363,-0.2244502,-0.072487615,0.10270824,0.061215732,0.13662323,0.096368894,-0.26934454,1216.48991886918,213.3383473736469
2_1_tr_reg_006_0_0.obj,0.0070511894,0.21104844,-0.29193816,-0.20512193,0.12501967,0.44763723,0.01909991,0.20664975,-0.058750205,0.14620918,-0.29014394,-0.03933262,0.03772283,-0.13225994,0.01621176,-0.016773172,0.2372514,0.27038273,0.18809147,0.17054051,-0.10825312,0.20844114,0.07394382,0.0023757806,-0.005417009,0.37149006,0.09830263,-0.13134414,0.04148936,-0.09654354,0.060372744,0.06982615,1444.3674435277624,767.5899954791923
2_1_tr_reg_007_0_0.obj,-0.10890332,-0.4826654,-0.19846064,-0.06490344,-0.0050636716,0.030009052,-0.32863918,-0.0748595,0.13940416,-0.27586132,0.035763267,-0.055924576,-0.18519618,0.21833819,-0.2503247,-0.19684677,0.056138683,-0.047064647,-0.038580026,0.116865404,-0.13254736,0.09614941,-0.027859857,-0.23936932,-0.15864812,0.2534916,0.10265877,-0.02220117,0.32396072,0.028829515,-0.04333813,-0.014240099,893.6515895956779,899.0070748723606
2_1_tr_reg_008_0_0.obj,0.2601573,0.06955208,-0.35308254,-0.10579254,0.015839176,0.039569523,0.3543679,0.018862111,0.09447766,0.15724315,0.12623145,-0.28247595,0.036908317,0.20322226,0.13897686,-0.17994817,0.15478472,0.13867281,0.1979043,-0.072705254,0.09347355,-0.238625,0.13837676,0.25476348,-0.26413822,-0.13377102,0.061232712,0.01784433,-0.10213826,-0.19659963,-0.11036347,-0.22308935,197.22425701212933,441.43790492472016
2_1_tr_reg_009_0_0.obj,0.15272075,-0.1796942,0.1374737,-0.24466997,-0.12761739,-0.16024357,-0.11596102,-0.27617362,0.1907831,0.024743335,0.13715371,0.14336148,-0.08917464,-0.047683116,0.08870591,0.21959032,0.13703166,0.2569214,-0.15221761,0.20330799,0.10221693,-0.17383593,-0.04024308,-0.19897088,-0.09827807,0.51892066,0.105621494,-0.030751131,0.062450133,-0.023089474,0.22729445,-0.11380265,1018.3102826720824,722.003416777686
2_tr_reg_000_0.obj,-0.09932937,0.11252512,0.28666446,0.08851109,0.201166,-0.05702511,-0.1588721,-0.036934685,-0.4227898,-0.058661703,0.13699225,0.06612722,-0.037206512,0.21112987,-0.08071734,-0.016299753,0.1895529,-0.28016564,-0.06914395,-0.21127799,-0.25358528,-0.09263632,-0.0024225567,-0.16887042,0.008962876,-0.14939333,-0.0977898,0.3163547,0.16666913,0.08948272,0.16421615,-0.31466922,821.9670153696609,613.4029217737533
2_tr_reg_001_0.obj,-0.16899244,0.027956279,0.23758219,0.17162827,-0.069949925,-0.20496866,-0.048435643,-0.36596438,-0.068520196,0.061347514,-0.15103297,-0.043041974,0.29181492,-0.21934447,0.1353144,0.17649293,0.030682415,-0.13483158,-0.19244139,0.18500303,-0.053949554,0.27780008,0.18230279,-0.2789308,0.29323077,-0.17714575,-0.14067218,0.04877075,-0.19258633,0.078898765,0.14017065,0.041619603,1406.5520133749296,419.78496612843037
2_tr_reg_002_0.obj,-0.33641353,0.21776396,0.21902812,0.09649525,-0.07756512,-0.00041638516,0.105143055,0.073543005,-0.09505038,-0.2676013,-0.0370659,0.020610394,-0.19054288,-0.030097608,0.1159778,0.020674627,0.07703896,-0.07685078,-0.13823684,0.013524481,0.21916886,0.37501064,-0.32291457,-0.16754138,-0.10959426,-0.17342961,-0.053157147,0.13627072,0.24206,-0.31948102,-0.21443664,0.061903253,1298.333584281561,1171.6511550393536
2_tr_reg_003_0.obj,-0.33304012,0.2047548,-0.007506454,0.036279246,0.21280757,0.018098166,-0.020942535,0.06943489,0.41207415,0.09614664,-0.092920035,-0.17728643,0.1256472,0.064501524,0.19330473,-0.1651022,-0.18686245,0.07896698,-0.16512765,0.0836388,-0.02800865,-0.13058858,-0.0799219,-0.1577125,-0.41273695,0.05038264,-0.3210337,0.20932886,-0.05713135,0.11030069,-0.10244127,-0.14496699,237.42044607665207,741.6971049110102
2_tr_reg_004_0.obj,0.32964733,-0.03868195,-0.017459909,0.021067217,0.098905936,0.15161239,-0.30909505,-0.02210726,-0.22551309,0.19346152,0.10126023,-0.005824483,0.25882533,0.1518719,0.29957166,0.33711386,-0.26060534,-0.34897584,0.034305915,0.03366169,-0.12910287,-0.071555845,-0.24417445,0.13996378,0.095808305,-0.020218357,0.09613202,0.19910926,-0.014057754,0.04392613,0.08358683,0.08762938,775.0986031578454,1186.1938720254773
2_tr_reg_005_0.obj,-0.31948128,0.022169763,-0.112243704,-0.35837507,0.22246355,-0.09670582,-0.23276272,0.03247154,-0.021854183,-0.10241811,0.2508824,0.26232082,-0.0038339822,-0.16936225,0.068956345,0.18642616,0.12800609,-0.3501672,-0.009539663,0.09449791,-0.27408227,0.05698482,-0.1330822,-0.19014768,-0.05637854,-0.17830116,0.0150798,0.15367632,0.03374307,0.17488036,0.19345547,-0.15226749,1250.8961316149969,178.20789759321724
2_tr_reg_006_0.obj,0.0022530074,0.24771988,-0.08564547,0.01592752,0.41669777,0.20299055,0.12895215,0.19797923,0.28176633,0.08280112,0.16241813,-0.15169834,-0.049786743,-0.055166066,0.15938058,-0.024454085,0.09335206,-0.088429056,0.042205915,0.2818861,-0.15037914,-0.13064654,-0.23859662,0.09011251,-0.26910043,0.17039031,0.02487315,0.15222381,-0.39306754,-0.033505436,0.09137569,0.03863308,1050.1519894680537,1257.3518431450116
2_tr_reg_007_0.obj,-0.049106535,-0.43482023,0.046386078,0.16571885,0.06790592,0.25367415,-0.27162334,0.10734895,0.08383101,-0.066738136,-0.012904452,-0.0460777,-0.117812745,0.16532512,-0.23771998,-0.198513,0.04938466,0.115143046,0.3029284,0.0138423545,0.27682593,-0.02531888,-0.19590853,0.017864084,0.40052465,-0.14975096,-0.058864925,0.06783519,-0.08067988,0.15595959,-0.10907162,-0.12833877,469.96839086092143,1021.6106689344949
2_tr_reg_008_0.obj,-0.0894341,-0.33191687,-0.27851734,-0.068590455,-0.095704325,-0.2874547,0.24686769,-0.13479708,0.33570176,-0.0977863,0.22534388,-0.01275316,-0.03621743,-0.15218444,-0.026081262,-0.051489174,-0.10226,-0.18355104,-0.13410753,0.2413109,-0.14984488,-0.077221505,0.14045489,-0.015193524,0.16459656,-0.12389941,0.25224242,0.18731567,-0.30240437,0.05517834,0.028302431,0.14986557,1215.2618839433128,1288.5003130704072
2_tr_reg_009_0.obj,0.059123285,-0.15797886,0.0889506,-0.29191697,-0.11884123,-0.20132108,-0.14671572,-0.20195971,0.29165736,0.028014516,0.14924604,0.18460932,-0.1449798,-0.082293466,0.12114332,0.23765491,0.15486674,0.21646869,-0.114696495,0.2566067,0.19207308,-0.15044214,-0.102778174,-0.24582817,-0.074079044,0.4068669,0.06061985,0.0010637976,-0.0073456443,0.003011781,0.17950447,-0.18151714,1050.736855900531,920.4352474615011
3_0_tr_reg_000_0_0.obj,-0.016869858,0.120718,0.35175157,0.1270791,-0.035991654,-0.010224323,0.0053282827,-0.071236394,-0.4099955,-0.10483793,0.14778702,0.061701022,0.024519775,-0.048469767,0.015232573,0.18511221,0.09366624,-0.19803824,-0.039829187,-0.29743227,-0.15273303,0.11044382,-0.24891438,-0.030315211,-0.057041943,-0.11887629,0.017886324,0.42506105,0.14343077,-0.07048124,0.35739756,-0.092057,748.8321920934103,467.36026206548024
3_0_tr_reg_001_0_0.obj,0.0140753575,0.0071427026,0.18098843,0.21066149,-0.081113815,-0.177605,-0.07417192,-0.37475806,-0.23276672,0.040823374,-0.23157369,-0.0835607,0.2172715,-0.1307721,0.00085563347,0.08339438,0.22505495,-0.15665114,-0.15679254,0.18935755,-0.0821621,0.3262739,0.30203238,-0.30584514,0.21176597,-0.026021369,-0.13336028,-0.05808914,-0.12321778,0.037701566,0.18103358,0.03421163,1367.0552407810287,477.94140330689464
3_0_tr_reg_002_0_0.obj,-0.076345526,0.23434405,0.111941196,-0.0040508527,-0.09869909,0.014453239,0.26692548,0.27357978,-0.045895662,-0.069491565,-0.103990816,0.29037952,-0.3135581,-0.03938957,-0.013914517,0.087508164,-0.17412317,0.16580857,-0.08399057,-0.06949771,0.27099153,0.02565962,-0.026881576,0.21815781,0.057329506,0.008853837,0.055611063,-0.34017748,0.1946929,-0.1920573,-0.3751519,0.17622553,1560.1821780293374,864.7978857384113
3_0_tr_reg_003_0_0.obj,-0.18735586,0.18961789,-0.0014101688,-0.17747392,0.07691086,0.046889465,-0.026271807,-0.04255406,0.23869668,0.25259227,-0.24295625,-0.061157003,0.26927733,-0.06490495,0.057728488,-0.20788276,-0.12011767,0.361393,-0.02095048,-0.08425753,-0.12905957,-0.24933785,0.29884425,-0.11286587,-0.15233314,0.11599033,-0.27579743,0.023351442,-0.012719879,0.29973614,0.060322,-0.19913948,866.7440413828253,1298.5937550801054
3_0_tr_reg_004_0_0.obj,0.29265532,-0.2128766,0.16086194,0.23111305,0.06526381,0.07051317,-0.2434702,-0.24144766,-0.10777854,0.18278018,-0.023954622,-0.07518054,0.20546237,0.31182998,0.14909764,0.171559,-0.35408947,-0.050700348,-0.11771834,0.102602445,0.04216854,-0.21430255,0.014439922,0.16329992,0.33981228,0.1397645,0.100847155,-0.10959301,0.011081448,-0.021315202,-0.15427043,0.109984845,507.79193452815923,1212.2356350844707
3_0_tr_reg_005_0_0.obj,-0.042019892,0.19030476,-0.07910229,-0.3622914,0.3162908,-0.1929597,-0.06075327,0.012600704,-0.11423724,-0.06923836,0.109266266,0.039479893,-0.05057174,0.23319085,-0.0021828786,-0.06401767,0.060727976,-0.02867759,0.0805624,0.044091877,-0.10770294,-0.24512623,0.27244583,-0.063495,0.3427505,-0.011823461,-0.019907337,-0.44429442,-0.10221185,0.038053688,-0.28229147,-0.14531854,579.3240058426849,817.8760073057884
3_0_tr_reg_006_0_0.obj,-0.12630634,0.37011796,-0.076401636,0.060993478,0.41109127,0.2809273,0.08441051,0.14206485,0.20960936,0.055703957,-0.019079546,-0.25269848,0.055559173,-0.041679,0.23848508,-0.056380235,0.10559203,-0.0144361695,0.018172797,0.31405327,-0.19746242,0.026295196,-0.1879292,-0.02241723,-0.19194205,0.1811324,-0.0009775741,0.10132861,-0.3107826,-0.13037391,-0.0035326888,0.08249549,556.6808998809287,426.5842172110574
3_0_tr_reg_007_0_0.obj,-0.10045986,-0.5199901,-0.0029043625,0.1835244,0.075878456,0.1979382,-0.24625537,0.089928724,0.036452077,-0.17313693,0.046157766,-0.050810277,-0.21183787,0.26009977,-0.34858972,-0.24160513,0.08598569,0.02887721,0.1611049,0.0065457257,0.11767435,-0.01822176,-0.07552174,-0.04576995,0.3357266,-0.044712644,0.009572804,0.101167336,0.05170868,0.14690462,-0.10570143,-0.1645045,330.852265970971,1037.8100693700924
3_0_tr_reg_008_0_0.obj,0.05930633,-0.17089106,-0.23588258,0.1490949,-0.07021608,-0.18391818,0.34110692,-0.061276633,0.13617992,-0.052513413,0.2536451,-0.3996512,-0.09750006,0.29038087,-0.007575205,-0.18414165,0.135125,-0.11815804,0.03355324,-0.011277874,0.062437132,-0.07451851,0.0735389,0.02243864,-0.074948564,-0.23233292,0.085932724,0.32063338,-0.235977,-0.21147361,-0.06879978,-0.1833852,258.09717242191334,597.8930028718621
3_0_tr_reg_009_0_0.obj,0.0028430615,-0.122881256,0.045210388,-0.121801496,-0.10578246,-0.122483045,-0.18596253,-0.04281106,0.3595688,0.14028047,0.06501351,0.1550368,-0.19857216,-0.11231582,0.093578815,0.21499483,0.1763692,0.10508523,-0.090180546,0.3584042,0.26660812,-0.09837986,-0.18738967,-0.2671023,0.0055541736,0.3163584,0.05186397,0.15908153,-0.23452652,0.001937301,0.13558151,-0.23172736,1156.4829470090588,749.0957985268609
3_1_0_tr_reg_000_0_0_0.obj,0.32506153,0.09762201,0.1450659,-0.077735096,-0.013686229,-0.044734165,0.232686,-0.06983936,-0.23885188,0.08569348,0.0362085,0.048103545,-0.15423723,0.28642258,0.04054284,0.015596539,-0.007141706,0.32309347,0.051261924,-0.15188232,0.17210746,-0.33243033,0.11374101,0.23103754,0.13458686,0.23575026,0.16397306,-0.24215077,0.07270575,-0.2775755,-0.134979,-0.15628329,1233.581602640889,1110.2159460381376
3_1_0_tr_reg_001_0_0_0.obj,-0.04019373,-0.0073776604,0.012691853,0.13356887,-0.18790364,-0.25054848,-0.018835897,-0.33425805,-0.0050836257,-0.0048274864,-0.16545454,-0.095704295,0.23039672,-0.24740295,0.16962124,0.16473947,0.12008528,-0.18527828,-0.13207579,0.23987658,0.07205446,0.46643478,0.11643379,-0.28374466,-0.036501776,-0.22231743,-0.14719175,-0.083418116,-0.07149305,-0.058977038,0.09273667,0.1620258,1279.1441484912252,389.6129360321101
3_1_0_tr_reg_002_0_0_0.obj,-0.11577335,0.1503511,0.08725523,-0.100318044,-0.14861342,-0.11450712,0.2659429,0.15326111,0.097621635,-0.052102726,-0.05319076,0.3237799,-0.23165973,-0.12718979,0.039159104,0.17058896,-0.28458855,0.20214656,-0.1402816,-0.040369935,0.25443628,-0.022814298,0.022117307,0.20262012,0.10105724,0.015086061,0.08213903,-0.38432094,0.13322236,-0.14048555,-0.32964867,0.18843992,1032.123179919053,1150.706233972025
3_1_0_tr_reg_003_0_0_0.obj,-0.2564468,0.11142884,-0.09190402,-0.22409375,0.09538758,-0.009518885,-0.06086445,-0.070410214,0.26970524,0.15596183,-0.12976274,-0.06744822,0.2845156,-0.11787649,0.05357564,-0.16001031,-0.13468327,0.20744888,-0.049151484,-0.043306928,-0.3299719,-0.18461874,0.29136094,-0.14488128,-0.20025541,0.12635879,-0.18289143,0.115007915,-0.013819817,0.3625936,0.17872162,-0.15122099,834.0961882200885,1266.0616519603427
3_1_0_tr_reg_004_0_0_0.obj,0.29365256,-0.21748349,0.15354174,0.2387075,0.051399875,0.078273654,-0.22966237,-0.24001135,-0.10735538,0.18421122,-0.034205183,-0.066560306,0.20337996,0.29870528,0.14647894,0.17984556,-0.3608755,-0.049293354,-0.1259381,0.10892526,0.052746184,-0.19917512,0.009567278,0.1760029,0.33071357,0.14302015,0.10775698,-0.11449525,0.024418496,-0.028910093,-0.15820609,0.12817983,511.32198113260733,1210.057446570016
3_1_0_tr_reg_005_0_0_0.obj,-0.009152728,0.15978488,-0.038084876,-0.26437277,0.065054104,-0.27985764,0.08680741,-0.05420202,0.20871995,0.030079594,0.06720155,-0.039237123,0.056756314,0.08474678,0.28273597,0.109505735,-0.23575263,0.076164916,0.007366104,0.07743754,0.24875815,-0.16649263,0.06673717,0.05115834,0.17767203,-0.19629388,-0.100585334,-0.44332954,-0.19735122,-0.12225088,-0.3991249,0.055711724,722.4853412529382,755.0366459628144
3_1_0_tr_reg_006_0_0_0.obj,-0.15302245,0.39279383,-0.05481672,0.08026536,0.3741282,0.29926497,0.08574917,0.14835522,0.20376942,0.04339301,-0.06240782,-0.27169383,0.06451119,-0.05617487,0.21870185,-0.07397241,0.09346174,0.030473126,0.0054399,0.29069236,-0.20659442,0.05100926,-0.16170882,-0.028357437,-0.17351581,0.22455864,0.0033660831,0.08859317,-0.30021426,-0.13046628,-0.008268586,0.10086651,618.4144078539498,377.02518870086345
3_1_0_tr_reg_007_0_0_0.obj,0.29946965,-0.29984292,-0.058844388,0.08637346,-0.027756048,0.13977927,-0.18465285,-0.0050220694,-0.30231747,0.03569258,-0.122412056,0.039055143,-0.08992019,0.044494618,-0.4121662,-0.2630894,0.3513492,-0.008775664,0.3092209,-0.08365702,-0.024493912,0.061599623,0.16876195,-0.014307244,0.14440097,0.06257437,0.020004852,-0.021729866,-0.052102327,0.17431079,0.2649146,-0.09262269,308.08196276004185,1122.9871895060846
3_1_0_tr_reg_008_0_0_0.obj,0.021174,-0.24695262,-0.24954207,0.07556984,-0.10719985,-0.25387013,0.36738124,-0.07192714,0.24920547,-0.09261706,0.3051411,-0.2518278,-0.10124021,0.09726954,-0.012851452,-0.1320422,-0.021783287,-0.12774426,-0.05647483,0.0751465,-0.074288204,-0.13731156,0.1252264,0.038485564,0.09751001,-0.17506066,0.24994214,0.30049363,-0.34506264,-0.10162752,-0.021055588,-0.00718626,431.0679337357083,539.6825121960413
3_1_0_tr_reg_009_0_0_0.obj,0.0717949,-0.15077959,0.11166384,0.0045648366,-0.15730594,-0.0629718,-0.18525183,-0.048203036,0.2821137,0.16235413,0.024526438,0.13648409,-0.19457592,-0.12790227,0.058407523,0.21653214,0.20082629,0.085271746,-0.1230556,0.3395892,0.24755111,-0.07451981,-0.19263105,-0.24322435,-0.0042289235,0.3662413,0.08896982,0.22159491,-0.24026403,-0.011512238,0.190567,-0.19510244,1086.6818008830758,259.85754562232705
3_1_tr_reg_000_0_0.obj,-0.09648606,0.19161476,0.08757823,-0.30736896,0.18179342,0.025813187,-0.1658298,0.19815606,-0.20069677,-0.10223549,0.27318022,0.3595529,-0.08853783,-0.15020864,0.022458065,0.18136318,-0.007506071,-0.18395083,0.15787093,-0.20891117,-0.2698947,-0.15289378,-0.2562177,0.045562156,-0.007874931,-0.07177235,0.12906545,0.15572818,0.0033695549,0.20598575,0.2635542,-0.09210515,721.0893212121315,55.9843816430639
3_1_tr_reg_001_0_0.obj,0.20894702,-0.020216325,0.06661501,0.2143679,-0.03713382,-0.0693286,-0.10757001,-0.27753007,-0.34214237,0.042988073,-0.27739418,-0.11809039,0.0963448,0.010630309,-0.13536365,-0.042397756,0.37584952,-0.1495457,-0.06514492,0.1782461,-0.09146586,0.28159973,0.35417914,-0.2526519,0.09850871,0.14059381,-0.10328759,-0.15027167,-0.057227742,-0.0007909006,0.16985798,0.0035651757,1259.5133944664085,673.52213241789
3_1_tr_reg_002_0_0.obj,-0.28731966,0.24363983,0.24925055,0.14670253,-0.061442744,-0.036030795,0.15336186,0.07092189,-0.11153945,-0.23438843,-0.024999807,-0.018271387,-0.22202493,0.086006284,0.13039544,0.0008819938,0.075303145,-0.04715647,-0.14609043,-0.012444153,0.2626647,0.27459875,-0.29881775,-0.16092908,-0.07135601,-0.18519263,-0.07202878,0.15497293,0.21131937,-0.3491952,-0.2723483,-0.02107219,1355.6871575422947,1127.243292338739
3_1_tr_reg_003_0_0.obj,-0.17682429,0.06795995,0.03572544,-0.08845054,0.0012801435,0.011650524,0.04187134,-0.061096508,0.17794847,0.19529442,-0.17884566,-0.0736353,0.24243508,-0.07003864,-0.07781608,-0.25592554,-0.14389026,0.32143903,-0.06282381,-0.19784255,-0.25248647,-0.2753013,0.37201744,-0.05885905,-0.11461565,0.10104977,-0.19005133,0.14458452,0.025060661,0.34523377,0.15703826,-0.18324748,817.4217408528835,1352.0855852027894
3_1_tr_reg_004_0_0.obj,0.28959572,-0.19230849,-0.21952467,-0.030560462,-0.04126723,0.041969396,-0.20867197,0.06270863,0.092256695,0.12853271,0.09615718,0.035250958,0.23372105,-0.034548037,0.17927007,0.2716932,-0.45622236,-0.30392474,-0.0026396746,0.024277195,-0.06533119,-0.025696319,-0.22726554,0.26472414,-0.15206584,-0.06983539,0.04572968,0.00895918,0.06221341,0.115545325,0.028208964,0.32532942,767.5480797209832,1000.5567998289443
3_1_tr_reg_005_0_0.obj,-0.25397122,-0.0045624496,-0.24227898,-0.3803409,0.26658946,-0.18785688,-0.2470164,0.03911792,-0.0051575736,-0.11634361,0.24941939,0.17305513,-0.069856696,-0.011075745,-0.0023467196,0.11687147,0.22847444,-0.36453328,0.010911635,0.19485204,-0.20228232,0.03002139,0.029128393,-0.25702116,0.08006897,-0.16036329,-0.0049578953,-0.05740117,-0.04846364,0.1337922,0.00977068,-0.22612779,1263.9942331001666,245.36417942854712
3_1_tr_reg_006_0_0.obj,-0.047215518,0.25844896,-0.34576812,-0.19147396,0.19767116,0.33186343,0.024676725,0.093644045,0.06336097,0.18858178,-0.2765932,-0.20140548,0.13586673,-0.06863054,0.16735427,-0.00854275,0.27092242,0.19019763,0.14882262,0.3029632,-0.1008723,0.19478223,0.09585683,-0.1181469,-0.03234744,0.27267233,-0.0008101631,-0.06764298,-0.111222856,-0.14318489,0.024783984,-0.0066660703,484.5358022578826,214.6765601516371
3_1_tr_reg_007_0_0.obj,-0.18347083,-0.4553304,-0.24225713,-0.09836292,-0.022605885,0.025509782,-0.34028265,0.023729976,0.2261646,-0.27269405,0.0176174,-0.037964787,-0.19314113,0.20508686,-0.2252167,-0.1667614,-0.03163817,-0.0076446636,0.0023378395,0.076391265,-0.024790488,0.111994274,-0.100587025,-0.20226409,-0.17748275,0.12881605,0.019594502,-0.08338404,0.37383685,0.011671388,-0.14636846,-0.011863775,947.6252622447782,838.6245256051807
3_1_tr_reg_008_0_0.obj,0.0837025,-0.10431936,-0.3116589,0.0529286,-0.039926536,-0.14390042,0.36865184,-0.014108949,0.14925157,-0.019145723,0.25137,-0.35783777,-0.10186004,0.309707,0.06095283,-0.16851535,0.14682242,-0.060185086,0.07514547,-0.035665423,0.098161995,-0.120422594,0.06950958,0.08185036,-0.19016694,-0.22944286,0.06262833,0.24955994,-0.15660802,-0.23013815,-0.11712355,-0.23980448,240.72368303076303,554.5448591189781
3_1_tr_reg_009_0_0.obj,-0.007842568,-0.08522533,0.01670131,-0.3933868,-0.07123523,-0.19650722,-0.12664762,-0.12983623,0.38510293,0.027297264,0.16831042,0.1672455,-0.13182439,-0.09329498,0.14008197,0.19835433,0.10341764,0.25252512,-0.06112993,0.23173846,0.18125416,-0.18956202,-0.13496116,-0.22681552,-0.115549706,0.35821024,0.0330525,-0.018762035,-0.014747382,0.023709202,0.12399284,-0.20259222,1048.160395322575,962.2703824446615
3_2_0_tr_reg_000_0_0_0.obj,0.008617467,0.15149638,0.2998222,-0.0082955435,0.003773786,0.040879954,-0.015624563,0.06486449,-0.37490472,-0.09115538,0.18847567,0.22821027,-0.040535193,-0.16160999,-0.013146253,0.24648333,0.033258766,-0.1711254,0.036329694,-0.30214074,-0.22234544,0.0047485274,-0.26703364,0.07348722,0.002771057,-0.023804959,0.116348445,0.34235105,0.04194393,0.03497419,0.4134785,-0.03596075,823.6900431966388,328.1483696003207
3_2_0_tr_reg_001_0_0_0.obj,0.14370814,-0.05403765,-0.16703631,0.08718566,-0.21962829,-0.18680593,-0.040468633,-0.22965784,-0.051037986,-0.034293216,-0.17034021,-0.08738734,0.12214255,-0.21356945,0.09033392,0.12029381,0.24764055,-0.21786968,-0.027162123,0.23142533,0.10297049,0.51029116,0.07998472,-0.22730441,-0.25671092,-0.13925447,-0.11104967,-0.17209186,0.022728402,-0.10745482,0.11482957,0.1875498,1210.3510264345794,452.2269314349833
3_2_0_tr_reg_002_0_0_0.obj,-0.24329792,0.2551604,0.12979153,-0.0050068144,-0.05667229,-0.010473897,0.20660585,0.2693793,-0.013619197,-0.17751953,-0.08018273,0.24336226,-0.32892954,-0.009027309,0.0353582,0.047529746,-0.1392069,0.09798239,-0.12043948,-0.04380715,0.27388746,0.1292544,-0.13558447,0.08173049,-0.033118613,-0.067836896,-0.015924683,-0.242076,0.26350152,-0.22484352,-0.4083346,0.13285805,1553.0525947005854,951.3160351450769
3_2_0_tr_reg_003_0_0_0.obj,-0.066300035,-0.03867883,-0.008995375,-0.16571485,-0.13324302,-0.03852252,0.04356993,-0.07241827,0.1293005,0.16294345,-0.14698482,0.1179602,0.18079723,-0.22176877,-0.20456484,-0.16360693,-0.13304162,0.34652948,-0.02717137,-0.24416013,-0.20807847,-0.24641569,0.4234048,0.05644982,-0.05397173,0.09113567,-0.08776726,-0.07321606,0.09921836,0.37340853,0.21716893,-0.07470289,888.5878956905293,1428.82572148411
3_2_0_tr_reg_004_0_0_0.obj,0.29831347,-0.26359612,-0.20513599,0.006465058,-0.050379213,0.022986786,-0.2093067,0.01517347,0.12797154,0.09641327,0.06674153,0.043926623,0.20533386,-0.0043224855,0.11125843,0.23622453,-0.49595344,-0.243172,-0.04108643,0.054691423,-0.033174194,-0.052774616,-0.16676645,0.29065114,-0.09790908,0.0050397553,0.060627196,-0.120787084,0.0902893,0.11000046,-0.03274939,0.36704516,712.8943967556245,1031.538543839577
3_2_0_tr_reg_005_0_0_0.obj,-0.14975518,0.09985501,-0.09631732,-0.41798174,0.12296777,-0.2986206,0.05632133,-0.031015981,0.23482694,-0.050844956,0.15659626,0.075268,0.023393534,0.0046082926,0.21679789,0.15351853,-0.22155327,0.047069903,0.026488975,0.087491825,0.11632443,-0.17903124,0.057940703,0.0069244737,0.276268,-0.17622507,-0.0314755,-0.4035965,-0.19218555,-0.019962765,-0.31410673,0.015144186,772.6011888148881,858.4741621735532
3_2_0_tr_reg_006_0_0_0.obj,-0.16144653,0.3346249,-0.20841417,-0.071054876,0.2871213,0.38147324,0.05260097,0.15424578,0.09056892,0.07547331,-0.18245459,-0.2058327,0.08442821,-0.10577808,0.15267724,-0.025830772,0.18223399,0.14928786,0.049063247,0.29573685,-0.2508504,0.1746144,0.0034660045,-0.06079225,-0.06379281,0.34692416,0.090059586,-0.030295977,-0.142482,-0.15086277,0.019595247,0.087862976,562.0362395451692,271.38192151909277
3_2_0_tr_reg_007_0_0_0.obj,-0.027112143,-0.5458129,-0.026968049,0.120470695,0.033815425,0.24735625,-0.2726979,0.09388298,0.12811677,-0.10747596,0.014627101,-0.005063354,-0.111422874,0.13191165,-0.32441717,-0.20036373,-0.0376328,0.14301075,0.26597503,-0.02134671,0.20220271,-0.03534667,-0.14266503,0.08510155,0.3409565,-0.07352437,-0.008939212,-0.025146151,0.033815242,0.20327562,-0.081181616,-0.054512538,441.7608100580477,1049.932951906121
3_2_0_tr_reg_008_0_0_0.obj,0.33223882,0.02184659,-0.3117705,-0.2534477,-0.09057229,0.0972973,0.20092261,-0.04252675,-0.011120812,0.07871261,0.123770945,-0.10859114,0.0816188,0.027755845,0.04291331,-0.15471824,0.2967619,0.22635186,0.3281786,-0.21965986,0.069946356,-0.13883829,0.049162418,0.19066271,-0.3935332,-0.095365755,0.016715745,-0.005408033,0.13184585,-0.06586431,0.14295301,-0.19129077,602.6628686946437,1461.0648873011753
3_2_0_tr_reg_009_0_0_0.obj,-0.008619441,-0.082102396,0.11278071,0.059920635,-0.13789234,-0.017445108,-0.1750624,0.09715683,0.33077842,0.16343877,0.0056780507,0.14916012,-0.2604654,-0.151385,0.04568746,0.16398197,0.1857595,0.070401095,-0.08205626,0.34250224,0.32962185,-0.0579511,-0.23609184,-0.21503165,0.056113694,0.24285477,0.06786126,0.20437917,-0.3387576,-0.003657985,0.07109742,-0.18304762,1142.4521161300486,319.49767961034877
3_2_1_0_tr_reg_000_0_0_0_0.obj,-0.026976468,0.15489195,0.27867362,-0.022712732,0.09583111,0.02703816,-0.06226808,0.10133738,-0.40023288,-0.08049635,0.19510065,0.25578853,-0.07928424,-0.09295038,-0.08153647,0.16533175,0.075898096,-0.21203505,0.031820405,-0.2969226,-0.30157882,-0.07646828,-0.161342,0.040928192,0.023798358,-0.03027551,0.09081162,0.31918567,0.042324007,0.121777646,0.38406903,-0.11764481,761.5095139102295,208.82982273771768
3_2_1_0_tr_reg_001_0_0_0_0.obj,0.2677683,-0.047688566,-0.11969794,0.08152544,-0.13241981,-0.05607219,-0.09127904,-0.19962321,-0.27754733,-0.007810809,-0.26615238,-0.06249433,0.035956398,-0.08829648,-0.117398344,0.023055976,0.39532843,-0.13620123,-0.007533509,0.20267007,-0.055767477,0.4022887,0.25845474,-0.21669339,-0.09880658,0.19430819,-0.034479655,-0.24589393,0.04849921,-0.07382132,0.19106859,0.113154165,1165.3117748704449,602.6277910611207
3_2_1_0_tr_reg_002_0_0_0_0.obj,-0.17460288,-0.07729411,-0.010570733,-0.16433655,-0.2461114,-0.19495744,0.14654306,-0.052121118,0.1879212,-0.093824916,-0.04289873,0.35211453,0.005374373,-0.37080196,0.008947508,0.22137453,-0.32515347,0.11386393,-0.076751836,-0.058758564,0.1923936,0.19257717,-0.02015414,0.12503202,0.04440523,-0.12276155,0.021173993,-0.32792786,0.1403729,0.0386546,-0.06323956,0.2978245,1527.1113324914984,448.6642557355171
3_2_1_0_tr_reg_003_0_0_0_0.obj,-0.06955975,-0.0039226045,-0.060615256,-0.27787885,-0.040118683,-0.022390705,-0.056301102,-0.09199884,0.099837676,0.18084459,-0.13285959,0.13266918,0.22241421,-0.23818581,-0.14736171,-0.11725756,-0.054023284,0.30194646,0.058584146,-0.1442588,-0.24911287,-0.21958736,0.4208548,-0.008154063,0.050139777,0.09264255,-0.075096644,-0.12024945,0.0038242566,0.41434467,0.2473823,-0.105052255,989.0592207651017,1371.644031779164
3_2_1_0_tr_reg_004_0_0_0_0.obj,0.21594448,-0.1879303,0.23094739,0.24418874,0.00917391,-0.024538144,-0.08303782,-0.30663922,-0.10576922,0.161653,-0.06312743,-0.036874615,0.15496813,0.23690705,0.10972419,0.15976308,-0.28857723,0.049997687,-0.13221022,0.10387218,0.13493086,-0.17813678,0.12728187,0.14261699,0.4867174,0.05587096,0.09006542,-0.20229265,-0.06250728,-0.05990611,-0.19090788,0.097943135,380.1093653932062,1229.060655614694
3_2_1_0_tr_reg_005_0_0_0_0.obj,-0.09370514,0.12613346,-0.12533788,-0.48540685,0.21092387,-0.19045398,0.0013816799,0.09768576,0.1608333,-0.09105394,0.21993686,0.10977125,-0.08432817,0.05261085,0.108027905,0.057270616,-0.1129467,0.07821893,0.1482313,0.025329046,0.007641825,-0.2897068,0.05237126,0.06872585,0.2678235,-0.056508042,0.068121485,-0.43088272,-0.19497697,0.017261252,-0.2755891,-0.042836063,687.886998034149,958.3305657053796
3_2_1_0_tr_reg_006_0_0_0_0.obj,-0.08172841,0.28453028,-0.21686985,-0.12970683,0.19403622,0.42030936,0.029843124,0.15643433,-0.03394041,0.12139535,-0.27512026,-0.12624395,0.058660712,-0.105565,0.07388462,-0.024866777,0.23176472,0.2255753,0.08832233,0.24931584,-0.19264475,0.20600325,0.07209562,-0.05851383,0.0015468702,0.40537554,0.1105838,-0.085058756,-0.025613915,-0.16091326,0.032035157,0.0809588,568.5616978776868,210.27230657043083
3_2_1_0_tr_reg_007_0_0_0_0.obj,-0.033412978,-0.493225,0.06252739,0.27449718,0.06359489,0.21717753,-0.20931832,0.06890378,-0.06144772,-0.14840491,0.017810147,-0.07665583,-0.20149527,0.27057567,-0.37923908,-0.24955352,0.11519002,0.01050266,0.12395414,-0.02504322,0.062983684,-0.015675507,-0.021820914,-0.03435763,0.35174668,0.0058515687,0.031077482,0.14377016,0.034469657,0.13183092,-0.050900947,-0.15127426,360.62591681508275,1017.9137233772844
3_2_1_0_tr_reg_008_0_0_0_0.obj,0.033657786,-0.16971944,-0.12155638,0.10614482,0.122937605,-0.010340182,0.16660774,0.13364458,0.24701299,-0.07558984,0.21620026,0.051158626,-0.149801,-0.19905548,-0.13453877,-0.14771329,0.011413492,-0.28576106,0.04135295,0.25765267,-0.03681166,-0.09659628,0.025931822,0.16888262,0.15039042,-0.16560258,0.1814283,-0.0070311488,-0.52724475,0.18712944,-0.0589288,0.27542558,1015.3977556530824,479.45833351489307
3_2_1_0_tr_reg_009_0_0_0_0.obj,0.120982006,-0.13593167,0.19597563,0.011720382,-0.14422196,-0.09876333,-0.18854588,-0.13720088,0.21701697,0.16850027,0.06490369,0.12293698,-0.13529174,-0.08360836,0.08994345,0.24447568,0.18272232,0.0825028,-0.15119721,0.2798407,0.21496005,-0.13885808,-0.19432966,-0.23058262,-0.021394541,0.37995747,0.06516596,0.24778642,-0.2055028,-0.020099103,0.24371323,-0.2125048,1065.0234623016338,238.8115147917531
3_2_1_tr_reg_000_0_0_0.obj,-0.023751311,0.18583551,0.15423849,-0.2271034,0.1250488,0.045480177,-0.13697289,0.1939345,-0.23556872,-0.09205395,0.27017614,0.34042028,-0.09218429,-0.140731,-0.005769991,0.17965302,-0.039755605,-0.14279398,0.16828044,-0.2748146,-0.26648048,-0.18671508,-0.25450203,0.10229367,0.017156795,-0.019062348,0.17275009,0.17762278,-0.03495557,0.19613273,0.29743692,-0.06977057,717.2747762137838,63.270022950382554
3_2_1_tr_reg_001_0_0_0.obj,0.24191628,-0.022569379,-0.09202952,0.14368694,-0.13060288,-0.1029167,-0.088161714,-0.23898728,-0.25310144,0.004259865,-0.2614619,-0.12272632,0.08313132,-0.079285584,-0.053214967,0.023256099,0.3863659,-0.18917584,-0.03434718,0.22379136,-0.028031586,0.4255973,0.2451201,-0.25656176,-0.116005644,0.09111326,-0.08424765,-0.19545723,0.0035196284,-0.086954735,0.16464876,0.09667037,1197.1484747886902,574.7350674782555
3_2_1_tr_reg_002_0_0_0.obj,-0.11581091,0.2199282,0.12588209,-0.016137274,-0.16346812,-0.12944436,0.31468076,0.131248,0.03969906,-0.030560808,-0.108591944,0.26172,-0.24610028,-0.06858088,0.06654951,0.13015828,-0.2016433,0.20394339,-0.16741924,-0.0039064037,0.3203862,0.02020274,0.03731638,0.1332177,0.11430984,-0.030169383,0.037406668,-0.33609053,0.12554282,-0.21982133,-0.38489377,0.14105229,1466.2011401414397,847.5994652934205
3_2_1_tr_reg_003_0_0_0.obj,-0.03571245,-0.02331356,0.010326662,-0.15753394,-0.1393878,-0.012415872,0.050123453,-0.056179293,0.1334448,0.18379669,-0.1524584,0.10241107,0.1721048,-0.2057545,-0.18970433,-0.17016312,-0.12954304,0.38213214,-0.027980145,-0.25641072,-0.18743,-0.27363864,0.39612597,0.06805645,-0.09770937,0.12872773,-0.08972846,-0.050373033,0.110445574,0.34606576,0.2190479,-0.09081713,887.8514250046281,1429.7712947678954
3_2_1_tr_reg_004_0_0_0.obj,0.33919692,-0.1755839,-0.06747204,0.08285552,0.05687974,0.08472741,-0.30173928,-0.0588128,-0.053935893,0.16644196,0.08331691,-0.038317487,0.25472072,0.18230748,0.22937441,0.28232214,-0.43201256,-0.3179843,-0.08979636,0.09034674,-0.09108214,-0.10524817,-0.1746811,0.20726156,0.010510741,0.053766724,0.078388326,0.033935,0.0751745,0.054801676,-0.03516944,0.22652139,753.9797026591709,1143.572649758601
3_2_1_tr_reg_005_0_0_0.obj,-0.14075066,0.13875347,-0.19442523,-0.43072668,0.34119427,-0.18509428,-0.14820914,0.084600694,-0.08845631,-0.10863048,0.20571734,0.14858083,-0.098830685,0.11881436,-0.047929607,0.025172114,0.14246792,-0.19625376,0.05489333,0.11281046,-0.23688307,-0.15698403,0.19336596,-0.13891202,0.25342646,-0.021305546,0.032112353,-0.31715325,-0.084277846,0.10524881,-0.14451371,-0.17210454,472.1738292576696,843.5356464223987
3_2_1_tr_reg_006_0_0_0.obj,-0.07138567,0.19527744,0.03923953,0.014041043,-0.0143637415,0.4396218,0.07847993,0.16426773,-0.11052149,0.0054655503,-0.20661578,-0.04328719,-0.005954485,-0.21167484,-0.11031294,-0.091063015,0.07731304,0.27666208,-0.020444343,-0.029146321,-0.29592118,0.14463136,0.00239947,0.073999606,-0.057524282,0.49268562,0.27825496,0.029594384,0.08907327,-0.119589075,0.13361895,0.21002403,708.3692257034439,306.1286055850966
3_2_1_tr_reg_007_0_0_0.obj,-0.078812584,-0.47399658,-0.17923066,-0.058962453,0.002357863,0.02792389,-0.3271764,-0.106566615,0.10260882,-0.271411,0.0407637,-0.057640437,-0.17924915,0.21808964,-0.2498992,-0.19680485,0.09193016,-0.061217874,-0.048097976,0.13072701,-0.15998001,0.09453265,-0.002141005,-0.25133517,-0.14977038,0.2906704,0.12515931,-0.016965987,0.3015252,0.028680647,-0.011399268,-0.015126842,884.1906354779633,902.0368210387522
3_2_1_tr_reg_008_0_0_0.obj,0.40183094,0.13728923,-0.23973751,-0.19823983,-0.013409518,0.17193457,0.15509884,-0.0113954125,-0.063437216,0.13925268,0.030864667,-0.13465711,0.10385811,0.032676756,0.10500928,-0.12042176,0.2994194,0.2107695,0.3621017,-0.15304331,0.19852023,-0.05282233,-0.038004752,0.21731168,-0.3698625,-0.09045228,-0.06425998,-0.08933419,0.09671718,-0.117402464,0.093169086,-0.1439011,586.4651738438708,1510.2627881299063
3_2_1_tr_reg_009_0_0_0.obj,0.20422776,-0.15607728,0.13733119,-0.16441874,-0.0871093,-0.12215303,-0.043060467,-0.34120163,-0.0273692,-0.01968796,0.16311844,0.05664271,-0.043895386,0.017126242,-0.0326816,0.121649265,0.23389594,0.17584737,-0.14120848,0.09899996,-0.15254937,-0.16739556,0.11319494,-0.19486842,-0.077301875,0.548652,0.181969,0.04509115,0.04261986,-0.01905983,0.35280153,-0.10943944,949.1626155223765,620.8837434302299
3_2_tr_reg_000_0_0.obj,0.113122895,0.077845395,0.3116326,0.061131477,0.082448214,-0.02448865,-0.1889703,-0.046169747,-0.4615164,0.038190056,0.12784782,0.16876374,0.07349102,0.04087291,-0.049141306,0.1654163,0.038799956,-0.28249156,0.004732701,-0.29096127,-0.26899335,-0.09734949,-0.056131728,-0.01671726,0.04805643,-0.059560556,-0.020092899,0.304006,0.06295733,0.17022994,0.3595889,-0.16353226,805.4178547658449,544.7841447277542
3_2_tr_reg_001_0_0.obj,-0.13993679,0.01789694,0.22303446,0.16816393,-0.072124355,-0.22022042,-0.05457875,-0.38922992,-0.11528078,0.0310958,-0.16436982,-0.046975844,0.26518422,-0.18831722,0.09404651,0.16175483,0.0744377,-0.14234416,-0.22236295,0.19536692,-0.09994624,0.2975428,0.24668896,-0.30493206,0.26933664,-0.09616332,-0.121289685,-0.0013267626,-0.13790363,0.060514357,0.14873144,0.050405152,1392.633275292535,446.3922968509425
3_2_tr_reg_002_0_0.obj,-0.27546102,0.26929325,0.24014908,0.13357814,-0.062310494,0.037842084,0.16319071,0.1666536,-0.15857159,-0.24300252,-0.08720985,0.05841161,-0.26303977,0.041768495,0.058058035,-0.023863139,0.049379837,-0.009106025,-0.11972981,-0.05495065,0.25139946,0.29196337,-0.25329676,-0.07489416,-0.07493846,-0.14442341,-0.06003659,0.039525643,0.2877397,-0.31380737,-0.30384436,0.054416325,1377.029193552688,1121.711219876933
3_2_tr_reg_003_0_0.obj,-0.3375948,0.17238975,-0.037054792,-0.047038503,0.20294486,-0.009931966,-0.02625483,0.03193148,0.3951237,0.10450202,-0.05630306,-0.16143785,0.16956426,0.049817644,0.1464732,-0.19439396,-0.18649516,0.098737165,-0.1270403,0.0198957,-0.16479857,-0.1962103,0.01628814,-0.16377884,-0.3818404,0.075382285,-0.278781,0.258131,-0.053642903,0.1931197,-0.0041707805,-0.18205272,359.9923567249997,781.1675847730605
3_2_tr_reg_004_0_0.obj,0.3253985,-0.1522315,0.017226173,0.13687053,0.08835719,0.10471323,-0.30906662,-0.102036595,-0.13239992,0.17661732,0.06381188,-0.042418517,0.2584915,0.22248133,0.242525,0.28943908,-0.38982907,-0.3189931,-0.10046975,0.09730633,-0.0932546,-0.11328382,-0.16231266,0.1693801,0.11564177,0.054475415,0.08184717,0.08903477,0.04715997,0.05108533,-0.025836851,0.16547804,748.4184842590585,1219.0872654014843
3_2_tr_reg_005_0_0.obj,-0.25775862,0.025625652,-0.116695076,-0.24490471,0.26529792,-0.15806578,-0.22775187,-0.060520835,-0.17378385,-0.110166825,0.21159312,0.12264798,0.024870066,0.029752549,0.036662888,0.10411547,0.2446762,-0.4204749,-0.044791218,0.08247294,-0.27699205,0.09159865,0.018555243,-0.26943898,-0.052588526,-0.22634156,-0.07279096,0.13550346,0.119873375,0.1208703,0.12550904,-0.25816426,1212.2356880621837,210.9284869452955
3_2_tr_reg_006_0_0.obj,-0.09037779,0.3540906,0.17386307,0.27774638,0.2631495,0.26072603,0.1455634,0.19668083,0.194416,0.00028368726,0.015085143,-0.24533975,-0.08286089,-0.09170054,0.076366805,-0.19531254,0.11700424,0.026225748,-0.021484824,0.18462469,-0.073116876,-0.022184353,-0.20580049,0.03487356,-0.17181714,0.16104664,0.04526144,0.1183204,-0.4505837,-0.119966716,-0.031145766,0.12761153,1291.815696008111,885.4934961363728
3_2_tr_reg_007_0_0.obj,0.06297138,-0.3699028,-0.089845665,-0.06854904,0.009419698,0.28224912,-0.34648135,0.09962357,0.15696159,0.0072749946,-0.05204168,0.01909224,-0.018799895,-0.013314838,-0.1777801,-0.1625481,0.052688412,0.21627545,0.45434862,0.02110334,0.31871977,0.012170366,-0.2500194,0.060196266,0.24695957,-0.10059788,-0.04955474,-0.1206604,-0.09674372,0.16677731,-0.026858645,-0.008649278,1094.0352264851679,815.3382726104561
3_2_tr_reg_008_0_0.obj,0.045256995,-0.27604344,-0.2774805,0.020802703,-0.12887953,-0.27796438,0.37875262,-0.108197935,0.23530129,-0.054279905,0.29215816,-0.23756684,-0.09001429,0.167614,-0.0047629084,-0.10834424,-0.0420725,-0.05243706,-0.041958638,0.029778711,-0.05126035,-0.20615071,0.16900538,0.055211484,0.11313485,-0.14680175,0.23790382,0.28595954,-0.2701696,-0.10151377,-0.025854377,-0.081445456,118.42872952511664,1020.9228688657637
3_2_tr_reg_009_0_0.obj,-0.07609323,-0.08703128,-0.05005179,-0.3714811,-0.08139197,-0.19988434,-0.14060783,-0.029242981,0.40209675,-0.00436946,0.1463082,0.19368547,-0.23084542,-0.0897176,0.109531276,0.17948216,0.15208109,0.17910838,-0.033392116,0.27220628,0.28762442,-0.09856265,-0.18079804,-0.2505204,-0.08108628,0.26411068,0.021528082,-0.032024443,-0.055693366,-0.019202909,0.027485108,-0.22891489,1073.2633819358057,1041.007835406235
3_tr_reg_000_0.obj,0.025106939,0.07961177,0.2522352,0.09138848,0.17907384,-0.066040814,-0.13108447,-0.07018994,-0.45821357,-0.05158768,0.14797193,0.013988846,-0.050696906,0.32733452,-0.07483586,-0.033984467,0.1948331,-0.24779396,-0.04433777,-0.23448607,-0.20666689,-0.14447503,0.018878613,-0.13119286,-0.009130639,-0.10755474,-0.079512306,0.2844273,0.21571113,0.029569322,0.12457595,-0.3347718,804.2953936998491,629.7688323912002
3_tr_reg_001_0.obj,-0.30874935,0.067881055,0.22608559,0.03724096,-0.06651411,-0.32132402,0.059827253,-0.33385628,0.08053929,0.0049239453,-0.043300517,0.017312368,0.25490382,-0.21139972,0.21993618,0.19286998,-0.1560291,-0.06788475,-0.24585849,0.1337174,0.018969333,0.17466953,0.13205743,-0.2207033,0.28194615,-0.3019799,-0.14995031,-0.0076451167,-0.11851594,0.038734004,-0.020746818,0.08617104,1332.1748112898617,698.5501186841368
3_tr_reg_002_0.obj,-0.3905298,0.11950296,0.14621925,-0.005104687,-0.1755403,-0.04471975,0.11935124,0.042578626,0.070029415,-0.26565874,-0.021391392,0.06850379,-0.19992,-0.13779105,0.12479629,0.068614885,0.032739975,0.01891382,-0.1673818,0.056789372,0.22680672,0.38319466,-0.31529766,-0.17464554,-0.16285335,-0.09352098,-0.0008788887,0.10812677,0.2405268,-0.3195077,-0.16463771,0.09052081,838.0426121470634,1036.4345540097547
3_tr_reg_003_0.obj,-0.35671073,0.06917881,-0.044402935,-0.05449626,0.101000845,-0.03212978,-0.045448102,-0.03129068,0.38869926,0.06953558,-0.12382028,-0.15768376,0.21032746,0.023808848,0.08259462,-0.21788198,-0.25215784,0.16698164,-0.15687233,-0.03313455,-0.20076081,-0.14488918,0.13272417,-0.17272359,-0.35329315,0.105597235,-0.26896638,0.18947332,0.064655684,0.2494185,0.0076796194,-0.13021632,355.5277130508004,834.521675208059
3_tr_reg_004_0.obj,0.34672022,-0.17149761,0.0051983064,0.14898363,0.07594696,0.09189378,-0.31508178,-0.117226586,-0.103695795,0.17489928,0.04910095,-0.06449918,0.24784946,0.26089305,0.22290538,0.2582901,-0.40746805,-0.2723223,-0.10961845,0.10157961,-0.06711862,-0.13975862,-0.1331548,0.1853323,0.09639344,0.09706153,0.08638406,0.01346606,0.07367521,0.027143896,-0.07269947,0.17511299,722.5446163938873,1209.8912054208033
3_tr_reg_005_0.obj,-0.20300663,0.06532185,-0.15661341,-0.2565596,0.26596838,-0.2258466,-0.236224,-0.1013324,-0.16835184,-0.07325355,0.15910041,0.06181343,0.039333552,0.10768522,0.065230176,0.112748764,0.2683431,-0.41289186,-0.060836725,0.18149492,-0.18548942,0.111705706,0.10615057,-0.33823594,0.062539324,-0.20568566,-0.112547,-0.009597321,0.048156288,0.061427,-0.002972155,-0.25814563,1228.1157272106902,242.15997487923255
3_tr_reg_006_0.obj,-0.21713187,0.17998734,0.09325959,0.19605225,0.14006305,0.13596365,0.17313775,0.18369873,0.2380621,-0.12854515,0.11062602,-0.133972,-0.10259649,-0.1297782,-0.0792247,-0.25670817,-0.10145206,-0.030660601,-0.16517337,0.016111976,-0.36697567,-0.06871433,-0.14476734,0.06248123,-0.39049572,0.2356122,0.16903196,0.25926438,-0.1355451,-0.010344524,0.06811452,0.19655295,1248.3130175592905,963.9786072632224
3_tr_reg_007_0.obj,-0.14329325,-0.5502894,-0.15857461,0.0324045,0.028859792,0.14305559,-0.25493497,0.10879972,0.1777247,-0.24960892,0.054506805,-0.011895953,-0.24345309,0.22342955,-0.32987753,-0.21988186,0.0053407876,0.05835104,0.14825402,0.0443218,0.14865376,0.03750524,-0.12231423,-0.056614608,0.17589031,-0.011990481,0.01888877,-0.04417951,0.18757758,0.107009634,-0.18613465,-0.07242314,228.85326445559326,1000.1261249802756
3_tr_reg_008_0.obj,0.006257755,-0.30364385,-0.27733693,-0.05703871,-0.14566942,-0.32079366,0.33552495,-0.14761788,0.30438748,-0.046155624,0.25961253,-0.09816519,-0.059617084,0.0012348217,0.019895723,-0.01863262,-0.10543336,-0.060495935,-0.10449632,0.15394631,-0.06862869,-0.17792112,0.18808125,0.020621922,0.22141333,-0.10815555,0.26775166,0.20114113,-0.31105977,-0.02953196,-0.0037068697,0.030086009,1115.3676255971993,1354.6228049212482
3_tr_reg_009_0.obj,0.17024891,-0.13127315,0.13410197,-0.2560975,-0.049688924,-0.1512514,-0.13259213,-0.27756304,0.15503725,0.052751012,0.17212668,0.13286315,-0.06766516,-0.012204799,0.092292145,0.22610866,0.15323664,0.23298188,-0.1258298,0.2180481,0.03974196,-0.21691863,-0.015611223,-0.19627509,-0.037137803,0.5325506,0.12050123,-0.030727413,0.002433554,-0.017343828,0.24432643,-0.15092537,1017.9450597302882,711.3109539927867
4_0_tr_reg_000_0_0.obj,0.20617215,0.21253787,0.20267221,0.11540803,-0.03427283,-0.21975935,0.26461837,-0.17345902,-0.1917897,0.07179186,-0.04436941,-0.11737932,-0.12743944,0.33194798,0.18198252,0.0024883605,0.116338246,0.09364779,-0.031053102,0.02739332,0.39903545,-0.091171466,0.05932101,-0.02026506,0.1410924,-0.0944093,-0.07772343,-0.1257535,-0.0857444,-0.36265916,-0.28271496,-0.16168182,1163.5048163460096,1144.2965343859628
4_0_tr_reg_001_0_0.obj,-0.04230844,-0.03220917,0.09863419,0.17630991,-0.1984753,-0.27324674,-0.007974732,-0.35369113,-0.040420856,0.0032894327,-0.12202459,-0.06499089,0.25679484,-0.2676238,0.1402429,0.17778662,0.0807872,-0.20263797,-0.13326645,0.16309866,0.064502634,0.41551757,0.11616641,-0.24562338,0.0567808,-0.28991172,-0.15022446,-0.023322128,-0.11854863,-0.0022123507,0.1386683,0.14587016,1312.462315056287,384.41465763361225
4_0_tr_reg_002_0_0.obj,-0.22544225,0.29510647,0.22575872,0.11490196,-0.03004009,0.0464906,0.21390444,0.2602973,-0.1747279,-0.19686255,-0.12168246,0.14189875,-0.33748025,0.074662454,-0.023372745,-0.050245896,0.015101667,0.0686023,-0.09268391,-0.091348544,0.26154882,0.17421836,-0.1356504,0.021531073,0.005838008,-0.098023914,-0.054423302,-0.11299078,0.2817535,-0.25695845,-0.37684348,0.047865823,1469.104983644406,1055.3368188600118
4_0_tr_reg_003_0_0.obj,-0.32797945,0.14012872,0.09364357,0.089590155,0.09847708,-0.050709374,0.04198859,-0.00029505073,0.28005773,0.044804234,-0.1201606,-0.18348633,0.15328105,0.11202751,0.019176947,-0.3250053,-0.23003156,0.17210546,-0.16550882,-0.16283208,-0.1473574,-0.20371331,0.18111052,-0.13126828,-0.31895825,-0.0055768946,-0.3254079,0.19463329,0.06586995,0.214462,-0.07096191,-0.14416789,298.22656765465854,884.9313050156697
4_0_tr_reg_004_0_0.obj,0.3194173,-0.042295955,0.1487797,0.21749325,0.13721934,0.10451416,-0.23150955,-0.21923847,-0.22852172,0.15409757,-0.039411563,-0.23308283,0.20922169,0.4687885,0.21583,0.05243463,-0.21822968,-0.039200626,-0.01397866,0.021083701,0.076075636,-0.18112886,-0.019105455,0.10059636,0.22539659,0.06395157,0.038000736,-0.097704805,0.06166817,-0.15758443,-0.23894684,0.010825504,474.0781267776263,1350.7354992704973
4_0_tr_reg_005_0_0.obj,-0.05272887,0.18908413,-0.108826675,-0.42763177,0.28926805,-0.2032788,-0.02669688,0.049714714,-0.008324368,-0.07928757,0.16008987,0.063813716,-0.074441686,0.1668107,0.055544246,-0.014499841,0.013044245,0.0013410104,0.112796076,0.058540363,-0.044710632,-0.2624215,0.18126452,-0.014558059,0.31486213,-0.038143918,0.014618728,-0.4654054,-0.16080539,0.008759467,-0.30274886,-0.10294078,593.142175516927,895.2599012806019
4_0_tr_reg_006_0_0.obj,-0.15603384,0.35933882,-0.1663677,-0.003969601,0.34979597,0.34609014,0.04028803,0.1385799,0.15733887,0.062588885,-0.11500301,-0.26222473,0.08879479,-0.05098042,0.2269316,-0.031241698,0.15121217,0.05944267,0.054877184,0.3309952,-0.20589265,0.13532478,-0.10552219,-0.06955231,-0.09998613,0.24830383,0.03605376,0.036892094,-0.24117398,-0.15948674,-0.015618129,0.09193155,568.3363237982483,332.2766531254849
4_0_tr_reg_007_0_0.obj,-0.08351596,-0.533066,-0.04776161,0.16920498,0.06076302,0.17345206,-0.21753007,0.07390731,-0.011617549,-0.22228815,0.053889815,-0.04249269,-0.25107008,0.28693902,-0.39389807,-0.24968207,0.10646068,-0.005923487,0.10074498,0.00014474234,0.031041576,0.010752644,-0.01005283,-0.06687585,0.2710739,0.037950184,0.062164467,0.08067646,0.1391863,0.1178042,-0.09215163,-0.14164376,340.0983813656744,993.4179508906811
4_0_tr_reg_008_0_0.obj,0.28482136,0.114873916,-0.30856752,-0.14682862,0.07761046,0.09021838,0.29737973,0.020718237,0.08289296,0.14659062,0.11894181,-0.24778692,0.06748355,0.16029859,0.11385323,-0.21592715,0.19012891,0.16385075,0.26434535,-0.11632902,0.10865786,-0.24345599,0.08564621,0.2671724,-0.31556678,-0.13973224,-0.021393962,-0.025136666,-0.07834623,-0.13131408,-0.052220166,-0.22278476,202.21446864622874,401.8376576861396
4_0_tr_reg_009_0_0.obj,-0.04165867,0.014781278,0.13320382,0.07470783,-0.085822605,-0.049931057,-0.1652144,0.08865075,0.32810622,0.1619236,0.0070148013,0.10023523,-0.23689662,-0.08972252,0.11520719,0.14441502,0.19249658,0.04102675,-0.08047588,0.33560494,0.39135337,-0.059736863,-0.26368243,-0.24286501,0.02223684,0.146592,-0.02712915,0.19772667,-0.3619459,-0.037379067,-0.0026457366,-0.22390364,1143.4294106465243,323.8795729376872
4_1_0_tr_reg_000_0_0_0.obj,0.18437415,0.021651436,0.18729675,0.10997252,-0.1704886,-0.066518895,0.32365945,-0.052392755,-0.29937616,-0.114213675,0.18379107,0.041628927,-0.26427415,0.19800435,-0.046579458,0.1013249,0.18848996,0.07827705,-0.02830337,-0.25015697,0.14159213,-0.101235025,-0.17271249,0.11979699,-0.12576744,0.0979055,0.14723746,0.28377315,0.20696475,-0.2947267,0.14236593,-0.24620624,821.8391092025787,469.42533178678184
4_1_0_tr_reg_001_0_0_0.obj,-0.14739892,0.017637227,0.14599992,0.16097933,-0.14942499,-0.28054032,0.0104226,-0.3649005,0.014295459,0.013634448,-0.11271454,-0.09225331,0.27885276,-0.22887108,0.19801395,0.17050344,0.012693624,-0.1559474,-0.17764632,0.17893642,0.054763872,0.36276692,0.12449202,-0.26935956,0.12377857,-0.2970148,-0.16087696,0.0051549496,-0.13372783,-0.012002143,0.06824008,0.116505146,912.7473342549338,14.86673527098094
4_1_0_tr_reg_002_0_0_0.obj,-0.024060719,0.1055877,0.094635606,-0.0670468,-0.19038084,-0.14129283,0.30892795,0.07698896,0.05453238,-0.002407645,-0.0699767,0.31966352,-0.17792839,-0.1457154,0.0219426,0.18982725,-0.2807299,0.22252956,-0.12623559,-0.05448274,0.265647,-0.039312612,0.09061061,0.24020943,0.17480248,-0.00086762535,0.09819786,-0.39583242,0.1021694,-0.11217115,-0.27567142,0.19137608,966.9523154615947,1125.6744318672613
4_1_0_tr_reg_003_0_0_0.obj,-0.31963986,0.20210499,0.03673823,0.0036229007,0.19237946,-0.037003946,-0.035370853,-0.01051791,0.31773877,0.12505022,-0.0874447,-0.17880353,0.20178412,0.095991634,0.1480079,-0.21568666,-0.17052579,0.10225233,-0.12826784,-0.035103776,-0.14122336,-0.20706642,0.07322612,-0.19150884,-0.33489075,0.0076461867,-0.33659658,0.25683692,-0.038057104,0.2003521,-0.020871844,-0.21385448,306.08965708158905,839.4347724297826
4_1_0_tr_reg_004_0_0_0.obj,0.34257436,-0.28489462,-0.083738334,0.08289329,-0.005893939,0.07898563,-0.27361733,-0.052316472,0.018692512,0.13102865,0.051899686,0.026806002,0.18529716,0.1505347,0.095929295,0.23090886,-0.48679698,-0.1691921,-0.07267875,0.05351698,-0.04832595,-0.15050913,-0.10981693,0.2970213,0.030233996,0.161442,0.13210468,-0.12491048,0.13392788,0.07746072,-0.05669626,0.27762175,673.8561387994334,1096.321286299624
4_1_0_tr_reg_005_0_0_0.obj,0.0019344527,0.20179692,-0.09482474,-0.33679143,0.32689446,-0.16904289,-0.06509444,0.05356698,-0.15128411,-0.078944504,0.12197743,0.029979816,-0.09643513,0.25812703,-0.022911116,-0.08475658,0.11321731,-0.06375238,0.09893929,0.047967885,-0.108665004,-0.23539908,0.2536385,-0.049216334,0.29859895,0.0017565594,0.0031262734,-0.4473117,-0.10030235,0.004723683,-0.28904194,-0.14120758,557.983460719704,803.3400633406121
4_1_0_tr_reg_006_0_0_0.obj,-0.17673519,0.3313282,-0.1792348,-0.028735934,0.29048514,0.35707647,0.02817112,0.12748618,0.10360507,0.04686359,-0.16200438,-0.24187467,0.085978165,-0.09261361,0.18058966,-0.02531819,0.17325595,0.0864867,0.03975613,0.32555932,-0.25015736,0.20761535,-0.059166376,-0.092907935,-0.071307145,0.3111351,0.09183264,0.015526431,-0.17473792,-0.17995901,0.014077037,0.11678444,578.4047541808263,305.69799682533085
4_1_0_tr_reg_007_0_0_0.obj,0.07260522,-0.15729348,0.18282515,0.3192881,0.029877298,0.29027537,-0.2352867,0.17834592,-0.05569316,0.07456712,-0.15204976,-0.06304825,-0.10612129,0.033390403,-0.20489432,-0.2050902,0.20174688,0.073006496,0.30603328,0.028391581,0.30436277,0.041446865,-0.15906832,-0.005594167,0.34911758,-0.14654678,-0.11075174,0.06368579,-0.31330106,0.09655079,-0.03348891,-0.040701818,541.6391835736493,970.7298206726041
4_1_0_tr_reg_008_0_0_0.obj,-0.092707306,-0.27565408,-0.2247283,0.034881547,-0.011066218,-0.16993085,0.21628086,-0.033447284,0.33068782,-0.10847427,0.22673436,-0.019350672,-0.0755648,-0.2226499,-0.060518324,-0.094442755,-0.036047116,-0.26208028,-0.10037136,0.30186975,-0.140489,-0.014322859,0.045804627,0.022075007,0.12342212,-0.13483946,0.25413966,0.18519905,-0.4068528,0.06300273,0.028036313,0.22302184,1321.046735887667,1346.0203687683907
4_1_0_tr_reg_009_0_0_0.obj,0.14436479,-0.13720329,0.22473885,0.074684896,-0.1606752,-0.06915527,-0.17629196,-0.15489072,0.15093079,0.160736,0.028217249,0.09641936,-0.12569994,-0.08144592,0.066043906,0.23287432,0.21110311,0.0671027,-0.1715508,0.2672361,0.19261414,-0.09589445,-0.17740496,-0.23516504,-0.027553584,0.41128176,0.07302916,0.26539153,-0.19910024,-0.03760932,0.27183658,-0.18770483,1046.6417228690075,248.87483869635753
4_1_tr_reg_000_0_0.obj,0.019942066,0.17478575,0.15969162,-0.21483104,0.08546783,0.04269473,-0.045488086,0.18265001,-0.2621172,-0.15265727,0.2963452,0.3267651,-0.15360694,-0.10780999,-0.018693177,0.1759543,-0.0021183165,-0.10650001,0.18310314,-0.30763897,-0.20146166,-0.17816956,-0.30970398,0.13116448,-0.006852635,-0.0046941596,0.19799174,0.1944779,0.011157314,0.106261104,0.28932512,-0.050241616,704.5970590649044,61.00408453583805
4_1_tr_reg_001_0_0.obj,0.2286856,-0.03603242,0.06833164,0.22121105,-0.05084465,-0.044950202,-0.11316626,-0.2587012,-0.3463693,0.06140015,-0.29573363,-0.09764037,0.09758558,-0.01825962,-0.1641384,-0.046298992,0.3777145,-0.12897527,-0.034145214,0.15817243,-0.07778631,0.2743882,0.34410003,-0.2263058,0.112914525,0.14163467,-0.10562061,-0.14957546,-0.07486033,0.02596523,0.19923934,0.0053130826,1260.2559202487366,678.244975182471
4_1_tr_reg_002_0_0.obj,-0.34055644,0.1840905,0.20469134,0.0954545,-0.07810253,-0.0026723708,0.1008282,0.05893143,-0.08595244,-0.27318838,-0.01862861,0.0066580903,-0.18997632,-0.013701889,0.11163726,0.018280419,0.094706856,-0.07613529,-0.13636993,0.010866935,0.21664898,0.37304515,-0.33093464,-0.17615318,-0.13481922,-0.17233782,-0.056979228,0.17124225,0.26386192,-0.31660777,-0.19139221,0.028619222,1298.0429779788487,1171.112597960449
4_1_tr_reg_003_0_0.obj,-0.18583399,0.10009482,0.17923456,0.19921853,-0.0053733704,0.08161451,0.14036225,0.08322982,0.10716332,0.120970674,-0.1873594,-0.12236102,0.105411105,0.010765839,-0.18663524,-0.36504984,-0.17802738,0.28462955,-0.14159183,-0.29322177,-0.19700256,-0.25993794,0.31171542,0.036588974,-0.14317368,0.058105968,-0.18671758,0.18209943,0.05754535,0.25255412,0.02517486,-0.10749223,772.5981311568091,1419.3083363179649
4_1_tr_reg_004_0_0.obj,0.2243653,-0.18466204,-0.26585042,-0.094018474,-0.10610171,-0.015822057,-0.13764876,0.15255897,0.030278627,0.028095856,0.07064858,0.18538207,0.1594508,-0.25571075,0.018219613,0.2114906,-0.26624474,-0.31512734,0.17840256,-0.11466288,-0.028220404,0.12852888,-0.2719102,0.19067143,-0.19110721,-0.22135296,-0.030155754,0.019599423,-0.023687733,0.20577782,0.192122,0.30979943,1549.6368078218911,611.1882996956904
4_1_tr_reg_005_0_0.obj,-0.25345647,-0.008918099,-0.20948523,-0.29333687,0.23146465,-0.20977253,-0.23200853,-0.0509813,-0.07094372,-0.11916817,0.22075212,0.108429916,-0.012856277,0.012329132,0.058411077,0.13412143,0.26231945,-0.42805052,-0.036770623,0.1895664,-0.17897968,0.13288954,0.004795955,-0.30500948,-0.0072243856,-0.22574455,-0.048982155,0.047812175,0.031309668,0.072346345,0.044522043,-0.23309682,1236.3835552185292,225.46532727269494
4_1_tr_reg_006_0_0.obj,0.07067058,0.19898887,-0.39106736,-0.21639,0.12578139,0.3048737,-0.0011208393,0.10144048,-0.0008173177,0.22126457,-0.31199807,-0.15920264,0.11281419,-0.064937316,0.10381698,-0.0146796955,0.339091,0.1859662,0.22871636,0.26247922,-0.009560381,0.21088284,0.12429534,-0.12282258,-0.0078094653,0.22487476,-0.03537698,-0.1073316,-0.10612182,-0.1095923,0.05479807,-0.038202483,1089.0125431313977,726.4809792446011
4_1_tr_reg_007_0_0.obj,-0.12823272,-0.55017555,-0.1720694,0.019915534,0.031020207,0.10987784,-0.2667409,0.05949834,0.12511921,-0.26946816,0.068982355,-0.01922389,-0.25759125,0.27523983,-0.33707878,-0.2215288,0.047510237,0.015631404,0.09151121,0.057435513,0.07587261,0.035968907,-0.06922375,-0.114263855,0.1435724,0.05692105,0.056957137,-0.028629752,0.23053941,0.077434726,-0.16957913,-0.10018733,228.03159789740653,956.4317889049972
4_1_tr_reg_008_0_0.obj,0.19866395,0.091573484,-0.316049,0.019398967,0.106467575,0.03765208,0.32255092,0.02553101,0.13806158,0.12030581,0.10884696,-0.37293512,0.024953563,0.23543626,0.1474951,-0.22847217,0.18603024,0.019741884,0.18431418,0.02951491,0.15401405,-0.14244771,0.084766515,0.18063411,-0.2475885,-0.2177705,-0.046129163,0.0472387,-0.23569714,-0.19296722,-0.15761158,-0.18865258,176.2584077620437,485.2839264025753
4_1_tr_reg_009_0_0.obj,0.08387148,-0.12300543,0.10426761,-0.33446923,-0.08583998,-0.19820404,-0.12219328,-0.23134595,0.25643283,0.01955644,0.18019971,0.17373371,-0.11308133,-0.04536668,0.12414487,0.2241244,0.13231629,0.26594865,-0.11067599,0.20982593,0.15141618,-0.2067117,-0.07000748,-0.2122298,-0.06251255,0.44364968,0.07575993,-0.054213293,0.027557876,-0.01364715,0.16741875,-0.17945991,1036.9316013227099,888.4259153297362
4_2_0_tr_reg_000_0_0_0.obj,0.093533166,0.1545231,0.28523123,0.010501316,-0.0007310587,0.042646833,0.06456361,0.12243619,-0.383179,-0.09333276,0.20456567,0.23981334,-0.13894013,-0.091666184,-0.08335736,0.17548046,0.04853387,-0.10781549,0.07253285,-0.3476376,-0.21792288,-0.1394431,-0.21241046,0.14897512,0.031056158,0.041417666,0.17381455,0.30435807,-0.012443141,0.032223057,0.37463957,-0.056326397,821.6679725883573,294.48617884787427
4_2_0_tr_reg_001_0_0_0.obj,0.12733665,-0.070015,-0.14156555,0.094190635,-0.2395182,-0.2200615,-0.028383164,-0.24560426,-0.03312084,-0.026176428,-0.13257281,-0.06555627,0.15542457,-0.2527413,0.11032991,0.15544309,0.2001117,-0.2364791,-0.029814502,0.20307815,0.11385605,0.49774417,0.06293173,-0.20527878,-0.21822801,-0.21747813,-0.11711214,-0.13933444,-0.011732406,-0.07604075,0.1345539,0.19503544,1215.7907882859413,446.29317577431607
4_2_0_tr_reg_002_0_0_0.obj,-0.2103454,0.24121462,0.113812655,-0.013403334,-0.085654534,-0.03401352,0.227609,0.26046857,0.019838793,-0.1459122,-0.07445906,0.2564993,-0.31639695,-0.029058864,0.037935544,0.07178454,-0.18166177,0.12144783,-0.13450135,-0.050075904,0.27758294,0.096768595,-0.10184916,0.11747013,-0.037989475,-0.049210045,0.0021339033,-0.27996427,0.24385889,-0.21868078,-0.4057696,0.15035231,1549.8289890361916,927.5296376400162
4_2_0_tr_reg_003_0_0_0.obj,0.076348335,0.026396297,0.049089286,-0.087729976,-0.08689628,0.10733392,0.029945018,0.02259662,-0.09169841,0.21448566,-0.22617155,0.15823449,0.13453683,-0.2790077,-0.2899272,-0.16693462,0.04434957,0.3276449,0.113894515,-0.2404505,-0.14308137,-0.1722936,0.37832972,0.14271851,0.11070223,0.09197347,-0.048076972,-0.15175967,-0.020858055,0.33600584,0.26158538,-0.053196948,978.7249439847501,1485.8457666327222
4_2_0_tr_reg_004_0_0_0.obj,0.32646084,-0.2803647,-0.17014012,0.02280963,-0.042196713,0.057969615,-0.24011415,0.0027342672,0.09594298,0.103688166,0.05546029,0.03870307,0.17556378,0.0746452,0.08497597,0.21467762,-0.4995786,-0.16685957,-0.039656922,0.037783332,-0.031898577,-0.111448854,-0.14062595,0.31135482,-0.06572629,0.11589153,0.10819159,-0.1598831,0.13491802,0.07879463,-0.05665917,0.33926138,686.0867974670995,1043.955595881366
4_2_0_tr_reg_005_0_0_0.obj,-0.06844756,0.17772013,-0.17531116,-0.47378474,0.3086756,-0.17299266,-0.044683997,0.10338951,-0.01388055,-0.10694174,0.20183648,0.11255677,-0.11505016,0.122249275,0.006979451,-0.004470266,0.06684755,-0.044268396,0.12099694,0.07284531,-0.120554924,-0.24047165,0.16297701,-0.018079484,0.26114756,0.004821831,0.058931753,-0.43712285,-0.14165844,0.033484474,-0.2369337,-0.10781979,552.9542540868204,900.5193245312724
4_2_0_tr_reg_006_0_0_0.obj,-0.11215296,0.24444892,-0.03605281,-0.011489393,0.10022459,0.44903222,0.046017855,0.19294961,-0.10130883,0.002161263,-0.19449887,-0.07817368,-0.005107447,-0.17012444,-0.045537736,-0.039149493,0.11147018,0.20070313,-0.015775297,0.096148185,-0.3299507,0.19166194,-0.0024146053,0.03393036,-0.004045714,0.4832496,0.26670507,-0.010664091,0.043310273,-0.15443075,0.08559769,0.20402354,724.2525879406057,293.26095438547065
4_2_0_tr_reg_007_0_0_0.obj,0.12636358,-0.094194986,0.040008027,0.07468226,0.05247535,0.31345382,-0.24399552,0.20432435,0.0011737824,0.061723262,-0.14187458,0.01278857,-0.050739132,-0.041123584,-0.16811231,-0.22443326,0.13653187,0.1758129,0.45887965,-0.0064453813,0.35543185,0.024195893,-0.22321825,0.09333896,0.251441,-0.16076526,-0.11600126,-0.1685813,-0.2424131,0.10588965,-0.08142004,0.074313946,1172.333575031028,799.6204076652202
4_2_0_tr_reg_008_0_0_0.obj,0.33823964,0.071418636,-0.32666898,-0.20501022,-0.02411388,0.11344114,0.24514052,0.00093328004,0.0066403872,0.12909201,0.10339085,-0.16788049,0.08370686,0.07688809,0.073015325,-0.1841378,0.25886106,0.20468912,0.32733622,-0.18175451,0.111215524,-0.16956754,0.06485013,0.25011194,-0.35157368,-0.12869287,0.002714196,-0.032081127,0.039251998,-0.10486713,0.05326895,-0.19213425,217.64237157674472,375.7032680396028
4_2_0_tr_reg_009_0_0_0.obj,0.059401523,-0.110937245,0.2171477,0.05003004,0.031238096,-0.0875571,-0.08454271,-0.11498161,0.18451744,0.13363591,0.16701531,0.05845893,-0.04267491,0.009911713,0.0050387043,0.15395454,-0.010071625,0.010717305,-0.21565013,0.12789077,-0.11471147,-0.33627304,-0.09270253,-0.12581083,-0.025691489,0.39693746,0.01544615,0.40353173,-0.24379793,0.1753301,0.3549748,-0.2131093,1013.2097638641334,155.1988942469361
4_2_1_0_tr_reg_000_0_0_0_0.obj,-0.021911701,0.09036551,0.34013644,0.22795297,0.06834813,-0.06614105,-0.07157139,-0.102807134,-0.43553197,-0.05311009,0.097851455,-0.031737395,-0.015590208,0.21422407,-0.048344634,0.008467319,0.1891468,-0.24693419,-0.09716603,-0.23408678,-0.13513711,-0.00020349206,-0.06722292,-0.1619506,-0.03421552,-0.15656939,-0.103586316,0.4041012,0.16895472,-0.029281864,0.18760855,-0.27020985,742.0133545923283,574.0389383739401
4_2_1_0_tr_reg_001_0_0_0_0.obj,0.26433975,-0.063996665,-0.044878665,0.163128,-0.13718487,-0.111514635,-0.094523534,-0.24718384,-0.30522627,0.00029876205,-0.24130645,-0.06916043,0.078678966,-0.1014451,-0.12317718,0.0165569,0.39283207,-0.20539095,-0.014661581,0.16533305,-0.04098218,0.39227775,0.2697191,-0.22379516,-0.053473108,0.06558539,-0.085021056,-0.18527061,-0.017132597,-0.021149557,0.22106858,0.08507445,1202.7090834075775,598.592453738466
4_2_1_0_tr_reg_002_0_0_0_0.obj,-0.09398939,-0.1441016,-0.08473844,-0.12224771,-0.29688486,-0.10158674,0.036995273,-0.023803964,0.15535194,-0.081587106,-0.08191495,0.33875707,0.047793906,-0.41634065,-0.071221806,0.16823776,-0.20613493,0.09066017,0.035969265,-0.1037926,0.22833619,0.30077237,-0.089111365,0.10186727,-0.11824126,-0.14909151,-0.059816707,-0.27978498,0.19847302,0.103923105,0.060594555,0.3016544,1528.6578961243376,434.52575465958176
4_2_1_0_tr_reg_003_0_0_0_0.obj,-0.2710377,0.05705194,-0.007280459,-0.12885278,0.026929693,-0.06106583,0.0022821284,-0.08020812,0.23803419,0.10678374,-0.12559302,-0.061282735,0.2424859,-0.06104923,-0.04324673,-0.24689946,-0.2041894,0.2480478,-0.09641558,-0.18030262,-0.29201776,-0.22341502,0.35327017,-0.09538357,-0.20042458,0.0554952,-0.21147461,0.105257176,0.092553414,0.35535964,0.12053824,-0.14229408,805.9169208245246,1313.365940422089
4_2_1_0_tr_reg_004_0_0_0_0.obj,0.26679522,-0.21434622,0.19265296,0.23881665,0.04070762,0.04171772,-0.1742094,-0.27746567,-0.10332146,0.1748256,-0.04025232,-0.070714526,0.18213622,0.2921256,0.13038181,0.15282279,-0.32240552,0.023259755,-0.114226945,0.09837445,0.09306264,-0.21084934,0.06363747,0.15973644,0.40590104,0.121346004,0.10990183,-0.15898979,-0.022111662,-0.054168846,-0.17602448,0.10064169,441.0766870942833,1227.7648771638303
4_2_1_0_tr_reg_005_0_0_0_0.obj,-0.036787048,0.17141117,-0.16000663,-0.43000826,0.31543428,-0.15900165,-0.06714461,0.09481226,-0.06160435,-0.10037723,0.17325576,0.08488362,-0.11366256,0.16540559,-0.015058769,-0.035532564,0.09141264,-0.053146794,0.12564623,0.075214066,-0.1213,-0.23334804,0.19626474,-0.023334853,0.2826367,0.017762762,0.052596346,-0.45698783,-0.13457748,0.027289633,-0.25387397,-0.10794038,554.0513350985136,895.6943903950164
4_2_1_0_tr_reg_006_0_0_0_0.obj,-0.07053406,0.3072353,-0.23142496,-0.09315254,0.25158852,0.38016868,0.013773039,0.118947856,-0.0008114032,0.13328245,-0.24745534,-0.19958377,0.084414944,-0.053735197,0.13794538,-0.020151692,0.26232737,0.15181004,0.09044753,0.3178545,-0.17978688,0.19628827,0.04592494,-0.10472881,-0.0003439476,0.34896657,0.0687396,-0.05408307,-0.12348424,-0.18669431,0.014832114,0.056544345,530.49613570983,235.22024963559682
4_2_1_0_tr_reg_007_0_0_0_0.obj,0.0020790966,-0.3792589,0.10481425,0.25404242,0.053280793,0.28520635,-0.24501209,0.12905952,0.02721814,-0.03368922,-0.0593139,-0.0697898,-0.11481715,0.13199438,-0.27064264,-0.22680013,0.09473945,0.11484633,0.29373112,-0.004724195,0.2697427,-0.0073493375,-0.16826668,0.027999181,0.39927137,-0.13466413,-0.06981945,0.073538356,-0.13872404,0.14865549,-0.07665414,-0.09369388,486.3722170671843,1000.3006421397774
4_2_1_0_tr_reg_008_0_0_0_0.obj,0.04298767,-0.25634643,-0.07747781,0.20052055,-0.17151313,-0.13448583,0.3586464,0.056989975,0.19001713,-0.13947457,0.26216766,-0.12633921,-0.27354112,0.010811271,-0.18672055,-0.16790156,0.04408414,-0.06845263,-0.003166604,0.028901342,0.041441567,-0.12510061,0.051985007,0.108534016,0.20525427,-0.117105916,0.3023973,0.24089119,-0.42015478,-0.06986412,-0.029331168,0.041077405,428.4669748511474,521.1543154928738
4_2_1_0_tr_reg_009_0_0_0_0.obj,0.22178009,-0.17742959,0.23182936,0.13870558,-0.111668326,0.07906289,-0.117571495,-0.1559192,-0.11178023,-0.015514256,0.027364975,0.0055350745,-0.074419975,-0.025402691,-0.15954542,0.050861258,0.09903362,0.025182651,-0.24235474,0.062513664,-0.22470261,-0.04077943,0.010562188,-0.06859926,-0.15328467,0.6367234,0.2437372,0.086399496,0.026994098,-0.027903903,0.31540406,0.12216218,961.2045479634634,569.061188325035
4_2_1_tr_reg_000_0_0_0.obj,0.059885066,0.1103179,0.2453999,-0.06000567,0.040115178,0.025463097,-0.07340214,0.07328017,-0.3772114,-0.07678268,0.22064546,0.25523707,-0.05476708,-0.09753212,-0.08047877,0.15618104,0.046742428,-0.17107616,0.086024426,-0.3396761,-0.2981565,-0.12546003,-0.16564281,0.083536014,-0.0024840152,0.009112385,0.13769808,0.29956388,0.026918555,0.13639252,0.4165535,-0.08421789,737.2842662260948,198.61760878028394
4_2_1_tr_reg_001_0_0_0.obj,0.2605274,-0.019613665,0.0027326387,0.2164306,-0.15418284,-0.13801293,-0.06344219,-0.28125456,-0.28538176,0.03995306,-0.24082372,-0.14370377,0.13398106,-0.084591545,-0.04634556,0.0149723245,0.3823841,-0.19662106,-0.005629076,0.15622506,0.044446893,0.39626268,0.23852806,-0.239274,-0.031038972,-0.04516787,-0.13868552,-0.12552752,-0.08333235,-0.052137055,0.19000986,0.059617557,1240.9311266628072,557.991808727573
4_2_1_tr_reg_002_0_0_0.obj,-0.110340856,0.107089765,0.07295095,-0.12737253,-0.19067936,-0.17740636,0.27808276,0.06548095,0.11325473,-0.025825113,-0.07133301,0.31787348,-0.18103988,-0.14916728,0.034807254,0.18308659,-0.27519104,0.23402017,-0.15974534,-0.026417058,0.2614364,-0.014883069,0.0950681,0.17179473,0.12503755,0.011572016,0.060861487,-0.40091264,0.14707665,-0.12573455,-0.29156947,0.17171782,980.2024270160844,1150.585684753012
4_2_1_tr_reg_003_0_0_0.obj,0.050497077,-0.11506312,0.07181788,0.005223867,-0.19509953,-0.0017782584,0.068019465,-0.039937392,0.011594267,0.12586547,-0.1286856,0.13087365,0.094744764,-0.1887351,-0.33906788,-0.20202973,-0.11038657,0.3074384,-0.051548474,-0.31849834,-0.19422303,-0.2519898,0.39754936,0.1447748,-0.045506123,0.11912936,-0.015500029,-0.06750491,0.13187534,0.32245672,0.22595887,-0.013281462,901.1700400015427,1498.2133414684904
4_2_1_tr_reg_004_0_0_0.obj,0.3206087,-0.23649864,-0.16418071,0.029848529,-0.010180841,0.035768095,-0.2468773,-0.0025619892,0.074872844,0.1111304,0.0931674,-0.004791642,0.21233973,0.096684515,0.1515594,0.2401295,-0.49861413,-0.26369786,-0.06751205,0.04806649,-0.06573881,-0.09035641,-0.16412209,0.27630305,-0.10706057,0.047050897,0.07676694,-0.076605685,0.122275196,0.08026528,-0.047929622,0.31536028,729.9175758209745,1056.3943652855883
4_2_1_tr_reg_005_0_0_0.obj,-0.062367287,0.21365002,0.01578461,-0.24080525,0.2744907,-0.27073964,0.011238572,-0.080260806,-0.14431065,-0.051050194,0.07754628,-0.042692818,-0.008181894,0.31461364,0.0623412,-0.0727291,0.048825186,-0.03209866,0.0071387156,0.016012006,-0.025298493,-0.21875499,0.2997536,-0.13133849,0.35258004,-0.1364038,-0.1169587,-0.35042268,-0.07071442,-0.01411165,-0.33518553,-0.2031294,541.8485972986757,677.0161658418341
4_2_1_tr_reg_006_0_0_0.obj,0.054019127,0.19815955,-0.17744578,-0.12922288,0.062257953,0.48134777,0.024458619,0.22719862,-0.15534613,0.11917908,-0.2837584,-0.0023621598,0.005136522,-0.1504239,-0.065699056,-0.015504261,0.20097058,0.28014982,0.15436454,0.070413806,-0.13954891,0.19586822,0.040401023,0.0600592,0.024818195,0.42984694,0.1617683,-0.10268642,0.083701916,-0.10538198,0.10245665,0.11968768,1454.1957297592671,748.2436280478262
4_2_1_tr_reg_007_0_0_0.obj,0.021571577,-0.36630008,-0.22230886,-0.15583706,-0.049995687,0.036117043,-0.37276775,-0.09562604,0.13104045,-0.22363292,0.00030240734,-0.042825058,-0.106069975,0.100554414,-0.18882631,-0.15434122,0.077502884,-0.031918738,0.021431377,0.09948237,-0.17897117,0.13892706,-0.029611683,-0.2306833,-0.3492542,0.32812193,0.09967962,-0.14171205,0.30432737,0.022328153,0.05304338,0.10723627,902.3382419830962,976.2698633675136
4_2_1_tr_reg_008_0_0_0.obj,0.13339132,-0.039077207,-0.3452061,0.0006924692,0.0093994215,-0.06314998,0.36590868,-0.013671222,0.17855722,0.049696367,0.21038038,-0.36076015,-0.025661314,0.26807433,0.09874416,-0.2053063,0.16369538,0.007862481,0.124985285,-0.02685718,0.10490879,-0.15992883,0.09472172,0.13432108,-0.26681927,-0.21229693,0.014504557,0.1811164,-0.16019681,-0.19428886,-0.10875759,-0.24261606,226.20728906109412,504.39444331047196
4_2_1_tr_reg_009_0_0_0.obj,0.17947853,-0.1767567,0.16233854,-0.20197529,-0.090731315,-0.14782558,-0.07502707,-0.3152329,0.09215434,0.009647989,0.17735064,0.108380266,-0.05926846,0.0062704673,0.030674115,0.17845437,0.14729299,0.22428213,-0.16702867,0.1353181,-0.038970355,-0.22826,0.023895124,-0.17920367,-0.08279043,0.5495115,0.13588329,0.040536202,0.056229576,0.0007920954,0.30272838,-0.13394913,993.2951782276689,676.9701571547913
4_2_tr_reg_000_0_0.obj,0.078589946,0.13254128,0.33580378,0.18452886,0.16310394,-0.038961895,-0.12195448,-0.08046064,-0.5178677,-0.0019491033,0.052367996,-0.0069536273,-0.011611973,0.3331727,-0.07492469,-0.038606863,0.15216152,-0.22198617,-0.060456287,-0.24167362,-0.17521988,-0.12816773,0.061331905,-0.10758489,0.0635643,-0.085496,-0.106403336,0.22570328,0.18184932,0.019140165,0.08419169,-0.28223133,785.8973667777678,637.226771433639
4_2_tr_reg_001_0_0.obj,-0.23183905,0.041734915,0.2591155,0.10475583,-0.09351046,-0.27778256,0.023832107,-0.360973,0.0136679085,0.03782884,-0.07550405,0.003920882,0.29066432,-0.23978376,0.17459153,0.19901636,-0.090800986,-0.08276568,-0.21236505,0.11767521,-0.0067160297,0.20584042,0.15786093,-0.22657447,0.3068698,-0.26727694,-0.1509875,0.03164456,-0.16890003,0.08615541,0.08562093,0.06937793,1367.4786498309502,683.5957230144293
4_2_tr_reg_002_0_0.obj,-0.3427778,0.20018937,0.20747702,0.095518686,-0.11359053,-0.0032302288,0.13906802,0.1055726,-0.052994415,-0.2582601,-0.054003567,0.044180382,-0.23319426,-0.015237309,0.09455454,0.0006360837,0.04345441,0.0024244566,-0.1516226,-0.010504686,0.25430447,0.33643854,-0.2906992,-0.13144694,-0.1321586,-0.13800082,-0.048752945,0.09449064,0.28447017,-0.32811415,-0.2549837,0.05363253,1354.0141218795388,1168.895578460987
4_2_tr_reg_003_0_0.obj,-0.3064144,0.21763225,0.06452059,0.03598259,0.19275656,-0.024787206,-0.026917523,-0.014437374,0.28108937,0.13507631,-0.13860162,-0.19968149,0.20427611,0.1264065,0.1267142,-0.25470603,-0.15978779,0.13799168,-0.11790711,-0.049871907,-0.11120577,-0.20826003,0.11847474,-0.19120957,-0.2817321,-0.0050154184,-0.36748034,0.21578172,-0.03569688,0.19933109,-0.057880856,-0.21667685,301.1573528178491,840.496337421912
4_2_tr_reg_004_0_0.obj,0.30030924,-0.12165009,0.15636793,0.25112754,0.11628451,0.037859146,-0.26249635,-0.2585715,-0.18164119,0.16370538,-0.007187769,-0.17498529,0.23072971,0.40920898,0.20748055,0.14550278,-0.26875404,-0.14126271,-0.10160499,0.0923084,0.03317057,-0.16784255,0.013858295,0.08585821,0.28690094,0.05733361,0.03724117,-0.07561905,0.009918314,-0.06535079,-0.18823925,0.03221592,514.547236353154,1297.2478622613528
4_2_tr_reg_005_0_0.obj,-0.06493587,0.1858457,-0.042214647,-0.129596,0.27810827,-0.23810594,-0.10650182,-0.079135485,-0.31820437,-0.07393517,0.049274996,-0.013981475,-0.05908198,0.31559053,-0.013332077,-0.027251277,0.27858084,-0.28654897,-0.057743747,0.13776536,-0.08719335,0.024604537,0.26038906,-0.29171735,0.23182938,-0.1240888,-0.12927769,-0.20908982,0.037886158,-0.052613076,-0.22058839,-0.22824039,649.4937163956154,680.1284480198964
4_2_tr_reg_006_0_0.obj,0.1354724,0.18073772,-0.13990054,-0.09603372,0.38519806,0.16190746,0.013781832,0.15336902,0.3070146,0.15973747,0.1963061,-0.1577674,0.0064473,0.03851831,0.1677512,0.0017720758,0.05062468,-0.05040232,0.09057993,0.26835468,-0.13021024,-0.26264548,-0.21321948,0.10746122,-0.26873496,0.25276718,0.017929293,0.102264374,-0.35143605,0.01534332,0.09762354,-0.024107201,1054.6560901525525,1284.8838484933424
4_2_tr_reg_007_0_0.obj,-0.025894266,-0.4935992,0.049580604,0.19312026,0.059077717,0.25023,-0.2583082,0.08885645,0.06796444,-0.0871354,0.008683149,-0.03762094,-0.11306797,0.17004448,-0.2935884,-0.20110638,0.004581354,0.11158168,0.2655488,-0.022818094,0.21351628,-0.051018342,-0.14814869,0.06267907,0.40870604,-0.10639665,-0.020452725,0.051694866,-0.043772195,0.18575217,-0.08221832,-0.10470664,448.31249911744675,1025.415424733551
4_2_tr_reg_008_0_0.obj,-0.09741167,-0.32102448,-0.24503247,-0.021230884,-0.08867082,-0.25532752,0.24824356,-0.107321426,0.33396494,-0.10799078,0.2255803,-0.015713086,-0.05748402,-0.18311071,-0.044764847,-0.057996508,-0.082221106,-0.20328976,-0.13575837,0.25885242,-0.14167382,-0.045078408,0.10134187,-0.0073560583,0.16289277,-0.12042874,0.26340365,0.20318866,-0.3362685,0.04306449,0.035872858,0.17425245,1239.895245447598,1318.6076654055864
4_2_tr_reg_009_0_0.obj,0.11539584,-0.19078784,0.14099015,-0.26491842,-0.15420176,-0.21630235,-0.060764484,-0.32536215,0.15698272,-0.026958698,0.1699532,0.13430956,-0.08609068,-0.026738767,0.056397047,0.19394682,0.14433719,0.28289962,-0.16630054,0.13082764,0.04689172,-0.19099241,0.03999855,-0.21232279,-0.07798235,0.47466826,0.107824974,-0.04257792,0.101783894,-0.028511016,0.2373451,-0.12473675,989.8764418023032,711.7842192658549
4_3_0_tr_reg_000_0_0_0.obj,0.02636139,0.09973213,0.34808525,0.2931181,0.011973503,-0.072569825,-0.022427801,-0.15271935,-0.44020998,-0.05106356,0.04827018,-0.10877309,0.004206497,0.24035676,-0.0044303006,0.014549301,0.20220244,-0.22369443,-0.111603364,-0.19788523,-0.030018955,0.079592235,-0.07870269,-0.17007488,-0.034650333,-0.17587279,-0.12308228,0.36709017,0.18049824,-0.13240105,0.12026715,-0.23013501,720.2490194876805,610.121753119838
4_3_0_tr_reg_001_0_0_0.obj,-0.009285653,-0.012961022,0.10827202,0.20044991,-0.19212864,-0.25903797,-0.01672327,-0.36202833,-0.08513974,0.0106493905,-0.15516834,-0.09457786,0.24896392,-0.23010215,0.12587735,0.15764174,0.12723957,-0.19738849,-0.13603087,0.1735823,0.06291207,0.42612898,0.14049332,-0.26753458,0.056112975,-0.24278967,-0.15606953,-0.033133082,-0.11017272,-0.024904884,0.13792945,0.12843685,1316.1650447371826,389.7032138221906
4_3_0_tr_reg_002_0_0_0.obj,-0.042792685,0.088002056,0.081686236,-0.10407245,-0.17998116,-0.16053934,0.2666627,0.0670073,0.0983474,-0.010749218,-0.05229869,0.3277358,-0.15628147,-0.1577074,0.027787965,0.19757876,-0.31643146,0.21545151,-0.1289553,-0.05509015,0.24830425,-0.052728128,0.08459642,0.22948992,0.15844035,0.0016495327,0.086544886,-0.41963634,0.10115716,-0.08343556,-0.27163726,0.19993785,922.1834258352211,1172.2521262593832
4_3_0_tr_reg_003_0_0_0.obj,-0.051739108,0.28718868,0.11624891,-0.13160144,0.06060216,0.08788883,0.009285789,-0.034783594,0.003596695,0.3165017,-0.29145807,-0.02371563,0.24399434,-0.09752242,0.0016114317,-0.20389993,0.05930819,0.39166817,0.086786896,-0.15270422,-0.057792578,-0.2555502,0.3226223,-0.06632841,0.04500733,0.039071493,-0.25672218,-0.014331644,-0.10282172,0.24047586,0.1126636,-0.24360067,513.8242958862764,1432.9226612740704
4_3_0_tr_reg_004_0_0_0.obj,0.24597892,-0.24352561,0.19244228,0.23058274,0.03735921,0.020275613,-0.17375539,-0.27815336,-0.07317719,0.16433212,-0.031714488,-0.056394394,0.17626348,0.27563626,0.10090205,0.14565907,-0.33632106,0.027480574,-0.12569001,0.09780175,0.08277168,-0.21558009,0.092463136,0.15857036,0.42139977,0.11791373,0.10232171,-0.18161139,-0.020194331,-0.027028818,-0.17670691,0.10992967,436.59150020955315,1225.8283465300337
4_3_0_tr_reg_005_0_0_0.obj,-0.14935343,0.1711145,-0.05109226,-0.38473853,0.17993458,-0.2923636,0.040783983,-0.0438234,0.1524506,-0.019821087,0.12181413,0.048478216,0.0440631,0.051784616,0.21112981,0.10589194,-0.15652163,0.027905593,0.036543164,0.08986477,0.09340945,-0.19877562,0.11439068,-0.036445834,0.33746594,-0.21220759,-0.07488552,-0.3926185,-0.22390866,0.0015391472,-0.32754964,-0.04085778,729.786260355372,851.204800212425
4_3_0_tr_reg_006_0_0_0.obj,-0.18657479,0.3999187,-0.034191977,0.0726008,0.36801785,0.28805643,0.08024812,0.1451503,0.19411226,0.02705763,-0.054644316,-0.2492488,0.070504345,-0.08205789,0.22275846,-0.06226846,0.0647452,0.00980909,-0.024607042,0.28122833,-0.24134974,0.06573196,-0.1868302,-0.039086714,-0.18673758,0.22153671,0.020925319,0.114350416,-0.26959804,-0.13177155,0.0021629846,0.116900034,624.6340349266015,374.2373461544619
4_3_0_tr_reg_007_0_0_0.obj,-0.025902815,-0.5727345,-0.060625903,0.14034934,0.03663657,0.23364142,-0.2528574,0.08227717,0.048851732,-0.178195,0.023763949,-0.016071733,-0.18234801,0.20286702,-0.39314896,-0.23463577,0.024964683,0.08250957,0.19453701,-0.020808516,0.100794405,0.004887376,-0.06528757,0.028383007,0.2949863,0.018399255,0.047442593,-0.008382111,0.12049784,0.16748546,-0.07366759,-0.060584426,290.3072943834851,1038.9303323482457
4_3_0_tr_reg_008_0_0_0.obj,0.12479144,-0.09431549,-0.3093535,-0.097415976,-0.039612085,-0.10855072,0.34409797,0.0050665066,0.16534877,0.014968068,0.2806244,-0.23744698,-0.11733234,0.3142022,0.088510245,-0.15397358,0.096829906,0.09991993,0.13266349,-0.10411938,0.10317918,-0.28874803,0.059166636,0.1560793,-0.2025938,-0.14800486,0.12661143,0.16045703,-0.05864405,-0.21110307,-0.14430651,-0.2976502,265.33930076120305,472.4377540453585
