filename,l1,l2,l3,l4,l5,l6,l7,l8,l9,l10,l11,l12,l13,l14,l15,l16,l17,l18,l19,l20,l21,l22,l23,l24,l25,l26,l27,l28,l29,l30,l31,l32,embed_x,embed_y
0_tr_reg_000_0.obj,0.31511116,-0.04295817,-0.1641108,0.10174159,0.07868802,0.04077537,-0.14146909,-0.079268284,-0.13325606,0.037688583,0.02056704,-0.23598076,0.24094254,0.10012406,-0.09431357,-0.17131242,0.2413398,-0.123788,0.18828918,0.2501477,0.35894606,0.103397764,-0.0030263723,-0.021892956,0.22849098,-0.28474197,-0.13354172,-0.22476579,-0.28982222,0.104375,-0.1911728,-0.033490673,144.79413,177.97952
0_tr_reg_001_0.obj,-0.33984676,0.12781632,-0.031131903,-0.15822731,0.21559,-0.097942926,0.18486293,0.24606544,-0.032103706,0.035597544,-0.28037208,0.027464854,-0.19613034,0.07226107,0.024400696,-0.0065432866,0.07261364,-0.08006934,-0.11523574,-0.08978412,-0.056475494,0.07523659,0.31660953,0.13925967,-0.12839979,-0.20437516,-0.35310587,-0.30740649,0.24692981,-0.02246655,-0.21888538,-0.13054791,108.27973,105.70687
0_tr_reg_002_0.obj,-0.14438903,0.021989241,-0.16108724,-0.20637448,-0.03336065,0.0005242418,-0.27981508,-0.0027331295,-0.11261125,-0.21972731,-0.13982598,0.107084595,0.23098923,0.045527603,-0.017795177,0.04016088,-0.23714876,-0.060442995,0.12074328,-0.070450224,0.07140704,0.16660069,-0.34518635,-0.34813827,0.35959682,-0.08524987,-0.22410256,0.21547814,-0.033137202,0.30013162,-0.007574647,-0.06530782,161.3819,149.56143
0_tr_reg_003_0.obj,-0.09513237,0.09049629,-0.11727597,-0.5140349,-0.013267848,-0.040375426,-0.017905248,-0.054693665,0.3348003,0.08813476,0.029695326,0.13539468,-0.2000334,-0.13606998,-0.08890614,-0.31971294,0.22702825,0.08332658,0.087346025,-0.08601047,0.110837385,0.011520851,0.13989668,-0.22288191,-0.36546314,0.17999035,0.020062815,-0.12131615,-0.11013557,0.19523647,0.07140142,0.018228753,91.688835,93.12226
0_tr_reg_004_0.obj,0.105467014,-0.16392983,0.05874718,0.038982954,-0.1282441,-0.1404848,0.15200861,-0.13732095,0.054315377,-0.13587166,0.16955516,-0.06547289,0.07854568,-0.27338475,-6.939022e-05,0.16548559,-0.2053908,-0.17339468,-0.072866015,0.24972264,-0.017567983,0.20194688,-0.0897089,0.1213658,0.3735487,-0.06795052,0.4335459,-0.075490065,-0.1904792,-0.23553684,-0.13963546,0.25155616,186.47726,127.416
0_tr_reg_005_0.obj,-0.25709197,-0.032581396,-0.06617599,-0.34460694,0.22560258,0.042819098,-0.25728288,-0.07798779,-0.09934266,-0.2590161,-0.046749175,-0.005292733,0.077617116,-0.03359438,-0.2654546,-0.34012425,0.07802994,-0.07934863,0.22913046,0.04949964,-0.22879744,0.25190946,0.10424945,-0.199813,0.14643355,-0.0506592,0.04132124,-0.2855877,0.13411923,0.17023104,-0.15505314,-0.0025406035,92.228134,15.134773
0_tr_reg_006_0.obj,-0.014870461,0.002241783,-0.13576007,-0.082765855,-0.34025204,0.08796403,-0.009933937,-0.10413788,-0.08695541,-0.057057243,-0.0808513,-0.10835235,-0.02126989,-0.08706383,-0.10693189,-0.11781208,0.33845994,0.1840853,0.06389712,-0.0973507,0.024490766,0.46090767,0.17692333,-0.37797213,-0.16550572,0.3284641,0.15669657,0.0702189,0.09004852,-0.056835454,0.21850355,-0.06744362,143.2883,76.51104
0_tr_reg_007_0.obj,0.16035695,0.1468106,0.25692478,0.21442266,-0.07125501,0.019878479,0.36792117,-0.028704418,-0.18850271,0.074561514,-0.14198768,0.16417556,-0.15362762,0.11711669,-0.039040647,0.026957832,0.033038426,0.36715767,-0.12540732,-0.12096409,0.22032495,-0.29257756,0.13084994,0.09282963,0.32881773,0.22821815,0.002681513,0.012461936,-0.101293966,-0.11777983,-0.04480911,-0.2421987,174.2861,164.19374
0_tr_reg_008_0.obj,0.108477496,0.17597423,-0.09676943,-0.20994441,0.08072795,-0.12427544,-0.23781018,-0.15194985,-0.0047820383,-0.05584444,0.13351974,-0.15964814,0.22914653,0.23016268,0.08786467,-0.23955351,-0.14557515,-0.30486467,0.19678082,-0.061048694,-0.0543264,-0.019239245,-0.3576648,-0.3656033,-0.045497436,-0.11733322,-0.06926529,0.32056043,-0.091544695,0.16740425,-0.062205624,0.0034289926,10.247757,72.93454
0_tr_reg_009_0.obj,-0.08013222,0.084692575,0.25569847,0.05098978,0.299615,0.08244437,-0.26517856,0.110268496,-0.06694422,0.050075687,0.30820748,0.3754553,-0.18071039,-0.10578039,-0.08292652,0.11577514,0.16020736,-0.20980513,-0.012674501,0.0793965,-0.034442227,-0.31336823,-0.25439677,-0.0037858102,0.0035585803,-0.20677108,0.013862179,0.13928711,-0.21910836,0.21041939,0.17879066,-0.073670484,66.961334,152.53018
1_0_tr_reg_000_0_0.obj,0.031506833,-0.44142374,-0.021122195,0.22898506,-0.072555274,0.2371969,-0.11444899,-0.13731875,0.11690623,0.122170866,-0.17339116,0.06508517,0.11449228,-0.21932808,-0.23027216,-0.18934402,-0.0346661,0.40807286,-0.0185764,0.17396209,0.029032882,-0.03173238,0.13310948,0.1907714,0.07183907,0.22462805,0.17188375,-0.14277604,0.1460051,0.004820632,0.12527709,0.218929,163.54163,126.830696
1_0_tr_reg_001_0_0.obj,-0.364867,0.11530666,-0.08104949,-0.13219026,0.14355159,-0.1266568,0.23769091,0.23484509,-0.007287865,-0.0013104995,-0.2511689,-0.051752757,-0.18518138,0.11811378,0.09077587,0.03459756,0.04546574,-0.095226526,-0.1296002,-0.121839926,-0.05372882,0.13540927,0.2912392,0.10510629,-0.15598468,-0.21555284,-0.35591748,-0.22412887,0.2738839,-0.078443654,-0.2176475,-0.1470637,108.8068,105.00793
1_0_tr_reg_002_0_0.obj,-0.17581746,-0.023121713,-0.07314222,0.005026981,-0.05181403,0.06547453,-0.20570092,0.0040611182,-0.037414175,-0.18533695,-0.18838793,0.06256265,0.32367563,-0.040666707,0.046737857,0.11045333,-0.44947535,0.054020837,0.0470545,-0.099765964,-0.15081699,0.04309731,-0.25972465,-0.13142914,0.3774029,0.059588917,-0.11486869,0.333232,-0.038524203,0.3223892,0.12458915,0.017571751,159.70647,147.63855
1_0_tr_reg_003_0_0.obj,-0.12929174,0.015917089,-0.08116945,-0.4001025,-0.026411418,-0.079134494,0.05319168,-0.03182293,0.47208774,0.114756376,0.050190505,0.18029933,-0.19200483,-0.14120875,0.019911682,-0.21597968,0.06508177,0.082292,-0.02248846,-0.12116938,0.28035623,-0.07406175,0.0062619206,-0.10929337,-0.4290722,0.13848536,-0.1421852,0.012801618,-0.15036014,0.2216178,0.09191221,0.067447394,91.511505,93.554565
1_0_tr_reg_004_0_0.obj,0.010071517,-0.25398657,0.09339066,0.1124135,-0.18483754,-0.04691052,0.17922486,-0.17987572,0.051287275,-0.1558232,0.080900006,-0.00020423846,0.101550035,-0.28154615,-0.035162415,0.14621884,-0.32182017,-0.007648166,-0.09366224,0.15270688,-0.0535324,0.20136303,-0.12441214,0.12054875,0.39139202,0.005600554,0.42190087,0.069900654,-0.048691653,-0.21788913,-0.041793786,0.2658846,186.38135,124.10074
1_0_tr_reg_005_0_0.obj,-0.0772437,-0.37584376,0.035816696,0.12233299,-0.043931883,0.25063097,-0.23556541,-0.12976852,0.029482666,-0.004374543,-0.13131136,0.17908198,0.07205197,-0.22629707,-0.25089845,-0.14358418,-0.098267876,0.3106371,-0.03176636,0.13848843,-0.19895336,-0.004319018,0.07152077,0.069543354,0.09717023,0.34926853,0.27277964,-0.07689748,0.22993135,0.013667261,0.14037293,0.22107743,162.49484,126.280396
1_0_tr_reg_006_0_0.obj,0.0053053573,-0.035047386,-0.10842085,0.033152834,-0.38357112,0.12571706,0.048957545,-0.09069964,-0.08809593,-0.028689042,-0.11254429,-0.08342551,0.010151826,-0.105315134,-0.12193566,-0.09270129,0.292532,0.29875794,0.020056121,-0.11372043,0.04927804,0.38044024,0.18677677,-0.3125129,-0.09453269,0.39187872,0.13934697,0.13119718,0.052246056,-0.08710221,0.25072777,-0.09629617,143.93721,76.84347
1_0_tr_reg_007_0_0.obj,0.12976867,0.12290196,0.1850828,0.18108639,-0.22793703,-0.01610199,0.39042982,-0.07114824,-0.15182354,0.07023657,-0.1982067,0.08242762,-0.10476559,0.12694252,-0.004241468,0.0055771493,0.040775333,0.41171494,-0.14968345,-0.17698061,0.23117721,-0.17649859,0.18622768,-0.015066265,0.22046143,0.2757809,-0.039373282,0.08253965,-0.029752461,-0.17689236,-0.03370502,-0.28170404,174.51624,164.07332
1_0_tr_reg_008_0_0.obj,0.06329766,0.15948622,-0.09469422,-0.28407335,0.07783646,-0.108313024,-0.26875365,-0.1596489,-0.015076456,-0.11398094,0.1271686,-0.11866911,0.21262236,0.18863222,0.015768439,-0.28146604,-0.1231395,-0.2738773,0.24415237,-0.07604922,-0.098021224,0.027574781,-0.32830498,-0.40134567,-0.039583344,-0.101719365,-0.02840565,0.25267768,-0.051021405,0.20847794,-0.064879134,-0.0034652227,11.02298,72.13304
1_0_tr_reg_009_0_0.obj,-0.113003865,0.09007929,0.26110384,0.007155624,0.23966008,0.020138262,-0.23602675,0.10623604,-0.109978594,0.01888807,0.3191961,0.4165189,-0.24014023,-0.07384857,-0.062396288,0.17829016,0.18239243,-0.21445328,-0.040674306,0.059102852,-0.01602125,-0.27456948,-0.28163633,-0.079533435,0.0061369194,-0.21644583,0.0050496906,0.16337508,-0.13816684,0.13981633,0.16631602,-0.117587894,66.901535,152.47005
1_tr_reg_000_0.obj,0.24768005,-0.2737147,-0.12354309,0.22295691,0.023488143,0.17852388,-0.030999048,-0.12574808,0.044591796,0.1301972,-0.08974387,-0.22779064,0.25981733,-0.12865329,-0.18373966,-0.2930479,0.17721371,0.23397708,0.13301879,0.27158418,0.14726269,0.019804442,0.25198674,0.22472878,0.15086463,0.005411281,0.08754294,-0.2767683,-0.15809649,0.06267102,-0.015041117,0.1307926,149.99733,168.85118
1_tr_reg_001_0.obj,-0.39490858,0.15162854,-0.08023191,-0.043201894,0.09327965,-0.11274941,0.29281363,0.27672508,0.038651817,-0.0120421685,-0.29235983,-0.07522652,-0.10927081,0.084453255,0.17144296,0.14085232,-0.09788849,-0.018356763,-0.17787509,-0.1723365,-0.096808195,0.0792579,0.2806991,0.15839423,-0.08962121,-0.12988456,-0.36144125,-0.122241095,0.18175465,-0.08323703,-0.17985427,-0.18535693,111.222466,104.1024
1_tr_reg_002_0.obj,0.030162811,-0.010938022,-0.12556481,0.11051084,-0.09958434,0.039460562,-0.12074862,0.0097053815,-0.052024,-0.1300998,-0.17893845,-0.038943652,0.37118593,-0.004935783,0.122683935,0.16597416,-0.42652673,-0.0024253812,0.04358121,-0.060014036,-0.031273406,-0.022053545,-0.3279929,-0.083049186,0.39699942,-0.04663138,-0.12513195,0.36375365,-0.15622322,0.2657413,0.06934999,0.017565904,159.86029,147.54472
1_tr_reg_003_0.obj,0.046936486,0.14871746,-0.18993396,-0.3385322,0.11602922,-0.12729615,0.04264673,-0.05344356,0.47042555,0.11353946,0.16829255,-0.0308824,-0.012397079,-0.04406862,0.09780172,-0.27918825,-0.02620266,-0.18422817,0.032002296,-0.019320086,0.156974,-0.12902531,-0.057510518,-0.05172218,-0.3305921,0.08938612,-0.090473585,0.11130468,-0.3911267,0.23781578,0.036602724,0.07455287,90.41298,94.197235
1_tr_reg_004_0.obj,0.102717176,-0.3591355,0.0071385694,0.20266207,-0.17671812,0.08624268,0.08420976,-0.118246645,0.05702285,-0.072547354,0.019428236,0.05055017,0.11428048,-0.22131586,-0.016080001,0.19480006,-0.3839787,0.09174755,-0.06951359,0.14496182,0.039478794,0.12527543,-0.22263314,0.26071456,0.24353032,0.007549742,0.3687454,0.02735107,0.12364083,-0.16139176,-0.0013684672,0.30659208,185.00208,120.980255
1_tr_reg_005_0.obj,-0.22581898,-0.07177847,0.105315074,0.02648352,0.19692943,0.14041206,-0.19165859,-0.06468654,0.05130655,-0.018996306,-0.18770085,-0.02659923,0.123182304,-0.1430692,-0.21916752,-0.3379369,-0.085475415,0.16862038,0.021328863,0.06729413,-0.5014469,-0.07664867,0.3333691,0.10093543,-0.0067297104,0.1836631,0.13236907,-0.2534511,0.18731278,0.08980475,-0.0077505773,0.13311443,150.12643,128.05547
1_tr_reg_007_0.obj,0.11427849,0.13023013,0.1998758,0.16619194,-0.229217,-0.03963675,0.39332247,-0.07991191,-0.14514981,0.05674916,-0.18474923,0.09253671,-0.122015566,0.13115416,0.00530813,0.020377375,0.039254498,0.39777592,-0.15002668,-0.18856499,0.23053649,-0.1803075,0.17316927,-0.02905543,0.22153102,0.2741613,-0.044245467,0.0925656,-0.04089017,-0.18445063,-0.029596256,-0.28641954,174.51085,164.0564
1_tr_reg_008_0.obj,0.04344496,0.14197046,-0.07583387,-0.31024382,0.07238121,-0.09268236,-0.2800873,-0.16341141,-0.020991903,-0.14582829,0.12942906,-0.105795145,0.21107158,0.1618659,-0.008740741,-0.2930792,-0.13645132,-0.25313607,0.25791797,-0.08103077,-0.13069467,0.054221995,-0.32216275,-0.40619227,-0.032549616,-0.081237584,0.009441126,0.22653426,-0.01669237,0.20341757,-0.07124573,0.014600973,11.73526,71.4254
1_tr_reg_009_0.obj,-0.10629894,0.09687862,0.2511034,0.004050262,0.257513,0.014660849,-0.24115568,0.10540709,-0.08623626,0.018984731,0.31168222,0.39498496,-0.206978,-0.07664562,-0.04873304,0.16620328,0.13819711,-0.23680374,-0.034237035,0.061944522,-0.030254893,-0.28747687,-0.30502915,-0.07327255,0.002337231,-0.23748592,-0.006519809,0.18202856,-0.16029127,0.16523565,0.15729673,-0.106339864,66.90464,152.43541
2_0_tr_reg_000_0_0.obj,0.30242863,-0.03530383,-0.15698376,0.100612804,0.09761671,0.029549155,-0.13931382,-0.07999427,-0.122633696,0.03640433,0.031728968,-0.23560841,0.2265142,0.09897544,-0.10987678,-0.19336082,0.25800607,-0.13414618,0.18608801,0.24971007,0.33596894,0.08174455,0.03074032,-0.015148259,0.2186922,-0.28464088,-0.13204233,-0.24222824,-0.30622527,0.1169587,-0.19125928,-0.03997482,144.72656,177.92566
2_0_tr_reg_001_0_0.obj,-0.40402627,0.12354727,-0.06810915,-0.1743112,0.17682552,-0.098267935,0.16002555,0.2336246,-0.019045003,-0.014530311,-0.257045,-0.012552996,-0.1911839,0.0886835,0.054655813,0.0035864355,0.060031045,-0.10970778,-0.10743543,-0.113506146,-0.11425966,0.15361151,0.28871563,0.07085077,-0.17001416,-0.20065325,-0.3286672,-0.24724115,0.30323288,-0.036779735,-0.19949928,-0.1209532,108.26384,105.37319
2_0_tr_reg_002_0_0.obj,-0.094980486,-0.0046932423,-0.17176096,-0.09778089,-0.0712722,0.014249287,-0.2277508,-0.0104107,-0.090121835,-0.20413452,-0.17462543,0.062107563,0.2977887,0.017693942,0.022947248,0.08124054,-0.31188154,-0.028294794,0.093955934,-0.063938394,0.0629083,0.134386,-0.35070136,-0.27641404,0.39569303,-0.078605555,-0.2121023,0.2737227,-0.07485836,0.3040037,0.024664594,-0.026013205,161.17157,149.15103
2_0_tr_reg_003_0_0.obj,-0.086939484,0.07777705,-0.12982571,-0.5085926,-0.00901542,-0.044000827,-0.01947278,-0.048974168,0.36443916,0.09743422,0.037538443,0.13984384,-0.17777985,-0.13673235,-0.08297314,-0.3232476,0.17932776,0.073987804,0.085589424,-0.09176145,0.13173619,-0.0135654025,0.10174148,-0.20892869,-0.36982358,0.17753124,-0.0015815512,-0.08115366,-0.1396152,0.23357059,0.080180645,0.029243065,91.588486,93.29258
2_0_tr_reg_004_0_0.obj,0.10612267,-0.13344355,0.048273437,-0.027998766,-0.09934567,-0.16302648,0.14447376,-0.12899897,0.031092707,-0.15034562,0.1871904,-0.07219293,0.07998966,-0.25111127,0.0060279034,0.1743599,-0.19140108,-0.22513637,-0.054695606,0.24806105,-0.025176894,0.2262326,-0.09133546,0.0932069,0.37260738,-0.098230086,0.40946183,-0.10501647,-0.1820332,-0.24251604,-0.18207502,0.23911248,186.54529,127.92917
2_0_tr_reg_005_0_0.obj,-0.17840263,-0.064336725,-0.1500088,-0.32698542,0.1782305,0.030041736,-0.26884195,-0.10342259,-0.09539905,-0.27450654,-0.040013053,-0.060701974,0.14483958,-0.008828439,-0.23874857,-0.32071474,0.076831356,-0.10169295,0.26111612,0.08844127,-0.08557126,0.307791,0.021046137,-0.23913044,0.20355004,-0.11398952,-0.006843297,-0.26592425,0.05961379,0.18693036,-0.18079701,0.0030747731,91.91873,14.949257
2_0_tr_reg_006_0_0.obj,-0.00042235944,-0.010642115,-0.11139704,-0.0230545,-0.33616632,0.119014904,0.0022593676,-0.09338668,-0.11751956,-0.044360645,-0.105475545,-0.071903065,-0.012554182,-0.07945597,-0.1450897,-0.12979749,0.32842165,0.2572226,0.040628735,-0.11891555,0.026594767,0.39225057,0.21167155,-0.35193002,-0.10854532,0.3872541,0.13258561,0.085573174,0.07354599,-0.050054006,0.23820342,-0.101272725,143.59306,76.61187
2_0_tr_reg_007_0_0.obj,0.15356342,0.15461002,0.2312035,0.19564214,-0.13124777,0.010736779,0.3875734,-0.032507323,-0.18634385,0.0759564,-0.16940908,0.13517669,-0.1439847,0.12748598,-0.018216185,0.022139091,0.04206178,0.38510278,-0.13773483,-0.15114418,0.2289264,-0.24746215,0.1497868,0.056798384,0.2678289,0.24952742,-0.016109912,0.033402745,-0.05826526,-0.15147574,-0.049877014,-0.26740482,174.44232,164.14171
2_0_tr_reg_008_0_0.obj,0.079814725,0.17210187,-0.100847684,-0.2406371,0.085106626,-0.12730274,-0.24285008,-0.1543899,-0.011803624,-0.076903,0.12844351,-0.11598909,0.21698272,0.20470193,0.049659234,-0.25071254,-0.13009542,-0.30333322,0.21240602,-0.061099764,-0.048869908,-0.0039819386,-0.3572209,-0.38065547,-0.034372315,-0.13217713,-0.07132454,0.29860255,-0.09421246,0.20309778,-0.05957378,-0.0094475765,10.694366,72.81903
2_0_tr_reg_009_0_0.obj,-0.09847446,0.08227967,0.2376763,0.013268771,0.29510784,0.08240442,-0.28337467,0.13300629,-0.064997904,0.052919883,0.3059181,0.3966002,-0.19614747,-0.11836115,-0.09043985,0.122927316,0.16113415,-0.21438904,-0.01614266,0.068686835,-0.05146712,-0.29736823,-0.24371636,-0.0047324067,-0.02854235,-0.18265347,0.01920831,0.12156258,-0.18960214,0.22015087,0.18943854,-0.06550892,66.95074,152.50798
2_1_0_tr_reg_000_0_0_0.obj,-0.09634749,-0.40611607,0.018610591,0.20995688,-0.085731246,0.23119006,-0.1757892,-0.10078405,0.13337517,0.049872346,-0.13674247,0.14583002,0.1042651,-0.22138833,-0.16403283,-0.080244236,-0.24395269,0.3194809,-0.089559026,0.11508447,-0.15557668,-0.040152602,-0.0013634263,0.16057599,0.039951917,0.2753546,0.22233444,0.009837267,0.25675175,0.00961346,0.15264058,0.27444836,163.06894,125.26332
2_1_0_tr_reg_001_0_0_0.obj,-0.39304638,0.1320259,-0.06480682,-0.13331184,0.16106892,-0.10205354,0.20214765,0.24495569,-0.014819031,-0.0053478763,-0.2754509,-0.029544614,-0.17681676,0.09328865,0.08027425,0.031146903,0.029168094,-0.07700619,-0.1282029,-0.12454801,-0.10848269,0.13327791,0.29866374,0.09937834,-0.16127373,-0.18405145,-0.3409371,-0.23244217,0.29147854,-0.059440818,-0.1981294,-0.13883461,108.652275,105.13659
2_1_0_tr_reg_002_0_0_0.obj,-0.08669976,-0.025178775,-0.15025884,-0.013288005,-0.091120355,0.032515265,-0.18800014,-0.018334705,-0.06207115,-0.1985494,-0.19622132,0.026579596,0.34193084,-0.014514042,0.048024822,0.1053696,-0.39300907,0.026799101,0.06799589,-0.0795157,-0.013161832,0.095619805,-0.3158305,-0.19989201,0.40511853,-0.007856498,-0.1638042,0.31655243,-0.08354087,0.3022029,0.07950458,0.006690075,160.59134,148.46227
2_1_0_tr_reg_003_0_0_0.obj,-0.090966016,0.060225807,-0.10457088,-0.4357399,-0.012363034,-0.03363611,0.041149236,-0.04469842,0.40342343,0.12360159,0.03447469,0.16524504,-0.19687493,-0.13944651,-0.039769746,-0.27853134,0.16952232,0.09327285,0.03442692,-0.11338268,0.22928973,-0.037323244,0.06900566,-0.15914187,-0.4218907,0.17187633,-0.0798681,-0.023137642,-0.15395342,0.22702962,0.11179329,0.02659153,91.57806,93.480774
2_1_0_tr_reg_004_0_0_0.obj,-0.032053735,-0.21256125,0.09345972,0.07684419,-0.14508945,-0.077683315,0.1828906,-0.16620024,0.049185652,-0.19170447,0.07441523,-0.011005159,0.10106532,-0.27190325,-0.0054283077,0.1575042,-0.36311328,-0.05472848,-0.09940852,0.14582689,-0.100317605,0.21090183,-0.13879922,0.121598296,0.37481108,-0.009743172,0.4038525,0.049049225,-0.038325634,-0.23842265,-0.07543305,0.26927364,186.43138,124.30655
2_1_0_tr_reg_005_0_0_0.obj,-0.20454423,-0.31085926,0.03241079,-0.006239813,0.0029553724,0.26987204,-0.28270644,-0.09139217,-0.0052334284,-0.08573526,-0.1303349,0.2220811,0.04704261,-0.22850989,-0.22761597,-0.10766879,-0.13185845,0.24535558,-0.022355115,0.11417772,-0.24704644,0.09205215,-0.0013483929,-0.0009227602,0.090262726,0.3484435,0.25795254,-0.08229215,0.2849927,0.015446112,0.10336023,0.2283903,162.07318,126.55044
2_1_0_tr_reg_006_0_0_0.obj,-0.016388414,-0.01419944,-0.09791939,-0.009380464,-0.33089745,0.13151519,-0.003920428,-0.091614045,-0.13919935,-0.04292977,-0.109748796,-0.063197844,-0.011830256,-0.08826434,-0.14990048,-0.11951151,0.3282519,0.26629362,0.03185032,-0.10362014,0.0068491683,0.38955876,0.21586996,-0.33848718,-0.082468495,0.39530358,0.14979799,0.079991154,0.079837635,-0.073440254,0.23913193,-0.09202638,143.5823,76.61836
2_1_0_tr_reg_007_0_0_0.obj,0.15857215,0.18028037,0.21295369,0.18325785,-0.14672253,0.00512772,0.39088857,-0.032771688,-0.18617453,0.081464045,-0.20032912,0.1016527,-0.11870891,0.12231981,-0.020467712,0.005404296,0.0419906,0.37813666,-0.14828414,-0.14841567,0.23407996,-0.2082501,0.1764844,0.03479344,0.260025,0.26526782,-0.029170783,0.018473176,-0.06867284,-0.16198318,-0.073955335,-0.26805624,174.46188,164.122
2_1_0_tr_reg_008_0_0_0.obj,0.036836382,0.15965366,-0.0923747,-0.3008958,0.07921665,-0.11431628,-0.26168686,-0.15868142,-0.018308677,-0.12687783,0.120493926,-0.107178465,0.20618436,0.17583273,0.006964885,-0.2827705,-0.12364588,-0.2797646,0.24170658,-0.076234534,-0.10478613,0.047009308,-0.31931725,-0.4098104,-0.030543393,-0.11041293,-0.028147051,0.24098982,-0.044758085,0.21118705,-0.07561074,-0.0015066386,11.564041,71.99546
2_1_0_tr_reg_009_0_0_0.obj,-0.060154215,0.09768076,0.26733175,0.05034091,0.27851802,0.04961336,-0.22606032,0.078128,-0.06598202,0.04409443,0.3367172,0.36589786,-0.19403678,-0.09704174,-0.07231885,0.120039016,0.18038821,-0.21566242,-0.014506975,0.09287821,0.00059115834,-0.30473801,-0.27055568,-0.04049604,0.030500801,-0.21421322,0.03274281,0.16350716,-0.24954733,0.1694732,0.16693124,-0.079093024,66.92316,152.5626
2_1_tr_reg_000_0_0.obj,0.2327642,-0.20660521,-0.14276418,0.14830458,0.10317505,0.15743248,-0.05093955,-0.09085306,0.0191841,0.10494668,-0.0755574,-0.2629964,0.24238613,-0.0817989,-0.1915285,-0.33603144,0.21407676,0.14436033,0.16325101,0.27256277,0.11970442,0.03621338,0.28036335,0.21615584,0.12682824,-0.059486035,0.04842775,-0.36260873,-0.15204406,0.08131192,-0.090835094,0.11475073,149.43405,169.6708
2_1_tr_reg_001_0_0.obj,-0.42709014,0.14617942,-0.07177397,-0.08809306,0.118434936,-0.1042739,0.23237176,0.2668164,0.011828639,-0.025711367,-0.28078866,-0.0569014,-0.14086416,0.093863994,0.14193825,0.1087907,-0.05017417,-0.052533448,-0.15319692,-0.16362046,-0.1337604,0.12920064,0.2771319,0.10662813,-0.12713031,-0.14734894,-0.3480932,-0.14847562,0.25774363,-0.071932785,-0.17333928,-0.16939676,109.54437,104.378006
2_1_tr_reg_002_0_0.obj,0.06107837,-0.038930926,-0.20541282,0.079074934,-0.10911379,0.012294423,-0.12119943,-0.0067922166,-0.029114988,-0.12526,-0.19459945,-0.071411066,0.3877324,0.013920076,0.10187907,0.121970855,-0.3616227,0.012114771,0.075612165,-0.037988745,0.09231891,0.01760257,-0.3140735,-0.11816854,0.39258465,-0.10375578,-0.20594035,0.2997658,-0.19106773,0.2986269,0.043133836,-0.00072748977,160.63287,148.07584
2_1_tr_reg_003_0_0.obj,-0.03993344,0.08681673,-0.16342875,-0.39239436,0.07153674,-0.08598008,0.024672054,-0.06345873,0.48017558,0.10095409,0.11739024,0.02539079,-0.050648205,-0.11576024,0.038810123,-0.3428314,0.032641556,-0.0682616,0.05662341,-0.04863064,0.16161807,-0.09225182,-0.0269325,-0.0796736,-0.3895389,0.118590176,-0.068428785,0.07274057,-0.30847684,0.25875503,0.07093363,0.08323155,90.855675,93.936264
2_1_tr_reg_004_0_0.obj,0.1045893,-0.31986278,0.004845873,0.17490783,-0.18146065,0.040639903,0.11834643,-0.116546504,0.057330668,-0.06882898,0.037722915,0.012568437,0.1044205,-0.2198016,0.013761716,0.22091979,-0.37125918,0.032780744,-0.09163039,0.16729017,0.034026507,0.15508729,-0.19155866,0.2605327,0.25544837,-0.0034131927,0.3862987,-0.0010276564,0.088050365,-0.216546,-0.047323797,0.31574962,185.38802,121.83424
2_1_tr_reg_005_0_0.obj,-0.2600107,-0.103400305,0.058845963,-0.07820183,0.18388207,0.1616077,-0.2241078,-0.09907397,0.018275335,-0.10088145,-0.162679,-0.013115011,0.10149417,-0.15860917,-0.24407004,-0.34422618,-0.036473874,0.14734599,0.06623195,0.11347816,-0.43101218,0.070035614,0.26293266,0.024850888,0.04124512,0.1881372,0.19162229,-0.2989981,0.22252966,0.038054753,-0.05830354,0.15222386,152.06845,128.19286
2_1_tr_reg_007_0_0.obj,0.15588568,0.13987006,0.21152747,0.19467357,-0.1152869,0.04123324,0.37764305,-0.025270144,-0.18593127,0.09430294,-0.20883207,0.1228863,-0.1118583,0.11597284,-0.03661008,-0.009989656,0.03586065,0.41038898,-0.13650903,-0.14471847,0.22724965,-0.24072659,0.17784165,0.073191516,0.26581228,0.2603395,-0.035515916,0.0096878065,-0.045648906,-0.13146487,-0.05557598,-0.25994167,174.44597,164.13971
2_1_tr_reg_008_0_0.obj,0.058451515,0.16777596,-0.10569558,-0.27935144,0.09097996,-0.1307312,-0.25110176,-0.15868963,-0.017893452,-0.10255019,0.12518318,-0.104743294,0.20392124,0.19075492,0.013588967,-0.2696302,-0.101412594,-0.30071312,0.23498745,-0.06255836,-0.07181011,0.019472681,-0.32450455,-0.40110677,-0.02682202,-0.13800365,-0.057681117,0.2502632,-0.08147499,0.21770641,-0.07314668,-0.024680136,11.166153,72.41466
2_1_tr_reg_009_0_0.obj,-0.0728638,0.111625984,0.24867652,0.0107729575,0.27841002,0.03451555,-0.23565197,0.0791988,-0.06764328,0.031406544,0.3301375,0.36815792,-0.19016413,-0.092672385,-0.06722975,0.11563235,0.17669107,-0.22754575,-0.0067196763,0.088703275,0.011695644,-0.2858745,-0.29007146,-0.07296555,0.033477444,-0.22128193,0.018615881,0.16529614,-0.24944407,0.18013845,0.15689497,-0.08804463,66.89627,152.5167
2_tr_reg_000_0.obj,0.30765027,-0.035486836,-0.16471471,0.103389665,0.09187181,0.033887442,-0.13245976,-0.0772747,-0.12354845,0.04539492,0.018524442,-0.243905,0.23196606,0.100436,-0.10812072,-0.196211,0.2589873,-0.119418345,0.18578188,0.24757877,0.33765578,0.08578651,0.043236703,-0.0092507955,0.21473129,-0.27680087,-0.13521132,-0.2476913,-0.29776967,0.11485213,-0.18893318,-0.0392139,144.79001,177.89452
2_tr_reg_001_0.obj,-0.39848405,0.14072369,-0.050423518,-0.16850102,0.17573981,-0.10243415,0.17743275,0.23887335,-0.02323926,-0.008909609,-0.26960182,-0.0066165966,-0.18960804,0.07980481,0.0531175,0.0109851835,0.052952714,-0.09530979,-0.11798963,-0.1188054,-0.11183563,0.14275819,0.30116224,0.07943575,-0.15126057,-0.18595517,-0.33089685,-0.25256768,0.28619066,-0.036711793,-0.2015446,-0.13231066,108.32391,105.44592
2_tr_reg_002_0.obj,-0.05209609,0.036236376,-0.18429792,-0.10556902,-0.06966583,0.0054968293,-0.22374341,0.0013826132,-0.1167525,-0.18381844,-0.16086188,0.038724605,0.28900784,0.04960541,0.03605285,0.08258214,-0.25337404,-0.071162306,0.10105161,-0.05051197,0.12252941,0.13920125,-0.3673828,-0.3012549,0.38746467,-0.14023674,-0.2405946,0.25288346,-0.10437274,0.28188127,-0.021825107,-0.049142186,161.34387,149.31366
2_tr_reg_003_0.obj,0.04448769,0.14292842,-0.22233647,-0.40401572,0.10360115,-0.1309761,-0.03373663,-0.05689614,0.4336685,0.087492906,0.19289598,-0.023465166,-0.024632925,-0.060402393,0.05924333,-0.28705943,0.027020855,-0.21263164,0.083478995,0.012406701,0.08174801,-0.08320028,-0.06490326,-0.10839171,-0.3425503,0.10234273,-0.008903916,0.077321716,-0.35126537,0.24485055,0.059181035,0.075301684,90.394424,94.120125
2_tr_reg_004_0.obj,0.12883233,-0.107345946,0.033196095,-0.04213697,-0.0940183,-0.17505531,0.13981998,-0.12284853,0.012292523,-0.14464161,0.20318316,-0.10388714,0.08417205,-0.2276189,0.006726864,0.16854247,-0.1427526,-0.2635579,-0.0415047,0.25311822,-0.010613862,0.24611284,-0.07100642,0.0674685,0.3738942,-0.11844648,0.391953,-0.11538111,-0.20608126,-0.23784278,-0.20148905,0.2192432,186.53702,128.53468
2_tr_reg_005_0.obj,-0.19818038,-0.030232267,-0.13575928,-0.35216045,0.18535091,0.025707297,-0.26122624,-0.08503964,-0.10866233,-0.2669259,-0.04366509,-0.04614097,0.10559722,0.0015013926,-0.2408047,-0.32064143,0.102259465,-0.11032405,0.25106233,0.07060969,-0.10165899,0.30623677,0.04217233,-0.24925525,0.17234133,-0.0982822,-0.008145204,-0.27995253,0.07908018,0.17312144,-0.18716535,-0.010390431,91.91974,14.984268
2_tr_reg_007_0.obj,0.11630253,0.15723298,0.23257594,0.16327247,-0.14874132,-0.016313873,0.39935058,-0.04657542,-0.1561108,0.060666524,-0.1760647,0.14236464,-0.14468488,0.12931632,0.005134525,0.033832777,0.015577807,0.39325097,-0.14338942,-0.1854713,0.21871784,-0.24915846,0.14485006,0.032539275,0.24821067,0.2556739,-0.04166077,0.05846122,-0.04757266,-0.14906633,-0.043188218,-0.2802316,174.48111,164.10175
2_tr_reg_008_0.obj,0.07509908,0.17838638,-0.09940426,-0.23108451,0.09264507,-0.1353731,-0.23129751,-0.15396014,-0.021586256,-0.07262295,0.12545237,-0.11529473,0.21542142,0.20831095,0.057417493,-0.23903593,-0.1225274,-0.31848994,0.20144714,-0.05228103,-0.039407913,-0.0044245175,-0.35738292,-0.38219145,-0.021435982,-0.15553227,-0.08406356,0.30145642,-0.10366541,0.18988141,-0.07244336,-0.019220635,10.813507,73.028786
2_tr_reg_009_0.obj,-0.114028275,0.08878229,0.22523183,-0.014749657,0.28790465,0.062121123,-0.2887206,0.1337227,-0.07242763,0.03580947,0.29926336,0.4023276,-0.19714835,-0.1065051,-0.08332143,0.12666747,0.15274824,-0.22637098,-0.013993084,0.057803277,-0.051399745,-0.28547642,-0.26187572,-0.03333059,-0.029838517,-0.19635524,0.0009970064,0.1320689,-0.17202999,0.22548744,0.18250719,-0.08030368,66.94803,152.4573
3_0_tr_reg_000_0_0.obj,0.2651701,0.00951986,-0.1521196,0.087234624,0.08893492,0.0091513395,-0.14073063,-0.07314475,-0.1488179,0.013116191,0.028486004,-0.2270203,0.2146542,0.109965354,-0.09211519,-0.15996401,0.2601752,-0.17775689,0.17144541,0.24054024,0.348584,0.12580587,-0.0028889123,-0.071549885,0.23118073,-0.29964653,-0.15582995,-0.21115068,-0.31853104,0.1049459,-0.2036118,-0.06118447,144.62833,178.25687
3_0_tr_reg_001_0_0.obj,-0.377727,0.12276235,-0.02502751,-0.16455325,0.19838138,-0.10571842,0.17102292,0.23657745,-0.028400496,0.010832956,-0.26719272,0.028039595,-0.20882362,0.06849505,0.02599821,-0.0016215555,0.06911503,-0.09331427,-0.116623536,-0.10024188,-0.09176821,0.107729,0.30846617,0.10947303,-0.14625336,-0.20041773,-0.33209142,-0.28970188,0.28060398,-0.032615166,-0.2078035,-0.11691186,108.20062,105.74428
3_0_tr_reg_002_0_0.obj,-0.15880036,0.031681657,-0.14083973,-0.16975433,-0.03966672,0.008618826,-0.27047715,-0.0048809433,-0.11668217,-0.21656084,-0.1564892,0.09890726,0.24734981,0.038429335,-0.012716265,0.047730032,-0.25606638,-0.04987995,0.103601374,-0.079874106,0.048011772,0.1619942,-0.32958922,-0.34052685,0.3740435,-0.07368032,-0.22816889,0.2400937,-0.04205459,0.302293,0.0060133664,-0.0622765,161.31403,149.49197
3_0_tr_reg_003_0_0.obj,-0.07272304,0.0722238,-0.12409886,-0.48707944,-0.016590217,-0.042044874,-0.0008748757,-0.06936587,0.35502803,0.105491914,0.05639679,0.13300441,-0.19338328,-0.1384079,-0.08739487,-0.32081115,0.23655845,0.075752385,0.090641715,-0.08057662,0.14770535,-0.006624474,0.13143185,-0.20914888,-0.3631318,0.17212178,0.016151888,-0.08336493,-0.16137908,0.20479226,0.09172704,0.021302367,91.60627,93.31099
3_0_tr_reg_004_0_0.obj,0.09215948,-0.120537505,0.058736064,-0.0096249385,-0.11003891,-0.1712513,0.16372533,-0.12355129,0.03409402,-0.15082882,0.18327948,-0.08162028,0.071086235,-0.2568405,0.0059486716,0.16964775,-0.18223825,-0.21941017,-0.06457796,0.23865011,-0.028746445,0.22450383,-0.07516093,0.09405467,0.37944868,-0.09025254,0.41227528,-0.09446288,-0.20404209,-0.24483731,-0.17439234,0.23391333,186.51028,127.95038
3_0_tr_reg_005_0_0.obj,-0.17831124,0.01935842,-0.11128474,-0.363089,0.15887684,0.013947889,-0.28675243,-0.08075993,-0.166841,-0.2814435,-0.012160226,-0.006128612,0.093400344,0.03767801,-0.21332009,-0.25968695,0.09683869,-0.1586173,0.24943292,0.05031427,-0.057680633,0.3150091,-0.05426855,-0.3162182,0.19481613,-0.12619434,-0.018174944,-0.21923436,0.07405927,0.15475151,-0.20260856,-0.039640427,91.64796,15.181084
3_0_tr_reg_006_0_0.obj,-0.007681526,-0.018654414,-0.11978261,-0.04470884,-0.34538442,0.11380219,0.005973444,-0.090377316,-0.08854304,-0.04261789,-0.10284983,-0.045755666,-0.021317473,-0.09348784,-0.14881921,-0.13945565,0.32166907,0.26838014,0.04582495,-0.12988363,0.046724215,0.37896007,0.19623484,-0.35413045,-0.117646635,0.38778445,0.12580493,0.09543079,0.0591162,-0.02641867,0.24675073,-0.10618382,143.70012,76.62251
3_0_tr_reg_007_0_0.obj,0.15961918,0.1428943,0.24557966,0.21688919,-0.088407904,0.025385277,0.37671536,-0.027424349,-0.18188359,0.07797512,-0.1482002,0.15359168,-0.14823489,0.11981926,-0.029945334,0.023314575,0.03464058,0.3828721,-0.12743856,-0.13257778,0.22292951,-0.28620696,0.13528322,0.09046899,0.30290443,0.23282863,-0.0038929633,0.025818419,-0.08407121,-0.123595655,-0.037569936,-0.2510694,174.35437,164.17297
3_0_tr_reg_008_0_0.obj,0.09706338,0.16803177,-0.09175023,-0.23173368,0.07934372,-0.113405116,-0.25213778,-0.15522869,-0.011366559,-0.07807163,0.13441353,-0.14848933,0.2291077,0.21672475,0.0670224,-0.25247726,-0.14695998,-0.29285422,0.21373272,-0.06620805,-0.071993046,-0.0027207339,-0.35709637,-0.3758694,-0.041383967,-0.10903088,-0.049732435,0.3034118,-0.0724896,0.17443463,-0.06392997,0.0069972104,10.421654,72.66263
3_0_tr_reg_009_0_0.obj,-0.07354584,0.03381902,0.24147078,0.07044619,0.28058842,0.07304337,-0.27107415,0.111219615,-0.047612984,0.046698056,0.29586658,0.3803376,-0.16611244,-0.107620776,-0.08147293,0.123216346,0.115131795,-0.20872958,-0.016607298,0.073501125,-0.03965343,-0.32917273,-0.2795217,0.012315768,-0.008759676,-0.22907382,-0.003055015,0.16881634,-0.19254948,0.23086916,0.1908265,-0.0637183,66.96473,152.52182
3_1_0_tr_reg_000_0_0_0.obj,-0.010989114,-0.4827886,-0.022732588,0.22325194,-0.09621379,0.23824264,-0.13470076,-0.1390742,0.108474895,0.08121423,-0.15525417,0.12586613,0.10708085,-0.23295079,-0.22078012,-0.122660145,-0.09341043,0.38490298,-0.038056623,0.1625268,0.030224683,-0.0014893181,0.05240337,0.16594192,0.11372728,0.22858281,0.18411103,-0.07074503,0.17530017,0.008379464,0.14713271,0.22941516,163.64655,126.24474
3_1_0_tr_reg_001_0_0_0.obj,-0.37207592,0.11873793,-0.030632552,-0.18183438,0.19965245,-0.10570388,0.15882559,0.22999682,-0.03247797,0.010377631,-0.25990352,0.032793462,-0.21518409,0.070194274,0.015284263,-0.012836018,0.08719482,-0.10257435,-0.10773521,-0.09284132,-0.083999604,0.11570761,0.3043707,0.09569677,-0.15175474,-0.20884502,-0.3277875,-0.29811504,0.28526667,-0.025223026,-0.20985657,-0.11520523,108.05269,105.86136
3_1_0_tr_reg_002_0_0_0.obj,-0.15268132,-0.026626106,-0.082340576,0.03632252,-0.07161149,0.053121563,-0.168228,-0.0019981107,-0.02161335,-0.17601246,-0.19403468,0.025683323,0.34816647,-0.057010867,0.059011545,0.11119527,-0.46533033,0.05244413,0.03474425,-0.09431632,-0.15720524,0.040300697,-0.2527969,-0.11049837,0.3727356,0.05741177,-0.10328078,0.3491542,-0.06281333,0.30653328,0.12600605,0.03351898,159.34427,147.22978
3_1_0_tr_reg_003_0_0_0.obj,-0.088290125,0.044797055,-0.10165501,-0.41584244,-0.014509877,-0.033624694,0.057168722,-0.047589064,0.40846556,0.1268596,0.029226335,0.16054827,-0.2019341,-0.14366265,-0.044602755,-0.28942144,0.18519492,0.10861088,0.03262931,-0.11102946,0.25646108,-0.03567197,0.08580553,-0.14338599,-0.41299954,0.16088098,-0.089742884,-0.035362568,-0.16361938,0.21005034,0.10605043,0.031303886,91.5977,93.47803
3_1_0_tr_reg_004_0_0_0.obj,-0.03986004,-0.31138209,0.07400833,0.1549038,-0.17224307,0.023491075,0.1497205,-0.16286227,0.06579476,-0.1487472,0.03851916,0.037910566,0.098835975,-0.26799127,-0.041580494,0.12981379,-0.37617618,0.03650802,-0.10459095,0.12389225,-0.07811224,0.18281892,-0.16543561,0.14725527,0.3307559,0.015258425,0.3870333,0.12567928,0.05502788,-0.20766428,-0.0033487962,0.2901426,186.04333,122.40442
3_1_0_tr_reg_005_0_0_0.obj,-0.16545685,-0.35799628,0.02117315,0.011294339,-0.021287126,0.26039955,-0.26561838,-0.10535983,-0.037472427,-0.07557273,-0.11878246,0.25531706,0.003919388,-0.23287915,-0.27852646,-0.11930123,-0.041749377,0.25951648,-0.017955476,0.13352741,-0.17242856,0.09953415,0.026402596,-0.012677191,0.12609746,0.33770353,0.26967123,-0.10333231,0.26285008,-0.0050798943,0.11026606,0.19784689,162.2791,126.77357
3_1_0_tr_reg_006_0_0_0.obj,0.008319073,-0.02414142,-0.101798415,0.041806724,-0.3695014,0.13125177,0.048487384,-0.09129931,-0.09565223,-0.036010087,-0.117458045,-0.09478158,0.017191019,-0.090699516,-0.120060004,-0.10551768,0.2851406,0.29913607,0.020474803,-0.12797666,0.03737037,0.3785678,0.19521154,-0.31353047,-0.10019679,0.40109718,0.1275443,0.13365938,0.06467367,-0.08245201,0.24846686,-0.09499796,143.89813,76.83509
3_1_0_tr_reg_007_0_0_0.obj,0.13103518,0.12081268,0.18211557,0.18408741,-0.20624617,0.00673694,0.38707158,-0.05691985,-0.15625574,0.07576035,-0.2164014,0.09084096,-0.09248805,0.12399538,-0.0070651094,-0.00032312353,0.02050249,0.42602935,-0.14763705,-0.17878953,0.21960203,-0.19700329,0.18399349,0.009808904,0.22696282,0.2764245,-0.043395337,0.07329744,-0.01692715,-0.15503238,-0.037275963,-0.2806392,174.5152,164.08685
3_1_0_tr_reg_008_0_0_0.obj,0.033663254,0.1709622,-0.102466665,-0.2882783,0.09593632,-0.1288061,-0.25182164,-0.15568809,-0.030004835,-0.11624454,0.12030446,-0.10019346,0.19987723,0.18825936,0.009360676,-0.27064916,-0.09852281,-0.30365625,0.23340815,-0.06368841,-0.08057163,0.034648858,-0.31593278,-0.40830922,-0.01270355,-0.15102983,-0.056482475,0.23863705,-0.06889374,0.20896493,-0.08876913,-0.029282942,11.650627,72.31658
3_1_0_tr_reg_009_0_0_0.obj,-0.07942962,0.0880926,0.2690319,0.042779308,0.26026532,0.02787956,-0.2209708,0.095244534,-0.07920456,0.032122448,0.32721427,0.38376302,-0.20917892,-0.08121629,-0.052979507,0.16336502,0.15381286,-0.22220008,-0.034402728,0.07546562,-0.013464863,-0.30437413,-0.29695418,-0.046960875,0.013784316,-0.22823313,0.010575923,0.18293007,-0.18849437,0.15284513,0.16422616,-0.09472323,66.899704,152.52661
3_1_tr_reg_000_0_0.obj,0.21858032,-0.29113075,-0.07198532,0.19728415,0.016406834,0.2001216,-0.05062548,-0.14924163,0.030338794,0.1336382,-0.10472727,-0.16273111,0.2089065,-0.15014978,-0.22672445,-0.32141575,0.20124143,0.28826675,0.12403733,0.26220647,0.11077665,0.002379038,0.26549762,0.20112889,0.12392782,0.07923715,0.13945611,-0.28574377,-0.09595247,0.040547777,0.008272144,0.12835567,150.57603,167.87384
3_1_tr_reg_001_0_0.obj,-0.4069095,0.15028198,-0.10228576,-0.06871387,0.099756755,-0.11730905,0.267182,0.25907862,0.026813766,-0.017759698,-0.2714843,-0.11595062,-0.1050869,0.10090539,0.16979697,0.111599185,-0.05122515,-0.06970199,-0.15893602,-0.15862504,-0.12011158,0.13788335,0.28757307,0.114904724,-0.118956126,-0.16366458,-0.35372463,-0.122374386,0.21017145,-0.081824616,-0.18216394,-0.17723696,110.39479,103.972855
3_1_tr_reg_002_0_0.obj,-0.02373129,0.0062394366,-0.1361671,0.06004315,-0.0938535,0.027741218,-0.16761713,0.00429647,-0.058866315,-0.14189504,-0.19651021,-0.011226902,0.3690285,-0.0007803463,0.08716923,0.13300714,-0.3929319,0.008498128,0.055068213,-0.06958315,-0.022664117,0.012320328,-0.30020568,-0.15243202,0.4082318,-0.044845324,-0.17320089,0.33860365,-0.15136048,0.31210703,0.07423333,-0.015245439,160.21344,148.04355
3_1_tr_reg_003_0_0.obj,0.088407606,0.12987874,-0.19915166,-0.32661867,0.12459599,-0.08244408,0.009662612,-0.04946804,0.4520374,0.14261663,0.21053773,-0.040374693,-0.030587515,-0.07549989,0.057968102,-0.29153374,0.07481036,-0.17807038,0.073996626,0.0345144,0.14360465,-0.12170323,-0.026874293,-0.032151964,-0.3406331,0.09850708,-0.007297276,0.055619247,-0.41648233,0.20803568,0.05627155,0.092437625,90.48578,94.18787
3_1_tr_reg_004_0_0.obj,0.027865767,-0.382631,-0.016892225,0.24904858,-0.21524768,0.11024581,0.097134106,-0.12717015,0.08587129,-0.05164364,-0.043863907,0.028848281,0.12725206,-0.21101998,-0.024883628,0.14346373,-0.38310617,0.16021481,-0.09069204,0.109807834,0.016170932,0.13426001,-0.17786798,0.24562779,0.21237576,0.04835214,0.32598004,0.09901972,0.16627389,-0.16068219,0.043648884,0.29972202,184.01364,119.78244
3_1_tr_reg_005_0_0.obj,-0.24352233,-0.08708704,0.092311814,-0.0038091673,0.18777812,0.14970078,-0.20979981,-0.08482842,0.033615243,-0.058581218,-0.17847224,-0.021327317,0.11006782,-0.1419886,-0.23361799,-0.33669746,-0.06194592,0.1607739,0.037422687,0.0861955,-0.47730815,-0.014314823,0.3150896,0.070687816,0.024320263,0.19539402,0.16058701,-0.27627733,0.20582856,0.066754594,-0.029317174,0.13862215,150.97525,128.1513
3_1_tr_reg_007_0_0.obj,0.11757677,0.115834676,0.18370023,0.16012146,-0.23020895,-0.023299389,0.3980296,-0.070161104,-0.1363226,0.06899613,-0.19630487,0.09265446,-0.118263975,0.12035895,-0.0043049008,0.0037997242,0.041631754,0.4162723,-0.15202388,-0.19030578,0.22783001,-0.1737822,0.19334473,-0.016584454,0.20298845,0.28545964,-0.043593932,0.083105825,-0.018682217,-0.17986456,-0.0257249,-0.28026038,174.52255,164.05637
3_1_tr_reg_008_0_0.obj,0.04476492,0.17241661,-0.101012036,-0.27217826,0.09330375,-0.123750284,-0.25058126,-0.15402573,-0.033182397,-0.10809736,0.11887438,-0.10194748,0.20668007,0.19452888,0.021668326,-0.26049417,-0.107894525,-0.30254748,0.22754632,-0.06344112,-0.06717324,0.028402619,-0.3336909,-0.40386802,-0.012942743,-0.15029502,-0.06492873,0.25814992,-0.07261287,0.20506872,-0.082300484,-0.028026443,11.388176,72.50639
3_1_tr_reg_009_0_0.obj,-0.0786315,0.07299558,0.24896042,0.030684527,0.26670757,0.028830063,-0.22811915,0.092289,-0.056412797,0.03487566,0.31670973,0.37825647,-0.18811148,-0.084701456,-0.055576175,0.14367074,0.1314997,-0.21995313,-0.021818718,0.07544232,0.0035968353,-0.31025374,-0.31683534,-0.046331424,0.016466135,-0.2405659,-0.0075617093,0.19498895,-0.2053433,0.18580914,0.1655226,-0.08957606,66.91976,152.48676
3_2_0_tr_reg_000_0_0_0.obj,0.29221654,-0.040666763,-0.14123443,0.060804475,0.04731393,0.038909383,-0.18409757,-0.09175701,-0.18936731,0.017415168,0.04153085,-0.14907551,0.18435821,0.08872714,-0.12988612,-0.15626481,0.29891524,-0.13182315,0.18847303,0.25434926,0.39768562,0.14727633,-0.04789595,-0.11084565,0.24160908,-0.25631833,-0.10094479,-0.2063125,-0.2804122,0.0900922,-0.17522801,-0.06585565,144.76372,178.28435
3_2_0_tr_reg_001_0_0_0.obj,-0.38993138,0.12761065,-0.053235482,-0.15694028,0.18470062,-0.09971778,0.17595181,0.24014337,-0.025058582,-0.0002493702,-0.26941273,-0.006048419,-0.18775718,0.083958864,0.05092195,0.00847029,0.057982627,-0.09472601,-0.11477356,-0.11112418,-0.10362661,0.12889118,0.3029655,0.09573396,-0.15413158,-0.19938187,-0.3400392,-0.25861815,0.2863078,-0.036249664,-0.20218474,-0.13022628,108.35044,105.45316
3_2_0_tr_reg_002_0_0_0.obj,-0.10349696,-0.036136806,-0.14178056,-0.133999,-0.06405423,0.025700074,-0.2517344,-0.0347029,-0.11520828,-0.23442557,-0.14796679,0.12013303,0.24327657,0.019606343,-0.027707713,0.058767304,-0.26866218,-0.010138865,0.10476425,-0.06500438,0.09757033,0.15743744,-0.3696301,-0.31885174,0.40080485,-0.05902904,-0.19695258,0.25167355,-0.03805655,0.28707162,0.029820291,-0.0339775,161.33925,149.36508
3_2_0_tr_reg_003_0_0_0.obj,-0.052025963,0.07247729,-0.14112225,-0.4951789,-0.013447726,-0.027251683,-0.015741348,-0.065193154,0.33148736,0.11029623,0.04708881,0.11569126,-0.17763223,-0.13548608,-0.100889735,-0.3387545,0.2529785,0.07783599,0.113186054,-0.07138265,0.12536938,0.0013401774,0.13979402,-0.21116671,-0.35520908,0.17588465,0.036103778,-0.09789346,-0.1532445,0.20371456,0.08915073,0.016255522,91.65282,93.19454
3_2_0_tr_reg_004_0_0_0.obj,0.12759411,-0.081141904,0.032061856,-0.012303381,-0.07519901,-0.208235,0.1594904,-0.09420144,0.031132886,-0.117763564,0.2117842,-0.13956955,0.067398146,-0.2177557,0.010022657,0.1524891,-0.101573735,-0.27901313,-0.05244823,0.26669264,-0.018368145,0.21097046,-0.002777616,0.100023374,0.34990308,-0.13987589,0.3802227,-0.17391762,-0.24233226,-0.22801733,-0.22882669,0.20335475,186.31198,129.04909
3_2_0_tr_reg_005_0_0_0.obj,-0.18384261,-0.031302772,-0.11639854,-0.3792598,0.15519133,0.016004128,-0.29115763,-0.09196412,-0.13969536,-0.29004845,-0.0037556863,0.01598757,0.076778755,0.009483151,-0.231919,-0.2615264,0.09311047,-0.14086977,0.25215465,0.06104761,-0.06929177,0.3182983,-0.049757328,-0.30383542,0.1847523,-0.09983239,0.01165107,-0.22790654,0.0895389,0.15748882,-0.17823942,-0.026245998,91.66104,15.253815
3_2_0_tr_reg_006_0_0_0.obj,0.00296226,-0.0018135209,-0.10202794,-0.011847236,-0.33669847,0.13316314,0.029198367,-0.08144273,-0.11163733,-0.03574743,-0.12454246,-0.06281801,-0.013638391,-0.080169596,-0.14007878,-0.13261013,0.3155556,0.29025328,0.02991346,-0.13651863,0.039162304,0.3729518,0.21209762,-0.33179733,-0.109429955,0.4031108,0.116168275,0.093005516,0.080412865,-0.05656649,0.236919,-0.11119649,143.77881,76.6608
3_2_0_tr_reg_007_0_0_0.obj,0.16681206,0.15845759,0.25126073,0.22525702,-0.0745967,0.03154721,0.3665164,-0.022991557,-0.19374606,0.07842775,-0.14507547,0.15076149,-0.14593883,0.12193358,-0.030834997,0.025881333,0.041636027,0.37066245,-0.12485617,-0.123853,0.22447872,-0.28886744,0.12575166,0.09171285,0.30846632,0.23017354,-0.0028798177,0.020904431,-0.09894528,-0.12184237,-0.040428642,-0.2521091,174.30551,164.19193
3_2_0_tr_reg_008_0_0_0.obj,0.0780201,0.1519256,-0.08692962,-0.27061555,0.07929827,-0.108753815,-0.26779214,-0.16373336,-0.013780368,-0.10984541,0.13960135,-0.1228026,0.22133271,0.18551542,0.021781377,-0.27927127,-0.13475645,-0.2782251,0.24070561,-0.068302125,-0.099798754,0.015645955,-0.34181312,-0.38954598,-0.03806722,-0.103270605,-0.017656384,0.2642844,-0.0558823,0.19502068,-0.06528271,0.0077349953,10.806206,72.22582
3_2_0_tr_reg_009_0_0_0.obj,-0.07597655,0.08240293,0.25892985,0.05918444,0.29652205,0.0797267,-0.26245952,0.112540044,-0.07093265,0.047883008,0.30378282,0.3733488,-0.17495507,-0.099001296,-0.0758333,0.12521097,0.1439593,-0.21182968,-0.0165453,0.07397286,-0.045174647,-0.32120618,-0.2645418,0.000772085,0.0024811355,-0.20743951,0.009032237,0.15392336,-0.20747328,0.21225975,0.18089305,-0.07777842,66.95534,152.53134
3_2_1_0_tr_reg_000_0_0_0_0.obj,-0.082929246,-0.36832547,0.033325322,0.22576341,-0.04385554,0.23800522,-0.155589,-0.105720535,0.121781185,0.0811668,-0.18208079,0.10248125,0.1350596,-0.21216919,-0.17986633,-0.13798454,-0.20487583,0.36610362,-0.077780195,0.11852552,-0.18003345,-0.07864059,0.10418226,0.18468903,0.062189378,0.28215662,0.18861905,-0.052037165,0.22322212,0.02970312,0.14314434,0.243047,162.72304,125.56141
3_2_1_0_tr_reg_001_0_0_0_0.obj,-0.4010323,0.12471954,-0.03648013,-0.15492125,0.16844481,-0.10711205,0.18329324,0.24131723,-0.020257222,-0.0074319458,-0.27341425,0.017522855,-0.20460738,0.07507872,0.04912816,0.02578418,0.043879487,-0.073531546,-0.1258306,-0.11863434,-0.10109964,0.123905204,0.2961348,0.092958786,-0.15152021,-0.18312067,-0.3341528,-0.25793368,0.29748645,-0.045897067,-0.19714083,-0.13116075,108.40842,105.43807
3_2_1_0_tr_reg_002_0_0_0_0.obj,-0.060824893,-0.032453474,-0.1301304,0.009082906,-0.0932299,0.035503007,-0.19440173,-0.029682217,-0.06721931,-0.18660931,-0.18903978,0.03386266,0.3392735,-0.0020667342,0.042565055,0.10126685,-0.38600492,0.031868167,0.0675781,-0.0794482,-0.0055275923,0.06381284,-0.31761318,-0.20088229,0.41318265,-0.007981567,-0.16559336,0.33006358,-0.09580643,0.3097982,0.08749624,-0.004324739,160.53922,148.4112
3_2_1_0_tr_reg_003_0_0_0_0.obj,-0.07690118,0.04286191,-0.13709112,-0.4560581,-0.032174032,-0.047921352,0.015623294,-0.06621937,0.3951253,0.10844342,0.06348431,0.13861422,-0.18428418,-0.14036795,-0.05348391,-0.28777835,0.2099521,0.07266476,0.07492115,-0.09168484,0.21154596,-0.011130661,0.08655729,-0.19135521,-0.38750044,0.1530485,-0.03723462,-0.03237753,-0.18525769,0.22567087,0.11330033,0.023934474,91.51682,93.40932
3_2_1_0_tr_reg_004_0_0_0_0.obj,0.0012768614,-0.21657957,0.07703698,0.10980442,-0.16706364,-0.090638086,0.19386283,-0.15788087,0.072059825,-0.15771668,0.07974777,-0.033702426,0.100987,-0.27581084,-0.0011373039,0.16096829,-0.33656397,-0.043130476,-0.10803316,0.16924019,-0.07589716,0.18905933,-0.09632098,0.14665413,0.3811823,-0.0075450963,0.41343993,0.02067018,-0.080431215,-0.23519309,-0.07838141,0.27264827,186.3013,124.64465
3_2_1_0_tr_reg_005_0_0_0_0.obj,-0.12055095,-0.3316917,0.04203306,0.075476594,-0.010425967,0.26011193,-0.25184125,-0.11490817,-0.0021041436,-0.037176654,-0.14907824,0.18524806,0.07693777,-0.22177061,-0.2525053,-0.13997892,-0.10427993,0.29837453,-0.018344816,0.13099986,-0.24266176,0.026463984,0.08027394,0.0489851,0.12929049,0.35203212,0.26484466,-0.10713718,0.24934772,0.020795038,0.116617315,0.20714675,162.1215,126.461754
3_2_1_0_tr_reg_006_0_0_0_0.obj,0.007990124,0.00027813192,-0.09663848,-0.0014855197,-0.3321531,0.13095272,0.024841849,-0.08690359,-0.122205675,-0.039830577,-0.1200975,-0.07624459,-0.011927324,-0.07069621,-0.1389686,-0.12899618,0.32157204,0.2786437,0.028093051,-0.1326055,0.030062675,0.37778294,0.22078228,-0.33529964,-0.10902358,0.40162376,0.117736764,0.08920404,0.08334612,-0.063550904,0.23373835,-0.11070968,143.69249,76.64756
3_2_1_0_tr_reg_007_0_0_0_0.obj,0.15528575,0.1439058,0.21025775,0.1921664,-0.15992652,0.004838276,0.39659113,-0.03849845,-0.17329472,0.08114215,-0.17955333,0.11622993,-0.13380304,0.11934741,-0.023366977,0.009792519,0.045884013,0.39523345,-0.14412132,-0.15182056,0.22998594,-0.22009991,0.17594078,0.04259476,0.25736484,0.26321197,-0.0132265845,0.037728783,-0.052541945,-0.16214177,-0.047708288,-0.26426724,174.466,164.12245
3_2_1_0_tr_reg_008_0_0_0_0.obj,0.06416563,0.14316456,-0.08331026,-0.29377124,0.07165417,-0.088555455,-0.28022313,-0.16001675,-0.01569812,-0.13099594,0.13051724,-0.12259962,0.22022231,0.17368168,0.009001047,-0.2870315,-0.14359607,-0.2575248,0.2540362,-0.07912757,-0.12543404,0.04346449,-0.3336363,-0.39529547,-0.04407561,-0.0748863,0.0039730067,0.24445102,-0.022173949,0.19793364,-0.06412851,0.020029195,11.113937,71.74003
3_2_1_0_tr_reg_009_0_0_0_0.obj,-0.05804889,0.107170165,0.28703976,0.064221784,0.2641217,0.046098147,-0.21832576,0.07714506,-0.10227385,0.034407705,0.3349525,0.37441507,-0.20665357,-0.080342226,-0.06633704,0.14735983,0.18874626,-0.21050337,-0.028337594,0.087441176,-0.010977121,-0.30046937,-0.27035806,-0.053714607,0.046426415,-0.20080446,0.03897165,0.1709981,-0.22076903,0.14048347,0.16494176,-0.100707114,66.893555,152.59276
3_2_1_tr_reg_000_0_0_0.obj,0.18989667,-0.28313848,-0.07860567,0.16021836,0.037981294,0.18591216,-0.061603364,-0.15804689,0.03471303,0.103131615,-0.09907184,-0.18000795,0.21770713,-0.16234809,-0.23544128,-0.34635505,0.19800581,0.25546652,0.13952671,0.2793068,0.078165464,0.039526537,0.2667896,0.18322752,0.12139183,0.058786,0.15538329,-0.31448004,-0.08735267,0.035945658,-0.021456562,0.13765694,150.49977,168.05067
3_2_1_tr_reg_001_0_0_0.obj,-0.40146258,0.12723424,-0.04108578,-0.12719803,0.14673348,-0.11619863,0.21475255,0.24951226,-0.014391705,-0.010812049,-0.27070254,-0.0020089264,-0.19596712,0.08795901,0.08402399,0.06259971,0.019465188,-0.06683054,-0.1397139,-0.13477692,-0.09509343,0.11988227,0.28750932,0.10771478,-0.14613892,-0.1800063,-0.34345344,-0.22420411,0.2908559,-0.0672368,-0.1928532,-0.1487682,108.74002,105.10949
3_2_1_tr_reg_002_0_0_0.obj,0.054714978,-0.029166395,-0.16763884,0.043420136,-0.11882016,0.019703897,-0.16133735,-0.028888537,-0.08720176,-0.1673983,-0.17399047,-0.011307515,0.34827062,0.02520398,0.06490155,0.12471369,-0.3397197,0.004718362,0.079253905,-0.050841954,0.09196292,0.050976913,-0.35647106,-0.1957833,0.4246107,-0.07695666,-0.17551371,0.31342292,-0.1480843,0.27712387,0.044869013,-0.018023424,160.95377,148.46307
3_2_1_tr_reg_003_0_0_0.obj,-0.020544788,0.099440806,-0.1778992,-0.42403367,0.08519386,-0.10900806,-0.020275714,-0.07898926,0.4600431,0.088684484,0.16364597,0.0051172567,-0.057714883,-0.10002886,0.037826717,-0.33197153,0.073073626,-0.12066922,0.08596868,-0.013804762,0.10871977,-0.08263651,-0.023717508,-0.102978095,-0.38953716,0.104762025,-0.019189585,0.039111752,-0.30377588,0.23535708,0.06814912,0.08327647,90.731064,93.95993
3_2_1_tr_reg_004_0_0_0.obj,0.051817168,-0.31091985,0.02646213,0.15735757,-0.13914397,0.016010541,0.12286594,-0.12008317,0.097844444,-0.08381431,0.011733696,0.017292537,0.101910174,-0.1729611,0.044458356,0.21449327,-0.46824706,0.0676931,-0.10558009,0.1279878,-0.044495344,0.058810093,-0.17803125,0.29710248,0.24664369,0.0126330145,0.3539129,-0.014976858,0.14032951,-0.20941363,-0.06660471,0.2991745,184.90584,121.09653
3_2_1_tr_reg_005_0_0_0.obj,-0.196708,-0.23666984,0.006331326,-0.03610703,0.043789826,0.23443542,-0.2607153,-0.124047145,0.012482547,-0.10269099,-0.16494288,0.083590895,0.108668014,-0.21086425,-0.2436158,-0.23274893,-0.076954775,0.2578392,0.044834074,0.12975281,-0.32565537,0.11404578,0.13007635,-0.0159661,0.096052155,0.3155242,0.2645547,-0.19051784,0.2564033,0.022459494,0.044380862,0.19559604,160.40105,126.90553
3_2_1_tr_reg_007_0_0_0.obj,0.1572639,0.13535103,0.19628002,0.20162769,-0.1614895,0.025762023,0.3877237,-0.0402234,-0.16946265,0.09128359,-0.20517956,0.09563806,-0.10210329,0.117059916,-0.023817014,-0.007769554,0.037475977,0.4134032,-0.14172767,-0.14905657,0.23661834,-0.21441567,0.1838405,0.046672367,0.25201276,0.26460353,-0.02933371,0.03590062,-0.051623605,-0.1504093,-0.051989388,-0.2642204,174.47504,164.1187
3_2_1_tr_reg_008_0_0_0.obj,0.06506653,0.1506272,-0.09383752,-0.28777465,0.07379357,-0.09562373,-0.2746137,-0.15675618,-0.018134836,-0.12218576,0.12501484,-0.11992761,0.21793853,0.18092477,0.014181017,-0.2805882,-0.13275604,-0.2658318,0.2495017,-0.07744474,-0.107618354,0.039129924,-0.33578014,-0.39933527,-0.04182306,-0.09084967,-0.016383396,0.25152934,-0.036385417,0.2043952,-0.06248776,0.0061986446,11.040169,71.987144
3_2_1_tr_reg_009_0_0_0.obj,-0.03866722,0.09430295,0.29610798,0.10215418,0.27283987,0.05386874,-0.20030703,0.069498025,-0.08322624,0.047430817,0.33659986,0.3539397,-0.19415452,-0.077941515,-0.057217665,0.14339893,0.17791483,-0.20228833,-0.027232703,0.09381419,0.004670365,-0.32302707,-0.27967197,-0.02108761,0.03299576,-0.22191955,0.026454516,0.1765674,-0.23295362,0.13362415,0.16378406,-0.08680902,66.93467,152.62314
3_2_tr_reg_000_0_0.obj,0.260398,-0.032640528,-0.1678621,0.043958005,0.055978075,0.01899494,-0.17555189,-0.07917831,-0.16625667,-0.009954662,0.025301443,-0.18039034,0.21327506,0.09583019,-0.10748674,-0.14617752,0.25064203,-0.15586287,0.1917892,0.23770194,0.37973276,0.16449331,-0.053145774,-0.11142347,0.2546828,-0.29107547,-0.14217488,-0.20034908,-0.28409496,0.11263566,-0.19482724,-0.061095443,144.74567,178.3641
3_2_tr_reg_001_0_0.obj,-0.37595272,0.13301206,-0.07991904,-0.109265864,0.15035646,-0.11234383,0.23337588,0.2480223,-0.004604974,0.005597031,-0.27164775,-0.06524644,-0.15515634,0.10615424,0.10782861,0.048123024,0.024712358,-0.07979737,-0.1353638,-0.12806326,-0.08817518,0.12410367,0.3058573,0.11619111,-0.15134606,-0.19671424,-0.36156663,-0.20957193,0.25662884,-0.0658952,-0.20074335,-0.1592719,109.00499,104.907455
3_2_tr_reg_002_0_0.obj,-0.09844562,0.0056634215,-0.16711782,-0.1530243,-0.058986004,0.0045506954,-0.24952915,-0.010309391,-0.11632941,-0.20986271,-0.14974076,0.09774022,0.2464585,0.037226286,-0.0072028805,0.060610253,-0.23938619,-0.052498627,0.10743817,-0.058560938,0.115342356,0.15706262,-0.36577928,-0.3328839,0.38147563,-0.11003346,-0.23168924,0.2395955,-0.0633263,0.29032442,-0.003403677,-0.05492923,161.37589,149.45172
3_2_tr_reg_003_0_0.obj,-0.024481934,0.09945821,-0.1788892,-0.4341814,0.08163824,-0.1393018,-0.027278846,-0.08203661,0.46094164,0.080673456,0.18057358,0.0022531217,-0.063577704,-0.09640349,0.035476908,-0.3250729,0.061255567,-0.14725098,0.08200512,0.00040857712,0.09546633,-0.07968498,-0.018048517,-0.11517076,-0.35688102,0.09691224,-0.0009617383,0.03449648,-0.3186371,0.2251379,0.052542858,0.09725109,90.64431,93.99054
3_2_tr_reg_004_0_0.obj,0.11335113,-0.11449664,0.046652123,-0.028353069,-0.08998189,-0.16863218,0.15412702,-0.10998942,0.01955378,-0.1490867,0.19431372,-0.08358723,0.07758506,-0.24004956,0.010082981,0.18366058,-0.17825583,-0.24219067,-0.052787382,0.24211109,-0.023829307,0.21960545,-0.07983366,0.09855005,0.38569483,-0.113191314,0.3984669,-0.114865296,-0.20012195,-0.2320286,-0.19523856,0.22711842,186.49455,128.17456
3_2_tr_reg_005_0_0.obj,-0.23716757,0.029002909,-0.08184866,-0.35717294,0.20884646,0.023434987,-0.2666187,-0.057395943,-0.1417333,-0.2551981,-0.03727017,-0.01337313,0.07043249,0.010557785,-0.24147688,-0.3110566,0.11650232,-0.13625327,0.23427363,0.041234218,-0.15730944,0.27674204,0.06228224,-0.2566192,0.1540083,-0.103345305,-0.0070789694,-0.2711711,0.09391415,0.16844858,-0.19181597,-0.03759144,91.92425,15.048752
3_2_tr_reg_007_0_0.obj,0.15431097,0.13607274,0.23341781,0.20135458,-0.109377526,0.019364966,0.38465807,-0.031078886,-0.18090984,0.08193429,-0.16573873,0.14891356,-0.14642726,0.11971334,-0.030925266,0.015887102,0.037619136,0.39265138,-0.13219611,-0.14273782,0.22234382,-0.26768357,0.15148331,0.0778218,0.28548768,0.24474043,-0.010145986,0.027434018,-0.060841005,-0.13621362,-0.03975287,-0.25628847,174.41269,164.15396
3_2_tr_reg_008_0_0.obj,0.08889403,0.15968113,-0.089920096,-0.25335345,0.080432646,-0.10591207,-0.2642956,-0.15969786,-0.016253868,-0.09738409,0.13616416,-0.13412677,0.22453164,0.20163827,0.04017986,-0.26656872,-0.13667186,-0.2823197,0.23241514,-0.06858574,-0.08733303,0.009259507,-0.35044086,-0.38590512,-0.039895475,-0.10401622,-0.032075915,0.28075817,-0.060525395,0.18663046,-0.062747635,0.003778988,10.621796,72.40729
3_2_tr_reg_009_0_0.obj,-0.09921434,0.09552739,0.24938078,0.017445613,0.29593349,0.06908158,-0.27051932,0.12074744,-0.07648676,0.04128584,0.31070307,0.38989103,-0.19945498,-0.10275596,-0.082423046,0.12570064,0.16585869,-0.22196734,-0.01877607,0.069632135,-0.04887518,-0.2988977,-0.24981019,-0.020891951,-0.012625578,-0.1936453,0.014441702,0.13240023,-0.19474503,0.20375961,0.17772673,-0.08005194,66.94291,152.50636
3_tr_reg_000_0.obj,0.2536843,-0.039815076,-0.17080773,0.019219982,0.079158366,0.020990087,-0.18124586,-0.07935608,-0.16246486,-0.01651683,0.014798391,-0.1859472,0.20845109,0.10388717,-0.12993737,-0.181789,0.2567617,-0.14614281,0.20607483,0.23112655,0.35202265,0.15396859,-0.0138663715,-0.10154089,0.24725255,-0.28441167,-0.14565769,-0.24072744,-0.2599345,0.1278664,-0.20735465,-0.06017296,144.77028,178.34344
3_tr_reg_001_0.obj,-0.3783061,0.12205843,-0.023844352,-0.17197068,0.1976557,-0.1060407,0.16225038,0.22956991,-0.038930073,0.003030484,-0.25663123,0.029339714,-0.21551827,0.07571562,0.018128276,-0.0106108375,0.08091092,-0.10445105,-0.108954854,-0.10247051,-0.098406374,0.11859537,0.30490607,0.09547804,-0.15097761,-0.20527558,-0.32330245,-0.2869737,0.29563677,-0.032168217,-0.20627418,-0.11480596,108.095665,105.85957
3_tr_reg_002_0.obj,-0.16197987,0.04424971,-0.14629224,-0.15016145,-0.037108753,0.009920424,-0.27717143,0.014231851,-0.094933815,-0.19364968,-0.16503412,0.08346282,0.27229545,0.033827092,0.005110075,0.054829072,-0.28153592,-0.05019012,0.099001706,-0.08403792,0.012944887,0.13215555,-0.3092633,-0.31464246,0.36475325,-0.06904749,-0.2365567,0.25511378,-0.06069419,0.33581147,0.022353567,-0.05989395,161.20807,149.39664
3_tr_reg_003_0.obj,-0.064994626,0.06699992,-0.1524352,-0.48873293,-0.0098289745,-0.037002027,-0.00972857,-0.067136034,0.36912295,0.103304625,0.057747163,0.11000518,-0.15803768,-0.14085545,-0.08107152,-0.33197403,0.21368198,0.057438422,0.10675179,-0.068906285,0.14838964,-0.002618936,0.099747896,-0.2125287,-0.34520453,0.17504004,0.017379647,-0.04512372,-0.20291948,0.23285504,0.09538685,0.016741956,91.53429,93.33355
3_tr_reg_004_0.obj,0.1507903,-0.07413081,0.024258023,-0.028427143,-0.09948618,-0.18237506,0.12995978,-0.111296915,0.0105325645,-0.122673586,0.21422975,-0.13279063,0.07813073,-0.22930285,0.0103331255,0.15378986,-0.07668829,-0.27931455,-0.040020738,0.27134445,0.0099889655,0.25332958,-0.042546198,0.051927414,0.34993777,-0.11338692,0.3929377,-0.12951905,-0.25544274,-0.23710014,-0.1961147,0.20610622,186.4541,129.07556
3_tr_reg_005_0.obj,-0.21304187,-0.020364469,-0.10470718,-0.35076636,0.17595011,0.02647427,-0.27033767,-0.09178526,-0.13033678,-0.2854554,-0.02860768,-0.01419745,0.09082362,-0.0075710597,-0.24691325,-0.30313447,0.096070506,-0.11754623,0.24158612,0.06471089,-0.117287256,0.3140516,0.02021521,-0.27491793,0.18448277,-0.083020486,0.01702233,-0.25591347,0.087763794,0.1601994,-0.17938225,-0.012368392,91.87066,15.073517
3_tr_reg_006_0.obj,0.030434564,0.28956786,0.29357773,-0.06950745,-0.027703518,-0.108793475,0.30053475,-0.090699844,0.09505484,-0.034871306,0.013003458,0.055586763,-0.27561742,0.18160646,0.1574102,-0.07005244,0.1462301,0.15886714,-0.14191589,-0.35135642,0.21749216,-0.06171866,0.1406759,-0.12123359,-0.3360864,0.18292233,-0.26626208,0.009387668,0.18792866,-0.103641085,0.0057130735,-0.1470037,149.20554,67.97803
3_tr_reg_007_0.obj,0.16125903,0.13818935,0.26569498,0.21385945,-0.07203706,0.009780211,0.36047944,-0.034248963,-0.19363904,0.069107756,-0.1182405,0.18457535,-0.17710872,0.11740371,-0.048418827,0.03654996,0.04569202,0.3530697,-0.1242306,-0.11756258,0.2107045,-0.29821974,0.11982315,0.084397815,0.33655268,0.23184344,0.022881374,0.025054164,-0.09983062,-0.123542294,-0.027714765,-0.24090338,174.23235,164.22186
3_tr_reg_008_0.obj,0.080675766,0.18142685,-0.10242345,-0.22539088,0.09330537,-0.13846739,-0.23186556,-0.15402722,-0.020865373,-0.06872259,0.1264268,-0.13219675,0.21643288,0.22102663,0.06296914,-0.24259193,-0.11586281,-0.31985497,0.20133892,-0.054003213,-0.043784812,-0.008732827,-0.34404764,-0.38204968,-0.022567306,-0.15710427,-0.08601743,0.29693463,-0.1031108,0.18206634,-0.07840446,-0.024343163,10.706001,72.98011
3_tr_reg_009_0.obj,-0.08834338,0.062804,0.2528471,0.058932923,0.29425547,0.08959144,-0.27175105,0.13256185,-0.069129445,0.051223565,0.30431566,0.38914242,-0.19255264,-0.11645589,-0.08549492,0.13798594,0.15175852,-0.20944725,-0.024957817,0.07328085,-0.060204353,-0.31233108,-0.24501681,0.022220794,-0.023564303,-0.20108426,0.018368302,0.12904967,-0.17861313,0.20443256,0.18963976,-0.06440286,66.95563,152.53415
4_0_tr_reg_000_0_0.obj,0.30045944,-0.055513564,-0.170787,0.06229337,0.05926956,0.046797585,-0.1762667,-0.08216097,-0.15382156,0.026952334,0.02559142,-0.19111824,0.21736275,0.094265826,-0.11319977,-0.16639408,0.270393,-0.11666706,0.19960137,0.24912561,0.38408032,0.13042364,-0.028405257,-0.07024418,0.23168427,-0.26692283,-0.12325444,-0.22155392,-0.2776213,0.1092355,-0.17954096,-0.050268624,144.81354,178.15433
4_0_tr_reg_001_0_0.obj,-0.39222196,0.12420179,-0.18065104,-0.19921766,-0.011040341,-0.1299833,0.11748414,0.11269897,-0.025509713,-0.13565025,-0.056012083,-0.2215901,-0.10324438,0.17128141,0.14836837,0.03871764,0.09263657,-0.2735521,-0.04385622,-0.15391152,-0.18853585,0.38297334,0.15547907,-0.17205013,-0.18178654,-0.2145931,-0.1770218,0.03022811,0.2951246,-0.07333423,-0.1245742,-0.12544341,107.98549,89.001045
4_0_tr_reg_002_0_0.obj,-0.2852757,0.21323988,0.007883224,-0.002138295,0.13970375,-0.025210809,-0.21827431,0.08812912,0.086256064,0.019077422,-0.09787772,-0.12807813,0.31459856,0.00082766387,0.07577849,-0.058902346,-0.27358672,-0.12270364,0.036777377,-0.115391955,-0.46692938,-0.15640101,0.15189284,-0.04226968,0.13523613,-0.05368064,-0.1551238,0.19081922,-0.19084483,0.39836985,0.057957638,-0.05918024,134.96545,127.86104
4_0_tr_reg_003_0_0.obj,-0.09533545,0.031316563,-0.12912777,-0.4476875,-0.027828148,-0.043684334,0.019906005,-0.0493457,0.41138807,0.11887867,0.04435074,0.1551935,-0.18190366,-0.14978792,-0.048463717,-0.28480807,0.16583355,0.084927164,0.05331833,-0.10056823,0.21885929,-0.026005007,0.06351824,-0.16861247,-0.4059417,0.15593426,-0.059633084,-0.020807195,-0.16461875,0.23553567,0.112678185,0.04275335,91.53981,93.461655
4_0_tr_reg_004_0_0.obj,-0.027634459,-0.17538011,0.12850715,0.05143635,-0.11376633,-0.15968998,0.18398888,-0.14530307,0.1105469,-0.16325153,0.11604733,-0.010249232,0.044786002,-0.2882267,-0.005804533,0.14258221,-0.32643974,-0.08388113,-0.11277355,0.18856741,-0.103222296,0.14235552,-0.07321619,0.16164003,0.33988214,-0.026924577,0.41994342,-0.08892717,-0.100965545,-0.25279143,-0.13693088,0.28352576,186.27008,125.401474
4_0_tr_reg_005_0_0.obj,-0.2941206,-0.10368988,-0.041493885,-0.22168064,0.22323585,0.097441904,-0.24481726,-0.115232795,-0.03965404,-0.26870626,-0.112955175,-0.0349833,0.17585094,-0.09194907,-0.25617483,-0.34744227,-0.050570868,0.04222452,0.19621374,0.06675172,-0.3075079,0.21289425,0.13425831,-0.11032095,0.21533433,0.021647833,0.06074793,-0.25180423,0.14907573,0.19566225,-0.09968894,0.064037435,92.67376,15.030998
4_0_tr_reg_006_0_0.obj,-0.002678144,-0.011344221,-0.12424616,-0.028110137,-0.3427538,0.104530014,-0.016228983,-0.10704288,-0.10687889,-0.053236347,-0.084932275,-0.114953026,0.0031585912,-0.08718638,-0.13007231,-0.121503465,0.31981647,0.2024731,0.048521463,-0.091599405,0.0038224028,0.43744934,0.1958879,-0.36536294,-0.1205172,0.36890766,0.16797665,0.091547854,0.06380433,-0.06503166,0.22967638,-0.06327153,143.4111,76.59607
4_0_tr_reg_007_0_0.obj,-0.2823541,0.23174648,0.1693729,-0.32701483,0.049123026,-0.18973409,-0.085110925,-0.08215878,-0.19646928,-0.18245155,-0.0046874974,0.1991003,-0.072212994,0.06369706,-0.053308863,0.05961778,0.00066765375,-0.17744136,-0.021513421,-0.06008151,0.083743244,0.1654487,-0.1204576,-0.44984794,0.3850843,-0.14168805,-0.14136241,0.012345333,-0.08724341,0.029557696,-0.19894183,-0.16714111,56.22865,89.7718
4_0_tr_reg_008_0_0.obj,0.026979769,0.2068137,-0.044220734,-0.22741786,0.12223093,-0.14725675,-0.1955385,-0.16926852,-0.060017027,-0.091834135,0.12162845,-0.094203904,0.19665486,0.20169,0.06960103,-0.19652526,-0.1200448,-0.34757772,0.16985042,-0.03305186,-0.03626379,0.027499847,-0.36523205,-0.40493953,0.0393869,-0.19240822,-0.08852157,0.29644832,-0.10242724,0.12803529,-0.11942225,-0.027411608,12.15181,73.73463
4_0_tr_reg_009_0_0.obj,-0.10761896,0.10874474,0.24484149,-0.007451563,0.29240823,0.048578583,-0.27139375,0.11046857,-0.08266151,0.027440099,0.3048238,0.39286038,-0.1951599,-0.0915301,-0.071666524,0.13000636,0.15382408,-0.2312469,-0.02017334,0.0689118,-0.033426534,-0.28711823,-0.2760606,-0.05835337,0.002692683,-0.21125235,-0.0016682452,0.14041308,-0.19163518,0.19781576,0.15947594,-0.09176734,66.936935,152.46259
4_1_0_tr_reg_000_0_0_0.obj,-0.040000346,-0.43787283,-0.015998425,0.2373529,-0.09055624,0.23306046,-0.13494813,-0.13239865,0.13322912,0.065595105,-0.17232105,0.097409196,0.14822713,-0.21250524,-0.18598005,-0.12500362,-0.18875283,0.39086065,-0.050440874,0.12982497,-0.0535879,-0.031958785,0.050779793,0.17338617,0.10669245,0.25281537,0.17085311,-0.03538185,0.19551985,0.035299737,0.15118018,0.24664347,163.39218,125.76415
4_1_0_tr_reg_001_0_0_0.obj,-0.49458772,0.13667862,-0.034704793,-0.053862065,-0.11168435,-0.10264987,0.19216518,0.13080381,-0.009912382,-0.20228955,-0.1440598,-0.10655601,-0.112022884,0.12660258,0.14186998,0.13699128,-0.059131313,0.006899914,-0.10368614,-0.2927837,-0.22680864,0.2699275,0.16792487,-0.1607396,-0.12187624,-0.04077492,-0.21268289,0.13241538,0.3211874,-0.07251244,-0.015121413,-0.22059624,111.583755,89.533485
4_1_0_tr_reg_002_0_0_0.obj,-0.1955638,0.039243788,-0.020117076,0.08167775,0.053046666,-0.033603393,-0.16039677,0.08310087,0.13941944,0.030653266,-0.08788874,-0.101008095,0.29986924,-0.003236855,0.13454302,0.052449077,-0.43558002,-0.04907095,8.618777e-05,-0.1230367,-0.5084531,-0.22666486,0.097169586,0.083619885,0.11243889,0.019275935,-0.04963195,0.28411648,-0.08200034,0.33163568,0.14339633,-0.01983438,142.3961,127.96214
4_1_0_tr_reg_003_0_0_0.obj,-0.11194233,0.032763734,-0.094245225,-0.4098969,-0.021694154,-0.06683176,0.048899483,-0.03936531,0.4558863,0.11506445,0.05559354,0.17284393,-0.18894765,-0.13438568,0.009802895,-0.22688265,0.09562729,0.07706814,-0.0017817114,-0.12350451,0.268821,-0.06523799,0.020930538,-0.12530169,-0.4341883,0.13903522,-0.13235898,0.006792269,-0.1594285,0.23245065,0.10348184,0.05172028,91.50016,93.54303
4_1_0_tr_reg_004_0_0_0.obj,0.2721887,0.011334723,-0.2868296,0.2128223,-0.16998588,-0.07924438,0.17257862,-0.01958781,-0.012105801,0.0723257,-0.07539182,-0.40323558,0.33289844,0.030451825,0.23581372,0.20320545,-0.11042574,-0.1419239,-0.06425672,0.16115619,0.18556789,0.14491457,0.014213524,0.12661478,0.25353056,-0.18350172,-0.03474845,0.05113616,-0.30663022,-0.08076047,-0.11130281,0.04192272,174.86606,135.28313
4_1_0_tr_reg_005_0_0_0.obj,-0.15458518,-0.25260758,0.0730567,0.08019144,0.03940356,0.24534269,-0.26032427,-0.082066,0.049321234,0.02692461,-0.17913848,0.14147922,0.09340526,-0.20750856,-0.22394454,-0.19227086,-0.12579674,0.2914437,-0.033012826,0.100139715,-0.35053286,-0.07613136,0.16585201,0.09577738,0.039833277,0.34107706,0.22338322,-0.113947906,0.23016687,0.0837354,0.12804873,0.18890919,160.87302,126.31303
4_1_0_tr_reg_006_0_0_0.obj,0.034985304,0.002497537,-0.09511592,0.02720271,-0.3303739,0.13182797,0.021909423,-0.09251843,-0.13053009,-0.026104001,-0.12127669,-0.11115911,0.0043926896,-0.080672845,-0.1347681,-0.121942975,0.32824913,0.2577292,0.020234162,-0.10018016,0.020901665,0.39308843,0.23223846,-0.3211756,-0.10554961,0.4045672,0.14417146,0.07559397,0.068282686,-0.09447464,0.22425261,-0.08497168,143.64404,76.69231
4_1_0_tr_reg_007_0_0_0.obj,0.093439355,0.2698206,0.2686229,0.044009253,-0.28231734,-0.16553327,0.362455,-0.13943371,-0.1222431,-0.038143568,-0.102523655,0.032118574,-0.13071714,0.11092169,0.07096091,0.09935504,0.030278469,0.17249817,-0.17254862,-0.18065767,0.3047979,0.00036613664,0.06564442,-0.18471316,0.22478229,0.22595882,-0.047348738,0.086668044,-0.18458493,-0.26996544,-0.13866663,-0.22865033,174.15364,163.40164
4_1_0_tr_reg_008_0_0_0.obj,0.10843322,0.15562046,-0.09001075,-0.22759482,0.08262877,-0.11389267,-0.2532687,-0.1583984,-0.009553565,-0.07341172,0.14602228,-0.12635928,0.2310885,0.19557329,0.054015614,-0.25402024,-0.14498901,-0.29569173,0.214635,-0.052414075,-0.067141294,-0.020877423,-0.37408817,-0.36538458,-0.046664618,-0.116758384,-0.039607525,0.3098445,-0.087372504,0.18364823,-0.052574113,0.0074188383,10.370544,72.73822
4_1_0_tr_reg_009_0_0_0.obj,-0.12221933,0.08978544,0.22876997,-0.03475484,0.25852114,0.0030659596,-0.23562671,0.09850036,-0.069583,0.014630838,0.3201668,0.4001989,-0.22685929,-0.07432279,-0.061567582,0.13867494,0.17307062,-0.22843705,-0.017797234,0.059758905,0.018699495,-0.27261832,-0.30351037,-0.09105766,-0.009403275,-0.24353181,-0.025778553,0.16439565,-0.17499723,0.17191032,0.15492496,-0.1062523,66.918564,152.36435
4_1_tr_reg_000_0_0.obj,0.32527816,-0.22308089,-0.16141629,0.25675023,0.041354053,0.12710123,-0.04341258,-0.09493236,0.043820243,0.11394981,-0.015334583,-0.29223317,0.31928623,-0.05102526,-0.09290386,-0.19899514,0.11477682,0.07981552,0.13622648,0.28044623,0.24264555,-0.00020965832,0.12800013,0.23138158,0.21795037,-0.15875751,-0.0062780506,-0.21975324,-0.27484602,0.10112047,-0.076199986,0.110517986,148.25792,171.1394
4_1_tr_reg_001_0_0.obj,-0.37367752,0.1258591,-0.15123247,0.051148057,-0.014237938,-0.14449808,0.3416218,0.24548578,0.097019136,-0.04595588,-0.19394927,-0.1890994,-0.025530368,0.11763152,0.268802,0.2043684,-0.18909033,-0.05849267,-0.18407558,-0.20808588,-0.13845943,0.06841558,0.2284036,0.15234551,-0.05651808,-0.13100389,-0.29837513,0.074790746,0.08436891,-0.12063406,-0.13915865,-0.18966766,120.57609,101.370415
4_1_tr_reg_002_0_0.obj,-0.027293438,-0.008539774,-0.064521685,0.2113105,-0.10698681,-0.013032678,0.043545756,0.03323088,0.112667575,-0.006871165,-0.19344808,-0.08639603,0.32970473,-0.01966538,0.18442133,0.1530692,-0.48672822,0.123088345,-0.045884114,-0.12436698,-0.19677486,-0.20447138,-0.048291344,0.109985955,0.25269902,0.087813124,-0.09799894,0.3658607,-0.18038888,0.272191,0.15628096,-0.030437525,148.96346,136.14258
4_1_tr_reg_003_0_0.obj,-0.039655637,0.15150858,-0.15627354,-0.44012097,0.14282478,-0.15195087,-0.061716102,-0.06557932,0.40097246,0.06410076,0.26152962,0.012516089,-0.099208854,-0.0951412,0.03964137,-0.28204015,0.11732838,-0.24547057,0.078472294,0.05177981,0.015770031,-0.08717994,-0.025945527,-0.11451267,-0.33605632,0.04062271,0.064079374,0.0036875498,-0.32128042,0.18300766,0.040221944,0.103739664,90.24479,94.153885
4_1_tr_reg_004_0_0.obj,0.24162734,-0.009109887,-0.04400825,0.2729094,-0.20849653,-0.111255765,0.18712981,-0.08140572,-0.054743845,0.027762165,0.07244294,-0.18173514,0.14256492,-0.13582805,-0.0014611416,0.20492622,0.075663656,-0.14313918,-0.11013986,0.27953473,0.23642273,0.18992645,0.092520036,0.03892567,0.42590562,-0.11507348,0.16067086,-0.05019563,-0.41685998,-0.10608966,-0.11317668,0.073987536,178.06555,135.6184
4_1_tr_reg_005_0_0.obj,-0.22600238,-0.11892317,0.070643626,0.20835915,0.08227984,0.11599858,-0.15458955,-0.056855675,0.18522647,-0.024813363,-0.15757598,-0.0778235,0.25773817,-0.15212692,-0.01961634,-0.11263562,-0.40988013,0.16370009,-0.0625301,0.056672182,-0.52246946,-0.11474431,0.15379086,0.1848964,0.023099102,0.15340587,0.13180809,-0.005845483,0.1627319,0.09730899,0.07147741,0.20525947,153.70244,119.98447
4_1_tr_reg_007_0_0.obj,-0.1923929,0.13597457,0.04729932,-0.25330275,0.04397304,-0.056174155,-0.16530766,-0.11648989,-0.1800686,-0.19408706,0.027763907,0.023880046,-0.20182055,0.16366628,-0.17266595,-0.27397364,0.35636672,-0.0636419,0.08798172,-0.15550072,-0.1593798,0.19640169,0.26444408,-0.4301057,-0.090957075,0.13163976,-0.014442451,-0.11544276,0.17006198,0.08060761,0.030955097,-0.17578748,82.92909,75.97972
4_1_tr_reg_008_0_0.obj,0.027710613,0.16524655,-0.0742582,-0.29999417,0.10000925,-0.12909946,-0.25440195,-0.17061378,-0.043961275,-0.13864172,0.12542437,-0.070279226,0.18793468,0.1767366,-0.019716023,-0.2634002,-0.08946096,-0.29002565,0.24725837,-0.06424513,-0.074217245,0.045722168,-0.31868696,-0.42428103,0.015559655,-0.14977553,-0.04857371,0.21616289,-0.06423797,0.21290593,-0.09190297,-0.03936874,12.368477,72.08947
4_1_tr_reg_009_0_0.obj,-0.17820093,0.060864065,0.057073724,-0.25474957,0.134776,-0.14319219,-0.19361041,0.10474538,0.049689297,-0.02937151,0.23853225,0.3808675,-0.19511694,-0.059095554,0.0036047588,0.1336521,0.01802824,-0.25669456,-0.016437236,-0.0006067189,0.085501365,-0.16200578,-0.4084314,-0.23353244,-0.074620165,-0.25263074,-0.113542855,0.25314003,-0.09801439,0.20635106,0.10089523,-0.120018445,67.27742,148.71194
4_2_0_tr_reg_000_0_0_0.obj,0.29360694,0.002801688,-0.14440696,0.071263865,0.14346354,0.019804258,-0.12790243,-0.06462756,-0.11890526,0.031729363,0.061818045,-0.24844302,0.19416386,0.10918043,-0.104696125,-0.21043645,0.27543718,-0.18464953,0.19151993,0.25167957,0.2948785,0.078564584,0.04958317,-0.00054522755,0.17118925,-0.304193,-0.115554705,-0.27521667,-0.29342803,0.094018035,-0.22020528,-0.029255873,144.4545,177.90186
4_2_0_tr_reg_001_0_0_0.obj,-0.295527,0.13211587,-0.1535821,0.11958485,-0.089672156,-0.16140376,0.3941433,0.19375739,0.09826664,-0.053772192,-0.12616432,-0.28205407,0.015421328,0.12801735,0.28361267,0.17784743,-0.21362379,-0.0871726,-0.19789785,-0.21509652,-0.17605582,0.07840106,0.20673294,0.13538289,-0.03370245,-0.09877283,-0.19478972,0.18123922,0.032841485,-0.19194733,-0.12276208,-0.14858352,124.12673,101.82047
4_2_0_tr_reg_002_0_0_0.obj,0.20443259,-0.031087296,-0.0047532157,0.24457909,0.016215947,0.075506724,-0.05172156,0.09682931,0.030171644,0.028046872,0.03920235,-0.06878867,0.28010568,-0.055101193,0.16116232,0.22105405,-0.35946724,-0.035071757,0.004884546,0.038357906,-0.1339811,-0.30005115,-0.18035112,0.24127637,0.38953522,-0.09303396,0.093751654,0.22743306,-0.30910543,0.24294496,0.08918468,0.031465486,144.85602,142.75777
4_2_0_tr_reg_003_0_0_0.obj,-0.0809097,0.05111334,-0.12407389,-0.4408827,-0.018629031,-0.02583004,0.041582085,-0.050276652,0.38241717,0.1330469,0.032888994,0.14670238,-0.2040172,-0.14445001,-0.05251133,-0.29009962,0.23041269,0.096702814,0.053902302,-0.096383646,0.22035098,-0.012747922,0.1084367,-0.16377364,-0.4139742,0.1594789,-0.05309871,-0.05480369,-0.15227593,0.19763361,0.11127345,0.025542952,91.61097,93.44182
4_2_0_tr_reg_004_0_0_0.obj,0.02292971,-0.22266544,-0.0471191,0.28867924,-0.23400468,0.13091926,0.2032371,0.02276942,0.0074750483,0.040228847,-0.06264515,-0.03147117,-0.014924286,-0.015395938,0.12618056,0.24804696,-0.33291993,0.15180135,-0.14463188,-0.012041432,0.0012760622,0.07867792,-0.15462111,0.33005655,-0.11408526,0.047276773,0.23489587,0.08967882,0.34934133,-0.35233238,0.009840528,0.2177067,178.7767,80.03875
4_2_0_tr_reg_005_0_0_0.obj,-0.21026455,0.07840496,-0.09903834,-0.26571384,0.24780495,0.0245854,-0.23733926,-0.022188377,-0.14085397,-0.20436725,-0.06440841,-0.13072972,0.16896933,0.039150625,-0.19398153,-0.31493893,0.099657945,-0.18640791,0.23096247,0.06370187,-0.13580684,0.24641976,0.090642974,-0.17600186,0.19415809,-0.22478323,-0.0913743,-0.2831545,0.01185588,0.18730825,-0.25876382,-0.035739932,91.999115,14.754852
4_2_0_tr_reg_006_0_0_0.obj,0.01873998,-0.008691079,-0.12682603,-0.041986223,-0.32753876,0.11182858,-0.028721292,-0.10003691,-0.119723156,-0.03471467,-0.09383274,-0.097872205,-0.0040793903,-0.08991829,-0.14464669,-0.12942493,0.3373788,0.2057761,0.05069521,-0.07930759,0.0133861145,0.4248521,0.20682113,-0.36112645,-0.11629698,0.37918946,0.17050675,0.063748896,0.060813226,-0.057680577,0.22567156,-0.06415246,143.43045,76.587494
4_2_0_tr_reg_007_0_0_0.obj,0.050762177,0.14570385,0.29824832,0.088511035,-0.18703018,-0.24741693,0.07877232,-0.28535014,-0.15500711,-0.110719144,0.15619683,0.0015007411,-0.17387827,0.15230133,-0.057537545,0.0024078079,0.26592785,-0.0781523,-0.09554823,-0.06441796,0.20449154,0.09885202,0.04149772,-0.44571584,0.22273022,0.10683984,-0.012372375,0.18174113,-0.23162284,-0.24094322,0.010261119,-0.17337433,64.89659,172.1034
4_2_0_tr_reg_008_0_0_0.obj,0.122794725,0.13634843,-0.09006888,-0.26144952,0.05988379,-0.085645355,-0.27731928,-0.15286154,0.015121284,-0.092951015,0.14342913,-0.18936282,0.24649835,0.19765875,0.064257324,-0.27452356,-0.17893969,-0.25753614,0.23905379,-0.07186584,-0.13743211,0.016493274,-0.34059107,-0.3553921,-0.073959514,-0.036212664,0.019750252,0.2695676,-0.023744458,0.15719585,-0.05945791,0.057255324,10.0,71.95082
4_2_0_tr_reg_009_0_0_0.obj,-0.08734879,0.051643327,0.24594742,0.06633926,0.29251403,0.09519855,-0.28028497,0.13237564,-0.062424798,0.053730477,0.29385608,0.38480607,-0.17894131,-0.114187345,-0.08946354,0.12539688,0.14135785,-0.20327775,-0.016836174,0.06695128,-0.06394846,-0.32137868,-0.24327439,0.030509908,-0.022980463,-0.20414397,0.008583089,0.13821015,-0.18147929,0.22944917,0.1980371,-0.06609457,66.96437,152.53188
4_2_1_0_tr_reg_000_0_0_0_0.obj,-0.06749085,-0.43094587,0.030603256,0.27906895,-0.093678504,0.12845032,-0.10326405,-0.14256209,0.2485546,0.032550544,-0.04098382,0.06499693,0.14567833,-0.15812483,-0.10865778,-0.086365715,-0.3910512,0.24580309,-0.09220878,0.11723968,-0.17402555,-0.14672635,-0.041992877,0.23991679,0.057971813,0.11418071,0.21165916,0.08170394,0.20869692,0.02467314,0.106879316,0.26501575,162.0502,122.61188
4_2_1_0_tr_reg_001_0_0_0_0.obj,-0.1192306,0.046829525,-0.15427366,0.117652476,0.004200896,-0.06767415,0.4355239,0.19322854,0.11742007,0.06364283,-0.31663293,-0.15112334,-0.03269117,0.08100019,0.1985087,0.09512517,-0.16512726,0.17745703,-0.19770493,-0.08188634,0.12011954,-0.044284593,0.23166078,0.29200867,-0.15282229,-0.04185429,-0.3144447,-0.16019586,0.10353481,-0.20590064,-0.21025921,-0.10233095,125.16043,103.25215
4_2_1_0_tr_reg_002_0_0_0_0.obj,-0.07286911,0.018596943,-0.13921148,0.05573882,-0.067728974,0.031444,-0.1913434,0.023154391,-0.018674457,-0.114438444,-0.20558088,-0.025601514,0.38622844,-0.004749445,0.09218305,0.107173465,-0.4068328,0.013568407,0.05111205,-0.07373749,-0.08025978,-0.011307813,-0.24233842,-0.1271143,0.37464684,-0.026231533,-0.19395912,0.3295747,-0.1530015,0.35923803,0.09212926,-0.012302219,159.7329,147.70856
4_2_1_0_tr_reg_003_0_0_0_0.obj,-0.06050671,0.022610145,-0.14465623,-0.3935149,-0.02291186,-0.042558998,0.04757727,-0.04848644,0.43826586,0.13215373,0.06368482,0.1335159,-0.16657014,-0.13225164,0.0032291133,-0.24705291,0.1651823,0.063923776,0.04000501,-0.09975915,0.2835297,-0.03790558,0.02794004,-0.1266938,-0.44018704,0.13186617,-0.115494765,0.017699512,-0.1970528,0.22826935,0.12991644,0.03449531,91.4776,93.55355
4_2_1_0_tr_reg_004_0_0_0_0.obj,-0.09021436,-0.18366563,0.21285033,0.13836285,-0.05922297,-0.15125932,0.13729022,-0.08271562,0.21055222,-0.07598747,0.066552505,0.08515316,0.008253542,-0.2477868,0.010931763,0.16676435,-0.44235435,0.07815847,-0.14659466,0.10828632,-0.20872945,-0.13333842,0.03262892,0.2944307,0.28561747,-0.0011936728,0.338959,-0.1532767,-0.040057804,-0.12950328,-0.08137312,0.24769425,183.78085,122.83846
4_2_1_0_tr_reg_005_0_0_0_0.obj,-0.2099658,-0.337749,-0.0006014425,-0.049904283,-0.021219445,0.26566634,-0.28367582,-0.08578969,-0.034184862,-0.10952598,-0.10735149,0.26012477,-0.010531622,-0.23909107,-0.25376529,-0.092540495,-0.047483835,0.22937138,-0.003731297,0.12232814,-0.17109783,0.16161665,-0.0285768,-0.053529307,0.096963905,0.32315287,0.26979378,-0.096944466,0.28389212,-0.020309249,0.09913192,0.2052492,162.25635,126.868355
4_2_1_0_tr_reg_006_0_0_0_0.obj,-0.37937096,-0.051849674,-0.089203455,-0.2310367,-0.34019303,-0.17116466,0.13832761,-0.015584018,0.18460117,-0.20277998,0.01955443,0.11604391,-0.20882528,-0.20237947,-0.16998476,-0.2210011,0.07823524,0.037003595,-0.07855289,-0.1740174,0.0393257,0.2752147,-0.022656638,-0.3460447,-0.044224285,0.12418622,0.09186289,0.29055458,-0.08005843,-0.004438243,0.118901,-0.06326629,96.49499,75.900314
4_2_1_0_tr_reg_007_0_0_0_0.obj,0.14505556,0.2665652,0.33784017,0.08866846,-0.011480586,-0.14511652,0.1595474,-0.1706304,-0.23051159,0.01613704,0.027291508,0.109510295,-0.24894449,0.15840231,-0.15564778,-0.06480669,0.30989656,0.009131403,-0.12946056,-0.024276342,0.25500247,-0.041264057,0.15084094,-0.23902617,0.27042776,0.21940516,-0.043688558,-0.03694071,-0.23845041,-0.20942083,-0.069487765,-0.19582509,67.17754,174.98442
4_2_1_0_tr_reg_008_0_0_0_0.obj,0.0021429225,0.19308962,-0.04642839,-0.26677698,0.13351025,-0.12773655,-0.23034753,-0.15998594,-0.060602,-0.11770316,0.13093147,-0.069461696,0.19801784,0.1784173,0.033082973,-0.21666072,-0.1261592,-0.3382705,0.2009959,-0.038963687,-0.07450737,0.040530067,-0.3591586,-0.39657542,0.039815184,-0.18118864,-0.059824124,0.26306808,-0.0762835,0.1600624,-0.11439867,-0.023836218,12.849915,73.055984
4_2_1_0_tr_reg_009_0_0_0_0.obj,-0.09359742,0.124664314,0.2269946,-0.036332585,0.25667474,-0.006758748,-0.21897471,0.06498713,-0.064491175,0.011764024,0.3037996,0.36419815,-0.17981367,-0.050401136,-0.040084727,0.11256236,0.14843884,-0.22433813,4.5142697e-05,0.060564462,0.053749185,-0.2791339,-0.34356555,-0.12964487,0.037651524,-0.24995954,-0.044549365,0.20961687,-0.22895679,0.19265778,0.13647953,-0.12924005,66.879585,152.34686
4_2_1_tr_reg_000_0_0_0.obj,0.31369048,-0.21052994,-0.13098828,0.22887027,0.105207734,0.13731638,-0.04185419,-0.088497445,0.025027549,0.11799051,0.0007875886,-0.25614977,0.2598251,-0.043461513,-0.14264958,-0.2627897,0.16793156,0.076510035,0.14754272,0.27842736,0.20983972,-0.03490214,0.18709005,0.26078573,0.1816216,-0.14760622,0.009651765,-0.2851617,-0.24572764,0.09681461,-0.08845815,0.117849745,148.29672,170.72095
4_2_1_tr_reg_001_0_0_0.obj,-0.37027705,0.15428066,-0.10377464,0.057232987,-0.08290538,-0.15238696,0.34610665,0.1928017,0.006914527,-0.099580385,-0.15776953,-0.20763493,-0.056947332,0.1590405,0.2424412,0.18721081,-0.11531506,-0.05244498,-0.16651595,-0.2527997,-0.18041633,0.15464541,0.22375295,0.04609761,-0.095432855,-0.113166645,-0.2445816,0.12297295,0.19838256,-0.15610641,-0.095959656,-0.22700585,119.77867,99.70977
4_2_1_tr_reg_002_0_0_0.obj,-0.035498604,0.0039802087,-0.13201538,0.15997654,-0.07874165,0.022415351,-0.101071306,0.03861144,0.03143958,-0.059239116,-0.21844848,-0.09162004,0.40668106,-0.020326138,0.13545622,0.1328438,-0.43357044,0.046612997,0.021262763,-0.072379224,-0.11310061,-0.084990054,-0.16169576,-0.004690031,0.3498333,-0.0207181,-0.17982593,0.33016172,-0.20272712,0.3392793,0.11171195,0.0031545614,157.20844,145.46535
4_2_1_tr_reg_003_0_0_0.obj,0.07183311,0.1459414,-0.1776547,-0.30350143,0.09004195,-0.13878602,0.09170979,-0.047662035,0.48455748,0.12556364,0.1680322,-0.031836096,-0.015012951,-0.04497199,0.12590426,-0.24419986,-0.050957076,-0.17178878,-0.0008354686,-0.029439894,0.20182076,-0.12903014,-0.049566388,-0.024995396,-0.3177959,0.10166934,-0.109195374,0.12611924,-0.40878934,0.21433297,0.035047866,0.08601029,90.41623,94.26078
4_2_1_tr_reg_004_0_0_0.obj,-0.14639507,-0.25490355,0.06455427,0.1479398,-0.060212776,0.06407701,0.110478126,-0.06499113,0.05479424,-0.21753608,-0.030206703,0.0763972,0.08731408,-0.17488743,0.025249833,0.17947385,-0.5342073,0.033698704,-0.110242024,0.03039607,-0.16884291,0.089966044,-0.24980155,0.20979187,0.28744236,-0.00027798096,0.25444058,0.13552421,0.1657448,-0.15116882,-0.024118211,0.2756935,186.08368,120.65106
4_2_1_tr_reg_005_0_0_0.obj,-0.29247996,-0.052705824,0.080008775,0.22581913,0.007659176,0.09497599,-0.10119586,0.031153688,0.15853593,-0.00036669747,-0.1324537,-0.05858715,0.16925599,-0.120930955,0.11001569,0.027386568,-0.3988993,0.116138086,-0.10457463,-0.0497072,-0.5557909,-0.08182223,0.09438761,0.15683627,-0.17898314,0.14069743,0.09427661,0.14931262,0.23399912,0.029260667,0.16215108,0.17809516,151.28052,117.308685
4_2_1_tr_reg_007_0_0_0.obj,0.07807506,0.28508416,0.27436,0.039206736,-0.23239869,-0.17130025,0.41738173,-0.0778331,-0.12104836,-0.020590467,-0.1198568,0.06679622,-0.15298577,0.09996982,0.07745345,0.11116853,-0.006580888,0.18487278,-0.17266507,-0.1820042,0.28416097,-0.083018206,0.06680892,-0.10826299,0.23856139,0.17614469,-0.044382382,0.044831008,-0.19244537,-0.2449522,-0.18316081,-0.25110877,174.29507,163.50113
4_2_1_tr_reg_008_0_0_0.obj,0.01574917,0.21462895,0.01755541,-0.21006195,0.15523396,-0.1230649,-0.20624974,-0.16380443,-0.08523804,-0.08109122,0.13133621,-0.057965875,0.19893387,0.17313279,0.07940828,-0.15107891,-0.13858208,-0.36382186,0.15387698,-0.010684327,-0.07609578,0.0062684934,-0.39499065,-0.3843538,0.05710654,-0.20070416,-0.06441809,0.31583315,-0.100507446,0.10078252,-0.11823466,-0.029789537,12.6092,74.43066
4_2_1_tr_reg_009_0_0_0.obj,-0.123757884,0.15744825,0.20718734,-0.09949912,0.25768927,-0.022222105,-0.22893217,0.09189018,-0.068067886,0.0043199467,0.29110047,0.37318552,-0.18990892,-0.055194274,-0.026313724,0.1283034,0.13987797,-0.2429986,-0.0063742097,0.048713483,0.03797033,-0.24789183,-0.348283,-0.15707065,0.016686834,-0.23578034,-0.04913506,0.19362496,-0.2038202,0.18646212,0.11907716,-0.13503051,66.91211,152.11307
4_2_tr_reg_000_0_0.obj,0.27512836,0.025084086,-0.13963234,0.064009115,0.122136354,0.009530874,-0.152796,-0.07142282,-0.14264256,0.018075125,0.06123253,-0.22410096,0.19409756,0.11971225,-0.095222324,-0.18304838,0.27680215,-0.1973972,0.18526818,0.24394968,0.32197982,0.09629095,0.0015512629,-0.060623746,0.19872311,-0.3047595,-0.132637,-0.23416583,-0.31173256,0.10146797,-0.21322083,-0.060239892,144.45927,178.16634
4_2_tr_reg_001_0_0.obj,-0.3858429,0.07420781,-0.0734247,0.09495562,-0.10616439,-0.18651335,0.32351327,0.15551703,0.05144473,-0.09378633,-0.06584838,-0.2156013,-0.11093577,0.16648148,0.22703768,0.1591823,-0.11235601,-0.117738366,-0.17345725,-0.24247679,-0.24143015,0.14950472,0.20482373,0.037665516,-0.1491656,-0.15813813,-0.17062043,0.17597818,0.23931484,-0.21352951,-0.07266966,-0.14923403,120.751274,99.88645
4_2_tr_reg_002_0_0.obj,-0.26011485,0.3126092,0.026072316,-0.015104482,0.101897836,-0.12184814,-0.15791437,0.08397811,0.04452556,0.04637821,-0.087086655,-0.14777617,0.26519194,0.09234664,0.14908843,-0.0040257997,-0.2538709,-0.20743369,-0.009100414,-0.15304004,-0.4188901,-0.1497053,0.13877971,-0.11931099,0.13635345,-0.08453187,-0.19615231,0.24627545,-0.20839493,0.31360936,0.0016718248,-0.11326374,133.17474,127.76648
4_2_tr_reg_003_0_0.obj,0.0063783773,0.13671479,-0.2050362,-0.4164674,0.10080903,-0.14675525,-0.036680207,-0.06706803,0.43756226,0.07648444,0.19878411,-0.012879601,-0.04043964,-0.07291981,0.049407348,-0.3013429,0.03237663,-0.2117131,0.07870518,0.014546514,0.06742913,-0.07870923,-0.04989143,-0.11697936,-0.3379954,0.09340041,0.0053449343,0.06758034,-0.34246925,0.23698692,0.053392652,0.08942328,90.397156,94.09377
4_2_tr_reg_004_0_0.obj,-0.081269026,-0.22054048,0.13945124,0.11317061,-0.105163656,-0.13437428,0.19284819,-0.1420693,0.14983936,-0.15745811,0.050799645,0.028762324,0.064647555,-0.25247937,0.00722968,0.14791736,-0.4534271,0.036542304,-0.13164814,0.121685795,-0.16695641,0.021954918,-0.058961738,0.21960212,0.3411325,-0.0047748685,0.36631194,-0.049341362,-0.018754646,-0.19218454,-0.09186954,0.26006806,185.4303,123.26795
4_2_tr_reg_005_0_0.obj,-0.34732863,0.06256825,-0.059155665,-0.30798668,0.23611331,0.03767995,-0.22921662,-0.02511236,-0.1161356,-0.26023597,-0.10169889,-0.062237814,0.1515941,-0.006461227,-0.19171065,-0.2799496,-0.017180974,-0.12139378,0.19811505,-0.010788775,-0.28036106,0.26831546,0.083299495,-0.1917125,0.19163403,-0.11889649,-0.048762366,-0.21009347,0.13006753,0.18367045,-0.19021703,-0.016776513,92.07499,14.930077
4_2_tr_reg_007_0_0.obj,-0.12857047,0.1662476,0.21059386,-0.28428853,0.029964074,-0.23237392,-0.17370115,-0.26440376,-0.18980847,-0.1898807,0.15387212,0.0779631,-0.0969057,0.22155634,-0.11892,-0.2114047,0.21901986,-0.09096538,0.11266838,-0.10276378,-0.04829306,0.0013359876,0.088585295,-0.50595754,0.15797348,-0.092338294,-0.03422997,-0.074115075,0.040837016,0.027167737,-0.14624794,-0.21661411,75.234726,81.9111
4_2_tr_reg_008_0_0.obj,0.024236636,0.19685306,-0.0768252,-0.2477604,0.11850707,-0.14240986,-0.21559764,-0.15749776,-0.051460203,-0.09980399,0.120159306,-0.10596181,0.20211165,0.20634872,0.05566221,-0.22110468,-0.1128815,-0.34120783,0.19188079,-0.042902138,-0.049866732,0.03479587,-0.3438505,-0.39988023,0.027803576,-0.18991053,-0.08626913,0.27194324,-0.08926775,0.15294382,-0.11785319,-0.030478464,11.957985,73.16096
4_2_tr_reg_009_0_0.obj,-0.13214158,0.074880555,0.23049605,-0.02078563,0.2646718,0.022502268,-0.24635844,0.12217347,-0.072735086,0.024854654,0.3122862,0.41084254,-0.23777062,-0.07740088,-0.067150414,0.15265581,0.17345636,-0.22134303,-0.026165005,0.052849445,-0.0023062604,-0.28014728,-0.28704378,-0.057311695,-0.038088016,-0.22909372,-0.030392867,0.15090036,-0.14385322,0.17388031,0.1690203,-0.10384663,66.94151,152.39252
4_3_0_tr_reg_000_0_0_0.obj,0.21671878,-0.1464037,-0.20196967,-0.060626943,0.0447322,0.08227038,-0.2447404,-0.10879855,-0.16482401,-0.065191776,-0.01668466,-0.11762844,0.21571334,0.043740507,-0.20677951,-0.20831878,0.24376442,-0.039603874,0.25314173,0.22531107,0.32759124,0.22523646,-0.020158485,-0.145256,0.29270512,-0.17991239,-0.079047635,-0.2580679,-0.17510512,0.1606417,-0.14974503,-0.03638201,145.1295,178.22884
4_3_0_tr_reg_001_0_0_0.obj,-0.34767812,0.18643387,-0.24183044,-0.10784355,-0.08504185,-0.13117808,0.32308328,0.15485024,0.060320955,-0.15450631,-0.13779922,-0.3169943,0.008754656,0.15379278,0.23489106,0.08744142,-0.12530471,-0.15365623,-0.13245544,-0.20424041,-0.08388012,0.32296616,0.13443884,-0.06285011,-0.02354202,-0.08828977,-0.2133294,0.117493324,0.101247534,-0.14941347,-0.19734596,-0.12959178,116.66579,94.281
4_3_0_tr_reg_002_0_0_0.obj,-0.3688362,0.25228018,0.03018829,0.031647664,0.12502229,0.005639664,-0.049962047,0.13445537,-0.064156026,-0.018372292,-0.20022638,-0.15450965,0.15144382,-0.0076887193,-0.02284601,-0.1150493,-0.08156925,-0.042736817,-0.043382645,-0.18154286,-0.59505844,0.047792267,0.39117733,-0.111896515,-0.00092607894,0.040359877,-0.11077022,0.101676255,0.063886814,0.20207173,0.086478926,-0.12298328,130.48022,124.215576
4_3_0_tr_reg_003_0_0_0.obj,-0.06975951,0.059844676,-0.13027078,-0.46168014,-0.0133369025,-0.011510051,0.031007778,-0.050466876,0.34239325,0.1321443,0.01685792,0.13386478,-0.19625771,-0.14630583,-0.08868822,-0.32971972,0.26322988,0.11036229,0.08318361,-0.08595499,0.18900068,0.0011621962,0.1392228,-0.18219513,-0.36994606,0.1726764,-0.013027923,-0.07797949,-0.15328716,0.1938211,0.10005242,0.011490485,91.67761,93.37275
4_3_0_tr_reg_004_0_0_0.obj,0.011369079,-0.19606611,0.10763199,0.10386144,-0.15508452,-0.12741002,0.15452686,-0.16473824,0.11947154,-0.12216539,0.13067338,-0.048891287,0.058816843,-0.31714267,-0.031115748,0.09419237,-0.23500526,-0.07087755,-0.107198775,0.23348881,-0.070414595,0.1819807,-0.042985708,0.13688657,0.31048423,0.0022667772,0.46355772,-0.06852974,-0.1379194,-0.2630809,-0.09683905,0.2944367,186.47534,125.81522
4_3_0_tr_reg_005_0_0_0.obj,-0.2938524,-0.0064276615,0.013052987,-0.14987184,0.31695265,0.05242577,-0.21676922,-0.03596373,-0.056461807,-0.17252241,-0.08051787,-0.09425278,0.1963694,-0.03958147,-0.23747468,-0.3640309,-0.005384096,-0.08401689,0.19039775,0.032429736,-0.35797432,0.07309229,0.22899696,-0.017669056,0.20633213,-0.17403115,-0.04099294,-0.25476825,0.04435501,0.2515398,-0.1633834,-0.01082746,92.67551,14.772995
4_3_0_tr_reg_006_0_0_0.obj,-0.0055053886,-0.024072498,-0.113917805,-0.0012708484,-0.3457519,0.10620321,-0.011857872,-0.10969552,-0.12321474,-0.0509113,-0.08402266,-0.11125326,0.0014809186,-0.08730923,-0.13914281,-0.114292406,0.32891786,0.21306996,0.040666096,-0.083466806,-0.0028490752,0.42596215,0.20817769,-0.35457042,-0.10055006,0.3673123,0.17308198,0.09167043,0.06347147,-0.081681326,0.23371576,-0.068741396,143.42764,76.60163
4_3_0_tr_reg_007_0_0_0.obj,-0.13588902,0.3018394,0.17321344,-0.15222716,-0.0856692,-0.2090112,-0.045673996,-0.23687136,-0.1687339,-0.1394118,-0.01586206,-0.06103456,-0.08949737,0.24916108,-0.007018643,-0.12450179,0.23181428,-0.08884156,-0.023856524,-0.12979585,0.14463906,0.21709341,0.12942126,-0.5515351,0.119508624,0.02269759,-0.16473052,-0.0023739992,-0.046162307,-0.02117644,-0.13717808,-0.24317348,74.67023,86.14928
4_3_0_tr_reg_008_0_0_0.obj,0.13136661,0.16196334,-0.09932936,-0.20068404,0.08471313,-0.11407489,-0.24590307,-0.1559769,-0.01411379,-0.056472614,0.13773172,-0.14160238,0.23376438,0.21805717,0.069608085,-0.23709387,-0.13209066,-0.29957506,0.21077846,-0.049298473,-0.042260263,-0.029383214,-0.3774154,-0.35967028,-0.04404186,-0.12444088,-0.065280825,0.31845945,-0.10099534,0.17703651,-0.050183896,-0.007178665,10.17466,72.92033
4_3_0_tr_reg_009_0_0_0.obj,-0.10547401,0.08436368,0.23095271,0.009943199,0.2888949,0.060064685,-0.28305495,0.12955308,-0.0694232,0.034213495,0.2922519,0.38709676,-0.18229912,-0.096797556,-0.07257184,0.13032918,0.13704719,-0.22817513,-0.012852789,0.06192904,-0.04727709,-0.2977044,-0.27752146,-0.027883839,-0.012724533,-0.21309349,-0.011013186,0.15363365,-0.1840199,0.22857754,0.1778042,-0.08787505,66.9454,152.46585
4_3_1_0_tr_reg_000_0_0_0_0.obj,-0.07723559,-0.4665368,-0.027696718,0.22705112,-0.12937652,0.20510024,-0.13050129,-0.1263736,0.18346728,0.04719936,-0.1258251,0.11550167,0.11969942,-0.2241847,-0.15929674,-0.09743319,-0.24055864,0.33821684,-0.068473674,0.12225847,-0.064239,-0.025753012,-0.034040447,0.16319692,0.04727236,0.22325984,0.20156729,0.0436191,0.21918394,0.018147131,0.1561543,0.2754888,163.5889,125.0896
4_3_1_0_tr_reg_001_0_0_0_0.obj,-0.3352562,0.14880201,-0.24053833,-0.0022858644,0.0058729947,-0.11888875,0.31201026,0.24076821,0.13403715,-0.019891068,-0.18553989,-0.2855807,0.04415418,0.10742313,0.30413318,0.1662589,-0.17152524,-0.13337985,-0.16715418,-0.15994552,-0.12557262,0.12737139,0.20924647,0.13213886,-0.07090755,-0.14464673,-0.28729126,0.077088505,0.0069867955,-0.10247225,-0.1643045,-0.15553595,120.23491,100.60842
4_3_1_0_tr_reg_002_0_0_0_0.obj,-0.10558401,-0.19403757,-0.11348262,0.14741357,-0.08510087,0.09962414,-0.11836898,-0.017703766,0.0738571,-0.17609802,-0.15798399,0.0057058483,0.32299584,-0.09683942,0.022996455,0.08837582,-0.5027182,0.15593779,0.024025956,-0.0699266,-0.18398546,0.007917634,-0.18067046,0.050984856,0.32365036,0.1357073,-0.0077636265,0.30137658,0.005943752,0.28249466,0.19731835,0.13080281,156.91847,143.96768
4_3_1_0_tr_reg_003_0_0_0_0.obj,-0.065633975,0.044024143,-0.07326071,-0.35315266,0.018302495,-0.02938639,0.10612598,-0.024715513,0.44585326,0.15519641,0.021420315,0.15393612,-0.18616132,-0.12593259,0.01012523,-0.266958,0.12242544,0.11829697,-0.016273804,-0.12618421,0.31853092,-0.10123207,0.050270367,-0.05032082,-0.43916136,0.14799373,-0.16915551,-0.012959245,-0.17030787,0.19461794,0.08754608,0.040710818,91.598335,93.604126
4_3_1_0_tr_reg_004_0_0_0_0.obj,-0.004725906,-0.15614222,-0.016711468,0.07900356,-0.23007722,-0.012102217,0.16471182,0.11316438,0.0140237445,-0.12531097,0.021217417,0.12582292,-0.1950381,0.15916646,0.18963419,0.36012608,-0.37939867,0.08157798,-0.07231032,-0.22262858,0.073121324,-0.046333607,-0.31936985,0.17989342,-0.13620833,0.072013184,0.014639311,0.20539175,0.35599518,-0.24698111,0.037723914,0.11097098,168.32443,63.885563
4_3_1_0_tr_reg_005_0_0_0_0.obj,-0.12456557,-0.41936153,0.0031557193,0.054202076,-0.056086425,0.25824934,-0.2621217,-0.123623714,-0.01190123,-0.07826568,-0.09324521,0.25300196,0.027746445,-0.23950756,-0.26572466,-0.09169307,-0.07145108,0.26691544,-0.013394748,0.13744836,-0.118949175,0.09296682,-0.032019146,-0.0038152067,0.14666195,0.314622,0.27076453,-0.043946072,0.238343,0.007821792,0.14058536,0.2099841,162.63919,126.65592
4_3_1_0_tr_reg_006_0_0_0_0.obj,0.016745988,-0.028662601,-0.12584476,0.023709737,-0.3570806,0.11895753,0.00017827157,-0.10201572,-0.10329041,-0.029270198,-0.105005026,-0.11319535,0.032352865,-0.10922373,-0.1409255,-0.11862815,0.29982215,0.24657269,0.03139966,-0.077915594,0.007950458,0.40308657,0.20800939,-0.3335946,-0.08836883,0.39536822,0.17201114,0.10546553,0.031242358,-0.072407156,0.24133807,-0.063387565,143.63748,76.73192
4_3_1_0_tr_reg_007_0_0_0_0.obj,0.09260945,0.2880981,0.20923612,0.06926874,-0.26474404,-0.12850872,0.421337,-0.08106153,-0.08687821,0.008701989,-0.17267402,-0.004180531,-0.107096456,0.11096257,0.07379647,0.053493444,0.016624052,0.26027825,-0.18149973,-0.2109035,0.2714284,-0.037182163,0.1604591,-0.109005086,0.16276841,0.26358327,-0.08109008,0.055480227,-0.13908003,-0.23752303,-0.12927535,-0.251741,174.35916,163.57758
4_3_1_0_tr_reg_008_0_0_0_0.obj,0.09684278,0.13271113,-0.07247492,-0.27363026,0.0711144,-0.090855576,-0.2811024,-0.16703346,-0.002394976,-0.11537245,0.15397383,-0.13857064,0.23188394,0.17193998,0.021364534,-0.28938714,-0.15817028,-0.258556,0.24834816,-0.06811318,-0.13490184,0.01328035,-0.34492794,-0.3740583,-0.056264214,-0.06364617,0.02719851,0.26048404,-0.03219683,0.17829175,-0.05799358,0.03794836,10.498444,71.88131
4_3_1_0_tr_reg_009_0_0_0_0.obj,-0.16757044,0.10894966,0.1583963,-0.16131857,0.18275455,-0.08646911,-0.21527873,0.102892786,-0.049464352,-0.019569939,0.26574215,0.40651554,-0.231523,-0.03324999,-0.009006187,0.16872847,0.10987276,-0.24526866,-0.03200185,0.013392393,0.047950573,-0.2060864,-0.36917147,-0.2044416,-0.03649789,-0.22173312,-0.08616544,0.23239024,-0.10016063,0.16670722,0.12552032,-0.16544925,67.07561,150.8202
4_3_1_tr_reg_000_0_0_0.obj,0.10592523,-0.4001771,-0.02333649,0.22401957,-0.05497878,0.21844298,-0.09870477,-0.16682562,0.129946,0.1290204,-0.12207944,-0.044803847,0.15856978,-0.22728135,-0.22393155,-0.24473292,0.043051194,0.36487973,0.03933859,0.24441174,0.054300148,-0.00437004,0.17116298,0.20646462,0.057686128,0.16617091,0.2155803,-0.22129005,0.053857118,-0.011463216,0.06737758,0.21722837,163.34427,128.80399
4_3_1_tr_reg_001_0_0_0.obj,-0.37059885,0.13996953,-0.09846255,-0.13358185,0.072000824,-0.15538178,0.24931568,0.2035034,-0.020385046,-0.033715386,-0.20035812,-0.13023078,-0.1622273,0.14346486,0.13630323,0.07253875,0.067990355,-0.14661875,-0.12672244,-0.14780147,-0.09146177,0.22118407,0.280503,0.025018899,-0.16716243,-0.22125861,-0.3197526,-0.14162391,0.27843946,-0.09921258,-0.18956548,-0.17351343,109.20354,103.93391
4_3_1_tr_reg_002_0_0_0.obj,-0.019609211,-0.050480414,-0.092018835,0.19830814,-0.11933573,0.010029356,-0.03632503,0.0111998785,0.053242978,-0.07083222,-0.19399235,-0.06613025,0.3629688,-0.03293997,0.1334,0.15514505,-0.48472768,0.09262586,-0.007035664,-0.09550279,-0.16704924,-0.11946778,-0.14675467,0.041480996,0.32584095,0.055635937,-0.09100481,0.37672985,-0.14849992,0.29065144,0.15669756,0.015031038,154.19875,142.06203
4_3_1_tr_reg_003_0_0_0.obj,0.08672455,0.21811958,-0.19823658,-0.2949598,0.054707434,-0.17226501,0.046678346,-0.053883113,0.42012212,0.1147173,0.14018089,-0.04368927,0.018680986,0.01927082,0.15699509,-0.21839726,-0.07562569,-0.2280727,-0.004791897,-0.03388863,0.19173542,-0.099961355,-0.12407049,-0.13218094,-0.28804696,0.10773712,-0.12683214,0.2087572,-0.38961497,0.22442026,0.022974944,0.033194136,90.06533,94.39876
4_3_1_tr_reg_004_0_0_0.obj,0.0058653876,0.09937634,-0.16974448,0.10562002,-0.19593081,-0.013159287,0.29354376,0.10642826,0.08097929,-0.038111683,-0.19751364,-0.24597517,0.11856324,-0.045639772,0.33151087,0.35756928,-0.40947673,0.017516892,-0.2276531,-0.037397195,-0.041438457,0.18346833,-0.045824163,0.21977344,-0.011192786,0.1337271,0.09363515,0.016284028,0.053264495,-0.2866717,-0.11769413,0.14054231,174.11636,104.36853
4_3_1_tr_reg_005_0_0_0.obj,-0.09921598,0.060891688,0.11549466,0.2888332,0.16754082,0.04857819,0.08277607,0.102331325,0.024123615,0.042066015,-0.07495944,-0.15241008,0.28258228,-0.1746147,0.08949347,0.11935364,-0.26056826,0.0458034,-0.06769673,0.08077982,-0.33650684,-0.18000533,0.23624572,0.3654542,0.389292,-0.11260305,0.06943159,-0.059618376,-0.26337537,0.13843697,0.0024098153,0.029751541,139.46591,146.08803
4_3_1_tr_reg_007_0_0_0.obj,-0.16912058,0.17618993,0.16811122,-0.20479326,0.020226464,-0.14702487,-0.08645001,-0.1901085,-0.2062153,-0.15804903,0.076642886,0.17905937,-0.27470377,0.21698801,-0.16289113,-0.21303166,0.37188104,-0.024812596,0.012956835,-0.15444382,0.03887049,0.05620041,0.2293967,-0.4407878,0.05092298,0.096356355,-0.10651309,-0.07339545,0.055420544,0.050665494,0.011094957,-0.23605396,77.806015,81.284546
