filename,l1,l2,l3,l4,l5,l6,l7,l8,l9,l10,l11,l12,l13,l14,l15,l16,l17,l18,l19,l20,l21,l22,l23,l24,l25,l26,l27,l28,l29,l30,l31,l32,embed_x,embed_y
0_tr_reg_000_0.obj,0.09665586,0.12843125,0.26452047,-0.021366252,-0.04669033,0.04358767,0.05955512,0.06741732,-0.32529274,-0.104543485,0.21511361,0.21603091,-0.07598994,-0.13147661,0.032648984,0.30047125,-0.012961351,-0.10562208,0.08175188,-0.31170723,-0.11708715,-0.031072564,-0.35447213,0.1435669,0.0026584931,0.024254655,0.16601051,0.33304077,0.022548156,-0.045124117,0.386968,0.00091353105,0.0,0.0
0_tr_reg_001_0.obj,0.05931445,-0.078936055,0.23776713,0.25561345,-0.07324685,-0.13170707,-0.10836887,-0.35077196,-0.27573824,0.037418626,-0.22584803,-0.0071258037,0.1758785,-0.12037841,-0.12223242,0.0766656,0.18407217,-0.14265294,-0.15909146,0.13559462,-0.112757385,0.24609822,0.31919724,-0.23175782,0.30108824,0.056908388,-0.10030717,-0.071424104,-0.117074125,0.11705812,0.22699852,0.036769237,0.0,0.0
0_tr_reg_002_0.obj,-0.067512795,0.29353854,0.21710275,0.13247974,-0.038828947,0.110179126,0.23634417,0.30432075,-0.26127857,-0.13084668,-0.15576048,0.19074647,-0.32979494,0.044296723,-0.10271828,-0.021988858,-0.0030214486,0.07487766,-0.031375133,-0.13217677,0.23814559,0.12317093,-0.06242219,0.1563406,0.08924637,-0.042734116,-0.007065754,-0.21530727,0.2370769,-0.208703,-0.34317297,0.1290695,0.0,0.0
0_tr_reg_003_0.obj,-0.27703065,0.10108489,0.052985422,0.00025204298,0.059608143,-0.014716158,0.025717443,-0.04511818,0.269188,0.12849158,-0.16236098,-0.14538132,0.235473,0.013889265,-0.00336643,-0.29910302,-0.23459768,0.25267628,-0.12957534,-0.15759827,-0.224832,-0.2335607,0.28035894,-0.10167839,-0.2430317,0.065025635,-0.26043895,0.16791728,0.049636416,0.29462385,0.03461405,-0.13359503,0.0,0.0
0_tr_reg_004_0.obj,0.35793665,-0.17918476,0.028721105,0.12490826,0.07649056,0.09922961,-0.3179208,-0.120883904,-0.108682685,0.14282933,0.041384984,-0.053319305,0.18547745,0.32485935,0.17063478,0.20841311,-0.40678644,-0.1513709,-0.0830618,0.062481966,-0.047550175,-0.21137278,-0.096816845,0.21476813,0.11831652,0.20434366,0.13717534,-0.099667326,0.12596937,-0.020648573,-0.12779191,0.15474708,0.0,0.0
0_tr_reg_005_0.obj,-0.05752141,0.13240473,-0.15016621,-0.4223428,0.28899008,-0.20471418,-0.07803912,0.032021496,-0.05260897,-0.09668526,0.15686806,0.08049604,-0.086227246,0.16292962,0.0057287267,-0.0010434983,0.07857173,-0.067889206,0.09807711,0.11803648,-0.0880554,-0.19503628,0.21290533,-0.06668119,0.34790346,-0.0070682354,0.040246315,-0.46081337,-0.14720464,0.021690018,-0.266016,-0.10304594,0.0,0.0
0_tr_reg_006_0.obj,-0.17982055,0.3823385,-0.06641441,0.06409162,0.35698023,0.34276173,0.084241085,0.19295757,0.18550327,0.02066505,-0.06799597,-0.2445622,0.044237927,-0.08997595,0.18156992,-0.07173271,0.0836125,0.05629146,0.0103930505,0.27610397,-0.24004176,0.0812327,-0.14617632,-0.0027591116,-0.14432943,0.263819,0.05343877,0.059601996,-0.26822865,-0.124265276,-0.008242181,0.14101025,0.0,0.0
0_tr_reg_007_0.obj,-0.062050145,-0.516184,0.022092927,0.27050135,0.037544284,0.2033517,-0.16597486,0.11565769,-0.017435933,-0.20278029,0.039998483,-0.060602378,-0.25287664,0.25980896,-0.41840953,-0.2524807,0.06578288,0.009784798,0.07835989,-0.040521957,0.037103534,-0.005531379,-0.01868196,-0.0057231816,0.2891114,0.033347327,0.05982387,0.11133872,0.09644718,0.12055734,-0.08355041,-0.09959103,0.0,0.0
0_tr_reg_008_0.obj,0.0677867,-0.1068871,-0.2654187,0.13971844,-0.041946515,-0.13601182,0.33378747,-0.040079013,0.13587402,-0.024913523,0.2291859,-0.42837748,-0.060286492,0.26908872,0.014402468,-0.20705046,0.17874002,-0.13009273,0.058162015,-0.006275019,0.054902673,-0.04319221,0.06762624,0.028025933,-0.17249191,-0.23818626,0.043103095,0.307832,-0.23898757,-0.21855439,-0.060198788,-0.1798718,0.0,0.0
0_tr_reg_009_0.obj,-0.026959803,-0.021768004,0.10028713,0.018448854,-0.086930774,-0.09081258,-0.13084851,0.043624412,0.37019756,0.14635365,0.030816523,0.11348157,-0.23030145,-0.10921352,0.114014,0.1780135,0.16522095,0.05893306,-0.12060455,0.3600682,0.3288848,-0.08044141,-0.23572624,-0.25232038,-0.0070279804,0.24396436,-0.0018787717,0.208577,-0.33629543,-0.016983062,0.0628998,-0.20585431,0.0,0.0
2_0_tr_reg_000_0_0.obj,0.012483496,0.24103561,0.23157434,-0.09187521,0.027243882,0.09681489,0.07667675,0.23502192,-0.20503753,-0.14482477,0.22926725,0.2632767,-0.15634184,-0.15026784,0.06947232,0.26011714,-0.09811521,-0.04165996,0.12921573,-0.29703978,-0.0771296,-0.09509007,-0.42934704,0.19734995,-0.004484783,0.028728722,0.188781,0.2349614,-0.020406619,-0.017481016,0.23646092,0.033914104,0.0,0.0
2_0_tr_reg_001_0_0.obj,0.1296488,-0.04158122,-0.06409495,0.14892863,-0.15977535,-0.1777358,-0.07400302,-0.3048236,-0.16287291,-0.003493989,-0.2173746,-0.109385625,0.17248523,-0.17788546,0.038851228,0.08855618,0.2966905,-0.2278732,-0.06977262,0.23542099,-0.006957368,0.47206667,0.2077457,-0.27927884,-0.09800727,-0.07491182,-0.11863976,-0.13981849,-0.03640754,-0.050763045,0.17125827,0.12958728,0.0,0.0
2_0_tr_reg_002_0_0.obj,-0.17116039,0.2779025,0.13415939,-0.004218724,-0.037698187,-0.010354887,0.21750973,0.27891883,-0.060609348,-0.1347785,-0.09703104,0.2621378,-0.31456432,-0.004864677,0.0054366775,0.054171897,-0.15877356,0.09046764,-0.099280395,-0.055777363,0.25442868,0.086457685,-0.06598908,0.13196991,0.03926914,-0.0633525,-0.004224734,-0.3242285,0.2230794,-0.1963919,-0.4248598,0.16442756,0.0,0.0
2_0_tr_reg_003_0_0.obj,-0.10608118,0.12933783,0.055078644,-0.12460941,0.014467395,0.064004384,0.027641758,-0.004535462,0.11924721,0.25357935,-0.21394375,-0.0019169939,0.21480015,-0.11250568,-0.103244856,-0.24811776,-0.08156657,0.3887844,0.017496709,-0.2038339,-0.16906404,-0.30821943,0.3910639,-0.0052503785,-0.013612742,0.081909046,-0.18845259,0.013006351,-0.028472168,0.34932145,0.1312476,-0.18495709,0.0,0.0
2_0_tr_reg_004_0_0.obj,0.32201588,-0.2413159,-0.15979433,-0.008377088,0.0014826967,0.042292207,-0.26357856,0.011291794,0.069051504,0.10525654,0.09966824,0.035174232,0.19799587,0.07985585,0.13335374,0.2466986,-0.49384475,-0.25075924,-0.04372327,0.04132271,-0.0803831,-0.11623009,-0.16791065,0.28347588,-0.077836946,0.0713503,0.09058954,-0.1010377,0.10945906,0.09450595,-0.035447955,0.31495374,0.0,0.0
2_0_tr_reg_005_0_0.obj,-0.06953486,0.11906041,-0.2021399,-0.43065143,0.32149145,-0.15689397,-0.13219273,0.080723934,-0.10318422,-0.10797508,0.18030223,0.1301441,-0.10792193,0.13598979,-0.07563541,-0.009589877,0.14743307,-0.13981695,0.08951541,0.10692149,-0.21902059,-0.17525333,0.23038721,-0.08534834,0.26960742,0.0486392,0.06312958,-0.39660048,-0.09155566,0.08325971,-0.16057242,-0.13339217,0.0,0.0
2_0_tr_reg_006_0_0.obj,-0.17068109,0.2998959,-0.14317769,-0.0052259974,0.25705728,0.40578908,0.035851594,0.17517914,0.07531563,0.026417566,-0.15727094,-0.20385665,0.035473134,-0.12523995,0.11333952,-0.038455963,0.17195764,0.12477122,0.039461363,0.2947812,-0.25973827,0.21225108,-0.050292313,-0.04840408,-0.041464023,0.36657187,0.1547453,-0.009825789,-0.1611299,-0.17563352,0.020471714,0.15941702,0.0,0.0
2_0_tr_reg_007_0_0.obj,0.032043535,-0.3387193,0.079278775,0.21223797,0.027186016,0.2845957,-0.24108584,0.14589949,0.041636378,0.0030670855,-0.093932904,-0.039668564,-0.08731075,0.05120963,-0.26745114,-0.22996339,0.10286713,0.14330822,0.35527527,-0.015820835,0.30198,0.00784534,-0.16816664,0.05598151,0.37491915,-0.17546462,-0.08968796,0.013480438,-0.16965488,0.17205061,-0.05707598,-0.05910862,0.0,0.0
2_0_tr_reg_008_0_0.obj,0.2837789,0.061292235,-0.33601403,-0.19169743,0.0384456,0.060400102,0.2734363,0.0018956782,0.10232567,0.12256628,0.17242718,-0.21550079,0.07039153,0.14262941,0.094096266,-0.20912886,0.18905017,0.16095403,0.26790532,-0.1474743,0.05653217,-0.27778968,0.0854951,0.2522441,-0.3447615,-0.12809713,0.015071808,0.008287592,-0.050909195,-0.093858324,-0.001895355,-0.23059213,0.0,0.0
2_0_tr_reg_009_0_0.obj,-0.11977687,0.022165664,0.050248355,0.0651586,-0.0892603,0.08622138,-0.16675971,0.29938796,0.3088856,0.090245195,-0.06309677,0.17838146,-0.3456696,-0.1894875,-0.0065818992,0.069102496,0.22763707,0.038292956,-0.022086406,0.32122543,0.34817907,0.06314283,-0.2248668,-0.1995143,0.0040048514,0.17074944,0.020594442,0.099482946,-0.33351862,0.036068916,-0.047074318,-0.13853402,0.0,0.0
2_1_0_tr_reg_000_0_0_0.obj,-0.09311357,0.12186897,0.2998946,0.032428235,0.07689889,-0.006121749,-0.056002572,0.014631992,-0.40743658,-0.122877255,0.19417359,0.1682234,-0.034265634,-0.06272729,-0.05971185,0.1421185,0.11336536,-0.25073114,-0.02467076,-0.28610355,-0.28560954,0.029731544,-0.1694794,-0.033000816,-0.032793354,-0.10275453,0.03942722,0.3783548,0.12797894,0.062398963,0.3680968,-0.13285804,0.0,0.0
2_1_0_tr_reg_001_0_0_0.obj,0.22637022,-0.107811384,-0.048708387,0.14724264,-0.10562805,-0.101286,-0.11109962,-0.25236446,-0.2959482,-0.03395944,-0.23170598,-0.039522577,0.05495368,-0.084900424,-0.17002542,0.007708849,0.3592969,-0.19700253,-0.059560888,0.1776293,-0.121638395,0.3644274,0.32034385,-0.21986066,-0.030484399,0.15213634,-0.044302896,-0.21560481,0.031771068,0.0073670438,0.2184932,0.09775968,0.0,0.0
2_1_0_tr_reg_002_0_0_0.obj,-0.13675407,-0.014971793,0.01266417,-0.152513,-0.21954925,-0.12725623,0.15632716,0.0381107,0.1703832,-0.065248705,-0.06343501,0.37400675,-0.05832046,-0.3188615,0.0002879334,0.21016559,-0.34788746,0.17248914,-0.06992761,-0.07736545,0.20852606,0.10701207,-0.01531244,0.1931394,0.056300905,-0.043891482,0.053000767,-0.3847707,0.14810294,0.008008673,-0.13947216,0.29899862,0.0,0.0
2_1_0_tr_reg_003_0_0_0.obj,-0.24502274,0.0029861403,-0.06379442,-0.21454069,-0.001755741,-0.049414854,-0.029238313,-0.089333504,0.24829544,0.11847362,-0.110043295,0.020593606,0.24099204,-0.16675498,-0.06362426,-0.16671607,-0.19313313,0.2581802,-0.07809993,-0.11962942,-0.334313,-0.20659411,0.37392268,-0.072566666,-0.12431814,0.11289681,-0.114003226,0.04027161,0.06896884,0.39597276,0.18816532,-0.09463191,0.0,0.0
2_1_0_tr_reg_004_0_0_0.obj,0.3151141,-0.20544101,0.14295098,0.20590934,0.09399129,0.101821266,-0.29062477,-0.20042787,-0.14719194,0.17605592,0.004169119,-0.05126181,0.20121756,0.31873205,0.14822726,0.19305073,-0.34825808,-0.109055586,-0.10088223,0.08957579,-0.02234914,-0.22815904,-0.028731639,0.17228562,0.3048811,0.17568842,0.12506583,-0.048274178,0.03818363,0.019202773,-0.1033098,0.080439195,0.0,0.0
2_1_0_tr_reg_005_0_0_0.obj,-0.10841943,0.08992252,-0.21685793,-0.4327659,0.32651335,-0.12325497,-0.18764727,0.13014628,-0.064644784,-0.1089731,0.20474942,0.16432986,-0.12447704,0.09873842,-0.08114769,0.0054481034,0.14953995,-0.17562684,0.100583225,0.11574033,-0.2323371,-0.17494944,0.17255974,-0.09146326,0.25011623,0.02266925,0.07227212,-0.34411594,-0.1081091,0.12739669,-0.13743328,-0.14861867,0.0,0.0
2_1_0_tr_reg_006_0_0_0.obj,-0.13987686,0.29592946,-0.27073494,-0.14289472,0.27157697,0.3705575,0.0124517875,0.11339331,0.05732839,0.0922302,-0.20752606,-0.18669802,0.10809974,-0.07937845,0.17017557,0.006075289,0.19665772,0.13621075,0.07576849,0.31586704,-0.23811969,0.21199417,0.015727093,-0.094157815,-0.051534735,0.34210783,0.08264829,-0.037962392,-0.070951596,-0.16063726,0.027256638,0.07294943,0.0,0.0
2_1_0_tr_reg_007_0_0_0.obj,-0.033355106,-0.39630574,0.1729823,0.3663659,0.07090987,0.20873387,-0.2037318,0.080726005,-0.059270963,-0.061995305,-0.020644825,-0.104796916,-0.1487782,0.24533914,-0.31125745,-0.23873004,0.09764327,0.011905362,0.13442683,-0.034339827,0.13653852,-0.055644702,-0.05755458,-0.024834184,0.39847994,-0.08943548,-0.048331216,0.19655508,-0.10174316,0.14162762,-0.057935882,-0.17315014,0.0,0.0
2_1_0_tr_reg_008_0_0_0.obj,0.036766477,-0.2325696,-0.13091281,0.11440506,0.09441421,-0.029059783,0.15218762,0.0685571,0.2766751,-0.07069273,0.21834543,0.041277926,-0.11946564,-0.21163937,-0.12448088,-0.1409775,-0.014325076,-0.28451705,0.010740869,0.28240317,-0.05052267,-0.091758326,0.013353928,0.14868647,0.14971653,-0.14487557,0.21096736,0.056832418,-0.50677705,0.18884759,-0.011592281,0.27076307,0.0,0.0
2_1_0_tr_reg_009_0_0_0.obj,0.19907059,-0.18587396,0.27032718,0.16705978,-0.15747525,0.012748368,-0.17788525,-0.17268078,0.00017041832,0.16804345,0.0071348054,0.07189224,-0.049459342,-0.09300522,-0.025064467,0.22192383,0.15675832,0.016049355,-0.19041118,0.18624546,0.015807252,-0.07562895,-0.1031572,-0.15193857,0.02677048,0.461058,0.13894674,0.30217534,-0.16940838,0.024880474,0.38032782,-0.10312598,0.0,0.0
2_1_tr_reg_000_0_0.obj,0.025080374,0.12419744,0.17593214,-0.17892036,0.09824751,0.03041331,-0.17086814,0.096722,-0.29739502,-0.04951622,0.24601462,0.31662926,-0.023526357,-0.14313354,-0.010308473,0.21483125,-5.0088194e-05,-0.200047,0.114766605,-0.25690264,-0.30237097,-0.13697554,-0.2114954,0.0627908,0.0045309616,0.0030930387,0.14364846,0.2402797,-0.012324191,0.19071543,0.3930628,-0.0735239,0.0,0.0
2_1_tr_reg_001_0_0.obj,0.1933931,-0.053049758,0.036838185,0.2322131,-0.13367401,-0.13627636,-0.08107278,-0.31006864,-0.2629148,0.031341456,-0.25048614,-0.11620711,0.15128723,-0.11695155,-0.05947878,0.03548504,0.3378095,-0.20347331,-0.05683695,0.19315031,-0.017331308,0.39695165,0.27031523,-0.2546955,0.039409015,-0.012971385,-0.11881144,-0.119904935,-0.09473329,-0.01397033,0.20057312,0.07844912,0.0,0.0
2_1_tr_reg_002_0_0.obj,-0.3206476,0.13948114,0.1085168,-0.0337791,-0.20678958,-0.074110076,0.21638812,0.13526337,0.111863054,-0.18529308,-0.061660137,0.21259409,-0.26900235,-0.1469784,0.06574209,0.09574964,-0.1148112,0.1327238,-0.18464625,0.019604977,0.28829756,0.24742551,-0.17606646,0.0064387294,-0.11628583,-0.044508018,0.02103458,-0.14143594,0.26840106,-0.29487315,-0.289489,0.16954145,0.0,0.0
2_1_tr_reg_003_0_0.obj,-0.030856809,-0.044579964,0.06224872,-0.033232413,-0.10619032,0.013742497,0.08624044,-0.039979912,0.0625212,0.16129126,-0.1363686,0.030878011,0.13945639,-0.11618353,-0.25629708,-0.232578,-0.11943839,0.33581647,-0.0770994,-0.28148884,-0.26092744,-0.30104703,0.43931282,0.072299235,-0.03601839,0.16035376,-0.05748004,0.03722234,0.077821925,0.32675737,0.2114173,-0.104886435,0.0,0.0
2_1_tr_reg_004_0_0.obj,0.34171823,-0.19145106,-0.17219631,0.036635175,0.0048118606,0.05398258,-0.26182914,-0.015350794,0.028136777,0.13011627,0.09256547,-0.05146508,0.24324308,0.13381276,0.20548417,0.25197843,-0.4560303,-0.3029584,-0.06056478,0.06429065,-0.060008023,-0.05616391,-0.18566683,0.24133988,-0.11673199,0.015058726,0.0636456,-0.04029011,0.11756128,0.038348213,-0.06004279,0.29441518,0.0,0.0
2_1_tr_reg_005_0_0.obj,-0.27855632,0.041519072,-0.12126237,-0.24873345,0.28505093,-0.15976045,-0.24712738,-0.028187113,-0.13945019,-0.103512645,0.20770599,0.13229777,0.0028690458,0.019670056,0.023518065,0.090273984,0.2515531,-0.41109276,-0.03646662,0.10999215,-0.2679107,0.07166744,0.02433292,-0.28586197,-0.014443453,-0.22445011,-0.07248767,0.10270806,0.06121569,0.1366233,0.09636886,-0.2693446,0.0,0.0
2_1_tr_reg_006_0_0.obj,0.0070509557,0.21104863,-0.29193822,-0.20512196,0.12501979,0.44763717,0.019099861,0.20664982,-0.058750045,0.14620918,-0.29014403,-0.039332572,0.03772274,-0.13225998,0.01621186,-0.016773252,0.23725156,0.27038273,0.18809158,0.17054076,-0.10825295,0.20844124,0.07394382,0.0023755291,-0.0054170266,0.37148982,0.098302476,-0.13134424,0.041489232,-0.09654349,0.060372572,0.06982605,0.0,0.0
2_1_tr_reg_007_0_0.obj,-0.10890335,-0.4826653,-0.1984606,-0.06490354,-0.005063646,0.030008957,-0.3286392,-0.074859515,0.13940428,-0.2758613,0.035763342,-0.05592453,-0.18519607,0.21833822,-0.25032467,-0.19684681,0.056138463,-0.047064614,-0.038580127,0.116865225,-0.13254747,0.09614913,-0.027859801,-0.23936921,-0.15864836,0.25349152,0.102658674,-0.022201242,0.32396087,0.028829632,-0.04333815,-0.014240057,0.0,0.0
2_1_tr_reg_008_0_0.obj,0.2601573,0.06955218,-0.35308272,-0.10579249,0.015839128,0.039569415,0.35436797,0.018862087,0.09447768,0.1572432,0.12623134,-0.28247607,0.036908384,0.20322213,0.13897683,-0.17994823,0.15478486,0.1386726,0.1979042,-0.072705045,0.09347346,-0.23862475,0.13837701,0.25476333,-0.2641382,-0.13377108,0.061232712,0.01784433,-0.102138534,-0.19659962,-0.11036342,-0.22308914,0.0,0.0
2_1_tr_reg_009_0_0.obj,0.15272056,-0.17969404,0.1374738,-0.24467023,-0.12761717,-0.1602434,-0.11596102,-0.27617356,0.19078302,0.02474334,0.13715374,0.14336148,-0.089174494,-0.0476831,0.088705935,0.2195903,0.1370316,0.25692156,-0.15221758,0.20330776,0.10221674,-0.17383613,-0.04024317,-0.19897082,-0.098277956,0.51892066,0.10562142,-0.030750986,0.062450163,-0.023089275,0.22729452,-0.113802865,0.0,0.0
2_tr_reg_000_0.obj,-0.099329256,0.1125251,0.2866645,0.08851111,0.20116588,-0.05702516,-0.15887222,-0.036934767,-0.4227899,-0.058661744,0.13699223,0.06612707,-0.037206426,0.21112987,-0.080717355,-0.016299732,0.18955301,-0.28016564,-0.069143966,-0.21127811,-0.25358522,-0.09263626,-0.002422504,-0.16887046,0.008962816,-0.14939329,-0.097789854,0.3163546,0.16666918,0.089482695,0.16421625,-0.31466922,0.0,0.0
2_tr_reg_001_0.obj,-0.16899249,0.02795641,0.23758233,0.17162831,-0.06994988,-0.20496866,-0.04843558,-0.36596435,-0.068520315,0.06134759,-0.15103307,-0.043042056,0.29181504,-0.2193444,0.13531448,0.1764928,0.030682225,-0.13483159,-0.1924415,0.18500286,-0.053949688,0.2778,0.18230283,-0.27893075,0.29323074,-0.17714587,-0.14067224,0.04877076,-0.19258627,0.078898706,0.1401705,0.041619718,0.0,0.0
2_tr_reg_002_0.obj,-0.33641356,0.21776393,0.21902788,0.09649502,-0.07756501,-0.00041623577,0.10514304,0.07354333,-0.09505048,-0.26760146,-0.037065987,0.020610547,-0.19054309,-0.030097667,0.11597752,0.02067449,0.077038966,-0.07685078,-0.13823673,0.013524401,0.21916872,0.37501076,-0.3229144,-0.16754119,-0.10959436,-0.17342944,-0.053157113,0.1362704,0.24206029,-0.3194809,-0.21443665,0.061903324,0.0,0.0
2_tr_reg_003_0.obj,-0.3330401,0.20475467,-0.00750673,0.03627926,0.21280764,0.01809818,-0.020942401,0.06943499,0.41207415,0.09614653,-0.0929198,-0.17728649,0.12564708,0.06450169,0.19330455,-0.16510229,-0.18686238,0.07896691,-0.16512764,0.08363876,-0.028008984,-0.13058867,-0.07992182,-0.15771239,-0.41273722,0.05038271,-0.3210335,0.209329,-0.057131205,0.1103007,-0.10244118,-0.14496711,0.0,0.0
2_tr_reg_004_0.obj,0.3296473,-0.038682,-0.017459817,0.021067375,0.098905966,0.15161234,-0.30909508,-0.022107359,-0.22551319,0.19346151,0.10126023,-0.0058245356,0.25882536,0.151872,0.29957166,0.33711383,-0.26060534,-0.3489759,0.034305844,0.033661693,-0.12910287,-0.071555786,-0.24417435,0.13996375,0.09580838,-0.020218452,0.09613198,0.1991093,-0.014057686,0.04392615,0.083586775,0.08762932,0.0,0.0
2_tr_reg_005_0.obj,-0.31948125,0.02216982,-0.11224366,-0.3583749,0.22246349,-0.09670593,-0.23276265,0.03247147,-0.021854188,-0.102418125,0.25088245,0.2623208,-0.0038339929,-0.16936232,0.06895642,0.18642619,0.12800619,-0.35016736,-0.009539653,0.09449798,-0.2740821,0.05698503,-0.13308224,-0.19014776,-0.056378625,-0.17830142,0.015079801,0.15367636,0.033743013,0.17488028,0.19345549,-0.15226747,0.0,0.0
2_tr_reg_006_0.obj,0.0022531815,0.24771984,-0.08564545,0.015927501,0.41669777,0.20299059,0.12895212,0.19797926,0.28176638,0.08280119,0.16241816,-0.15169832,-0.049786843,-0.05516597,0.15938054,-0.024454098,0.09335215,-0.08842898,0.042206008,0.28188604,-0.15037894,-0.13064669,-0.23859662,0.090112545,-0.26910043,0.17039034,0.024873078,0.15222378,-0.3930676,-0.033505358,0.09137569,0.03863297,0.0,0.0
2_tr_reg_007_0.obj,-0.049106393,-0.43482026,0.04638604,0.16571893,0.06790577,0.25367415,-0.27162337,0.10734886,0.08383111,-0.06673813,-0.012904379,-0.04607772,-0.117812686,0.16532502,-0.23771994,-0.19851294,0.04938464,0.11514302,0.30292833,0.013842427,0.27682596,-0.025318826,-0.19590862,0.017864102,0.40052465,-0.14975092,-0.05886484,0.06783522,-0.08067998,0.15595953,-0.10907152,-0.12833865,0.0,0.0
2_tr_reg_008_0.obj,-0.089434214,-0.33191684,-0.27851734,-0.06859038,-0.09570434,-0.28745463,0.24686764,-0.13479704,0.33570173,-0.09778638,0.22534387,-0.012753151,-0.036217473,-0.15218456,-0.026081264,-0.051489178,-0.10225991,-0.18355119,-0.13410757,0.241311,-0.14984494,-0.07722125,0.14045475,-0.015193595,0.16459638,-0.123899385,0.2522425,0.18731573,-0.30240428,0.055178218,0.028302435,0.14986564,0.0,0.0
2_tr_reg_009_0.obj,0.05912331,-0.15797874,0.0889507,-0.2919169,-0.11884117,-0.20132111,-0.14671597,-0.20195982,0.29165733,0.028014576,0.14924599,0.18460935,-0.14497967,-0.082293354,0.12114338,0.23765492,0.15486655,0.21646863,-0.114696614,0.25660667,0.19207306,-0.15044221,-0.10277815,-0.24582824,-0.074079245,0.40686688,0.060619663,0.0010636348,-0.007345507,0.0030118404,0.1795044,-0.18151708,0.0,0.0
3_0_tr_reg_000_0_0.obj,-0.016869653,0.1207178,0.35175154,0.1270789,-0.035991695,-0.010224369,0.0053281616,-0.071236484,-0.4099956,-0.10483791,0.14778705,0.06170123,0.024519596,-0.04846979,0.015232477,0.18511234,0.09366647,-0.1980382,-0.03982921,-0.29743207,-0.15273298,0.11044381,-0.24891439,-0.030315254,-0.057041932,-0.11887586,0.017886445,0.4250609,0.14343078,-0.07048128,0.3573978,-0.092057034,0.0,0.0
3_0_tr_reg_001_0_0.obj,0.014075173,0.0071427594,0.18098842,0.21066141,-0.08111375,-0.17760496,-0.07417195,-0.3747581,-0.23276658,0.040823407,-0.23157386,-0.08356079,0.2172716,-0.13077216,0.000855633,0.08339419,0.22505501,-0.15665092,-0.15679239,0.18935758,-0.08216207,0.3262739,0.3020325,-0.3058452,0.21176599,-0.02602145,-0.13336048,-0.05808921,-0.12321785,0.037701715,0.1810336,0.034211546,0.0,0.0
3_0_tr_reg_002_0_0.obj,-0.07634574,0.23434405,0.11194111,-0.00405089,-0.098698996,0.014453344,0.26692545,0.2735799,-0.045895573,-0.06949174,-0.10399079,0.2903795,-0.31355813,-0.03938959,-0.013914575,0.08750813,-0.1741232,0.16580853,-0.083990544,-0.069497734,0.27099138,0.025659787,-0.02688166,0.21815784,0.05732942,0.008853846,0.0556111,-0.3401775,0.19469301,-0.19205725,-0.37515196,0.17622556,0.0,0.0
3_0_tr_reg_003_0_0.obj,-0.18735594,0.18961766,-0.0014103838,-0.177474,0.07691101,0.046889547,-0.026271822,-0.04255396,0.2386968,0.25259218,-0.24295619,-0.06115696,0.26927733,-0.064904965,0.05772846,-0.20788275,-0.1201177,0.361393,-0.0209504,-0.0842575,-0.12905964,-0.24933775,0.29884437,-0.11286576,-0.15233326,0.11599035,-0.27579746,0.023351347,-0.012719709,0.29973632,0.06032202,-0.1991395,0.0,0.0
3_0_tr_reg_004_0_0.obj,0.29265526,-0.21287662,0.16086185,0.23111317,0.06526375,0.070513204,-0.2434702,-0.24144754,-0.10777846,0.18278025,-0.023954792,-0.07518054,0.20546237,0.31182995,0.14909765,0.17155898,-0.35408962,-0.05070032,-0.11771843,0.10260241,0.042168602,-0.21430248,0.014439865,0.16329998,0.3398121,0.13976453,0.10084711,-0.10959303,0.011081572,-0.02131529,-0.15427053,0.10998499,0.0,0.0
3_0_tr_reg_005_0_0.obj,-0.042020362,0.19030486,-0.07910237,-0.36229157,0.31629083,-0.19295979,-0.06075329,0.012600746,-0.11423693,-0.069238424,0.10926632,0.0394799,-0.05057162,0.23319079,-0.0021827957,-0.064017706,0.060727812,-0.028677532,0.08056237,0.044091802,-0.10770302,-0.24512634,0.27244583,-0.06349518,0.34275046,-0.011823695,-0.019907452,-0.44429424,-0.10221188,0.038053926,-0.28229153,-0.14531864,0.0,0.0
3_0_tr_reg_006_0_0.obj,-0.12630628,0.370118,-0.07640164,0.060993467,0.41109133,0.28092736,0.08441048,0.14206491,0.2096093,0.055703994,-0.019079577,-0.25269848,0.055559218,-0.041678894,0.23848507,-0.056380205,0.10559193,-0.014436107,0.018172767,0.31405318,-0.19746248,0.026295064,-0.18792914,-0.022417111,-0.191942,0.1811325,-0.00097757,0.10132854,-0.3107825,-0.13037385,-0.0035327435,0.08249545,0.0,0.0
3_0_tr_reg_007_0_0.obj,-0.10045985,-0.5199901,-0.0029042147,0.18352476,0.07587829,0.19793817,-0.24625543,0.0899287,0.036452062,-0.17313701,0.046157718,-0.050810404,-0.21183781,0.26009974,-0.3485899,-0.24160516,0.0859855,0.028877113,0.1611047,0.006545494,0.117674224,-0.01822167,-0.07552165,-0.04576991,0.33572653,-0.044712618,0.00957282,0.10116744,0.051708702,0.14690468,-0.10570135,-0.16450432,0.0,0.0
3_0_tr_reg_008_0_0.obj,0.059306353,-0.17089128,-0.23588274,0.14909483,-0.07021626,-0.18391824,0.341107,-0.06127649,0.13617995,-0.05251351,0.25364518,-0.39965108,-0.09750018,0.2903807,-0.0075753997,-0.18414164,0.13512501,-0.11815808,0.033553246,-0.011277884,0.062437057,-0.074518375,0.07353898,0.022438735,-0.07494862,-0.23233286,0.08593288,0.3206334,-0.23597695,-0.21147358,-0.06879967,-0.18338509,0.0,0.0
3_0_tr_reg_009_0_0.obj,0.0028431327,-0.1228812,0.045210388,-0.12180145,-0.105782494,-0.12248313,-0.18596247,-0.04281116,0.35956872,0.14028043,0.06501354,0.15503687,-0.1985722,-0.11231583,0.09357888,0.21499486,0.17636931,0.10508512,-0.09018052,0.3584042,0.26660806,-0.09837972,-0.18738957,-0.2671023,0.005554148,0.31635833,0.051864017,0.15908147,-0.23452647,0.0019372375,0.13558154,-0.23172727,0.0,0.0
3_1_0_tr_reg_000_0_0_0.obj,0.3250616,0.09762218,0.14506614,-0.07773499,-0.013686181,-0.044733945,0.23268595,-0.06983937,-0.23885198,0.08569352,0.036208425,0.048103385,-0.1542372,0.28642255,0.040542945,0.015596485,-0.007141489,0.32309353,0.051262125,-0.15188228,0.17210762,-0.33243027,0.11374074,0.23103742,0.13458712,0.23575026,0.16397303,-0.24215047,0.07270538,-0.2775756,-0.13497892,-0.15628332,0.0,0.0
3_1_0_tr_reg_001_0_0_0.obj,-0.040193997,-0.00737753,0.012691759,0.13356872,-0.18790351,-0.25054833,-0.018835876,-0.33425802,-0.0050835656,-0.0048275585,-0.16545458,-0.09570436,0.23039672,-0.24740312,0.16962127,0.16473925,0.12008543,-0.18527824,-0.1320757,0.23987672,0.0720543,0.46643487,0.11643368,-0.28374478,-0.03650165,-0.22231732,-0.1471916,-0.08341799,-0.07149324,-0.058977116,0.092736624,0.16202578,0.0,0.0
3_1_0_tr_reg_002_0_0_0.obj,-0.11577345,0.15035097,0.087255225,-0.100318015,-0.14861348,-0.11450704,0.26594284,0.15326115,0.0976217,-0.052102834,-0.053190667,0.32378,-0.2316598,-0.12718984,0.03915913,0.17058901,-0.2845885,0.2021465,-0.1402816,-0.040369973,0.25443634,-0.022814259,0.022117076,0.20262013,0.101057075,0.015086002,0.08213903,-0.3843208,0.13322245,-0.14048555,-0.32964864,0.18843982,0.0,0.0
3_1_0_tr_reg_003_0_0_0.obj,-0.2564467,0.111428775,-0.09190404,-0.2240937,0.09538767,-0.0095187845,-0.060864367,-0.07041014,0.2697052,0.15596177,-0.12976278,-0.06744827,0.2845155,-0.11787649,0.053575426,-0.16001052,-0.13468324,0.20744896,-0.049151365,-0.043307044,-0.32997197,-0.18461882,0.29136106,-0.14488116,-0.20025547,0.12635884,-0.18289144,0.11500784,-0.013819805,0.36259365,0.17872162,-0.151221,0.0,0.0
3_1_0_tr_reg_004_0_0_0.obj,0.29365253,-0.21748349,0.1535418,0.23870762,0.051399805,0.07827352,-0.22966246,-0.24001144,-0.107355215,0.18421127,-0.03420524,-0.066560306,0.20338002,0.2987053,0.1464789,0.17984545,-0.36087558,-0.049293336,-0.12593824,0.108925305,0.052746255,-0.19917515,0.009567324,0.1760028,0.33071336,0.14302011,0.10775679,-0.11449538,0.024418546,-0.028910039,-0.15820618,0.12817986,0.0,0.0
3_1_0_tr_reg_005_0_0_0.obj,-0.009152784,0.15978484,-0.0380849,-0.2643729,0.06505413,-0.2798576,0.08680749,-0.05420196,0.20872004,0.03007957,0.067201555,-0.03923706,0.056756306,0.0847468,0.28273594,0.1095058,-0.2357528,0.07616505,0.0073661036,0.07743739,0.24875805,-0.16649278,0.06673721,0.05115854,0.17767201,-0.19629371,-0.10058527,-0.44332957,-0.19735114,-0.12225082,-0.39912486,0.05571172,0.0,0.0
3_1_0_tr_reg_006_0_0_0.obj,-0.15302236,0.39279386,-0.054816633,0.08026554,0.37412795,0.29926485,0.08574915,0.14835516,0.20376933,0.04339301,-0.062407922,-0.2716939,0.06451112,-0.056174923,0.2187018,-0.073972404,0.093461946,0.030473076,0.005439841,0.29069242,-0.20659432,0.05100941,-0.16170879,-0.028357605,-0.17351575,0.2245586,0.0033661507,0.08859325,-0.30021435,-0.13046642,-0.008268551,0.10086646,0.0,0.0
3_1_0_tr_reg_007_0_0_0.obj,0.29946962,-0.29984292,-0.0588444,0.086373396,-0.027755968,0.1397793,-0.184653,-0.0050220527,-0.30231744,0.035692606,-0.12241196,0.03905516,-0.08992016,0.044494733,-0.41216618,-0.26308942,0.35134915,-0.008775705,0.3092209,-0.08365705,-0.02449398,0.06159951,0.16876195,-0.014307244,0.14440095,0.06257433,0.02000486,-0.021729836,-0.052102238,0.17431085,0.26491454,-0.09262275,0.0,0.0
3_1_0_tr_reg_008_0_0_0.obj,0.021174144,-0.24695258,-0.24954207,0.07557,-0.10719995,-0.25387013,0.36738113,-0.071927235,0.24920541,-0.09261698,0.30514103,-0.251828,-0.10124014,0.09726951,-0.012851472,-0.13204218,-0.02178312,-0.1277444,-0.056474857,0.075146526,-0.074288145,-0.13731135,0.12522644,0.038485482,0.09751003,-0.17506054,0.24994214,0.3004936,-0.34506267,-0.10162762,-0.021055501,-0.007186245,0.0,0.0
3_1_0_tr_reg_009_0_0_0.obj,0.0717948,-0.1507793,0.11166394,0.0045650313,-0.15730584,-0.062971815,-0.18525195,-0.048203032,0.28211385,0.16235432,0.02452625,0.13648391,-0.19457568,-0.12790227,0.05840771,0.21653213,0.20082626,0.08527171,-0.12305563,0.3395893,0.24755108,-0.07451988,-0.19263104,-0.24322456,-0.0042288834,0.36624116,0.08896954,0.22159508,-0.24026436,-0.011512126,0.19056694,-0.19510254,0.0,0.0
3_1_tr_reg_000_0_0.obj,-0.096485905,0.19161472,0.08757823,-0.30736887,0.18179353,0.025813282,-0.16582997,0.19815615,-0.20069675,-0.10223542,0.2731803,0.35955286,-0.08853792,-0.15020843,0.022458006,0.18136318,-0.007506083,-0.18395086,0.15787093,-0.20891106,-0.26989475,-0.15289396,-0.25621763,0.04556217,-0.007874789,-0.07177212,0.12906553,0.15572804,0.0033694403,0.2059858,0.26355407,-0.09210521,0.0,0.0
3_1_tr_reg_001_0_0.obj,0.208947,-0.020216243,0.06661493,0.2143678,-0.037133697,-0.0693286,-0.10757001,-0.27753007,-0.34214243,0.042988084,-0.27739412,-0.11809039,0.09634472,0.010630439,-0.13536362,-0.04239784,0.37584972,-0.14954576,-0.06514481,0.1782462,-0.091465816,0.2815997,0.35417914,-0.252652,0.09850888,0.14059377,-0.10328753,-0.15027161,-0.05722789,-0.0007909602,0.16985786,0.003565025,0.0,0.0
3_1_tr_reg_002_0_0.obj,-0.28731957,0.24363974,0.24925056,0.14670253,-0.061442778,-0.03603083,0.15336202,0.07092186,-0.11153957,-0.23438857,-0.024999691,-0.01827139,-0.22202505,0.08600631,0.1303953,0.0008820019,0.07530323,-0.04715648,-0.1460904,-0.01244427,0.2626647,0.27459887,-0.29881775,-0.16092892,-0.071356095,-0.18519257,-0.072028734,0.15497291,0.21131961,-0.34919524,-0.2723482,-0.021072151,0.0,0.0
3_1_tr_reg_003_0_0.obj,-0.1768244,0.06796005,0.035725538,-0.088450484,0.0012801177,0.011650534,0.041871376,-0.061096594,0.17794847,0.19529448,-0.17884573,-0.073635384,0.24243516,-0.07003869,-0.07781598,-0.25592566,-0.14389028,0.3214391,-0.06282385,-0.1978425,-0.2524865,-0.27530122,0.37201738,-0.05885909,-0.11461571,0.10104976,-0.19005127,0.14458455,0.02506063,0.34523362,0.15703817,-0.18324737,0.0,0.0
3_1_tr_reg_004_0_0.obj,0.28959572,-0.1923085,-0.21952464,-0.030560436,-0.041267253,0.0419694,-0.20867199,0.062708594,0.092256725,0.12853272,0.09615716,0.035250984,0.23372103,-0.034548078,0.17927006,0.2716932,-0.4562224,-0.30392474,-0.0026396688,0.024277182,-0.06533118,-0.025696319,-0.22726554,0.26472414,-0.1520658,-0.06983538,0.045729652,0.008959221,0.06221343,0.115545385,0.028209,0.32532942,0.0,0.0
3_1_tr_reg_005_0_0.obj,-0.25397116,-0.00456245,-0.24227889,-0.3803408,0.26658946,-0.18785694,-0.24701631,0.039117783,-0.0051576765,-0.11634364,0.24941947,0.1730551,-0.06985667,-0.011075723,-0.002346766,0.11687144,0.22847451,-0.36453336,0.010911615,0.19485196,-0.20228241,0.03002137,0.029128496,-0.2570212,0.0800689,-0.16036332,-0.004957884,-0.057401028,-0.04846362,0.13379222,0.009770841,-0.2261278,0.0,0.0
3_1_tr_reg_006_0_0.obj,-0.047215626,0.25844896,-0.34576812,-0.19147402,0.19767125,0.3318634,0.024676636,0.09364401,0.06336089,0.1885817,-0.27659315,-0.20140547,0.13586664,-0.068630494,0.16735424,-0.008542701,0.27092248,0.19019753,0.14882256,0.3029634,-0.10087239,0.19478238,0.095856845,-0.118147,-0.032347333,0.27267244,-0.00081004377,-0.067642994,-0.111222856,-0.143185,0.024783958,-0.0066660615,0.0,0.0
3_1_tr_reg_007_0_0.obj,-0.18347086,-0.4553304,-0.24225706,-0.09836279,-0.022605916,0.025509866,-0.34028274,0.023729973,0.2261646,-0.27269405,0.017617233,-0.037964813,-0.19314115,0.20508671,-0.22521663,-0.16676126,-0.031638168,-0.0076447073,0.0023377987,0.07639147,-0.024790375,0.11199459,-0.10058714,-0.20226415,-0.17748272,0.12881616,0.01959452,-0.08338406,0.3738368,0.011671257,-0.14636849,-0.011863607,0.0,0.0
3_1_tr_reg_008_0_0.obj,0.08370247,-0.10431931,-0.3116588,0.05292872,-0.039926536,-0.14390033,0.368652,-0.014108943,0.14925149,-0.019145653,0.25136995,-0.3578377,-0.10185997,0.30970702,0.06095281,-0.16851537,0.14682226,-0.060184967,0.075145386,-0.03566557,0.098161936,-0.12042268,0.06950955,0.08185049,-0.19016707,-0.22944288,0.06262831,0.24956007,-0.15660785,-0.23013811,-0.11712353,-0.23980454,0.0,0.0
3_1_tr_reg_009_0_0.obj,-0.007842631,-0.08522529,0.01670127,-0.39338687,-0.07123522,-0.19650719,-0.12664764,-0.12983613,0.385103,0.027297266,0.1683104,0.16724555,-0.13182443,-0.09329496,0.14008196,0.19835427,0.10341758,0.25252512,-0.06112989,0.23173843,0.18125418,-0.189562,-0.1349612,-0.22681549,-0.11554967,0.3582102,0.03305252,-0.018762082,-0.0147473905,0.023709208,0.123992726,-0.20259222,0.0,0.0
3_2_0_tr_reg_000_0_0_0.obj,0.008617621,0.15149623,0.2998224,-0.008295116,0.0037737314,0.040879946,-0.015624556,0.06486441,-0.3749048,-0.0911554,0.1884757,0.22821008,-0.040535208,-0.16160978,-0.013146268,0.2464832,0.033258848,-0.17112547,0.036329634,-0.3021407,-0.22234534,0.004748534,-0.26703364,0.07348722,0.0027709915,-0.023805011,0.11634839,0.3423511,0.041943915,0.034974113,0.41347846,-0.035960782,0.0,0.0
3_2_0_tr_reg_001_0_0_0.obj,0.1437084,-0.05403777,-0.16703613,0.087185845,-0.21962838,-0.18680595,-0.040468693,-0.22965805,-0.05103817,-0.034293216,-0.17034012,-0.08738746,0.12214267,-0.21356936,0.09033388,0.12029393,0.2476406,-0.2178697,-0.027162293,0.23142526,0.10297031,0.51029104,0.07998479,-0.22730437,-0.25671098,-0.13925415,-0.111049555,-0.17209178,0.022728374,-0.10745487,0.11482979,0.18754981,0.0,0.0
3_2_0_tr_reg_002_0_0_0.obj,-0.24329789,0.25516072,0.12979172,-0.005006605,-0.05667227,-0.0104740085,0.20660576,0.26937914,-0.013619388,-0.17751947,-0.08018298,0.24336213,-0.32892948,-0.009027075,0.0353584,0.047529656,-0.1392067,0.097982354,-0.12043949,-0.043807022,0.27388772,0.12925448,-0.13558452,0.08173022,-0.033118546,-0.06783704,-0.015924899,-0.24207602,0.26350138,-0.22484368,-0.40833482,0.1328579,0.0,0.0
3_2_0_tr_reg_003_0_0_0.obj,-0.066299826,-0.03867906,-0.008995506,-0.16571467,-0.13324296,-0.03852251,0.04356984,-0.07241826,0.12930037,0.16294341,-0.14698467,0.11796004,0.18079716,-0.2217684,-0.204565,-0.16360705,-0.13304158,0.34652936,-0.027171338,-0.24416025,-0.20807862,-0.24641585,0.42340502,0.05644981,-0.05397161,0.09113574,-0.087767124,-0.07321601,0.099218346,0.37340853,0.21716881,-0.07470301,0.0,0.0
3_2_0_tr_reg_004_0_0_0.obj,0.29831335,-0.2635961,-0.20513603,0.006465084,-0.05037929,0.022986704,-0.20930658,0.0151734995,0.12797163,0.09641324,0.066741444,0.04392664,0.20533378,-0.0043225805,0.11125846,0.23622453,-0.49595344,-0.24317198,-0.0410866,0.054691482,-0.03317416,-0.052774556,-0.16676638,0.29065117,-0.09790921,0.005039728,0.060627162,-0.12078717,0.09028931,0.11000033,-0.032749478,0.36704528,0.0,0.0
3_2_0_tr_reg_005_0_0_0.obj,-0.1497553,0.09985511,-0.09631724,-0.41798183,0.12296782,-0.2986205,0.056321274,-0.031015981,0.23482683,-0.050844908,0.1565962,0.07526805,0.023393702,0.0046083154,0.21679792,0.15351857,-0.22155352,0.047069967,0.026488855,0.08749167,0.1163243,-0.17903128,0.057940736,0.006924549,0.27626798,-0.17622507,-0.03147557,-0.4035965,-0.19218528,-0.019962557,-0.3141067,0.015144167,0.0,0.0
3_2_0_tr_reg_006_0_0_0.obj,-0.16144644,0.33462512,-0.20841372,-0.07105453,0.2871215,0.3814733,0.052600794,0.15424566,0.090568714,0.07547342,-0.18245462,-0.20583291,0.084428355,-0.1057778,0.15267743,-0.0258307,0.18223391,0.14928769,0.04906306,0.29573688,-0.25085044,0.17461425,0.0034657891,-0.060792394,-0.06379263,0.3469242,0.09005947,-0.030295776,-0.14248219,-0.15086292,0.019595167,0.08786291,0.0,0.0
3_2_0_tr_reg_007_0_0_0.obj,-0.027111977,-0.5458127,-0.026967954,0.12047078,0.03381556,0.24735622,-0.27269793,0.093883,0.12811653,-0.107475854,0.014626951,-0.005063225,-0.11142293,0.13191174,-0.3244172,-0.20036383,-0.037632655,0.14301075,0.26597497,-0.021346593,0.20220278,-0.035346795,-0.14266494,0.08510153,0.3409567,-0.07352433,-0.008939269,-0.025146376,0.033815168,0.2032756,-0.081181735,-0.054512568,0.0,0.0
3_2_0_tr_reg_008_0_0_0.obj,0.33223876,0.021846576,-0.3117706,-0.25344765,-0.09057227,0.09729733,0.20092268,-0.042526722,-0.011120658,0.0787126,0.12377092,-0.10859132,0.08161884,0.027755914,0.04291331,-0.15471831,0.29676187,0.22635183,0.32817864,-0.21965982,0.06994634,-0.13883825,0.049162455,0.19066271,-0.39353323,-0.0953658,0.016715674,-0.005408018,0.13184573,-0.06586431,0.1429529,-0.19129078,0.0,0.0
3_2_0_tr_reg_009_0_0_0.obj,-0.008619546,-0.08210253,0.11278046,0.0599206,-0.13789243,-0.01744509,-0.17506234,0.097156994,0.3307785,0.16343863,0.0056780186,0.14916007,-0.26046556,-0.15138514,0.045687325,0.16398187,0.1857596,0.07040106,-0.08205613,0.34250233,0.3296219,-0.057950836,-0.23609176,-0.21503164,0.056113705,0.24285465,0.06786136,0.20437905,-0.33875766,-0.0036580143,0.07109731,-0.18304753,0.0,0.0
3_2_1_0_tr_reg_000_0_0_0_0.obj,-0.026976392,0.15489198,0.27867365,-0.02271268,0.095831126,0.027038135,-0.06226801,0.101337425,-0.40023285,-0.0804963,0.19510072,0.2557885,-0.07928427,-0.09295034,-0.081536435,0.16533166,0.075898096,-0.21203509,0.031820387,-0.29692265,-0.30157873,-0.076468386,-0.16134198,0.040928174,0.023798224,-0.030275665,0.09081155,0.31918573,0.042324025,0.1217777,0.38406897,-0.11764481,0.0,0.0
3_2_1_0_tr_reg_001_0_0_0_0.obj,0.2677684,-0.04768869,-0.11969787,0.08152556,-0.13241988,-0.05607213,-0.09127893,-0.19962326,-0.2775473,-0.007810826,-0.26615235,-0.062494263,0.035956334,-0.08829654,-0.117398314,0.02305594,0.3953285,-0.13620111,-0.0075334073,0.20267007,-0.05576733,0.40228876,0.2584546,-0.21669324,-0.09880668,0.19430818,-0.03447961,-0.24589391,0.04849932,-0.07382143,0.19106857,0.113154314,0.0,0.0
3_2_1_0_tr_reg_002_0_0_0_0.obj,-0.1746028,-0.077294126,-0.010570813,-0.16433652,-0.24611159,-0.19495751,0.14654323,-0.052121177,0.18792124,-0.09382497,-0.04289871,0.35211456,0.005374237,-0.3708022,0.008947545,0.22137457,-0.3251531,0.11386381,-0.07675168,-0.058758352,0.19239391,0.19257756,-0.020154214,0.12503189,0.044405486,-0.12276169,0.021174157,-0.3279278,0.14037256,0.038654465,-0.06323948,0.29782438,0.0,0.0
3_2_1_0_tr_reg_003_0_0_0_0.obj,-0.06955966,-0.003922589,-0.060615208,-0.27787894,-0.040118724,-0.022390628,-0.056301147,-0.09199879,0.09983771,0.18084459,-0.13285951,0.13266917,0.22241418,-0.23818581,-0.14736173,-0.11725762,-0.054023262,0.30194655,0.058584195,-0.14425892,-0.2491128,-0.2195874,0.42085475,-0.0081540095,0.050139647,0.0926426,-0.07509657,-0.12024946,0.003824261,0.41434464,0.24738225,-0.10505229,0.0,0.0
3_2_1_0_tr_reg_004_0_0_0_0.obj,0.21594457,-0.18793048,0.2309473,0.24418865,0.009174057,-0.02453804,-0.083037935,-0.3066391,-0.10576922,0.16165295,-0.06312732,-0.036874566,0.1549681,0.236907,0.10972405,0.15976308,-0.2885772,0.049997624,-0.13221009,0.10387214,0.1349307,-0.17813684,0.12728192,0.14261714,0.4867174,0.05587108,0.090065464,-0.20229277,-0.06250733,-0.059905935,-0.19090773,0.097943164,0.0,0.0
3_2_1_0_tr_reg_005_0_0_0_0.obj,-0.09370524,0.1261337,-0.12533784,-0.4854069,0.21092401,-0.19045398,0.0013817609,0.09768568,0.16083321,-0.091053866,0.2199368,0.10977116,-0.084328026,0.05261091,0.10802812,0.057270695,-0.11294659,0.078219004,0.14823136,0.025329113,0.007641879,-0.2897069,0.052371204,0.0687257,0.2678236,-0.056508087,0.068121366,-0.4308826,-0.19497709,0.017261194,-0.27558905,-0.04283629,0.0,0.0
3_2_1_0_tr_reg_006_0_0_0_0.obj,-0.08172843,0.28453037,-0.21686994,-0.12970713,0.1940362,0.42030913,0.029843174,0.15643434,-0.03394041,0.121395454,-0.2751204,-0.12624384,0.058660727,-0.10556498,0.0738846,-0.02486683,0.23176478,0.22557543,0.08832234,0.24931577,-0.19264467,0.20600316,0.07209591,-0.058513932,0.0015469089,0.40537536,0.110583566,-0.085058935,-0.025613744,-0.16091312,0.03203505,0.08095857,0.0,0.0
3_2_1_0_tr_reg_007_0_0_0_0.obj,-0.033412907,-0.4932252,0.06252728,0.27449715,0.06359506,0.21717763,-0.20931847,0.06890379,-0.06144746,-0.14840499,0.017810183,-0.07665586,-0.20149517,0.2705757,-0.37923905,-0.24955359,0.1151897,0.010502667,0.123954214,-0.02504322,0.06298368,-0.015675602,-0.021820923,-0.034357414,0.35174653,0.0058515123,0.031077381,0.14376988,0.034469835,0.1318311,-0.050901055,-0.15127398,0.0,0.0
3_2_1_0_tr_reg_008_0_0_0_0.obj,0.03365785,-0.16971947,-0.12155631,0.10614495,0.122937545,-0.01034012,0.16660772,0.13364461,0.24701309,-0.07558978,0.21620014,0.051158525,-0.14980109,-0.19905546,-0.13453875,-0.14771336,0.0114135295,-0.2857609,0.04135306,0.25765276,-0.03681133,-0.09659621,0.025931789,0.16888265,0.15039046,-0.16560254,0.18142822,-0.0070312372,-0.5272449,0.18712932,-0.058928885,0.27542558,0.0,0.0
3_2_1_0_tr_reg_009_0_0_0_0.obj,0.12098194,-0.13593155,0.19597569,0.011720617,-0.14422205,-0.09876341,-0.18854566,-0.13720095,0.21701704,0.16850029,0.064903565,0.1229369,-0.1352917,-0.083608404,0.0899436,0.24447565,0.18272223,0.082502805,-0.15119731,0.2798407,0.21496028,-0.13885798,-0.19432974,-0.23058264,-0.021394556,0.37995726,0.065165855,0.24778655,-0.20550291,-0.02009918,0.24371314,-0.21250473,0.0,0.0
3_2_1_tr_reg_000_0_0_0.obj,-0.023751494,0.18583547,0.15423837,-0.22710352,0.12504879,0.045480136,-0.13697278,0.19393447,-0.23556864,-0.09205405,0.2701762,0.34042025,-0.09218429,-0.14073098,-0.0057700686,0.17965281,-0.039755642,-0.1427939,0.16828045,-0.27481475,-0.26648062,-0.18671513,-0.25450194,0.102293685,0.017156724,-0.019062417,0.17275016,0.17762285,-0.03495546,0.19613275,0.29743686,-0.06977062,0.0,0.0
3_2_1_tr_reg_001_0_0_0.obj,0.24191615,-0.022569492,-0.09202987,0.1436868,-0.13060279,-0.10291666,-0.08816176,-0.23898725,-0.25310126,0.004259777,-0.26146185,-0.1227264,0.083131365,-0.07928563,-0.053214908,0.023256032,0.38636586,-0.18917593,-0.034347143,0.22379152,-0.028031787,0.42559743,0.24512006,-0.2565618,-0.116005875,0.09111323,-0.084247515,-0.19545725,0.0035196643,-0.086954765,0.16464873,0.09667049,0.0,0.0
3_2_1_tr_reg_002_0_0_0.obj,-0.11581097,0.21992832,0.12588224,-0.016137123,-0.16346811,-0.1294444,0.31468073,0.1312479,0.039698984,-0.03056067,-0.10859209,0.26171988,-0.2461002,-0.068580806,0.06654962,0.1301582,-0.2016432,0.20394339,-0.16741933,-0.0039063054,0.3203863,0.020202715,0.037316408,0.13321756,0.11430984,-0.030169459,0.03740659,-0.33609053,0.12554279,-0.2198215,-0.3848939,0.14105223,0.0,0.0
3_2_1_tr_reg_003_0_0_0.obj,-0.035712384,-0.023313552,0.010326573,-0.157534,-0.13938773,-0.01241588,0.05012343,-0.056179233,0.13344473,0.18379664,-0.15245843,0.10241113,0.17210472,-0.20575432,-0.1897044,-0.17016329,-0.12954304,0.38213214,-0.027980125,-0.25641072,-0.18743001,-0.27363873,0.39612597,0.068056464,-0.09770946,0.12872776,-0.0897285,-0.050373092,0.11044581,0.34606576,0.21904781,-0.090817176,0.0,0.0
3_2_1_tr_reg_004_0_0_0.obj,0.3391968,-0.17558387,-0.0674718,0.08285567,0.05687963,0.08472735,-0.3017392,-0.058812853,-0.053935815,0.166442,0.08331688,-0.03831743,0.25472075,0.18230738,0.22937441,0.28232214,-0.4320127,-0.31798428,-0.08979648,0.09034669,-0.091082074,-0.10524817,-0.17468119,0.20726153,0.010510696,0.053766645,0.07838826,0.0339352,0.07517452,0.054801773,-0.03516937,0.22652136,0.0,0.0
3_2_1_tr_reg_005_0_0_0.obj,-0.1407506,0.13875349,-0.19442514,-0.43072668,0.34119433,-0.18509425,-0.1482092,0.084600635,-0.08845634,-0.108630374,0.20571728,0.14858079,-0.09883059,0.11881433,-0.04792952,0.025172116,0.14246795,-0.1962538,0.05489333,0.11281051,-0.23688304,-0.15698409,0.19336592,-0.13891211,0.25342646,-0.02130561,0.03211221,-0.31715316,-0.084277935,0.1052488,-0.14451367,-0.17210461,0.0,0.0
3_2_1_tr_reg_006_0_0_0.obj,-0.071385846,0.19527748,0.03923968,0.0140411025,-0.014363828,0.43962175,0.07848,0.16426769,-0.1105215,0.0054653944,-0.20661575,-0.043287195,-0.005954429,-0.2116749,-0.110312864,-0.09106304,0.07731289,0.2766621,-0.02044439,-0.02914647,-0.29592118,0.14463142,0.0023993715,0.073999695,-0.0575243,0.4926854,0.27825496,0.02959445,0.0890734,-0.11958919,0.13361888,0.21002413,0.0,0.0
3_2_1_tr_reg_007_0_0_0.obj,-0.07881273,-0.47399655,-0.17923085,-0.058962423,0.0023577746,0.02792379,-0.3271764,-0.10656652,0.10260905,-0.27141103,0.040763628,-0.057640463,-0.17924918,0.21808958,-0.2498993,-0.19680496,0.091930054,-0.061217923,-0.048098,0.13072704,-0.15997998,0.0945328,-0.002140868,-0.2513352,-0.14977051,0.29067025,0.12515925,-0.016966168,0.3015252,0.02868064,-0.011399445,-0.015126715,0.0,0.0
3_2_1_tr_reg_008_0_0_0.obj,0.40183103,0.13728923,-0.23973756,-0.19823971,-0.013409557,0.17193457,0.15509874,-0.011395432,-0.06343718,0.13925275,0.030864688,-0.13465711,0.103858024,0.032676727,0.10500925,-0.120421864,0.2994196,0.21076941,0.36210182,-0.15304317,0.19852033,-0.052822318,-0.038004763,0.21731155,-0.36986247,-0.09045231,-0.06425988,-0.08933419,0.096716926,-0.11740252,0.09316907,-0.14390115,0.0,0.0
3_2_1_tr_reg_009_0_0_0.obj,0.20422766,-0.15607731,0.13733113,-0.16441882,-0.08710941,-0.12215307,-0.04306036,-0.3412016,-0.027369106,-0.01968794,0.1631184,0.05664273,-0.043895394,0.017126184,-0.03268159,0.121649235,0.23389597,0.1758475,-0.1412085,0.098999925,-0.15254937,-0.16739555,0.11319505,-0.19486846,-0.07730196,0.5486519,0.18196899,0.045091167,0.04261993,-0.019059807,0.35280153,-0.10943945,0.0,0.0
3_2_tr_reg_000_0_0.obj,0.11312285,0.07784548,0.31163257,0.06113147,0.08244829,-0.02448855,-0.18897022,-0.04616963,-0.46151653,0.038190037,0.1278477,0.1687638,0.07349096,0.040873017,-0.04914139,0.16541617,0.038799867,-0.2824916,0.00473269,-0.29096127,-0.26899347,-0.09734952,-0.056131627,-0.016717194,0.048056554,-0.059560575,-0.020092905,0.30400598,0.062957436,0.17022997,0.3595887,-0.1635322,0.0,0.0
3_2_tr_reg_001_0_0.obj,-0.13993664,0.017897025,0.22303453,0.16816413,-0.07212438,-0.22022036,-0.05457864,-0.38923,-0.11528076,0.031095896,-0.16436999,-0.04697604,0.26518443,-0.18831721,0.094046585,0.16175479,0.07443747,-0.14234404,-0.22236314,0.19536686,-0.09994637,0.29754275,0.24668902,-0.30493188,0.2693363,-0.09616318,-0.12128972,-0.0013268545,-0.13790345,0.060514215,0.14873144,0.05040541,0.0,0.0
3_2_tr_reg_002_0_0.obj,-0.27546102,0.26929328,0.24014908,0.13357808,-0.062310472,0.037842195,0.16319071,0.1666537,-0.15857174,-0.24300258,-0.087209865,0.05841165,-0.26303986,0.04176848,0.058057927,-0.023863211,0.04937994,-0.0091059515,-0.119729765,-0.054950763,0.25139937,0.2919634,-0.25329667,-0.07489409,-0.07493852,-0.14442334,-0.060036592,0.0395256,0.2877399,-0.31380728,-0.30384433,0.05441637,0.0,0.0
3_2_tr_reg_003_0_0.obj,-0.33759478,0.17238955,-0.037054673,-0.047038373,0.20294487,-0.00993206,-0.02625504,0.03193132,0.3951237,0.104501896,-0.056302994,-0.16143803,0.16956417,0.04981794,0.14647311,-0.19439425,-0.18649507,0.09873708,-0.1270403,0.019895643,-0.16479853,-0.19621038,0.016288143,-0.16377904,-0.38184044,0.07538222,-0.27878103,0.258131,-0.053642824,0.19311965,-0.004170971,-0.18205275,0.0,0.0
3_2_tr_reg_004_0_0.obj,0.3253985,-0.15223129,0.017226275,0.13687062,0.08835718,0.10471319,-0.30906662,-0.102036625,-0.13239992,0.17661747,0.0638118,-0.042418614,0.2584916,0.22248137,0.24252525,0.2894391,-0.3898291,-0.31899303,-0.10046979,0.09730633,-0.09325451,-0.113283925,-0.1623128,0.16937998,0.11564173,0.05447523,0.08184708,0.0890349,0.047159817,0.05108521,-0.025836965,0.16547798,0.0,0.0
3_2_tr_reg_005_0_0.obj,-0.25775856,0.02562572,-0.11669505,-0.24490501,0.26529807,-0.15806566,-0.22775196,-0.060520794,-0.17378393,-0.110166825,0.21159323,0.12264799,0.024870193,0.029752668,0.036663022,0.1041156,0.24467602,-0.42047474,-0.044791184,0.08247271,-0.27699208,0.0915985,0.018555157,-0.26943883,-0.052588638,-0.2263415,-0.072791085,0.13550332,0.11987373,0.12087038,0.12550904,-0.25816435,0.0,0.0
3_2_tr_reg_006_0_0.obj,-0.09037764,0.3540908,0.17386314,0.27774647,0.2631495,0.26072598,0.1455633,0.19668083,0.19441582,0.00028375883,0.015085151,-0.24533975,-0.082860924,-0.09170042,0.07636683,-0.19531249,0.11700444,0.026225623,-0.021484852,0.18462472,-0.073116854,-0.022184428,-0.20580049,0.034873348,-0.17181699,0.16104653,0.04526141,0.118320465,-0.4505839,-0.119966775,-0.031145813,0.1276114,0.0,0.0
3_2_tr_reg_007_0_0.obj,0.06297126,-0.36990276,-0.089845754,-0.068549216,0.009419671,0.28224915,-0.3464813,0.09962357,0.1569617,0.007274953,-0.052041747,0.019092247,-0.018799901,-0.013314879,-0.17778009,-0.1625481,0.052688453,0.21627554,0.45434865,0.021103373,0.31871986,0.012170473,-0.25001943,0.060196213,0.24695957,-0.10059789,-0.0495548,-0.12066045,-0.0967437,0.16677734,-0.026858654,-0.008649285,0.0,0.0
3_2_tr_reg_008_0_0.obj,0.045257173,-0.2760434,-0.27748045,0.020802688,-0.12887955,-0.27796435,0.37875277,-0.108197995,0.23530129,-0.054279763,0.2921581,-0.23756683,-0.09001422,0.167614,-0.0047628437,-0.108344264,-0.042072453,-0.052436817,-0.041958477,0.029778736,-0.051260132,-0.20615074,0.16900545,0.055211585,0.11313493,-0.14680177,0.23790376,0.28595936,-0.27016976,-0.10151376,-0.02585439,-0.08144543,0.0,0.0
3_2_tr_reg_009_0_0.obj,-0.07609311,-0.08703132,-0.05005162,-0.37148112,-0.08139197,-0.19988437,-0.14060782,-0.029243091,0.40209675,-0.0043694973,0.14630833,0.19368546,-0.23084539,-0.08971754,0.10953134,0.17948216,0.15208109,0.17910847,-0.033392075,0.27220613,0.2876245,-0.0985628,-0.18079805,-0.25052032,-0.08108629,0.26411062,0.02152804,-0.03202453,-0.05569333,-0.019202927,0.027485102,-0.2289149,0.0,0.0
3_tr_reg_000_0.obj,0.025106965,0.07961167,0.25223514,0.09138855,0.17907386,-0.06604076,-0.13108444,-0.070189886,-0.45821357,-0.051587783,0.14797209,0.013988777,-0.050696928,0.32733452,-0.0748358,-0.03398449,0.19483306,-0.24779399,-0.044337753,-0.23448607,-0.20666693,-0.14447492,0.01887853,-0.13119277,-0.00913081,-0.107554816,-0.079512194,0.28442726,0.21571122,0.029569246,0.12457593,-0.3347717,0.0,0.0
3_tr_reg_001_0.obj,-0.30874953,0.06788106,0.22608547,0.03724083,-0.066514015,-0.32132396,0.059827205,-0.33385623,0.0805393,0.004923853,-0.043300543,0.017312441,0.25490382,-0.21139972,0.21993613,0.19286995,-0.15602918,-0.06788482,-0.24585852,0.13371748,0.018969152,0.17466968,0.13205743,-0.22070335,0.2819462,-0.30197993,-0.14995022,-0.0076452107,-0.11851584,0.03873403,-0.02074689,0.0861711,0.0,0.0
3_tr_reg_002_0.obj,-0.39052978,0.11950283,0.14621916,-0.0051046917,-0.17554039,-0.04471972,0.1193513,0.042578556,0.070029475,-0.26565883,-0.021391327,0.06850367,-0.19991994,-0.13779123,0.12479625,0.06861497,0.03273989,0.018913738,-0.1673818,0.056789413,0.22680657,0.38319483,-0.3152977,-0.17464532,-0.16285342,-0.093520805,-0.00087864447,0.10812673,0.2405268,-0.3195078,-0.16463758,0.09052113,0.0,0.0
3_tr_reg_003_0.obj,-0.35671073,0.06917879,-0.04440308,-0.05449626,0.101000726,-0.032129835,-0.045447893,-0.031290695,0.38869926,0.069535606,-0.12382039,-0.15768379,0.21032742,0.023808856,0.08259462,-0.21788192,-0.25215778,0.16698171,-0.15687239,-0.033134528,-0.20076072,-0.1448891,0.13272424,-0.17272368,-0.35329312,0.10559729,-0.26896653,0.18947333,0.06465571,0.24941847,0.007679639,-0.13021637,0.0,0.0
3_tr_reg_004_0.obj,0.34672016,-0.17149755,0.005198348,0.14898379,0.07594698,0.09189371,-0.31508178,-0.117226705,-0.10369578,0.17489931,0.049100872,-0.06449927,0.24784955,0.26089308,0.22290543,0.2582901,-0.40746805,-0.2723224,-0.10961856,0.101579666,-0.06711857,-0.13975857,-0.1331548,0.18533218,0.09639348,0.09706142,0.08638397,0.013466149,0.07367512,0.027143866,-0.07269951,0.175113,0.0,0.0
3_tr_reg_005_0.obj,-0.20300665,0.065321684,-0.15661348,-0.25655964,0.26596832,-0.22584662,-0.236224,-0.10133231,-0.16835171,-0.07325356,0.15910047,0.061813414,0.039333504,0.107685186,0.065230116,0.11274876,0.26834303,-0.4128918,-0.060836736,0.18149488,-0.1854895,0.111705616,0.10615062,-0.33823594,0.06253923,-0.20568557,-0.11254697,-0.009597247,0.04815625,0.061427116,-0.0029720592,-0.25814572,0.0,0.0
3_tr_reg_006_0.obj,-0.21713191,0.17998734,0.093259566,0.1960523,0.14006302,0.13596359,0.17313762,0.18369886,0.23806214,-0.12854518,0.11062599,-0.13397177,-0.10259655,-0.12977822,-0.07922466,-0.25670803,-0.101452306,-0.030660754,-0.16517356,0.016111996,-0.36697564,-0.06871425,-0.14476742,0.06248121,-0.39049593,0.23561214,0.16903189,0.25926423,-0.13554484,-0.010344493,0.068114325,0.19655308,0.0,0.0
3_tr_reg_007_0.obj,-0.14329332,-0.5502892,-0.15857469,0.032404248,0.028859885,0.14305565,-0.2549351,0.10879985,0.17772478,-0.24960887,0.054506708,-0.011895887,-0.24345304,0.22342935,-0.32987756,-0.21988197,0.0053408206,0.058351204,0.14825422,0.044321813,0.14865384,0.03750523,-0.122314185,-0.056614578,0.17589033,-0.01199057,0.018888682,-0.044179793,0.18757749,0.10700977,-0.18613473,-0.072423115,0.0,0.0
3_tr_reg_008_0.obj,0.0062578344,-0.30364388,-0.27733687,-0.057038687,-0.14566953,-0.3207937,0.33552498,-0.14761777,0.30438742,-0.046155687,0.2596126,-0.098165095,-0.059617188,0.0012348738,0.019895568,-0.018632598,-0.105433375,-0.060496014,-0.10449635,0.15394618,-0.06862872,-0.17792119,0.18808118,0.020621933,0.22141333,-0.10815551,0.26775166,0.20114121,-0.31105974,-0.029531881,-0.003706813,0.030085959,0.0,0.0
3_tr_reg_009_0.obj,0.17024899,-0.13127314,0.13410184,-0.25609758,-0.049688973,-0.15125142,-0.13259208,-0.277563,0.1550374,0.05275101,0.17212673,0.13286309,-0.067665234,-0.012204849,0.09229213,0.2261086,0.1532367,0.232982,-0.12582964,0.21804817,0.039742086,-0.21691863,-0.015611276,-0.19627506,-0.037137754,0.5325506,0.12050136,-0.030727508,0.0024334562,-0.017343953,0.24432632,-0.15092534,0.0,0.0
4_0_tr_reg_000_0_0.obj,0.20617206,0.2125379,0.2026723,0.115407966,-0.034272794,-0.21975939,0.26461855,-0.17345898,-0.19178982,0.07179173,-0.044369232,-0.11737929,-0.1274396,0.33194798,0.18198243,0.0024883752,0.116338395,0.09364774,-0.031053064,0.027393224,0.39903533,-0.09117142,0.059321035,-0.02026505,0.14109263,-0.09440932,-0.07772331,-0.12575331,-0.0857445,-0.36265913,-0.2827148,-0.1616819,0.0,0.0
4_0_tr_reg_001_0_0.obj,-0.04230858,-0.032209236,0.09863419,0.17630966,-0.19847545,-0.27324688,-0.007974726,-0.35369107,-0.040420767,0.003289303,-0.12202449,-0.06499055,0.25679463,-0.26762405,0.14024283,0.17778671,0.08078735,-0.20263791,-0.13326633,0.16309866,0.06450275,0.41551772,0.11616638,-0.24562347,0.056780696,-0.28991178,-0.1502244,-0.023322169,-0.11854851,-0.0022122911,0.13866842,0.14587009,0.0,0.0
4_0_tr_reg_002_0_0.obj,-0.22544247,0.29510638,0.22575875,0.11490192,-0.030040171,0.046490468,0.21390451,0.2602972,-0.17472759,-0.19686253,-0.12168255,0.14189886,-0.3374801,0.074662305,-0.02337276,-0.050245937,0.015101176,0.06860252,-0.092684194,-0.091348685,0.2615486,0.17421825,-0.1356503,0.021531213,0.0058376435,-0.098023854,-0.054423433,-0.112991035,0.2817538,-0.25695843,-0.3768435,0.04786607,0.0,0.0
4_0_tr_reg_003_0_0.obj,-0.3279793,0.1401287,0.0936439,0.08959034,0.098476924,-0.05070928,0.041988786,-0.00029514765,0.28005782,0.04480429,-0.12016067,-0.18348663,0.15328117,0.11202739,0.019177081,-0.32500535,-0.23003165,0.17210576,-0.16550887,-0.1628321,-0.1473573,-0.20371339,0.18111041,-0.13126814,-0.3189581,-0.005576693,-0.3254078,0.19463348,0.06586963,0.21446177,-0.07096184,-0.14416775,0.0,0.0
4_0_tr_reg_004_0_0.obj,0.3194174,-0.04229609,0.14877963,0.21749327,0.13721925,0.104514085,-0.23150955,-0.21923849,-0.22852157,0.15409757,-0.039411563,-0.23308277,0.20922165,0.46878842,0.21583003,0.05243474,-0.21823,-0.039200578,-0.013978746,0.021083687,0.07607565,-0.18112892,-0.019105453,0.10059653,0.22539648,0.06395171,0.038000852,-0.09770494,0.061668247,-0.1575845,-0.2389469,0.010825735,0.0,0.0
4_0_tr_reg_005_0_0.obj,-0.052728716,0.18908404,-0.10882668,-0.42763174,0.28926805,-0.20327872,-0.026696902,0.04971471,-0.008324388,-0.07928757,0.16008994,0.06381367,-0.07444177,0.16681077,0.055544164,-0.014499905,0.01304434,0.001341099,0.1127962,0.058540367,-0.044710595,-0.26242155,0.1812644,-0.01455797,0.3148621,-0.038143884,0.014618867,-0.46540546,-0.16080543,0.008759366,-0.30274883,-0.10294075,0.0,0.0
4_0_tr_reg_006_0_0.obj,-0.15603381,0.3593388,-0.16636768,-0.0039694402,0.34979576,0.34609017,0.040288117,0.13857992,0.15733896,0.06258886,-0.115003124,-0.26222482,0.08879473,-0.050980497,0.22693166,-0.031241763,0.15121226,0.05944267,0.05487723,0.33099523,-0.20589241,0.13532494,-0.105522275,-0.06955232,-0.09998625,0.24830374,0.03605376,0.03689213,-0.24117404,-0.15948687,-0.015618224,0.09193165,0.0,0.0
4_0_tr_reg_007_0_0.obj,-0.083515935,-0.5330661,-0.04776159,0.16920495,0.060762886,0.17345199,-0.2175302,0.07390731,-0.011617553,-0.22228815,0.053889927,-0.042492554,-0.25107014,0.28693894,-0.39389807,-0.24968192,0.10646065,-0.005923545,0.10074486,0.00014478204,0.031041514,0.010752558,-0.010052891,-0.06687591,0.271074,0.037950315,0.06216463,0.0806765,0.1391863,0.11780426,-0.09215156,-0.14164384,0.0,0.0
4_0_tr_reg_008_0_0.obj,0.28482133,0.11487396,-0.30856743,-0.14682868,0.077610664,0.09021842,0.29737958,0.020718215,0.08289287,0.14659065,0.11894187,-0.24778691,0.06748362,0.1602986,0.11385316,-0.21592723,0.19012883,0.16385078,0.2643454,-0.11632905,0.10865767,-0.24345614,0.085646205,0.26717243,-0.3155667,-0.13973224,-0.02139395,-0.025136799,-0.078346215,-0.13131398,-0.05222014,-0.22278476,0.0,0.0
4_0_tr_reg_009_0_0.obj,-0.041658748,0.014781253,0.13320376,0.07470789,-0.08582257,-0.049931042,-0.16521443,0.08865079,0.32810616,0.16192354,0.0070147235,0.10023521,-0.23689663,-0.0897225,0.11520719,0.14441504,0.19249664,0.04102664,-0.08047597,0.33560497,0.39135328,-0.059736736,-0.26368243,-0.24286506,0.02223678,0.14659202,-0.027129183,0.19772668,-0.36194587,-0.03737903,-0.0026457645,-0.22390366,0.0,0.0
4_1_0_tr_reg_000_0_0_0.obj,0.18437394,0.021651402,0.18729673,0.1099727,-0.17048864,-0.06651889,0.32365963,-0.052392572,-0.29937595,-0.1142137,0.18379103,0.041628767,-0.26427424,0.19800436,-0.046579506,0.101324864,0.1884898,0.07827704,-0.028303463,-0.250157,0.14159214,-0.101234995,-0.17271256,0.11979703,-0.12576738,0.097905405,0.14723743,0.28377336,0.20696461,-0.2947267,0.14236581,-0.24620624,0.0,0.0
4_1_0_tr_reg_001_0_0_0.obj,-0.14739907,0.017637283,0.14600009,0.16097951,-0.14942487,-0.2805402,0.010422587,-0.36490053,0.014295537,0.013634519,-0.1127146,-0.0922536,0.278853,-0.22887099,0.198014,0.17050324,0.012693412,-0.15594728,-0.17764632,0.1789363,0.054763783,0.3627668,0.12449196,-0.26935947,0.1237786,-0.29701483,-0.16087699,0.005155113,-0.13372794,-0.012002158,0.06824003,0.11650517,0.0,0.0
4_1_0_tr_reg_002_0_0_0.obj,-0.024060454,0.105587535,0.09463569,-0.06704634,-0.19038096,-0.14129266,0.30892804,0.076988876,0.054532364,-0.002407504,-0.06997681,0.31966335,-0.17792831,-0.14571539,0.021942602,0.18982723,-0.28072992,0.22252947,-0.12623568,-0.054482646,0.26564708,-0.039312605,0.090610586,0.24020953,0.17480248,-0.0008676007,0.09819792,-0.39583227,0.102169245,-0.112171285,-0.27567142,0.19137628,0.0,0.0
4_1_0_tr_reg_003_0_0_0.obj,-0.3196401,0.20210472,0.036738284,0.003622736,0.19237946,-0.037003927,-0.03537093,-0.0105178235,0.31773898,0.12505001,-0.08744453,-0.17880343,0.20178396,0.09599162,0.14800785,-0.21568653,-0.17052585,0.102252424,-0.12826781,-0.03510382,-0.14122318,-0.20706628,0.07322583,-0.19150881,-0.3348908,0.007646249,-0.33659664,0.25683695,-0.03805685,0.20035212,-0.020871809,-0.21385457,0.0,0.0
4_1_0_tr_reg_004_0_0_0.obj,0.34257445,-0.2848946,-0.083738275,0.082893185,-0.005893936,0.07898564,-0.27361736,-0.052316487,0.01869248,0.13102868,0.051899686,0.02680613,0.1852971,0.15053467,0.0959293,0.2309089,-0.4867969,-0.16919203,-0.07267875,0.053517055,-0.048325967,-0.15050922,-0.10981695,0.29702133,0.03023411,0.16144225,0.13210475,-0.12491052,0.13392775,0.07746073,-0.05669615,0.27762172,0.0,0.0
4_1_0_tr_reg_005_0_0_0.obj,0.0019344069,0.20179673,-0.0948249,-0.3367916,0.32689446,-0.16904289,-0.06509439,0.05356704,-0.15128407,-0.078944646,0.1219777,0.02997984,-0.09643513,0.25812697,-0.022911243,-0.08475663,0.113217205,-0.06375248,0.09893937,0.047967676,-0.10866529,-0.23539913,0.25363857,-0.049216185,0.29859874,0.0017564818,0.0031264157,-0.44731158,-0.10030218,0.0047238255,-0.28904182,-0.14120756,0.0,0.0
4_1_0_tr_reg_006_0_0_0.obj,-0.17673492,0.3313283,-0.17923465,-0.028735781,0.29048514,0.35707653,0.028171087,0.12748611,0.103604965,0.046863806,-0.16200458,-0.24187484,0.08597827,-0.09261341,0.18058977,-0.025318284,0.17325601,0.08648681,0.039756212,0.32555932,-0.25015712,0.20761517,-0.05916635,-0.092907995,-0.07130708,0.31113505,0.09183239,0.015526478,-0.17473803,-0.17995901,0.014076924,0.1167844,0.0,0.0
4_1_0_tr_reg_007_0_0_0.obj,0.07260526,-0.15729377,0.18282503,0.31928802,0.029877178,0.2902754,-0.2352866,0.17834593,-0.05569318,0.074567,-0.15204962,-0.06304822,-0.10612141,0.033390403,-0.20489456,-0.20509024,0.20174688,0.07300653,0.3060333,0.028391456,0.30436268,0.041446894,-0.15906829,-0.0055940324,0.34911755,-0.14654663,-0.1107516,0.06368587,-0.313301,0.09655079,-0.033488717,-0.040701844,0.0,0.0
4_1_0_tr_reg_008_0_0_0.obj,-0.09270722,-0.27565402,-0.2247283,0.03488168,-0.011066336,-0.1699308,0.21628097,-0.03344716,0.3306878,-0.1084743,0.22673431,-0.019350804,-0.075564876,-0.22264996,-0.06051831,-0.09444273,-0.036047,-0.26208025,-0.10037135,0.30186975,-0.14048897,-0.014322756,0.045804556,0.022074994,0.12342212,-0.13483937,0.2541398,0.18519913,-0.406853,0.06300252,0.02803638,0.22302184,0.0,0.0
4_1_0_tr_reg_009_0_0_0.obj,0.14436483,-0.13720334,0.22473875,0.07468481,-0.16067512,-0.0691553,-0.17629197,-0.15489076,0.15093069,0.16073579,0.02821728,0.09641941,-0.12570003,-0.0814459,0.066043876,0.2328743,0.21110335,0.067102626,-0.1715507,0.26723617,0.19261418,-0.09589426,-0.17740488,-0.23516512,-0.02755378,0.41128173,0.073029116,0.26539135,-0.19910008,-0.03760934,0.27183664,-0.18770479,0.0,0.0
4_1_tr_reg_000_0_0.obj,0.019941945,0.17478585,0.15969159,-0.21483111,0.085467786,0.042694774,-0.045488123,0.18265016,-0.26211715,-0.15265726,0.29634508,0.32676515,-0.15360688,-0.107810155,-0.018693138,0.17595433,-0.0021184608,-0.106499985,0.18310317,-0.30763906,-0.20146158,-0.17816946,-0.30970404,0.13116454,-0.006852647,-0.0046942537,0.1979917,0.19447786,0.011157291,0.10626127,0.28932506,-0.05024151,0.0,0.0
4_1_tr_reg_001_0_0.obj,0.22868548,-0.036032364,0.068331555,0.22121097,-0.05084462,-0.04495024,-0.11316622,-0.2587012,-0.34636924,0.061400156,-0.29573363,-0.097640395,0.09758566,-0.018259684,-0.16413833,-0.046299055,0.37771454,-0.12897529,-0.034145188,0.15817238,-0.07778638,0.27438825,0.3441001,-0.22630586,0.11291449,0.14163448,-0.10562068,-0.14957544,-0.07486028,0.0259653,0.19923936,0.005313062,0.0,0.0
4_1_tr_reg_002_0_0.obj,-0.34055635,0.18409033,0.20469144,0.0954546,-0.07810267,-0.002672388,0.10082822,0.05893138,-0.0859524,-0.2731884,-0.018628554,0.006657984,-0.1899763,-0.013701733,0.111637205,0.018280452,0.09470673,-0.07613524,-0.13637,0.0108666895,0.21664907,0.37304506,-0.33093464,-0.17615314,-0.13481927,-0.17233782,-0.056979313,0.17124237,0.263862,-0.31660777,-0.19139221,0.028619144,0.0,0.0
4_1_tr_reg_003_0_0.obj,-0.18583414,0.10009474,0.17923468,0.1992187,-0.005373365,0.0816146,0.14036228,0.083229795,0.107163414,0.120970644,-0.18735944,-0.1223612,0.10541114,0.010765873,-0.18663521,-0.36504984,-0.17802738,0.2846296,-0.14159186,-0.29322168,-0.19700243,-0.25993776,0.31171522,0.036588892,-0.14317364,0.05810595,-0.18671763,0.18209957,0.057545193,0.25255406,0.02517479,-0.10749214,0.0,0.0
4_1_tr_reg_004_0_0.obj,0.22436532,-0.18466203,-0.2658504,-0.09401844,-0.10610172,-0.01582204,-0.13764876,0.15255901,0.030278603,0.028095815,0.07064857,0.1853821,0.15945077,-0.2557108,0.018219562,0.2114906,-0.26624474,-0.31512734,0.17840259,-0.11466294,-0.028220369,0.12852891,-0.27191022,0.19067146,-0.19110718,-0.221353,-0.030155763,0.019599373,-0.02368776,0.20577784,0.19212203,0.3097995,0.0,0.0
4_1_tr_reg_005_0_0.obj,-0.2534563,-0.008918046,-0.2094852,-0.29333684,0.23146461,-0.20977256,-0.23200844,-0.05098135,-0.07094389,-0.11916817,0.22075215,0.10842988,-0.012856259,0.012329146,0.058411084,0.13412146,0.26231956,-0.42805055,-0.036770623,0.18956631,-0.17897975,0.13288954,0.0047960724,-0.3050094,-0.007224505,-0.22574458,-0.04898214,0.04781215,0.031309757,0.07234632,0.04452217,-0.23309678,0.0,0.0
4_1_tr_reg_006_0_0.obj,0.07067027,0.19898902,-0.3910674,-0.21639018,0.12578131,0.3048736,-0.0011209499,0.10144043,-0.0008172637,0.22126453,-0.31199813,-0.1592025,0.11281425,-0.06493742,0.10381703,-0.01467959,0.33909094,0.18596622,0.22871631,0.26247922,-0.009560429,0.21088295,0.12429529,-0.12282285,-0.0078094294,0.22487472,-0.03537701,-0.10733154,-0.10612166,-0.10959223,0.054798044,-0.038202584,0.0,0.0
4_1_tr_reg_007_0_0.obj,-0.12823282,-0.55017555,-0.17206945,0.019915545,0.031020269,0.10987778,-0.266741,0.059498377,0.1251191,-0.26946813,0.06898232,-0.019223817,-0.25759122,0.27523983,-0.3370788,-0.22152872,0.047510326,0.015631309,0.09151117,0.057435516,0.075872585,0.035968956,-0.06922368,-0.11426397,0.1435724,0.056921076,0.056957074,-0.028629739,0.23053943,0.077434815,-0.16957907,-0.10018747,0.0,0.0
4_1_tr_reg_008_0_0.obj,0.19866386,0.09157363,-0.3160488,0.019398993,0.106467575,0.037652083,0.32255086,0.025530858,0.13806163,0.120305926,0.10884682,-0.37293518,0.024953747,0.23543635,0.14749521,-0.22847225,0.18603013,0.019742098,0.1843141,0.029514764,0.15401407,-0.14244795,0.08476662,0.18063399,-0.2475885,-0.21777043,-0.046129316,0.047238745,-0.23569708,-0.19296713,-0.15761165,-0.18865262,0.0,0.0
4_1_tr_reg_009_0_0.obj,0.08387161,-0.123005405,0.10426767,-0.33446902,-0.08584011,-0.19820403,-0.1221932,-0.23134597,0.25643277,0.019556526,0.18019968,0.1737337,-0.11308133,-0.045366783,0.124144904,0.22412448,0.13231646,0.26594862,-0.11067598,0.20982595,0.15141626,-0.20671163,-0.07000743,-0.21222979,-0.06251259,0.44364962,0.07575998,-0.0542132,0.027557768,-0.013647232,0.1674189,-0.17945993,0.0,0.0
4_2_0_tr_reg_000_0_0_0.obj,0.09353288,0.1545232,0.28523138,0.010501253,-0.0007312161,0.04264685,0.06456362,0.1224362,-0.38317883,-0.093332835,0.20456561,0.23981336,-0.13894004,-0.091666475,-0.08335727,0.17548054,0.04853382,-0.10781539,0.07253277,-0.34763762,-0.21792278,-0.13944289,-0.21241061,0.14897504,0.031056084,0.041417547,0.17381446,0.30435815,-0.0124431,0.032223076,0.37463963,-0.056326292,0.0,0.0
4_2_0_tr_reg_001_0_0_0.obj,0.12733677,-0.07001519,-0.1415657,0.09419077,-0.23951823,-0.22006138,-0.028383177,-0.2456042,-0.033120766,-0.02617641,-0.13257271,-0.065556355,0.15542457,-0.2527413,0.11032986,0.1554431,0.2001117,-0.2364792,-0.029814465,0.20307815,0.11385595,0.4977442,0.06293171,-0.20527864,-0.2182281,-0.21747804,-0.11711202,-0.13933437,-0.011732473,-0.07604073,0.13455397,0.19503547,0.0,0.0
4_2_0_tr_reg_002_0_0_0.obj,-0.21034536,0.24121457,0.11381263,-0.0134036355,-0.085654646,-0.03401352,0.22760904,0.2604685,0.019838767,-0.14591213,-0.07445903,0.25649944,-0.3163969,-0.029058974,0.03793554,0.07178467,-0.18166187,0.121448025,-0.13450128,-0.05007604,0.27758282,0.096768476,-0.10184909,0.11747028,-0.037989434,-0.04920992,0.0021339904,-0.27996433,0.24385905,-0.21868072,-0.40576938,0.15035237,0.0,0.0
4_2_0_tr_reg_003_0_0_0.obj,0.07634829,0.026396334,0.049089234,-0.08773013,-0.08689612,0.10733397,0.029944997,0.02259656,-0.09169849,0.21448568,-0.22617154,0.15823455,0.13453686,-0.27900767,-0.2899271,-0.16693453,0.04434974,0.32764497,0.11389463,-0.24045034,-0.1430814,-0.1722936,0.37832972,0.14271843,0.110702515,0.09197347,-0.048076935,-0.15175968,-0.020858118,0.3360059,0.26158538,-0.053197064,0.0,0.0
4_2_0_tr_reg_004_0_0_0.obj,0.32646078,-0.28036472,-0.17014015,0.022809615,-0.04219683,0.057969674,-0.24011405,0.0027343018,0.09594301,0.10368813,0.055460222,0.038703103,0.17556375,0.07464511,0.08497592,0.21467757,-0.49957862,-0.16685936,-0.039656807,0.037783243,-0.031898446,-0.11144879,-0.14062598,0.31135485,-0.06572627,0.11589146,0.10819159,-0.15988319,0.1349181,0.07879458,-0.056659225,0.3392614,0.0,0.0
4_2_0_tr_reg_005_0_0_0.obj,-0.068447694,0.17772,-0.17531127,-0.47378463,0.3086756,-0.17299277,-0.04468396,0.10338945,-0.0138805155,-0.10694178,0.20183648,0.112556726,-0.11505018,0.122249216,0.0069794226,-0.0044702617,0.06684766,-0.044268537,0.120996915,0.07284542,-0.120554924,-0.24047145,0.16297705,-0.018079625,0.26114765,0.004821693,0.05893171,-0.43712276,-0.14165859,0.03348447,-0.23693365,-0.10781975,0.0,0.0
4_2_0_tr_reg_006_0_0_0.obj,-0.112153135,0.24444889,-0.03605297,-0.011489472,0.10022461,0.44903225,0.046017837,0.19294955,-0.101308554,0.0021613427,-0.1944989,-0.07817371,-0.005107319,-0.17012453,-0.045537513,-0.039149396,0.11147009,0.20070325,-0.015775284,0.09614835,-0.3299506,0.19166206,-0.0024146736,0.033930313,-0.004045811,0.48324975,0.26670507,-0.010664072,0.043310292,-0.15443076,0.08559766,0.20402353,0.0,0.0
4_2_0_tr_reg_007_0_0_0.obj,0.12636349,-0.09419499,0.04000799,0.0746823,0.052475356,0.3134538,-0.24399577,0.20432429,0.0011739349,0.061723206,-0.14187461,0.012788463,-0.050739024,-0.04112349,-0.1681122,-0.2244333,0.13653167,0.17581284,0.4588796,-0.0064453613,0.35543188,0.024195971,-0.22321841,0.093338855,0.25144085,-0.16076532,-0.116001405,-0.16858137,-0.242413,0.105889656,-0.08142016,0.07431406,0.0,0.0
4_2_0_tr_reg_008_0_0_0.obj,0.33823967,0.07141868,-0.32666898,-0.20501019,-0.024113886,0.11344115,0.2451405,0.00093332445,0.0066404855,0.12909208,0.10339076,-0.16788058,0.083707,0.07688814,0.073015414,-0.1841378,0.25886083,0.20468913,0.32733604,-0.18175456,0.11121557,-0.16956763,0.064850144,0.25011197,-0.35157377,-0.12869287,0.0027140426,-0.03208118,0.039252058,-0.10486703,0.053268813,-0.19213432,0.0,0.0
4_2_0_tr_reg_009_0_0_0.obj,0.05940146,-0.11093731,0.21714775,0.05003015,0.031238133,-0.087557204,-0.084542796,-0.11498191,0.18451741,0.13363606,0.16701515,0.058458857,-0.042674724,0.009911866,0.0050388766,0.15395449,-0.010071623,0.010717309,-0.21565017,0.1278909,-0.11471137,-0.336273,-0.09270242,-0.12581106,-0.025691325,0.39693725,0.015445941,0.4035318,-0.24379794,0.17533013,0.35497475,-0.21310942,0.0,0.0
4_2_1_0_tr_reg_000_0_0_0_0.obj,-0.021911506,0.09036537,0.34013638,0.22795299,0.068348214,-0.06614099,-0.07157145,-0.10280709,-0.4355321,-0.053110138,0.097851515,-0.031737324,-0.015590398,0.21422423,-0.048344765,0.008467314,0.18914694,-0.24693422,-0.09716601,-0.23408672,-0.13513708,-0.00020354602,-0.06722287,-0.16195056,-0.034215484,-0.15656926,-0.10358627,0.4041011,0.16895483,-0.02928185,0.18760853,-0.2702099,0.0,0.0
4_2_1_0_tr_reg_001_0_0_0_0.obj,0.2643397,-0.06399657,-0.044878956,0.16312788,-0.13718477,-0.11151473,-0.09452346,-0.24718374,-0.30522624,0.00029881322,-0.24130645,-0.069160484,0.07867898,-0.10144507,-0.123176955,0.016556907,0.39283225,-0.20539117,-0.014661409,0.16533324,-0.040982094,0.3922779,0.26971915,-0.22379525,-0.053473063,0.065584965,-0.08502112,-0.18527052,-0.017132636,-0.021149542,0.22106843,0.08507427,0.0,0.0
4_2_1_0_tr_reg_002_0_0_0_0.obj,-0.09398919,-0.1441017,-0.08473846,-0.12224765,-0.29688495,-0.1015867,0.036995295,-0.023803966,0.1553519,-0.08158703,-0.08191501,0.3387571,0.047793876,-0.41634065,-0.07122188,0.16823778,-0.20613478,0.0906602,0.035969302,-0.1037926,0.22833633,0.30077237,-0.0891113,0.10186731,-0.11824136,-0.14909145,-0.059816737,-0.279785,0.19847302,0.10392313,0.060594566,0.3016544,0.0,0.0
4_2_1_0_tr_reg_003_0_0_0_0.obj,-0.27103755,0.057051897,-0.0072804694,-0.12885274,0.026929779,-0.061065733,0.0022822116,-0.0802082,0.23803423,0.10678385,-0.12559302,-0.06128296,0.24248597,-0.061049107,-0.043246616,-0.24689956,-0.20418935,0.24804798,-0.096415445,-0.18030255,-0.2920177,-0.2234152,0.35327023,-0.09538352,-0.20042445,0.05549528,-0.21147455,0.10525727,0.092553206,0.35535958,0.120538205,-0.14229415,0.0,0.0
4_2_1_0_tr_reg_004_0_0_0_0.obj,0.26679525,-0.21434604,0.19265297,0.23881677,0.040707704,0.041717786,-0.17420949,-0.27746567,-0.10332157,0.17482562,-0.040252436,-0.0707147,0.18213633,0.29212582,0.13038197,0.15282273,-0.32240543,0.023259714,-0.1142269,0.09837444,0.09306265,-0.2108493,0.063637406,0.15973635,0.4059011,0.12134589,0.10990174,-0.1589897,-0.0221117,-0.054168995,-0.17602459,0.10064162,0.0,0.0
4_2_1_0_tr_reg_005_0_0_0_0.obj,-0.036787033,0.17141123,-0.16000648,-0.4300081,0.31543428,-0.15900168,-0.06714456,0.0948123,-0.06160453,-0.10037721,0.1732557,0.08488365,-0.11366265,0.16540568,-0.015058844,-0.035532594,0.091412656,-0.05314677,0.12564625,0.075213954,-0.12129998,-0.23334809,0.19626486,-0.023334855,0.28263682,0.017762741,0.052596282,-0.45698783,-0.13457741,0.027289625,-0.253874,-0.10794041,0.0,0.0
4_2_1_0_tr_reg_006_0_0_0_0.obj,-0.07053418,0.3072354,-0.23142484,-0.09315245,0.25158852,0.38016865,0.013772976,0.1189478,-0.00081148255,0.13328242,-0.24745545,-0.1995838,0.08441497,-0.053735167,0.13794547,-0.02015176,0.26232734,0.15180998,0.090447485,0.31785452,-0.17978686,0.19628836,0.045924842,-0.104728855,-0.0003439691,0.34896648,0.06873958,-0.054083053,-0.12348412,-0.1866944,0.014831995,0.056544404,0.0,0.0
4_2_1_0_tr_reg_007_0_0_0_0.obj,0.0020791139,-0.37925872,0.10481431,0.2540423,0.05328089,0.2852064,-0.24501203,0.12905969,0.027218083,-0.033689268,-0.059313837,-0.06978986,-0.11481702,0.13199435,-0.27064276,-0.22680026,0.09473928,0.11484643,0.29373124,-0.004724522,0.26974246,-0.007349478,-0.16826667,0.0279994,0.3992713,-0.13466424,-0.0698195,0.07353832,-0.13872392,0.14865567,-0.07665408,-0.09369387,0.0,0.0
4_2_1_0_tr_reg_008_0_0_0_0.obj,0.042987693,-0.25634643,-0.07747784,0.20052046,-0.1715131,-0.13448587,0.35864633,0.05698995,0.19001718,-0.13947459,0.2621677,-0.12633923,-0.27354115,0.010811344,-0.1867205,-0.16790159,0.044083975,-0.06845259,-0.0031666292,0.0289013,0.041441504,-0.12510078,0.051985092,0.10853406,0.20525427,-0.11710584,0.3023974,0.24089116,-0.42015472,-0.06986402,-0.02933121,0.041077383,0.0,0.0
4_2_1_0_tr_reg_009_0_0_0_0.obj,0.22177991,-0.1774294,0.2318295,0.13870563,-0.11166825,0.07906298,-0.117571436,-0.15591918,-0.11178015,-0.015514332,0.027364943,0.0055350433,-0.07441997,-0.025402809,-0.15954535,0.050861273,0.0990336,0.02518275,-0.24235477,0.06251366,-0.22470269,-0.04077938,0.010562041,-0.06859923,-0.15328483,0.6367234,0.24373716,0.08639951,0.026994187,-0.02790391,0.31540406,0.12216227,0.0,0.0
4_2_1_tr_reg_000_0_0_0.obj,0.059884902,0.110317856,0.24539994,-0.060005683,0.04011507,0.025463065,-0.07340203,0.07328017,-0.3772112,-0.076782726,0.22064559,0.2552371,-0.05476712,-0.09753222,-0.08047868,0.15618113,0.046742424,-0.17107603,0.08602449,-0.33967614,-0.2981564,-0.12546004,-0.16564298,0.08353604,-0.0024840932,0.009112236,0.13769814,0.29956403,0.026918555,0.13639244,0.4165535,-0.08421801,0.0,0.0
4_2_1_tr_reg_001_0_0_0.obj,0.26052725,-0.019613713,0.002732747,0.21643046,-0.15418273,-0.13801293,-0.06344209,-0.2812547,-0.28538176,0.039952885,-0.24082357,-0.14370364,0.13398097,-0.084591694,-0.046345487,0.014972311,0.38238424,-0.19662094,-0.0056289732,0.15622512,0.044446934,0.3962627,0.23852798,-0.23927398,-0.031038884,-0.045167945,-0.1386854,-0.12552747,-0.08333233,-0.052137062,0.19000998,0.059617527,0.0,0.0
4_2_1_tr_reg_002_0_0_0.obj,-0.11034069,0.107089676,0.072950915,-0.1273723,-0.19067939,-0.17740625,0.27808288,0.06548106,0.113254786,-0.025825014,-0.071332976,0.31787333,-0.18103987,-0.14916715,0.034807198,0.18308654,-0.2751912,0.23402023,-0.1597454,-0.026417097,0.2614364,-0.0148832565,0.09506806,0.1717949,0.1250375,0.011572057,0.060861573,-0.40091252,0.14707659,-0.12573464,-0.29156956,0.17171787,0.0,0.0
4_2_1_tr_reg_003_0_0_0.obj,0.050497007,-0.1150631,0.07181783,0.005223729,-0.19509943,-0.0017782948,0.068019345,-0.039937377,0.011594169,0.12586537,-0.12868562,0.13087372,0.09474472,-0.18873502,-0.339068,-0.20202984,-0.11038656,0.3074383,-0.051548466,-0.3184984,-0.19422312,-0.25198975,0.39754945,0.14477472,-0.045506187,0.11912929,-0.01550006,-0.06750508,0.13187556,0.32245684,0.22595876,-0.013281487,0.0,0.0
4_2_1_tr_reg_004_0_0_0.obj,0.32060874,-0.23649864,-0.16418083,0.029848477,-0.010180775,0.03576821,-0.24687715,-0.0025619727,0.074872725,0.1111304,0.093167424,-0.0047916663,0.21233982,0.09668445,0.15155952,0.24012963,-0.49861407,-0.26369798,-0.067512006,0.048066597,-0.06573886,-0.09035627,-0.16412213,0.27630308,-0.107060336,0.047050826,0.07676706,-0.07660558,0.12227509,0.08026526,-0.047929592,0.3153603,0.0,0.0
4_2_1_tr_reg_005_0_0_0.obj,-0.062367275,0.21365008,0.015784739,-0.24080528,0.27449077,-0.2707396,0.011238486,-0.0802609,-0.14431068,-0.051050086,0.07754628,-0.0426928,-0.008181782,0.31461373,0.06234124,-0.07272912,0.048825078,-0.032098543,0.0071387626,0.016011864,-0.025298512,-0.21875523,0.29975346,-0.13133846,0.35257998,-0.13640374,-0.11695876,-0.35042262,-0.07071431,-0.0141116325,-0.33518547,-0.20312957,0.0,0.0
4_2_1_tr_reg_006_0_0_0.obj,0.054019477,0.1981595,-0.1774457,-0.1292226,0.062257946,0.4813478,0.024458759,0.22719859,-0.15534629,0.11917921,-0.28375846,-0.0023623307,0.0051365276,-0.15042372,-0.06569904,-0.015504393,0.20097065,0.28014976,0.15436454,0.07041379,-0.13954887,0.19586809,0.040401153,0.060059365,0.024818134,0.42984697,0.16176826,-0.10268644,0.08370187,-0.10538211,0.10245656,0.11968775,0.0,0.0
4_2_1_tr_reg_007_0_0_0.obj,0.021571409,-0.36629993,-0.22230873,-0.15583698,-0.049995713,0.036117032,-0.37276784,-0.09562608,0.13104056,-0.22363292,0.0003022853,-0.042825032,-0.10606982,0.10055423,-0.1888262,-0.15434113,0.07750259,-0.031918682,0.021431241,0.09948239,-0.17897116,0.13892724,-0.029611768,-0.23068325,-0.3492543,0.32812193,0.09967955,-0.14171216,0.30432755,0.02232812,0.05304336,0.10723651,0.0,0.0
4_2_1_tr_reg_008_0_0_0.obj,0.13339132,-0.03907712,-0.3452061,0.00069251104,0.009399493,-0.06315006,0.36590868,-0.013671267,0.17855707,0.049696285,0.21038038,-0.36076024,-0.025661215,0.26807442,0.09874426,-0.20530623,0.16369538,0.007862293,0.12498523,-0.026857197,0.10490863,-0.15992871,0.09472177,0.13432102,-0.26681927,-0.21229699,0.014504447,0.1811164,-0.16019674,-0.19428886,-0.10875759,-0.24261606,0.0,0.0
4_2_1_tr_reg_009_0_0_0.obj,0.17947845,-0.1767567,0.16233842,-0.20197527,-0.09073128,-0.14782557,-0.07502703,-0.31523296,0.09215434,0.009647963,0.17735057,0.10838026,-0.059268452,0.0062704645,0.030674115,0.17845434,0.14729305,0.22428213,-0.1670287,0.13531815,-0.038970392,-0.22825992,0.023895243,-0.17920373,-0.08279045,0.54951143,0.13588323,0.040536195,0.056229603,0.0007921274,0.3027284,-0.13394916,0.0,0.0
4_2_tr_reg_000_0_0.obj,0.07859018,0.13254125,0.3358038,0.18452896,0.16310377,-0.038961858,-0.121954426,-0.08046074,-0.5178677,-0.0019491061,0.05236801,-0.006953845,-0.011611855,0.33317274,-0.074924655,-0.038606837,0.15216148,-0.22198619,-0.060456257,-0.24167375,-0.1752199,-0.12816773,0.061331924,-0.10758478,0.063564315,-0.08549598,-0.1064032,0.22570331,0.18184924,0.019140024,0.0841917,-0.2822313,0.0,0.0
4_2_tr_reg_001_0_0.obj,-0.23183903,0.041735034,0.25911546,0.10475581,-0.09351041,-0.27778253,0.023832113,-0.36097294,0.013667903,0.037828926,-0.07550408,0.0039209165,0.29066435,-0.23978372,0.17459168,0.19901638,-0.090800956,-0.08276571,-0.21236494,0.11767522,-0.00671586,0.20584042,0.1578608,-0.22657439,0.30686966,-0.26727712,-0.15098764,0.03164455,-0.16889992,0.08615539,0.0856208,0.069377884,0.0,0.0
4_2_tr_reg_002_0_0.obj,-0.34277773,0.20018937,0.20747703,0.09551858,-0.11359052,-0.0032302397,0.13906807,0.10557259,-0.05299453,-0.25826013,-0.054003447,0.04418041,-0.23319435,-0.015237204,0.09455459,0.00063615706,0.043454554,0.0024244648,-0.15162247,-0.010504784,0.25430462,0.33643848,-0.2906993,-0.131447,-0.13215843,-0.13800085,-0.048752908,0.09449084,0.2844701,-0.32811415,-0.25498363,0.05363228,0.0,0.0
4_2_tr_reg_003_0_0.obj,-0.30641454,0.21763214,0.06452041,0.035982657,0.19275656,-0.02478717,-0.026917653,-0.014437364,0.28108943,0.13507624,-0.13860175,-0.1996816,0.20427619,0.12640661,0.1267141,-0.2547061,-0.15978797,0.13799173,-0.11790718,-0.049871817,-0.11120596,-0.20825987,0.118474826,-0.19120958,-0.2817321,-0.005015343,-0.36748028,0.21578148,-0.035696633,0.199331,-0.057881046,-0.21667668,0.0,0.0
4_2_tr_reg_004_0_0.obj,0.3003092,-0.12165016,0.15636788,0.25112754,0.11628462,0.03785918,-0.26249644,-0.25857148,-0.18164127,0.16370536,-0.0071877716,-0.17498529,0.23072973,0.40920898,0.20748045,0.14550279,-0.26875392,-0.14126286,-0.101605006,0.092308454,0.033170454,-0.16784248,0.013858373,0.08585812,0.28690103,0.057333652,0.037241135,-0.07561909,0.0099183135,-0.065350726,-0.1882392,0.032215923,0.0,0.0
4_2_tr_reg_005_0_0.obj,-0.064935975,0.18584578,-0.04221481,-0.12959638,0.2781082,-0.238106,-0.106501915,-0.07913526,-0.3182043,-0.073935255,0.049275007,-0.013981235,-0.059082177,0.31559032,-0.013332154,-0.027251178,0.27858084,-0.28654888,-0.05774368,0.13776553,-0.08719334,0.024604565,0.260389,-0.29171744,0.23182951,-0.12408861,-0.12927754,-0.20909004,0.037886154,-0.052613076,-0.22058842,-0.22824039,0.0,0.0
4_2_tr_reg_006_0_0.obj,0.13547242,0.1807378,-0.13990054,-0.09603371,0.38519803,0.16190743,0.013781827,0.15336913,0.30701458,0.15973742,0.1963062,-0.15776725,0.006447181,0.038518306,0.16775115,0.0017720573,0.050624672,-0.050402448,0.090579875,0.26835465,-0.13021033,-0.26264557,-0.21321952,0.10746125,-0.268735,0.25276718,0.017929405,0.102264404,-0.35143602,0.015343332,0.097623535,-0.024107207,0.0,0.0
4_2_tr_reg_007_0_0.obj,-0.025894387,-0.4935993,0.049580596,0.19312033,0.059077565,0.25022992,-0.2583081,0.08885653,0.06796461,-0.087135404,0.008683136,-0.03762092,-0.1130681,0.17004438,-0.29358843,-0.20110628,0.004581327,0.11158171,0.2655487,-0.022818055,0.21351646,-0.051018294,-0.1481488,0.06267907,0.40870607,-0.106396705,-0.020452691,0.051694937,-0.043772276,0.18575215,-0.08221832,-0.104706675,0.0,0.0
4_2_tr_reg_008_0_0.obj,-0.09741163,-0.32102436,-0.24503247,-0.021230953,-0.08867071,-0.25532752,0.24824345,-0.10732144,0.3339649,-0.10799074,0.22558035,-0.015712949,-0.057484057,-0.18311077,-0.044764705,-0.057996318,-0.08222117,-0.2032899,-0.13575843,0.25885257,-0.14167386,-0.045078408,0.101341754,-0.007356073,0.16289277,-0.12042872,0.26340374,0.20318864,-0.33626845,0.043064512,0.03587287,0.17425247,0.0,0.0
4_2_tr_reg_009_0_0.obj,0.115395755,-0.19078791,0.14099002,-0.26491868,-0.15420172,-0.2163024,-0.060764626,-0.3253621,0.15698273,-0.026958749,0.16995321,0.13430957,-0.086090654,-0.026738623,0.05639703,0.1939467,0.14433706,0.28289965,-0.16630045,0.1308276,0.04689168,-0.19099246,0.03999861,-0.21232286,-0.07798224,0.47466823,0.10782489,-0.042578083,0.10178402,-0.028510941,0.2373449,-0.124736816,0.0,0.0
4_3_0_tr_reg_000_0_0_0.obj,0.026361462,0.09973207,0.34808522,0.29311812,0.011973366,-0.072569825,-0.022427587,-0.15271924,-0.44020998,-0.05106367,0.048270173,-0.10877305,0.0042063002,0.24035667,-0.0044304286,0.014549261,0.20220253,-0.22369441,-0.11160335,-0.19788526,-0.030018847,0.07959229,-0.07870278,-0.17007484,-0.03465035,-0.17587274,-0.12308218,0.36709017,0.18049817,-0.13240123,0.120267145,-0.2301349,0.0,0.0
4_3_0_tr_reg_001_0_0_0.obj,-0.009285589,-0.012961212,0.10827141,0.2004498,-0.19212867,-0.25903806,-0.016723402,-0.3620281,-0.08513938,0.010649458,-0.15516834,-0.09457779,0.24896388,-0.23010214,0.12587743,0.15764183,0.1272394,-0.19738868,-0.13603076,0.17358254,0.062912285,0.4261291,0.14049345,-0.26753458,0.056112852,-0.2427899,-0.15606964,-0.033133388,-0.1101728,-0.024904795,0.13792917,0.12843697,0.0,0.0
4_3_0_tr_reg_002_0_0_0.obj,-0.04279255,0.08800206,0.081686236,-0.1040725,-0.17998111,-0.16053939,0.26666266,0.06700724,0.098347455,-0.010749165,-0.05229861,0.32773578,-0.15628143,-0.15770733,0.027787933,0.19757874,-0.31643137,0.21545155,-0.12895529,-0.05509012,0.24830425,-0.05272824,0.08459655,0.22948991,0.15844043,0.0016495102,0.08654484,-0.4196365,0.10115711,-0.083435476,-0.27163732,0.19993776,0.0,0.0
4_3_0_tr_reg_003_0_0_0.obj,-0.051739164,0.28718874,0.1162489,-0.13160144,0.060602233,0.08788878,0.00928574,-0.034783743,0.0035968241,0.3165017,-0.291458,-0.023715673,0.24399443,-0.097522356,0.0016116743,-0.20389982,0.05930822,0.39166814,0.08678691,-0.15270403,-0.057792448,-0.25555018,0.32262224,-0.066328526,0.04500728,0.03907142,-0.25672227,-0.014331665,-0.102821775,0.24047583,0.112663515,-0.24360071,0.0,0.0
4_3_0_tr_reg_004_0_0_0.obj,0.24597885,-0.24352558,0.1924423,0.23058265,0.03735921,0.02027568,-0.1737552,-0.27815336,-0.07317714,0.16433209,-0.031714443,-0.056394394,0.17626348,0.27563617,0.10090208,0.14565904,-0.33632112,0.027480692,-0.12568986,0.097801685,0.08277172,-0.21558015,0.09246308,0.15857048,0.42139998,0.117913574,0.102321796,-0.18161127,-0.020194395,-0.027028758,-0.1767069,0.109929636,0.0,0.0
4_3_0_tr_reg_005_0_0_0.obj,-0.1493535,0.17111439,-0.05109222,-0.38473842,0.1799345,-0.29236364,0.04078397,-0.043823577,0.15245058,-0.019821063,0.12181414,0.04847806,0.04406324,0.051784676,0.21112995,0.10589194,-0.15652171,0.027905507,0.036543097,0.08986478,0.09340952,-0.19877556,0.114390664,-0.03644595,0.33746597,-0.21220781,-0.07488556,-0.39261836,-0.22390872,0.001539116,-0.3275497,-0.04085776,0.0,0.0
4_3_0_tr_reg_006_0_0_0.obj,-0.18657488,0.3999188,-0.034191996,0.072600745,0.36801788,0.28805637,0.08024805,0.14515013,0.19411224,0.027057672,-0.05464445,-0.2492488,0.070504494,-0.082057804,0.22275858,-0.062268496,0.06474524,0.009809175,-0.02460704,0.28122845,-0.24134964,0.06573198,-0.1868301,-0.039086908,-0.18673758,0.22153667,0.020925153,0.11435037,-0.26959792,-0.13177155,0.0021629292,0.11689993,0.0,0.0
4_3_0_tr_reg_007_0_0_0.obj,-0.025902973,-0.57273453,-0.060626045,0.1403492,0.03663639,0.23364125,-0.25285745,0.08227726,0.04885193,-0.17819506,0.023763869,-0.016071595,-0.18234813,0.20286691,-0.393149,-0.23463567,0.02496453,0.08250957,0.19453692,-0.02080843,0.10079457,0.0048875227,-0.06528766,0.028382953,0.2949862,0.018399144,0.04744253,-0.008382266,0.120498076,0.16748542,-0.07366779,-0.06058434,0.0,0.0
4_3_0_tr_reg_008_0_0_0.obj,0.124791555,-0.094315216,-0.30935344,-0.09741604,-0.03961193,-0.10855063,0.3440981,0.0050665974,0.16534871,0.0149681205,0.28062448,-0.23744689,-0.11733227,0.31420216,0.088510245,-0.15397367,0.09682978,0.09992009,0.13266358,-0.104119554,0.10317896,-0.28874826,0.059166726,0.15607953,-0.20259379,-0.14800481,0.12661149,0.16045688,-0.058644123,-0.21110298,-0.14430648,-0.29765013,0.0,0.0
4_3_0_tr_reg_009_0_0_0.obj,0.09703559,-0.08232388,0.20945445,0.004379893,-0.09649676,-0.13065629,-0.18124719,-0.14684108,0.23892435,0.16769642,0.07699643,0.10251101,-0.13080314,-0.043543488,0.13013145,0.23234701,0.18183133,0.08338545,-0.14786746,0.29210088,0.24922882,-0.1674491,-0.19784603,-0.25392058,-0.0036915361,0.33983985,0.013757497,0.22833091,-0.24985364,-0.036797892,0.19565415,-0.23808685,0.0,0.0
4_3_1_0_tr_reg_000_0_0_0_0.obj,0.1579371,0.16423415,0.18756948,0.12730649,0.11540684,-0.10621366,0.17396043,-0.04828469,-0.37291,-0.08868768,0.051409785,-0.107362635,-0.21987261,0.4947458,-0.04757114,-0.17108981,0.19445716,0.029691445,0.0040777684,-0.17394945,0.104556374,-0.19120221,0.08280952,-0.020371359,0.045335,-0.018306358,-0.042058583,-0.005607128,0.1680476,-0.25118813,-0.20539224,-0.3038187,0.0,0.0
4_3_1_0_tr_reg_001_0_0_0_0.obj,0.008571672,-0.03008821,-0.092829935,0.060998928,-0.23757812,-0.27157643,0.018520191,-0.25658557,0.05913732,-0.064043835,-0.054545354,-0.048961557,0.16347478,-0.25645357,0.20369433,0.18844683,0.06834241,-0.21927035,-0.10234047,0.18879035,0.15359598,0.47032738,-0.02120167,-0.20036945,-0.22910964,-0.28807834,-0.106255874,-0.10857548,0.017672269,-0.1253355,0.043018494,0.21713036,0.0,0.0
4_3_1_0_tr_reg_002_0_0_0_0.obj,-0.0826124,0.026031042,0.0543756,-0.13024577,-0.21276544,-0.21456745,0.2398152,-0.018734775,0.13236871,-0.03119719,-0.045296807,0.33559746,-0.073056124,-0.25409338,0.03985634,0.23176624,-0.33347708,0.1676898,-0.13016784,-0.034927756,0.23133118,0.04471036,0.07775056,0.18714945,0.160052,-0.060562287,0.072563894,-0.4087756,0.088466175,-0.036371283,-0.19519116,0.24911751,0.0,0.0
4_3_1_0_tr_reg_003_0_0_0_0.obj,-0.22754067,0.1769256,0.050336994,-0.09504988,0.08914142,-0.0055903243,-0.0028359478,-0.0717073,0.1708566,0.20181678,-0.20507267,-0.10460359,0.27453935,-0.023095204,0.014825788,-0.253485,-0.11343106,0.27370813,-0.04751624,-0.14997388,-0.21326208,-0.24378012,0.34152284,-0.13256651,-0.12253468,0.030624159,-0.2885194,0.12259266,-0.014439539,0.3258833,0.09650154,-0.21755165,0.0,0.0
4_3_1_0_tr_reg_004_0_0_0_0.obj,0.22089536,-0.23565173,0.20431706,0.23398155,0.01192676,0.0020499153,-0.11820573,-0.29160142,-0.06327544,0.15829183,-0.04819188,-0.049537137,0.16090123,0.24863826,0.09337865,0.13938366,-0.32264552,0.0717878,-0.12569597,0.09388513,0.119067594,-0.1998983,0.11790567,0.1595226,0.45335135,0.09230554,0.10391535,-0.20908299,-0.035188455,-0.050170332,-0.19285102,0.11607906,0.0,0.0
4_3_1_0_tr_reg_005_0_0_0_0.obj,0.02174609,0.24360628,0.013051367,-0.24300933,0.10564666,-0.24999595,0.119880736,-0.04139752,0.12857728,0.045650747,0.029316626,-0.06414436,0.04318354,0.13061574,0.25936309,0.030791879,-0.17088485,0.1179377,0.043550998,0.036982495,0.2414447,-0.21287861,0.10844349,0.05332724,0.20516309,-0.18755196,-0.1211544,-0.44252342,-0.21112517,-0.12606648,-0.40925404,0.012720106,0.0,0.0
4_3_1_0_tr_reg_006_0_0_0_0.obj,-0.122491494,0.37936208,-0.1207277,0.045952268,0.38257027,0.2992593,0.046499006,0.11737511,0.18336158,0.069876246,-0.08530517,-0.29246113,0.08598036,7.9921156e-05,0.26127133,-0.055217847,0.14577016,0.0123341335,0.062950194,0.3334681,-0.13757542,0.08546979,-0.1508659,-0.072213225,-0.12511024,0.16214299,-0.034208022,0.06392656,-0.30532056,-0.15723126,-0.046309054,0.066787,0.0,0.0
4_3_1_0_tr_reg_007_0_0_0_0.obj,0.22836994,-0.43214735,-0.103581235,0.08042483,-0.009311982,0.16272964,-0.21771894,-0.018324861,-0.20102438,-0.040427092,-0.07614251,-0.023965474,-0.11069729,0.13510005,-0.41918716,-0.30444327,0.30615517,0.026331905,0.30877334,-0.073220275,-0.0024608052,0.051287435,0.114171274,-0.043316163,0.14844309,0.059104547,0.0325845,0.017881637,0.034433585,0.17152874,0.18818113,-0.12908272,0.0,0.0
4_3_1_0_tr_reg_008_0_0_0_0.obj,-0.01773897,-0.28136307,-0.25617856,0.04003122,-0.10821356,-0.26835072,0.33870295,-0.08673892,0.29058582,-0.102783784,0.2911947,-0.1738536,-0.092727005,0.0005094173,-0.022179183,-0.10958277,-0.044239987,-0.15520664,-0.086061746,0.1438633,-0.09426241,-0.111553386,0.12627816,0.019051785,0.13350002,-0.1684753,0.263878,0.26918238,-0.36047307,-0.05214747,-0.00746239,0.05831443,0.0,0.0
4_3_1_0_tr_reg_009_0_0_0_0.obj,0.11868681,-0.11412843,0.19958106,0.013252682,-0.16029282,-0.114347704,-0.1714276,-0.15846379,0.20813471,0.15361889,0.046786685,0.10804605,-0.14773226,-0.070135325,0.11090033,0.2310187,0.22825606,0.10130291,-0.14277767,0.28874457,0.26885003,-0.10765824,-0.1901462,-0.26242176,-0.029115338,0.35533932,0.046886224,0.2173182,-0.20007272,-0.068856314,0.20653597,-0.21780384,0.0,0.0
4_3_1_tr_reg_000_0_0_0.obj,-0.004850398,0.19639939,0.14387763,-0.23539846,0.12014923,0.03576829,-0.06818477,0.20778178,-0.23619907,-0.13446629,0.2971849,0.3393369,-0.15182582,-0.11311511,-0.020605579,0.15576279,-0.012874423,-0.11952451,0.18055941,-0.28848743,-0.22870159,-0.20854647,-0.2801215,0.122829296,-0.0042800386,-0.015505357,0.19091551,0.17080927,-0.016914897,0.14940302,0.26750907,-0.064801,0.0,0.0
4_3_1_tr_reg_001_0_0_0.obj,0.2323065,-0.03533586,0.04443184,0.23124583,-0.0913553,-0.09213658,-0.09630323,-0.27635384,-0.33150336,0.03266605,-0.26775566,-0.12050798,0.10849971,-0.04289297,-0.12171109,-0.02709401,0.3865343,-0.18256404,-0.034743726,0.15905868,-0.041797873,0.34462455,0.30359384,-0.24248403,0.038245432,0.057333652,-0.116779245,-0.13601656,-0.06188764,-0.011312741,0.19440784,0.033952788,0.0,0.0
4_3_1_tr_reg_002_0_0_0.obj,-0.29318717,0.24549969,0.23537782,0.13821377,-0.08604296,-0.013916496,0.17050456,0.121347904,-0.11061705,-0.22393414,-0.08286664,0.031076333,-0.25441754,0.06818044,0.07907875,-0.033360112,0.053834666,0.01615395,-0.14718609,-0.034220293,0.2818881,0.2784602,-0.2294674,-0.11876035,-0.08197849,-0.15676343,-0.07965142,0.055916153,0.27938834,-0.33106375,-0.32027802,0.0123853125,0.0,0.0
4_3_1_tr_reg_003_0_0_0.obj,-0.050284594,0.14654712,0.18898726,0.076027155,-0.021551842,0.093907826,0.09796524,0.032098863,-0.011534849,0.23238847,-0.2328666,-0.04281562,0.1481313,-0.051943287,-0.18516077,-0.29118827,-0.044161752,0.36090326,-0.03758454,-0.29459926,-0.15182385,-0.30563155,0.3830519,0.034653377,0.006636439,0.07759658,-0.18472439,0.08989876,-0.016484018,0.27852806,0.12447041,-0.18511805,0.0,0.0
4_3_1_tr_reg_004_0_0_0.obj,0.30661395,-0.21140164,-0.20932378,-0.0072856927,-0.040648513,0.025730606,-0.2178877,0.03109913,0.10747041,0.11716124,0.090234436,0.011643128,0.22073832,0.021595793,0.16566758,0.24922219,-0.4836059,-0.27430382,-0.039211057,0.04114168,-0.049332876,-0.052140933,-0.1956285,0.27275214,-0.1598531,-0.01566222,0.054565594,-0.061307874,0.09772722,0.08479061,-0.0258388,0.33802554,0.0,0.0
4_3_1_tr_reg_005_0_0_0.obj,-0.17730497,0.07219293,-0.24225396,-0.39933446,0.29596362,-0.21460497,-0.18955436,0.059676696,-0.07413937,-0.12395157,0.20475803,0.14448217,-0.106127046,0.08876916,-0.04822775,0.051809873,0.22139,-0.29951927,0.020705024,0.18329668,-0.19647135,-0.03133055,0.16792253,-0.22602172,0.19882098,-0.085646704,0.0034564526,-0.2475161,-0.06262999,0.09816007,-0.12023308,-0.19096123,0.0,0.0
4_3_1_tr_reg_006_0_0_0.obj,0.035395607,0.18641822,-0.48700806,-0.28252903,0.14915432,0.17233732,0.012252792,0.09638913,0.109738715,0.17852351,-0.246283,-0.22772035,0.17219962,-0.07339012,0.13693467,-0.043897256,0.2860844,0.099548355,0.2337439,0.24391608,-0.038476657,0.19011691,0.17759676,-0.11342231,-0.07535611,0.08031297,-0.1205781,-0.16428469,-0.163782,-0.026564335,0.026268316,-0.06060239,0.0,0.0
4_3_1_tr_reg_007_0_0_0.obj,-0.104398936,-0.48755804,-0.22693463,-0.0856285,-0.022171618,0.018578742,-0.34907886,-0.04978949,0.16404678,-0.27450252,0.036376078,-0.038811345,-0.18751583,0.20863017,-0.25510684,-0.18687715,0.04015835,-0.036811117,-0.008487176,0.09786987,-0.09024153,0.09693112,-0.043529913,-0.22740425,-0.16856077,0.21133748,0.07705224,-0.06515529,0.33315763,0.03579001,-0.06412132,-0.013815484,0.0,0.0
4_3_1_tr_reg_008_0_0_0.obj,0.18001479,0.020521447,-0.3325737,-0.0567746,0.016062401,-0.015602546,0.37997934,0.00976298,0.12603712,0.09430704,0.16199799,-0.3131987,-0.014762243,0.26181534,0.10587828,-0.21918935,0.1617866,0.11101648,0.1619203,-0.07890557,0.112331,-0.219767,0.13963744,0.19357067,-0.2603943,-0.17932841,0.02421556,0.087728746,-0.09358903,-0.19738513,-0.1373502,-0.2599407,0.0,0.0
4_3_1_tr_reg_009_0_0_0.obj,0.115229905,-0.1312358,0.14674194,-0.29161817,-0.07965302,-0.18191984,-0.09862442,-0.26285616,0.20888664,0.035267457,0.18625385,0.157092,-0.08042041,-0.022251438,0.10907885,0.22829102,0.10862663,0.2775595,-0.13917106,0.17480302,0.08843417,-0.24718538,-0.03822407,-0.18728334,-0.046197794,0.48556936,0.087106526,-0.015502571,0.034774955,-0.002480994,0.21451417,-0.17958108,0.0,0.0
4_3_2_0_tr_reg_000_0_0_0_0.obj,0.0011624597,0.09317994,0.33018154,0.29040223,0.0076388735,-0.07723466,-0.0071938047,-0.16057473,-0.41751063,-0.07725271,0.05188611,-0.12554103,-0.010737037,0.24435848,0.00055610354,-0.0022770169,0.22261256,-0.21761076,-0.118878484,-0.17546293,-0.0087705515,0.111347094,-0.086232096,-0.18752958,-0.05831539,-0.18361051,-0.12331406,0.3611143,0.2025497,-0.16247518,0.09488794,-0.2268822,0.0,0.0
4_3_2_0_tr_reg_001_0_0_0_0.obj,0.25357345,-0.11348973,-0.26077494,0.043811545,-0.2790278,-0.17227153,-0.019729584,-0.104672894,-0.010506003,-0.05082928,-0.085695885,-0.029226769,0.045279115,-0.20967259,0.04865213,0.13863811,0.20381278,-0.22661613,0.06568846,0.12210472,0.20198491,0.47158405,-0.02571714,-0.10152605,-0.35253817,-0.19613187,-0.094165325,-0.18564358,0.062406007,-0.088788226,0.11022867,0.1980869,0.0,0.0
4_3_2_0_tr_reg_002_0_0_0_0.obj,-0.10570053,0.23396069,0.11340418,-0.054299064,-0.11357864,-0.095398776,0.2703699,0.18122253,0.04915879,-0.043651283,-0.074460946,0.28293315,-0.23430519,-0.06895871,0.061668873,0.13651374,-0.26626164,0.19027267,-0.14270823,-0.045381237,0.2674213,-0.025973132,0.01901035,0.1848737,0.093646646,-0.012563428,0.050770782,-0.38228682,0.13247366,-0.16738571,-0.3893204,0.1651936,0.0,0.0
4_3_2_0_tr_reg_003_0_0_0_0.obj,-0.01140581,-0.012965775,0.06657255,-0.07375058,-0.17975578,-0.01699679,0.11520812,-0.009397981,0.09038337,0.14230067,-0.13165325,0.12258173,0.10010447,-0.19889988,-0.2611882,-0.20627822,-0.13089015,0.39169347,-0.041204505,-0.32702613,-0.14498895,-0.2856896,0.4000523,0.13408901,-0.075168766,0.09101824,-0.06746986,-0.09379716,0.11632912,0.3012365,0.1692163,-0.051790748,0.0,0.0
4_3_2_0_tr_reg_004_0_0_0_0.obj,0.32499212,-0.22720659,-0.037629142,0.15928738,0.010430713,0.10567235,-0.25966382,-0.10728101,-0.013735826,0.15930203,-0.0069896183,-0.05195977,0.22142732,0.22566395,0.16639434,0.22099593,-0.4722942,-0.1569218,-0.11365845,0.09379073,0.006833312,-0.12666269,-0.1006906,0.25510004,0.07505652,0.12119567,0.098819196,-0.12062444,0.13608523,-0.012541146,-0.15243274,0.27149254,0.0,0.0
4_3_2_0_tr_reg_005_0_0_0_0.obj,-0.0632401,0.1703978,-0.07963544,-0.4100742,0.20271204,-0.25479186,0.042084467,-0.003073303,0.10940247,-0.04760684,0.14242464,0.04056476,-0.016609311,0.112357244,0.15392976,0.042682987,-0.118870296,0.06520587,0.08571827,0.05495922,0.06653329,-0.26134506,0.13811126,0.025247766,0.31209216,-0.11450134,-0.013842986,-0.46761298,-0.19898377,-0.02512431,-0.3432934,-0.038176317,0.0,0.0
4_3_2_0_tr_reg_006_0_0_0_0.obj,0.039605178,0.25845072,0.026988564,0.14348802,0.121980146,0.47059834,0.0498567,0.21285605,-0.13053714,0.10235296,-0.22146936,-0.16432503,-0.04759229,-0.07596248,-0.027226085,-0.07255014,0.24153541,0.19460158,0.05095672,0.17483337,-0.12104738,0.14240533,-0.0074107707,0.030669298,0.10756452,0.41673297,0.19511169,-0.03216156,-0.1855124,-0.23447074,0.00689736,0.17174545,0.0,0.0
4_3_2_0_tr_reg_007_0_0_0_0.obj,0.09748838,-0.25625837,-0.018581249,0.02435291,0.04142072,0.308877,-0.30820128,0.15016349,0.087429985,0.037810586,-0.09843072,0.009200293,-0.0246727,-0.010073359,-0.1812315,-0.20830351,0.07106418,0.20479879,0.46171424,-0.002774293,0.34126183,-5.728131e-05,-0.23734944,0.09056031,0.2569099,-0.1439841,-0.09561268,-0.14754397,-0.1607482,0.15291877,-0.06487891,0.034421206,0.0,0.0
4_3_2_0_tr_reg_008_0_0_0_0.obj,0.35778368,0.102003016,-0.2975657,-0.22853811,-0.029478345,0.13060024,0.19826835,-0.020103272,-0.023174183,0.13198291,0.056032274,-0.15005443,0.11073974,0.033195127,0.07708552,-0.16187052,0.30004144,0.23056628,0.33569548,-0.17260516,0.12319334,-0.112011604,0.059426416,0.20960765,-0.37516356,-0.09366972,-0.04063308,-0.0755653,0.087014005,-0.08921807,0.0943991,-0.17850594,0.0,0.0
4_3_2_0_tr_reg_009_0_0_0_0.obj,0.07027621,-0.057465523,0.22241697,0.17182949,-0.16785555,-0.04371022,-0.15073338,-0.018422853,0.24624652,0.19065085,-0.0060744695,0.067522585,-0.18633766,-0.09485759,0.100844875,0.17486368,0.19939135,0.053372927,-0.12892944,0.30149814,0.3570783,-0.06900576,-0.24120037,-0.2215728,0.028432323,0.21744469,0.024034698,0.26506057,-0.34050184,-0.06569861,0.09961267,-0.18653704,0.0,0.0
4_3_2_1_0_tr_reg_000_0_0_0_0_0.obj,-0.050547257,0.10618536,0.33459857,0.1592121,0.09354113,-0.050011873,-0.08227176,-0.05407571,-0.4362191,-0.06670729,0.13787082,0.047823578,-0.025277024,0.13544622,-0.0668995,0.039366845,0.16705276,-0.2574677,-0.07291918,-0.2665089,-0.21133916,-0.02700585,-0.08595715,-0.12434118,-0.032640886,-0.14136289,-0.065418035,0.40969765,0.15103936,0.03401147,0.25866032,-0.25306106,0.0,0.0
4_3_2_1_0_tr_reg_001_0_0_0_0_0.obj,0.32489327,-0.098849446,-0.21381451,0.037489437,-0.21696858,-0.048330937,-0.058653615,-0.12080384,-0.21727327,-0.02712535,-0.21578234,-0.023484722,-0.0036709288,-0.14191239,-0.10005085,0.07823525,0.36194712,-0.14123662,0.07906675,0.1669741,0.07862306,0.4694955,0.12835743,-0.1357146,-0.17682773,0.10139895,-0.017909229,-0.2653373,0.08185959,-0.10719061,0.17309982,0.17818427,0.0,0.0
4_3_2_1_0_tr_reg_002_0_0_0_0_0.obj,-0.120579146,0.00814977,0.029089766,-0.17223325,-0.21782786,-0.20585632,0.1863876,-0.016338147,0.17873645,-0.054370318,-0.026677383,0.34529626,-0.04206056,-0.27806845,0.052349128,0.23537792,-0.3678831,0.16036165,-0.1146923,-0.0677488,0.21385987,0.06631513,0.022533989,0.17279282,0.068031386,-0.06839147,0.046625096,-0.3925389,0.13145173,-0.014023867,-0.16658506,0.26054218,0.0,0.0
4_3_2_1_0_tr_reg_003_0_0_0_0_0.obj,-0.012451988,-0.008359686,-0.011267758,-0.19998297,-0.08660066,-0.0021560646,-0.014296032,-0.06763159,0.022021335,0.18714918,-0.16571842,0.15209603,0.19300862,-0.25067896,-0.2223056,-0.14458652,-0.035148524,0.31045812,0.05826819,-0.22142453,-0.2176638,-0.21476938,0.4261956,0.057599492,0.03552173,0.08094209,-0.07801246,-0.12789868,0.03776226,0.3908284,0.26519343,-0.08708587,0.0,0.0
