filename,l1,l2,l3,l4,l5,l6,l7,l8,l9,l10,l11,l12,l13,l14,l15,l16,l17,l18,l19,l20,l21,l22,l23,l24,l25,l26,l27,l28,l29,l30,l31,l32,embed_x,embed_y
tr_reg_000.obj,-0.029305741,0.11974592,0.18256986,-0.11081327,0.1308536,0.003965756,-0.12801374,0.117568225,-0.3544952,-0.08455306,0.22899856,0.27051222,-0.076413564,-0.06916531,-0.119392484,0.07844188,0.09837706,-0.22545233,0.08244955,-0.30325577,-0.35433677,-0.1460967,-0.0929428,0.019728044,-0.015487496,-0.056498274,0.08600463,0.26672032,0.042131014,0.2163451,0.3641698,-0.15496865,464.23648,188.3168
tr_reg_001.obj,-0.25907663,0.06602705,0.2951147,0.05348433,-0.017070545,-0.24354988,0.025908336,-0.3120882,0.007372656,0.074730456,-0.051563393,0.08540457,0.26773044,-0.23066641,0.16208267,0.23109078,-0.15633944,-0.049516696,-0.20593703,0.101448596,-0.055400126,0.067041844,0.15943672,-0.15937865,0.42734903,-0.22089164,-0.11599676,0.037592452,-0.21783203,0.1432768,0.088780515,0.024598166,463.67728,188.01309
tr_reg_002.obj,-0.34198254,0.049835615,0.07188403,-0.033919957,-0.12182447,0.0129267555,0.026408896,0.0018813267,-0.0019306598,-0.2913441,0.03226965,0.048899796,-0.1108741,-0.18389587,0.13108253,0.12170425,0.078236334,-0.1273753,-0.08466837,0.08356187,0.1363056,0.48139867,-0.38527167,-0.17119442,-0.17801325,-0.13424532,0.03584598,0.1748272,0.23803212,-0.2658184,-0.03612007,0.1317896,464.2709,188.30142
tr_reg_003.obj,-0.34193635,0.10141871,0.052117363,0.06455982,0.10597527,-0.049867846,0.009507046,0.07011448,0.40955213,0.022493647,-0.0317072,-0.11186348,0.060491838,0.09098269,0.076917194,-0.22627975,-0.27239165,0.11624042,-0.20419636,-0.06877746,-0.07156328,-0.20289472,-0.016272763,-0.11526676,-0.45739692,0.057136703,-0.28707302,0.2304396,0.07086177,0.16065033,-0.09248012,-0.12257779,36.5123,345.8318
tr_reg_004.obj,0.2624095,-0.16350982,-0.16006978,-0.08018504,0.006463595,0.084498905,-0.24036363,0.10538168,0.0039634677,0.1451338,0.12304849,0.117442064,0.22408599,-0.085175075,0.17267218,0.31205314,-0.38687608,-0.33511963,0.06192511,-0.017306099,-0.13870254,-0.052623287,-0.26101807,0.23793611,-0.058925632,-0.075513035,0.06310647,0.1349261,-0.0072430302,0.18923147,0.14806819,0.2441425,467.14215,188.97282
tr_reg_005.obj,-0.28678027,-0.0051603788,-0.16739173,-0.35104346,0.18441817,-0.12633403,-0.21295017,-0.008459095,-0.027334305,-0.13283369,0.24956524,0.2086133,-0.018591207,-0.1442426,0.099060975,0.20202775,0.19624381,-0.3812369,-0.013395629,0.14613941,-0.21305269,0.14300933,-0.14416155,-0.23122388,-0.09365632,-0.1939611,0.020510191,0.14505099,0.057576712,0.09146935,0.16902521,-0.14673597,464.22675,188.31712
tr_reg_006.obj,-0.08233281,0.34709802,-0.03252187,0.10162524,0.41328305,0.2474902,0.10754612,0.1361582,0.23320745,0.0738185,0.020226216,-0.24743155,0.02178902,-0.036866643,0.2190023,-0.07394956,0.122925214,-0.023398055,0.0115849245,0.31456998,-0.15653516,-0.030003613,-0.19993411,-0.0051398003,-0.22138786,0.16579783,-0.010792194,0.11652856,-0.36758098,-0.117063686,0.010536144,0.056488995,36.604095,345.51715
tr_reg_007.obj,-0.017936507,-0.54942846,0.021788074,0.17554413,0.045170948,0.22417177,-0.27704427,0.0409872,0.03568968,-0.09127931,0.018153256,-0.024097124,-0.1198398,0.1801086,-0.33805174,-0.20422108,0.057679877,0.07453132,0.22904103,-0.0041384827,0.14469463,-0.035137717,-0.0801406,0.012661948,0.3961071,-0.057286877,0.0069477423,0.08386563,-0.0036128864,0.20887353,-0.023286825,-0.14466141,649.53107,502.80368
tr_reg_008.obj,0.03622328,-0.2685629,-0.32722792,-0.0807707,-0.07690403,-0.30249903,0.32824397,-0.10462401,0.25580862,-0.036379617,0.31307775,-0.19982928,-0.08093215,0.22880746,0.03419823,-0.08453759,-0.073472306,-0.025723428,-0.03488637,0.044636607,-0.06448618,-0.28244558,0.18610267,0.04144347,0.11423447,-0.13128154,0.21243618,0.22460704,-0.20446433,-0.07226309,-0.075533785,-0.12949857,681.94,297.687
tr_reg_009.obj,0.041451078,-0.17263927,0.020341218,-0.3086517,-0.15569751,-0.17062797,-0.13620494,-0.12768552,0.3560369,0.038921136,0.1265519,0.18756443,-0.18682805,-0.10783319,0.09955417,0.20177288,0.1523861,0.24647868,-0.070762314,0.26946962,0.25848863,-0.12664059,-0.124361314,-0.22335131,-0.06755732,0.37361184,0.089324854,-0.022966268,-0.025873695,-0.02106468,0.10933575,-0.18009442,22.31842,375.61194
2_tr_reg_006_0.obj,0.0022530074,0.24771988,-0.08564547,0.01592752,0.41669777,0.20299055,0.12895215,0.19797923,0.28176633,0.08280112,0.16241813,-0.15169834,-0.049786743,-0.055166066,0.15938058,-0.024454085,0.09335206,-0.088429056,0.042205915,0.2818861,-0.15037914,-0.13064654,-0.23859662,0.09011251,-0.26910043,0.17039031,0.02487315,0.15222381,-0.39306754,-0.033505436,0.09137569,0.03863308,248.12979,351.96896
8_7_6_4_0_tr_reg_008_0_0_0_0_0.obj,0.29541418,0.23372108,-0.22200412,-0.01457942,0.1124129,0.1528581,0.19981502,0.005383268,-0.0023764006,0.25154808,-0.12305522,-0.30609906,0.16582729,0.12278696,0.13398477,-0.25280726,0.24124415,0.15427396,0.26649493,-0.016642824,0.22245999,-0.080740415,0.09141065,0.15434223,-0.22847044,-0.16974872,-0.19115801,-0.0839701,-0.15399303,-0.1348904,-0.08855504,-0.14230828,350.75842,691.3949
8_5_4_tr_reg_004_0_0_0.obj,0.23024416,-0.16649123,-0.18662222,0.004131174,-0.17076531,-0.09829703,0.032346405,0.16247554,-0.020967001,-0.050800238,0.052059423,0.22320332,0.06291441,-0.3495712,-0.1113707,0.17159477,-0.18730938,-0.2799709,0.19484584,-0.1700679,0.042714547,0.15447733,-0.22115001,0.2397877,-0.08229997,-0.24437696,0.0068988157,-0.07114522,-0.16315569,0.21305987,0.20004536,0.31386986,604.0974,300.57724
8_7_4_3_2_1_0_tr_reg_008_0_0_0_0_0_0_0.obj,-0.19388245,0.14048038,-0.12140343,-0.119891204,0.17441607,0.06068916,-0.06202899,0.39492843,0.13375348,-0.16841318,0.08321839,0.21022494,-0.19267438,-0.15347743,-0.09876341,-0.027491884,-0.12674454,-0.17626947,0.048149075,0.10122968,-0.046823315,0.036936786,-0.00489831,0.11442728,0.078416765,-0.15013616,0.036792416,-0.45110664,-0.14406899,0.13080229,-0.3421214,0.2936869,711.7224,241.33928
8_7_6_5_4_3_2_0_tr_reg_007_0_0_0_0_0_0_0_0.obj,0.19361332,-0.36429662,-0.1510663,-0.016589724,-0.05285593,0.0728507,-0.2556076,0.077524774,0.3126128,-0.00015446359,0.02262257,-0.023075372,0.043986,-0.020401323,-0.20930876,-0.22136554,-0.21451771,0.21851268,0.29893392,-0.10917883,0.21238942,-0.15513127,-0.12160545,0.21687639,-0.12013269,-0.07023353,-0.10184165,-0.34210467,-0.030406373,0.17475897,-0.050944325,0.16262396,633.39166,623.3062
8_7_6_5_tr_reg_001_0_0_0_0.obj,-0.30962065,0.0104427505,0.20410386,-0.10664891,0.04261671,-0.24977827,0.0424813,-0.20465146,0.023928178,0.0058013448,0.046257798,0.23993796,0.14846815,-0.26568392,0.070840806,0.28482786,-0.19911191,-0.05667552,-0.1892059,0.07061578,-0.18832311,-0.027001213,0.1877643,-0.07322506,0.48010406,-0.12015805,0.005412387,-0.0081193745,-0.17465721,0.222044,0.13675673,0.0031236573,234.34996,213.85574
7_6_4_2_1_0_tr_reg_009_0_0_0_0_0_0.obj,0.17241043,-0.13879713,0.18966289,0.13149092,-0.16772816,0.1047402,-0.15033972,-0.05346404,0.04453785,0.0016920276,-0.07859779,0.019861348,-0.052503005,-0.10546953,-0.09233125,0.081698336,-0.06836493,0.0967296,-0.26215488,0.056514204,-0.15500776,0.026636293,-0.06588564,-0.032100737,-0.37158582,0.6102862,0.13427404,-0.04836865,0.14812277,-0.03711763,0.21736369,0.2793363,138.55876,530.16693
7_tr_reg_008_0.obj,0.045913897,-0.26699206,-0.30922318,-0.03971875,-0.08700383,-0.2780716,0.3440908,-0.09275558,0.23000209,-0.029943263,0.30871236,-0.22778504,-0.10346001,0.26640493,0.019439885,-0.09336865,-0.04793248,-0.0066857915,-0.023214199,0.020867234,-0.034012243,-0.27758592,0.16700286,0.06180372,0.099694945,-0.1232225,0.21779339,0.24454467,-0.18665777,-0.10964338,-0.08276708,-0.16262789,689.86206,343.37363
8_7_6_0_tr_reg_000_0_0_0_0.obj,0.25713122,-0.17259464,0.11923799,0.13414493,-0.329495,0.15038538,0.12641774,0.024352863,-0.20775792,0.15219942,-0.1275465,0.1328743,0.005973263,-0.23753661,-0.26990822,0.028310526,0.03303303,0.3077114,0.15297244,-0.2855594,0.0833792,-0.02605081,0.019026583,0.24520119,0.24984547,0.10814497,0.20388977,0.08424356,-0.025722086,0.04499962,0.31502873,0.0144048175,328.10123,105.07391
8_5_4_2_tr_reg_006_0_0_0_0.obj,0.23883662,-0.021100763,-0.12816861,-0.40686962,0.19340749,0.01378386,-0.34181556,-0.0028005783,0.2443877,0.091462664,0.28355902,0.0025250807,0.061359685,0.12251303,0.056864917,-0.012597335,-0.087327585,0.045824952,0.17855105,0.088773035,-0.1548341,-0.393629,-0.16851677,0.042514905,-0.21932554,0.28002945,0.11019672,-0.15130584,-0.004334334,0.091981165,0.032806247,-0.07554748,184.87881,329.69186
8_7_4_1_tr_reg_006_0_0_0_0.obj,0.08560962,0.15011728,-0.44637653,-0.28068316,0.07796931,0.25955984,6.624788e-05,0.12848179,0.009579438,0.1873929,-0.31331846,-0.12731028,0.112737186,-0.11665327,0.041534033,-0.048305597,0.32019076,0.1950431,0.26285687,0.19216974,-0.023646066,0.22298647,0.17423435,-0.08987319,-0.04877775,0.19507226,-0.052074123,-0.17616507,-0.06076752,-0.03597145,0.08113654,-0.033619754,365.27988,425.533
8_7_4_1_0_tr_reg_000_0_0_0_0_0.obj,0.2572034,0.025515212,0.12914194,-0.10185387,-0.025599502,-0.006541817,0.20282778,-0.0718693,-0.28376603,-0.018061057,0.18537275,0.10300783,-0.2321067,0.29561976,-0.014803727,0.06064998,0.14188118,0.2569091,0.064086005,-0.18905191,0.09093554,-0.31715214,-0.027416572,0.16772382,0.03561853,0.26361585,0.23950133,-0.006783439,0.18727812,-0.2852911,0.011305469,-0.2822716,420.15497,326.98065
8_7_3_1_0_tr_reg_007_0_0_0_0_0.obj,0.33609906,-0.014889805,-0.043788493,-0.094937146,0.0792221,0.17782447,-0.090341106,0.121141456,-0.2857762,0.082653254,-0.08765591,0.070229426,-0.096888065,0.03296708,-0.33525693,-0.35642657,0.30436328,0.1589165,0.3944367,-0.14620502,0.017666413,-0.13482165,0.1572626,0.14037399,0.071964286,0.06745657,0.032490104,-0.27204132,-0.0735784,0.09211595,0.08477905,-0.021753913,620.8446,466.18912
8_7_5_3_2_tr_reg_003_0_0_0_0_0.obj,-0.39084458,0.20086193,-0.05274115,-0.027487697,0.25367373,-0.032589093,0.0031614886,0.11683961,0.36461884,0.019683806,0.06526847,-0.08959675,0.0943578,-0.044543516,0.1899446,-0.088259235,-0.20085156,-0.108868815,-0.20822413,0.094078824,-0.22037977,-0.084091544,-0.13818952,-0.13275045,-0.43070984,-0.010384725,-0.17452396,0.3022625,-0.044582523,0.107529156,-0.015928905,-0.07682717,441.38953,37.513092
8_5_2_1_0_tr_reg_004_0_0_0_0_0.obj,0.12828231,-0.42445293,0.06910361,0.20126264,-0.24148916,0.004168835,-0.04405419,-0.125609,0.122770764,0.15749326,-0.08631346,0.23144573,0.109690525,-0.27184612,-0.19723146,0.16144092,-0.29191136,0.09732787,-0.07874871,0.024903638,0.08102236,-0.037050337,0.087139115,0.22876382,0.30100513,0.054224793,0.10786552,-0.08102973,-0.05932866,0.26901054,0.1742748,0.20708808,550.63715,315.43747
8_7_6_5_3_2_1_tr_reg_008_0_0_0_0_0_0_0.obj,0.40872294,-0.03583671,0.17700428,0.076024264,-0.12206454,0.10792959,-0.18008502,-0.23634562,-0.40616217,0.18375158,-0.15197243,-0.01794795,0.13584892,0.03066807,-0.14137018,-0.036519762,0.33199596,0.20622672,0.17576966,-0.11908211,0.027364021,-0.010310505,0.1252582,-0.08478926,0.14718674,0.22710994,0.01917411,-0.040914968,-0.011799741,-0.008220075,0.32527035,-0.1183026,320.67297,621.1987
8_7_6_5_1_0_tr_reg_007_0_0_0_0_0_0.obj,0.28315333,-0.29971552,-0.19417478,-0.21013707,0.014436218,0.18468423,-0.43522978,-0.06510409,-0.108463325,0.024924021,-0.04262158,0.13183503,0.11296679,-0.03354334,-0.25118145,-0.060127016,0.044176683,0.046144765,0.29358625,-0.04258773,-0.16443059,-0.0009027731,0.077197805,0.031879883,0.09342965,0.19591257,0.094975434,-0.2907749,0.09657073,0.28397745,0.22130774,0.047408827,500.38583,397.14648
8_6_4_tr_reg_006_0_0_0.obj,0.26619196,0.17563374,0.291526,0.38125435,0.045559432,0.24821332,-0.11878964,0.027086997,-0.38767233,0.18554278,-0.21645683,-0.12000339,-0.037094947,0.10576018,-0.107537754,-0.067036726,0.3153779,-0.022268511,0.048307955,0.077666245,0.08850263,0.079587586,-0.0025076799,-0.07637616,0.25604606,0.16464768,0.005665113,0.06194206,-0.25413772,-0.14532837,0.061423343,-0.022011101,203.48608,524.55994
8_7_4_3_tr_reg_001_0_0_0_0.obj,0.23382285,0.10067131,0.31863067,0.2985879,0.022777086,0.31031406,-0.121632196,0.0478357,-0.44775105,0.21979617,-0.31678063,0.0008437553,0.052691553,0.04134391,-0.21806045,-0.12675418,0.17075281,0.133098,0.09954783,-0.1481348,0.012017318,-0.015502871,0.07345208,0.03729973,0.28982547,0.1359219,-0.0566345,0.025805604,-0.05135757,0.042309266,0.12746014,-0.02129848,211.00473,130.98749
8_6_5_4_3_1_0_tr_reg_007_0_0_0_0_0_0_0.obj,0.28289995,-0.19622229,-0.25980738,-0.24020644,-0.01269115,0.011397556,-0.20925425,0.01356977,0.20048127,-0.0054845554,0.119422995,-0.059184108,0.07553707,-0.0033755547,-0.1875869,-0.3367397,-0.055802185,0.038077705,0.26852936,-0.15355867,-0.16851383,-0.2535707,0.04650293,0.108488925,-0.39798272,0.06354144,0.029188264,-0.18613438,-0.02127957,0.24650948,0.103020385,0.15191318,570.47253,431.51947
8_7_4_2_1_0_tr_reg_008_0_0_0_0_0_0.obj,0.03611031,0.07324537,-0.03225794,0.27176672,0.14752762,-0.0012558805,-0.008092394,-0.088264525,0.13430545,0.18631764,0.01762197,-0.24613494,0.14340834,-0.056131568,0.208418,-0.009407202,0.16611606,-0.2872898,-0.00073244766,0.37760344,0.03793819,0.05876331,-0.053836264,-0.10755194,0.08331021,-0.22468854,-0.031968817,0.23272935,-0.5632182,-0.068794176,0.0180476,0.031086875,739.1821,316.77695
8_7_6_4_3_2_0_tr_reg_009_0_0_0_0_0_0_0.obj,0.13912977,-0.286875,0.19882865,0.40196496,-0.06114109,0.21745515,-0.24441878,0.0561586,-0.15849584,-0.055619616,-0.04503244,-0.007643923,-0.17337005,0.0046120896,-0.29323214,0.023533793,0.1688729,-0.09789661,-0.0776503,0.121798724,-0.040607166,0.14086477,-0.008087118,-0.07974426,0.33703658,0.33901197,0.21005005,0.10126584,-0.18136707,0.0779152,0.16215073,0.03688682,537.5178,479.81793
7_6_4_1_tr_reg_008_0_0_0_0.obj,0.27938557,0.34300682,0.11594699,0.11441128,0.11260939,0.21775934,-0.040417954,-0.10057857,-0.23934509,0.38627,-0.3012309,-0.20691898,0.25370377,0.15780741,0.1730787,-0.07827358,0.19173639,0.20456974,0.12701188,0.019959016,0.16285709,-0.08709562,0.052770205,-0.03937824,0.051717672,0.04593054,-0.20948532,-0.005345217,-0.12803122,-0.1414962,-0.014055198,-0.14702286,302.1062,632.11786
8_7_6_4_2_1_0_tr_reg_002_0_0_0_0_0_0_0.obj,0.065834224,-0.25772983,0.050423447,0.1443216,-0.3775156,0.028933618,0.16951218,-0.10761761,0.05255658,0.028717343,-0.10745689,0.15331884,0.054689005,-0.3381656,-0.11985244,0.16621737,-0.24334104,0.18720667,-0.043658234,-0.042801764,0.1678141,0.21345298,-0.01411484,0.2593934,0.2110825,0.02453525,0.23159008,-0.14677317,0.06440186,-0.07377981,0.06030379,0.3891654,368.4356,147.70226
0_tr_reg_009_0.obj,-0.026959725,-0.02176802,0.10028707,0.018449029,-0.08693077,-0.090812534,-0.13084844,0.043624565,0.37019762,0.14635374,0.030816618,0.11348168,-0.23030151,-0.10921355,0.11401398,0.1780136,0.1652208,0.05893293,-0.12060466,0.3600683,0.32888472,-0.08044145,-0.2357262,-0.2523202,-0.00702793,0.24396436,-0.0018786256,0.20857708,-0.3362955,-0.016983017,0.06289982,-0.20585422,84.864716,393.8539
8_7_5_2_1_0_tr_reg_003_0_0_0_0_0_0.obj,0.1296145,-0.21060348,-0.002056259,-0.19534247,-0.12813626,-0.09670819,-0.06226318,-0.2882434,-0.11658184,0.027482245,-0.0915726,0.21403368,0.10140298,-0.16389298,-0.22475326,0.049353465,0.08847183,0.2610862,0.0012494326,0.002306778,-0.1035154,-0.024888057,0.38437977,-0.051018808,0.28237444,0.2743202,0.08498545,-0.35708454,0.097971246,0.20211963,0.22502862,0.028671125,339.15295,51.609222
8_7_5_4_2_tr_reg_006_0_0_0_0_0.obj,0.14305513,0.11633413,-0.26092175,-0.08479185,0.31837827,0.17438065,-0.059432644,-0.09238402,0.13663591,0.21362196,-0.05972652,-0.41520545,0.24491067,0.15343334,0.24938233,-0.038923807,0.23415053,0.025140341,0.17904986,0.2966446,-0.07357304,-0.039000463,0.062430616,-0.09059283,-0.045997422,0.094559304,-0.120265335,-0.030610377,-0.3437799,-0.10315658,0.030872319,-0.09275919,209.05789,318.27332
8_6_3_2_tr_reg_007_0_0_0_0.obj,0.17715596,-0.36138758,-0.23994152,-0.15440057,-0.090729296,0.09354819,-0.36230963,0.027203111,0.2977413,-0.018540073,-0.0135520585,-0.005419567,0.09176296,-0.060113244,-0.13801396,-0.114225686,-0.18267374,0.18978114,0.31339502,-0.076658756,0.17847161,-0.012863174,-0.1796233,0.11792812,-0.20134132,0.01048896,-0.072454594,-0.3405535,0.086271,0.1399346,0.011321179,0.18324856,583.71027,552.8622
7_5_4_3_tr_reg_006_0_0_0_0.obj,-0.07755144,0.15191405,0.22062555,0.2807183,0.108996674,0.20366974,0.08090268,0.09658967,-0.11597313,-0.097010344,-0.010192985,-0.18072107,-0.083170004,-0.029873235,-0.23672137,-0.2502341,0.11310038,0.02488092,-0.17462511,-0.035441853,-0.44715595,-0.03372044,0.09157292,-0.022150565,-0.06947813,0.43943438,0.21930043,0.1768468,-0.14871424,-0.025054045,0.1640861,0.10008453,250.03365,472.6331
8_7_6_5_4_2_tr_reg_009_0_0_0_0_0_0.obj,0.2327185,-0.16685687,-0.1020636,-0.19402714,-0.26983997,0.1069575,-0.25042135,-0.02220698,0.1494577,-0.059864845,-0.012165155,0.1321322,-0.017059958,-0.120306976,0.054577433,0.13290226,-0.001750131,0.2154098,0.16595092,-0.07803061,0.2589102,0.12490556,-0.26017272,0.035290144,-0.41496634,0.17408124,0.0011006895,-0.22581556,0.35237473,-0.078967616,0.074167974,0.15013704,49.63965,566.7761
1_tr_reg_000_0.obj,-0.09402525,0.21177967,0.045076333,-0.33325472,0.1837754,0.04144963,-0.10951258,0.26283184,-0.07783345,-0.15152012,0.31685227,0.34711426,-0.15572411,-0.118703976,0.062346786,0.1651755,-0.0881097,-0.1100061,0.20474185,-0.19239452,-0.16818528,-0.20113805,-0.3550178,0.10419554,-0.026198536,-0.044375442,0.18191141,0.096581556,-0.029302953,0.1591716,0.14028914,-0.043068875,422.87015,248.69353
8_7_4_3_2_1_tr_reg_008_0_0_0_0_0_0.obj,0.42482847,0.08067538,-0.022660466,-0.2701068,0.07916062,0.10004659,-0.03533959,-0.10997743,-0.30136797,-0.03095252,0.20598018,0.05369501,-0.026109375,0.19857156,0.030925624,-0.02430654,0.29206598,0.13283853,0.33248526,-0.20062152,0.09382986,-0.18252963,-0.13446014,0.1666844,-0.192139,0.08156717,0.06203167,-0.13395678,0.23719187,-0.13910711,0.13422166,-0.17450653,368.07895,618.5436
8_6_4_3_2_1_tr_reg_009_0_0_0_0_0_0.obj,0.09975621,-0.081155986,-0.17931658,-0.3747586,-0.13518785,0.28849372,-0.2568882,0.006079677,0.10801226,-0.0057148905,-0.10688474,0.08599147,0.08635682,-0.15659358,0.01614286,0.060848735,0.017859042,0.34978753,0.25811732,-0.06429889,0.0062963692,0.14143036,-0.1509147,-0.026694467,-0.24741451,0.29920813,0.08222144,-0.20272844,0.33669028,0.033894625,0.13822144,0.08774071,108.70676,566.1327
7_6_5_4_1_tr_reg_002_0_0_0_0_0.obj,-0.16867763,0.37385428,0.016158922,-0.02550181,0.14621688,-0.14587724,-0.024300482,-0.20471478,-0.09207094,0.08841833,-0.20809624,-0.1738001,0.21554692,0.022980636,0.28824487,0.04068441,0.23233137,-0.120008335,-0.14752243,0.21311848,-0.021043079,0.23461293,0.14199822,-0.37234312,-0.14118189,-0.14123252,-0.30631307,-0.0076812212,0.026618512,-0.090303265,-0.049292356,-0.17107683,192.79181,177.00304
5_2_tr_reg_004_0_0.obj,0.29622227,-0.08987207,-0.019429052,-0.0021453346,0.0939505,0.15450811,-0.29607496,0.0043477947,-0.18238577,0.1866005,0.11241773,0.0587952,0.24098207,0.07716054,0.25455496,0.35361782,-0.29344276,-0.35229897,0.014858086,0.044898912,-0.16257343,-0.08147565,-0.23740551,0.16542952,0.11792039,0.00391098,0.10985485,0.21399845,-0.027689068,0.10770415,0.130426,0.12225927,556.05786,262.12872
8_7_6_4_2_1_0_tr_reg_009_0_0_0_0_0_0_0.obj,0.017980922,-0.13998008,0.2850136,0.41638514,0.1324865,0.127342,-0.061386134,-0.016381135,-0.115618795,0.013504619,0.025661727,-0.2556947,-0.008832009,0.26018435,-0.2515069,-0.34631237,0.049642254,-0.07229106,-0.05171968,-0.14733115,-0.22252543,-0.19349197,0.14340048,-0.0428261,0.08470912,0.06284897,-0.035080526,0.34029225,-0.1837536,0.17031729,0.10084121,-0.120804876,530.8098,454.7193
8_7_3_tr_reg_008_0_0_0.obj,0.026077505,-0.3240362,-0.2551418,-0.057493817,-0.045288958,-0.26162064,0.2118344,-0.14552444,0.33071747,-0.032836627,0.21674223,0.0029417472,-0.0017544639,-0.14889124,-0.008488238,0.00053209474,-0.12280334,-0.18783502,-0.09455545,0.26570258,-0.094948545,-0.14264692,0.15089655,0.05317559,0.23277172,-0.08997653,0.23153283,0.11208666,-0.39012605,0.12384069,0.046746217,0.16326827,700.818,283.31775
8_7_5_4_2_1_tr_reg_003_0_0_0_0_0_0.obj,0.1500538,-0.05672036,0.26295847,0.32498804,-0.16403192,0.14940903,0.13124639,0.12888902,-0.23139158,0.031858817,-0.14437775,0.14784703,-0.12592576,-0.1630744,-0.44256714,-0.13687341,0.006442727,0.16381533,-0.096558996,-0.24495132,-0.051303916,-0.07999173,0.2271166,0.2536478,0.18327701,0.16912694,0.11031307,-0.15097435,0.0063302424,0.109057,0.09734181,0.14968705,382.37946,10.0
8_6_5_4_3_1_tr_reg_004_0_0_0_0_0_0.obj,0.13728046,-0.36035985,0.052942276,0.22554977,-0.26817432,0.059736412,-0.034984533,-0.05479259,0.027492944,0.12556918,-0.10419274,0.19030768,0.13786301,-0.36425635,-0.24575433,0.13762042,-0.15043887,0.022678236,0.07387871,-0.08237363,0.07310495,0.090307556,0.0120850345,0.22538017,0.27616692,-0.07253961,0.05723262,0.031841863,-0.14556175,0.31571975,0.3042089,0.15564562,560.12976,319.9278
8_7_5_tr_reg_006_0_0_0.obj,0.06080147,0.19609821,-0.27006853,-0.1335417,0.41924018,0.16969822,0.079106815,0.12473407,0.2787666,0.14356087,0.13631025,-0.23713827,0.07569471,0.005739889,0.21359177,0.021927303,0.12885441,-0.078321934,0.11331906,0.29511297,-0.17549394,-0.12565078,-0.12920028,0.063321374,-0.22697721,0.14463659,-0.01867581,0.085257135,-0.3625937,-0.033505104,0.107085004,-0.04027993,212.8736,340.16586
8_4_3_0_tr_reg_008_0_0_0_0.obj,0.16730313,-0.03434175,-0.31120595,-0.10508336,-0.04305369,-0.0681478,0.3746189,0.0014223249,0.11335143,0.06469562,0.21014756,-0.25427595,-0.064438455,0.29177436,0.09445608,-0.17896557,0.11894068,0.15701614,0.15068932,-0.13305014,0.10111843,-0.27930534,0.13206294,0.18954787,-0.2099028,-0.14511135,0.10196768,0.09856373,-0.029380973,-0.2171286,-0.14675443,-0.29055536,422.5321,656.1569
5_4_2_tr_reg_009_0_0_0.obj,0.06410727,-0.05860853,0.012297582,-0.18711495,-0.22671202,-0.022659224,0.06784781,-0.19208504,0.2428564,-0.023954526,0.00029730282,0.021785432,0.0053593167,-0.11260264,0.041934077,-0.010795418,0.059555154,0.40446627,-0.089139715,-0.08577441,-0.039965346,-0.11091406,0.05394721,-0.06462959,-0.5574308,0.35178947,0.019422246,-0.06527637,0.3326891,-0.060153726,0.17333996,-0.048679635,59.26593,521.46204
8_7_6_4_1_tr_reg_001_0_0_0_0_0.obj,0.27340037,0.034895465,0.05987089,0.055129398,-0.060338315,0.2525139,-0.09729373,0.0020430912,-0.42865655,0.20095739,-0.38508242,0.08149217,0.04964574,-0.09548261,-0.25048557,-0.038356215,0.29416186,0.14860831,0.15202178,-0.027988428,-0.031228492,0.1521667,0.18439844,-0.02796993,0.22044836,0.2700684,-0.0116403485,-0.12679745,0.021989783,0.037703883,0.23326401,0.013838046,205.46106,141.89717
7_6_4_3_1_0_tr_reg_004_0_0_0_0_0_0.obj,0.12698317,-0.39249536,0.08161042,0.23071687,-0.18773365,0.15264,-0.16641659,-0.11469018,0.0790798,0.20559707,-0.14431383,0.1617888,0.21474916,-0.25503087,-0.14723048,0.13289197,-0.27409226,0.11331009,0.05589217,-0.012282079,0.08766695,0.0067678867,0.020428697,0.23994996,0.32458425,-0.037478305,0.046216205,-0.055128723,-0.07824291,0.2694196,0.18413642,0.20737699,274.81122,129.52023
7_5_4_2_1_0_tr_reg_007_0_0_0_0_0_0.obj,0.1640842,0.014960197,0.03758288,0.08402604,0.053817447,0.3120664,-0.1966188,0.25714844,-0.050216537,0.045976374,-0.14939429,0.019194936,-0.072090946,-0.06990865,-0.173118,-0.23245536,0.16067857,0.14700301,0.45714366,-0.030736342,0.32649145,0.06282925,-0.20228651,0.11451199,0.17857891,-0.14192101,-0.10727527,-0.23547871,-0.24808082,0.07272291,-0.0942086,0.14585492,651.19836,583.58044
8_7_6_4_1_0_tr_reg_002_0_0_0_0_0_0.obj,0.28730887,0.43048853,0.2289272,0.10450913,0.24157518,0.07661301,0.07921803,-0.01671459,-0.29329532,0.14561899,-0.15093657,-0.11886148,-0.0028718219,0.29172793,0.113886274,-0.17211306,0.17466176,0.09461618,0.055159613,-0.041067544,0.21474907,-0.18355952,0.041754685,0.066294715,-0.05698719,0.017056357,-0.21607749,-0.21237573,-0.015803358,-0.16885868,-0.20913513,-0.16795048,330.14175,588.17267
7_5_4_3_1_tr_reg_006_0_0_0_0_0.obj,0.08849052,0.06581218,-0.017697433,-0.21152404,-0.023092158,-0.20010929,0.17357348,-0.12552108,0.20245273,0.11715547,-0.047194574,-0.024725195,0.14625563,-0.008755415,0.14502946,0.015102609,-0.2603994,0.28921658,0.10006922,-0.040228378,0.26124537,-0.19366568,0.19716397,0.18434097,0.2340771,-0.12825821,-0.10859227,-0.47523373,-0.1861296,-0.013544877,-0.24808785,0.09533185,288.52405,255.81932
8_7_5_4_3_2_tr_reg_007_0_0_0_0_0_0.obj,0.29182878,-0.28349787,-0.11668823,-0.14355493,-0.11520143,0.1312393,-0.26199016,-0.021569213,0.097975336,0.072365396,-0.010382868,0.074836604,0.16655001,-0.14254722,-0.16397187,-0.10572303,-0.09827007,0.26787627,0.43429583,-0.20275344,0.17433292,-0.066499405,-0.097986236,0.23711471,-0.033229787,-0.06485165,-0.029239004,-0.31447986,0.0386911,0.19921915,0.14234325,0.12525927,614.96875,627.789
8_6_4_1_0_tr_reg_002_0_0_0_0_0.obj,0.33485708,-0.107664734,0.046615403,0.015775625,-0.33463225,0.13939682,0.027469978,-0.054484796,-0.30725765,0.07438768,-0.13815574,0.11651333,0.028221767,-0.22773308,-0.22440849,0.034971546,0.24489857,0.27168715,0.20384903,-0.25216362,0.09100061,0.14979573,-0.0013593056,0.08903929,-0.0035316634,0.18449791,0.12266611,-0.00045516118,0.13978985,-0.008397342,0.3933612,0.029254954,337.1403,90.570526
6_5_3_2_1_tr_reg_008_0_0_0_0_0.obj,0.398473,-0.11074123,-0.16212262,-0.21576527,-0.19117773,0.071104564,-0.014994526,-0.14067009,-0.18194166,-0.06002191,0.2210694,0.007824013,0.042137507,-0.00032726125,0.020687195,0.080131985,0.31097144,0.08755041,0.31400865,-0.218283,0.048664875,0.039245106,-0.18360609,0.08820475,-0.31554773,0.0114253955,0.12385515,0.064539336,0.24561591,-0.08817683,0.3299473,-0.089697056,337.07422,632.6423
8_7_2_0_tr_reg_009_0_0_0_0.obj,0.06611112,0.012084676,0.08175352,-0.33411852,-0.23360677,-0.112117335,-0.07132365,-0.10944877,0.2713089,0.00872504,0.051526,0.19999696,-0.033493675,-0.12747538,0.12756547,0.12222191,-0.036577284,0.41541916,-0.027035331,-0.11369211,0.2618409,-0.1399148,-0.046848048,-0.022336897,-0.3505124,0.20417897,-0.05452073,-0.29880655,0.29203057,-0.036300912,-0.00517155,-0.078766406,14.394501,390.2717
8_7_6_5_4_1_0_tr_reg_007_0_0_0_0_0_0_0.obj,-0.25716382,-0.15478285,-0.02432868,0.07762106,0.11875285,0.041393016,-0.2479779,0.19027866,0.15932672,-0.045874,0.04906713,-0.05213252,-0.2843382,0.22333434,-0.06715542,-0.14031596,0.26211393,-0.10657943,0.121979766,0.19854617,0.25236696,0.016017778,-0.23715308,-0.28456923,0.05577895,-0.16965638,-0.14724413,0.25360927,-0.15046273,0.0091130305,-0.15851258,-0.317753,644.8744,499.33557
8_7_6_3_2_1_tr_reg_007_0_0_0_0_0_0.obj,-0.17135432,-0.49678835,-0.14207387,0.022057533,0.02011509,-0.0051988335,-0.27775684,-0.07627625,0.08935297,-0.27581382,0.058923934,-0.06806242,-0.22395962,0.26696712,-0.2635368,-0.20589614,0.11957079,-0.0994201,-0.07906108,0.124594405,-0.11646047,0.08743969,0.0056190514,-0.27196473,-0.057434138,0.18677154,0.08988223,0.10179964,0.27801487,0.03597177,-0.044681452,-0.12635213,518.0756,533.2791
8_7_6_5_3_0_tr_reg_006_0_0_0_0_0_0.obj,-0.03469217,0.3185498,-0.1776227,-0.0038288985,0.3257027,0.12450605,-0.022414617,-0.021896318,0.11329132,0.1973294,-0.037802014,-0.3221883,0.24527961,0.064527996,0.38983706,0.06520229,0.12732615,-0.16791719,0.024232842,0.31333533,-0.075511135,0.07791844,-0.12321859,-0.13705842,-0.14453176,-0.104501605,-0.14164641,0.14486954,-0.28226405,-0.13240618,-0.03083061,-0.07551498,213.83981,314.39542
8_7_5_4_2_1_0_tr_reg_002_0_0_0_0_0_0_0.obj,0.22505647,-0.11955063,-0.17475608,-0.074570544,-0.3183516,0.14051414,-0.04383232,0.06156169,-0.050351497,0.014369678,-0.2511031,0.19259138,-0.020305024,-0.30619353,-0.15695481,0.04911235,0.13448839,0.18427451,0.23661342,-0.12032281,0.2119129,0.33541673,-0.08619398,0.054821797,-0.26239184,0.075966105,-0.030927945,-0.19847332,0.23917027,0.040612962,0.21956852,0.1888634,293.64996,165.19434
8_7_6_5_4_2_1_tr_reg_007_0_0_0_0_0_0_0.obj,0.17473933,-0.18228388,-0.2917354,-0.2871166,-0.042794578,0.2884347,-0.3495075,0.011869048,0.09121292,-0.03742634,-0.08989151,-0.052518886,0.06787332,-0.039002523,-0.017916746,-0.0011271834,0.0040808767,0.089343235,0.19895566,0.0992763,-0.18391843,0.18831289,-0.13258374,-0.0680343,-0.2559865,0.38248152,0.16805872,-0.17076881,0.2283282,-0.0036160103,0.11104091,0.22743084,471.7989,495.5174
8_7_5_4_3_2_1_0_tr_reg_002_0_0_0_0_0_0_0_0.obj,0.35150236,0.018016657,-0.16828434,0.054512966,-0.24745466,0.2492462,-0.0048061237,0.030750092,-0.27082294,0.14560808,-0.32661343,-0.10032108,0.051743377,-0.15540674,-0.09173634,-0.030717194,0.3520081,0.1370536,0.24631096,0.0031810831,0.11911089,0.3645986,0.00041199665,-0.021515029,-0.06435879,0.15443201,0.07825904,-0.038481705,0.033210695,-0.17099594,0.20700274,0.11525749,312.93527,139.02617
8_7_6_4_2_0_tr_reg_009_0_0_0_0_0_0.obj,0.27643785,-0.010616417,-0.28412363,-0.3184182,0.27457333,0.1666631,-0.33021438,-0.03964159,-0.011276007,0.11619084,0.07018041,-0.14844552,0.16248806,0.11867143,0.042431366,0.016688215,0.22314523,-0.011030144,0.2552686,0.15143427,-0.30250147,-0.124929346,0.08133978,-0.06831401,-0.040048476,0.28262463,0.048712853,-0.17908968,-0.10382404,0.08520343,0.18281358,-0.14361842,48.918,549.8522
6_4_tr_reg_006_0_0.obj,0.0020473818,0.18056984,0.3952454,0.46784633,0.13024257,0.26911554,0.00076338794,0.13218962,-0.12724769,-0.042933293,-0.06752031,-0.20574021,-0.12624331,0.02806774,-0.15096438,-0.1880063,0.123167284,0.019074973,-0.11590832,0.06979052,-0.09238212,0.012704902,-0.07596544,-0.009782061,0.18348578,0.29371732,0.12919903,0.07807711,-0.34578824,-0.11905857,-0.021092413,0.14257868,213.35205,409.1764
7_5_2_1_tr_reg_004_0_0_0_0.obj,0.14480759,-0.35917228,0.04795907,0.1599461,-0.31986335,0.09445995,0.13900071,-0.061838962,0.07766738,0.12841207,-0.09072706,0.17782561,0.039573446,-0.28878617,-0.19449219,0.118898556,-0.21929981,0.24812908,0.0062655066,-0.05434021,0.13442408,-0.029058376,0.0061782626,0.32505405,0.29662922,0.13547292,0.2630988,-0.003885028,-0.04670213,0.10032327,0.15564878,0.19784975,573.06213,302.3527
8_7_6_3_2_tr_reg_000_0_0_0_0_0.obj,-0.22695133,-0.19325289,0.14716934,0.014309528,0.13240859,-0.15977713,-0.085106716,-0.19179235,0.017154317,-0.016457228,0.026141966,0.18866228,0.20643915,-0.13634954,-0.04267679,0.1643732,-0.3611543,-0.19873501,-0.25708303,0.09127913,-0.2961042,-0.041784126,0.2235111,0.0009298733,0.39379135,-0.03827893,-0.0054814303,-0.034210302,-0.016752796,0.34135714,0.063625865,0.113931045,433.16672,217.32265
7_6_5_2_1_0_tr_reg_004_0_0_0_0_0_0.obj,0.33387277,0.044239856,0.13078602,0.00923905,0.044776857,0.044333063,0.09723912,-0.11602604,-0.2360888,0.119461976,0.0003299893,-0.12245293,-0.0067092353,0.3992969,0.13538933,-0.021664802,-0.12111071,0.25976032,0.11923049,-0.12322305,0.17785726,-0.30879632,0.03964627,0.23450913,0.23769794,0.10677508,0.15651149,-0.20513594,0.04080211,-0.2876345,-0.24503744,-0.07204021,491.9598,275.99234
8_6_3_tr_reg_006_0_0_0.obj,-0.042772207,0.09009167,0.27863902,0.38345674,0.20665962,0.088025644,-0.08561646,-0.07601032,-0.21331924,0.0057086116,0.004584828,-0.20753704,0.030355798,0.1848177,-0.13824156,-0.15424326,0.10996607,-0.14591613,-0.20466721,0.022109019,-0.40250266,-0.069903515,0.09735402,-0.15670529,0.036428038,0.29473484,0.061207604,0.32526731,-0.12477869,0.014824044,0.18486287,-0.10394394,203.84056,511.8105
8_7_6_4_3_2_0_tr_reg_008_0_0_0_0_0_0_0.obj,0.37457874,0.092799984,0.021111302,0.13109504,0.05846067,0.18533719,-0.08396147,-0.14408839,-0.34866562,0.27660283,-0.26105264,-0.16402271,0.108158454,0.14610364,-0.043493558,-0.092035525,0.37259787,0.14064632,0.14229706,0.14629318,0.10915438,0.043549813,0.1560436,-0.08513809,0.19245563,0.2436537,-0.011212212,-0.11614451,-0.16524558,-0.19081223,0.08386475,-0.06994943,315.9318,673.8159
7_6_3_1_0_tr_reg_007_0_0_0_0_0.obj,0.29931793,-0.26971242,-0.20648131,0.021546947,0.0066270987,0.13192545,-0.23858276,0.0149894,-0.21172938,-0.030267442,-0.08213147,-0.10185782,-0.034591116,0.09790424,-0.3118646,-0.29652557,0.33452433,-0.14011699,0.3385989,-0.09415967,-0.12995207,0.14762107,0.097913995,-0.10584693,-0.14331228,0.05433205,-0.02952702,0.063609615,-0.017562712,0.19249262,0.28264907,-0.030826375,577.2019,465.32797
8_7_6_4_2_tr_reg_006_0_0_0_0_0.obj,0.16610926,0.06455005,-0.28575355,-0.3213498,0.37803748,0.1538987,-0.11135184,0.048418254,0.22295272,0.13039467,0.2169618,-0.24371946,0.13182531,0.14597356,0.16383737,-0.05899243,0.12134335,0.041868057,0.33311066,0.15207382,-0.048744358,-0.24446315,-0.08609962,0.13860591,-0.043165196,0.011331266,-0.0029153093,-0.16591887,-0.2667148,-0.043234874,-0.028949369,-0.13071223,200.33144,321.02014
8_7_6_4_3_1_0_tr_reg_004_0_0_0_0_0_0_0.obj,0.31290188,-0.12976688,-0.1816449,0.015843354,-0.32679704,0.25086182,-0.019634208,0.08815002,-0.16063122,0.088928655,-0.24402244,0.09595818,0.046636246,-0.25124002,-0.13919818,0.07903684,0.09404355,0.12454776,0.28727394,-0.11994296,0.20881476,0.34454492,-0.1347818,0.1610752,-0.038547944,0.024067206,0.07378345,-0.10466936,0.1370117,-0.054885253,0.18197243,0.28227577,273.9311,136.14223
8_7_4_2_1_tr_reg_005_0_0_0_0_0.obj,0.11985919,0.2685831,0.24694197,0.37243345,0.007075699,-0.020450529,0.059871458,-0.13414666,-0.18967101,0.20211588,-0.2258094,-0.3134278,0.16588518,0.2038196,0.13700235,-0.1475551,0.15447353,0.0039508245,-0.04623976,-0.011706273,0.24978441,0.059128385,0.121832676,-0.13546424,0.05114806,-0.24051817,-0.288201,0.064729646,-0.13654613,-0.13711801,-0.16708003,-0.13339698,357.11145,266.74216
8_7_6_4_1_tr_reg_008_0_0_0_0_0.obj,0.30006367,0.3944747,0.12964003,-0.02324121,0.3140025,0.2336666,-0.07349017,0.05984994,-0.16277403,0.1878673,-0.07956595,-0.10885707,0.05977447,0.26035935,0.1669516,-0.1356387,0.10366769,0.14039189,0.27026752,-0.033100914,0.18747842,-0.2663372,-0.16161546,0.12359104,0.008538052,0.023114558,-0.15016885,-0.14601205,-0.1298316,-0.13378958,-0.15914959,-0.14348017,308.7697,637.7721
7_6_3_2_1_0_tr_reg_008_0_0_0_0_0_0.obj,-0.32597703,0.14016262,-0.13479802,-0.104427956,0.27823433,0.10276817,0.00092929555,0.36235097,0.26691565,-0.08913119,0.0969528,0.047482643,-0.030678192,-0.24307856,0.076790586,-0.05434059,-0.18786752,-0.25570375,-0.04725154,0.20995878,-0.16179526,0.08559468,-0.16738686,0.07409373,-0.09000696,-0.15338844,0.00023357714,-0.08552024,-0.24107853,0.11566993,-0.18933755,0.32515466,729.3592,261.3004
7_6_3_2_0_tr_reg_006_0_0_0_0_0.obj,-0.122417144,0.32128006,-0.15198125,0.0013927083,0.23604217,0.39748254,0.036533233,0.14802451,0.046404064,0.081849866,-0.21438041,-0.22904201,0.05382546,-0.09717364,0.13144131,-0.046525456,0.23107283,0.14476956,0.06417274,0.30947173,-0.18598506,0.21570623,-0.021434624,-0.08471443,-0.014375316,0.33982536,0.10853005,-0.013696555,-0.1877152,-0.20819977,0.0039326446,0.115897276,284.27896,394.10556
8_5_4_3_tr_reg_000_0_0_0_0.obj,0.16453947,0.1676321,0.4058917,0.44313398,-0.03649024,0.14669985,0.036338955,-0.032659627,-0.27442452,0.24524993,-0.27048755,-0.16263844,0.111042105,0.095778674,-0.06633038,-0.1606752,0.06687296,0.14723209,0.018640539,-0.1779493,0.17691126,-0.08924044,0.06686321,0.036702022,0.256422,-0.09845711,-0.15994945,0.12801774,-0.19740005,-0.012468504,-0.007067099,-0.10884449,326.66293,107.07736
8_6_4_1_tr_reg_008_0_0_0_0.obj,0.17839123,0.33218524,0.08246356,0.20657961,0.25704992,0.16842845,0.052389067,0.04604713,-0.028116329,0.1745105,-0.10245995,-0.27779037,0.020921052,0.21852359,0.1895649,-0.1787184,0.22057827,0.011672525,0.122961454,0.17415847,0.31457022,-0.047187086,-0.09392463,0.01825304,-0.04622663,-0.12107164,-0.21960081,-0.07708108,-0.30453786,-0.19937758,-0.24383831,-0.081118725,336.71844,703.8722
8_5_3_0_tr_reg_007_0_0_0_0.obj,0.039264802,-0.48846197,-0.2762076,0.038766064,-0.06390694,0.026811955,-0.21828613,0.008570462,0.14807448,-0.21867251,0.052628405,-0.18034494,-0.13827097,0.24734011,-0.29931727,-0.33346438,0.0672457,-0.07778441,0.14281142,-0.08338717,-0.057301972,0.083509795,-0.025036443,-0.14164189,-0.33853996,0.050729144,-0.017993638,0.0811307,0.21050781,0.07701926,0.009735566,0.011171014,526.8035,467.68362
8_5_4_3_2_1_0_tr_reg_003_0_0_0_0_0_0_0.obj,0.2122868,-0.089312926,-0.14645089,-0.07835633,-0.083746985,0.11076006,-0.09041679,-0.08626708,-0.32466173,0.04550451,-0.2608219,0.09108653,0.029983737,-0.15119942,-0.25081837,0.016141253,0.3624346,0.036481705,0.09482677,0.08770872,-0.16485749,0.25114697,0.30386177,-0.11452899,0.13723907,0.33120376,0.077919066,-0.20319773,0.044121765,0.0787058,0.28864726,0.036248058,244.06511,142.87103
8_5_4_3_0_tr_reg_000_0_0_0_0_0.obj,-0.33939248,-0.0409285,0.049071193,-0.16621327,-0.14450286,-0.22247833,0.009665602,-0.07676069,0.08400509,-0.26278186,0.057334248,0.22178774,-0.07072341,-0.28682566,0.10378894,0.241358,-0.07000253,-0.17481345,-0.14799169,0.10411173,0.15352733,0.39509752,-0.22615181,-0.14176483,-0.061619066,-0.21407692,-0.02731928,-0.096568644,0.18493938,-0.13176723,-0.06927207,0.23807068,340.39618,205.91765
6_5_4_2_tr_reg_009_0_0_0_0.obj,0.26385137,-0.17898428,0.06388321,0.045487307,-0.24150029,0.044725295,-0.034594662,-0.20949586,-0.16632204,0.011183558,-0.027343048,0.03531298,-0.08363887,-0.1366212,-0.13793339,0.13811599,0.39027515,0.13647959,-0.015535431,0.0937756,-0.010995508,0.16907157,0.058825362,-0.15521282,-0.007956279,0.47174975,0.24295291,0.04057145,-0.03510092,-0.12688096,0.39511442,-0.016734006,71.99216,515.7867
8_7_6_5_tr_reg_009_0_0_0_0.obj,0.13595898,-0.20792718,0.35482332,0.28999427,-0.12945291,-0.002121597,-0.09832071,-0.28442293,-0.1365166,0.10273786,-0.036355764,-0.053780783,0.05339627,0.03972983,-0.09441871,0.12261966,0.05703933,0.07474321,-0.2529582,0.05621382,-0.113691345,-0.07641842,0.12474656,-0.15003042,0.29240814,0.38586062,0.12770078,0.24971151,-0.116226435,0.029534863,0.30046475,-0.092923075,52.80664,413.1907
8_7_6_3_1_0_tr_reg_006_0_0_0_0_0_0.obj,-0.046138536,0.13116203,0.06148405,0.066200785,0.20188506,0.05378199,0.10365062,0.14020085,0.19845483,-0.0614546,0.28270817,0.037655093,-0.15378962,-0.08503257,-0.07376061,-0.14893994,-0.053043425,-0.15679462,-0.13604885,0.072129145,-0.3453028,-0.24609393,-0.20015171,0.071864754,-0.39248967,0.2621416,0.20508784,0.29125187,-0.20406629,0.06529629,0.16820426,0.12434246,201.84344,378.412
8_7_4_2_0_tr_reg_009_0_0_0_0_0.obj,0.10195114,-0.13170399,0.19317411,0.091028444,0.0648825,-0.10716314,-0.043380123,-0.24129803,-0.050834913,0.035729695,0.18797652,-0.008070518,-0.02108827,0.13920633,-0.09628623,0.09361828,0.08766749,-0.04461982,-0.23313025,0.06948648,-0.2800784,-0.2622504,0.079258054,-0.16399418,0.054498445,0.4379461,0.10039939,0.33772156,-0.13171744,0.09340629,0.37179074,-0.20318152,117.644104,468.1638
7_5_4_2_tr_reg_006_0_0_0_0.obj,0.27920967,-0.17180206,0.004706413,-0.21418425,0.14606176,0.02276602,-0.35859615,-0.1560497,-0.003451027,0.06945223,0.23217489,0.04248108,0.04151391,0.14543532,-0.10391747,-0.05099259,0.04619346,-0.057197005,0.051210176,0.0630472,-0.33385262,-0.35893002,0.05229667,-0.05640876,-0.059267025,0.40647894,0.18852824,0.003647159,-0.061521254,0.20380957,0.23658194,-0.10591744,186.87563,335.7378
8_7_6_5_3_1_0_tr_reg_007_0_0_0_0_0_0_0.obj,0.39337263,-0.24212438,-0.300188,-0.30244958,-0.027089706,0.09160186,-0.3245342,-0.06445825,-0.049724035,0.013281238,0.15441279,-0.0030860072,0.09419575,0.049372472,-0.12909824,-0.11631227,0.14393531,-0.027262257,0.2943333,-0.088437006,-0.24219848,-0.14531076,0.020091422,0.019233597,-0.20430382,0.21338561,0.18937588,-0.098231144,0.04796866,0.16729392,0.24268277,-0.0020259686,500.7326,397.5538
8_7_6_5_4_3_2_0_tr_reg_000_0_0_0_0_0_0_0_0.obj,0.16621411,0.1980159,0.143316,0.12862998,-0.11790407,-0.26546767,0.20610829,-0.22742869,-0.0042730267,0.13518888,-0.12364063,-0.16366367,0.0429551,0.14900796,0.24181476,0.02255201,0.014316984,0.06444955,-0.096874215,0.10426582,0.43523917,0.035943426,0.13724549,-0.034638014,0.028054329,-0.20122,-0.19581154,-0.26081795,-0.120135166,-0.28460646,-0.30660763,0.040470045,387.69138,294.0398
8_7_6_4_3_2_1_tr_reg_009_0_0_0_0_0_0_0.obj,0.06595662,-0.14503758,0.084338315,-0.019721625,-0.36739466,-0.0545056,0.09992392,-0.12681834,0.22022589,-0.048140276,-0.0054346863,0.061444756,-0.035567213,-0.14662279,-0.02503265,-0.0025161293,-0.075001284,0.3412324,-0.13265519,-0.20410192,0.07489866,-0.05621231,-0.03677626,0.050386887,-0.5666743,0.21254452,0.009066467,-0.02814351,0.36468932,-0.08786115,0.1376504,0.065275416,116.85028,558.2622
8_1_0_tr_reg_007_0_0_0.obj,-0.06427215,-0.33873162,0.1359359,0.33707857,0.09160177,0.22608396,-0.16151182,0.174653,-0.03784469,-0.109493524,-0.02429719,-0.09541593,-0.22197147,0.23062597,-0.3203515,-0.27103078,0.13225275,0.026083402,0.17783165,-0.021152673,0.19095644,-0.015959887,-0.09341919,-0.012587025,0.37364858,-0.12672551,-0.06604084,0.12867504,-0.102123626,0.10543177,-0.13181783,-0.14112854,629.44604,526.1379
8_7_6_5_4_2_0_tr_reg_006_0_0_0_0_0_0_0.obj,0.0030993726,-0.025754562,-0.11861404,-0.11092249,-0.06359133,0.44502532,-0.0876762,0.037688345,-0.10438307,0.041885823,-0.22057188,-0.019490024,0.0935335,-0.15551926,-0.048163325,0.027241379,0.033412438,0.2676559,0.08258616,0.027481783,-0.23121873,0.24459696,-0.06081685,0.030127339,-0.046857443,0.48367965,0.2752341,0.004741285,0.23602013,-0.123322755,0.18075077,0.22437838,325.08688,472.0608
8_7_5_4_3_1_tr_reg_003_0_0_0_0_0_0.obj,0.22395086,0.19452684,0.19268058,0.16692097,-0.13445221,0.24955224,0.14598063,0.15531264,-0.23429386,0.2551875,-0.32371983,0.030432489,0.028548997,-0.17918113,-0.21748845,-0.19428779,0.16397494,0.3636002,0.15244901,-0.2760641,0.1474397,-0.07945763,0.09074686,0.18023719,0.05240274,0.09005336,-0.073307484,-0.022485051,-0.084540606,0.028728958,0.15073064,-0.052737936,369.61356,58.789093
7_5_4_2_tr_reg_009_0_0_0_0.obj,0.010339416,-0.06235205,-0.03274686,-0.28009328,-0.15514728,0.12844655,-0.1909373,-0.055115655,0.25756663,-0.0340006,-0.06270985,0.07735803,0.04832471,-0.11741252,0.05884813,0.009018217,-0.12763032,0.3750181,0.03346695,-0.061462224,0.023650737,0.0055296863,-0.1271317,-0.0014466265,-0.46038538,0.3174373,0.020667695,-0.24419281,0.420994,-0.0380727,0.019722966,0.09436521,96.481964,552.4499
8_7_5_4_2_0_tr_reg_008_0_0_0_0_0_0.obj,0.26356378,0.2132019,-0.1152645,0.11092572,0.07080647,0.13788013,0.115037315,-0.06532869,-0.04712527,0.2667918,-0.2368244,-0.32623374,0.15702802,0.07287219,0.099677876,-0.24546415,0.33656377,0.14546734,0.25906876,0.09707889,0.27332228,0.044067066,0.08189203,-0.007760741,-0.08546059,-0.121905535,-0.19394925,-0.054524772,-0.29278573,-0.17430697,-0.03880086,-0.08448313,327.6847,677.6039
7_6_5_4_1_0_tr_reg_008_0_0_0_0_0_0.obj,0.089753784,-0.25065726,-0.31819022,0.048864692,-0.12631285,-0.21884842,0.34070295,-0.03554035,0.14548682,-0.055977274,0.2912778,-0.27508888,-0.16901527,0.27685535,-0.02494967,-0.15016036,0.092936195,-0.10488236,0.04053599,-0.008439668,0.029640669,-0.15523508,0.09463357,0.06764123,-0.039711673,-0.19135188,0.21293543,0.28819093,-0.18654563,-0.18815199,-0.07976876,-0.1675658,714.3331,329.3055
8_5_0_tr_reg_007_0_0_0.obj,0.23475014,-0.25280356,-0.13686426,-0.10189143,0.040508434,0.104672454,-0.19756342,0.12636565,0.1414511,0.0313255,0.062647454,-0.05133916,0.0007777805,0.014844744,-0.26960325,-0.38547078,0.049172617,0.15952171,0.46256062,-0.18532959,0.104213215,-0.22258508,-0.053884584,0.1658719,-0.12046232,-0.12035896,-0.10965184,-0.1571442,-0.17430253,0.25446233,0.08589088,-0.0025436836,610.4434,582.3218
6_5_tr_reg_007_0_0.obj,0.3991615,-0.20698625,-0.25688943,-0.20537011,-0.026892846,0.17496178,-0.29641885,-0.032045364,-0.17261842,0.046919763,0.003209827,0.029868206,0.035779376,0.005138812,-0.1574601,-0.062085073,0.24118839,-0.074933365,0.24327916,-0.011450244,-0.26482803,0.012158828,0.028866192,-0.04923402,-0.19359113,0.3149172,0.16977312,-0.007276063,0.0607431,0.15309219,0.34072718,0.034440693,599.3734,448.41092
8_7_6_5_tr_reg_007_0_0_0_0.obj,0.33236825,-0.21403535,-0.36142242,-0.29712465,-0.018656336,-0.008730677,-0.24868388,-0.027993454,0.13995026,0.03275457,0.18328229,-0.060867608,0.11364674,0.006182332,-0.09165726,-0.17300665,0.044076104,-0.09154015,0.24232349,-0.067844875,-0.26779655,-0.21148148,0.017704772,0.030421037,-0.35533518,0.11884557,0.12670326,-0.02790614,-0.044791173,0.2316602,0.21779346,0.02943389,573.56006,430.4287
7_tr_reg_001_0.obj,0.004744559,0.17941454,-0.18260476,-0.09648141,0.18728061,0.017466089,-0.14118567,-0.16454694,-0.17897141,0.09375215,-0.2127898,-0.1284617,0.17578062,-0.02136889,0.05841511,0.033012275,0.3561,-0.12648003,-0.028119156,0.2836896,-0.3492158,0.20963447,0.3069615,-0.3071416,-0.04370606,0.22841555,-0.07116122,-0.083726525,-0.059689917,0.035064645,0.2098744,-0.103704624,211.88925,165.18556
6_5_3_1_0_tr_reg_003_0_0_0_0_0.obj,-0.19862956,0.0017747415,-0.09456006,-0.31068775,-0.023676185,-0.095612235,-0.039592113,-0.0990692,0.32192326,0.10497203,-0.02848793,0.038872417,0.22047313,-0.13868712,-0.014571596,-0.14286189,-0.20510407,0.29493243,-0.04285151,-0.118733086,-0.26123407,-0.27278486,0.32523134,-0.07112797,-0.17288688,0.12045426,-0.11305549,-0.012565488,0.053115364,0.36754903,0.14992112,-0.111108564,399.98923,42.719788
6_4_3_1_0_tr_reg_001_0_0_0_0_0.obj,-0.06344892,0.00024024157,-0.08822972,-0.059496634,-0.25468943,-0.28117248,0.06060668,-0.12973014,0.12371517,-0.13789247,0.014651911,0.12340682,0.06162261,-0.29898262,0.14825808,0.2056013,-0.07131979,-0.16949517,-0.113174506,0.05096208,0.20599608,0.41761664,-0.08411422,-0.08166565,-0.32959,-0.27264237,-0.115485504,-0.20187153,0.15436935,-0.09147152,-0.012319111,0.25261375,262.28714,192.1181
8_7_6_5_4_3_2_1_0_tr_reg_008_0_0_0_0_0_0_0_0_0.obj,0.12248078,-0.24371327,0.10474901,0.2808263,-0.098767646,-0.030915668,0.12869412,3.92422e-05,0.06246933,-0.097362,0.08625241,0.096284196,-0.23525248,-0.17884274,-0.22449186,0.012167622,0.05611442,-0.14781143,-0.063206635,0.25148287,0.0999692,0.031558707,0.03104878,0.11257666,0.40244782,0.11186207,0.30457595,-0.035370804,-0.4512477,0.028700966,0.017769396,0.22451396,695.94666,289.2657
8_7_6_5_4_3_2_0_tr_reg_008_0_0_0_0_0_0_0_0.obj,0.45050383,0.2173793,0.1447454,0.02888314,0.12717095,0.080560945,-0.12935258,-0.15442945,-0.40375566,0.25324023,-0.16611247,-0.11974288,0.15542133,0.25570637,0.0750732,-0.104669645,0.25094748,0.09681353,0.19629969,-0.04819126,0.18060294,-0.119556,0.09046235,0.01563952,0.06586103,0.031994693,-0.17970552,-0.22033332,-0.047665015,-0.11475961,-0.0053062993,-0.13905089,305.77753,631.8451
8_6_4_tr_reg_004_0_0_0.obj,0.25896114,-0.2565319,-0.27008963,0.027479058,-0.12060587,-0.03484241,-0.14134246,0.036941037,0.17684089,0.065894246,0.03290164,0.03744855,0.19921745,-0.09447724,0.07240783,0.19009554,-0.45044404,-0.25661367,-0.028739402,0.028502557,0.025391638,0.06023444,-0.17046721,0.25125542,-0.22127211,-0.1035056,-0.0150353545,-0.12969129,0.08787944,0.10890289,-0.018797971,0.40586427,591.5479,291.9456
7_6_1_0_tr_reg_004_0_0_0_0.obj,0.2770212,-0.088084675,0.24044383,0.27742794,-0.1642471,-0.017027797,0.10355985,-0.23999967,-0.091430515,0.245978,-0.1941176,-0.05320123,0.17146142,0.021718923,0.055729367,0.049526345,-0.2099009,0.23259036,0.04994187,-0.056752324,0.3281863,-0.122175895,0.06641382,0.23114401,0.38430873,-0.10900602,0.014908352,-0.16977206,-0.1989238,-0.07026334,-0.080541,0.12792638,527.46545,292.06897
7_6_5_4_3_2_1_tr_reg_003_0_0_0_0_0_0_0.obj,0.3174521,-0.13867603,0.0506842,0.06714637,-0.23277374,0.09481684,0.019853706,-0.06467075,-0.3427281,0.054603998,-0.21502966,0.13455066,-0.0040792436,-0.22243653,-0.37578306,-0.06581392,0.26199517,0.148526,0.12860456,-0.19628106,-0.037176162,0.12458414,0.18440211,0.08228662,0.045069307,0.2069613,0.0700458,-0.1389239,0.07174782,0.09325175,0.36408097,0.08016208,357.77225,22.734863
8_6_5_4_2_1_0_tr_reg_002_0_0_0_0_0_0_0.obj,-0.20515876,-0.18213741,-0.16968973,-0.050514806,-0.12887809,0.0075819246,-0.07726164,-0.011004674,0.16783339,-0.13949046,-0.164201,0.16451997,0.12558262,-0.37525603,-0.09321377,0.061927557,-0.27292022,-0.049633693,-0.01785175,0.0227976,-0.053709112,0.39653268,-0.088974185,0.047242638,-0.17781337,-0.09835886,-0.03432225,-0.25831068,0.2258169,0.10226468,0.035089955,0.42418164,313.5543,165.81523
8_7_3_2_0_tr_reg_008_0_0_0_0_0.obj,0.37916923,0.26321447,0.23349048,-0.021537522,0.19260329,-0.011456673,-0.024224842,-0.17798878,-0.3128715,0.13090307,-0.054819442,-0.10816922,0.033360526,0.36736026,0.13970323,-0.08501913,0.10838703,0.13883306,0.08972589,-0.035844028,0.19687451,-0.2529979,0.057647295,0.05759704,0.07620658,0.12976071,-0.099384524,-0.30395576,-0.029131785,-0.22448757,-0.16844442,-0.1250469,337.14346,607.2366
5_3_2_0_tr_reg_009_0_0_0_0.obj,-0.114966385,0.13945812,0.06704405,0.113561474,-0.03018755,0.1064293,-0.18620797,0.28357282,0.24947979,0.118625805,-0.097922586,0.10612419,-0.28683662,-0.11452087,0.06489317,0.034858402,0.2694754,-0.0042818547,6.5577206e-06,0.3090307,0.3863327,0.08237801,-0.2514778,-0.22791043,-0.075903006,0.08259988,-0.0763289,0.10591624,-0.328764,-0.005407461,-0.10407039,-0.19158557,40.419586,376.99524
5_4_2_tr_reg_006_0_0_0.obj,0.24311481,0.09709276,-0.11683026,-0.24601509,0.33495224,0.114800304,-0.16461238,0.09817582,0.28549433,0.14609219,0.29115853,-0.08795814,0.018751707,0.11630632,0.12631968,-0.009145814,0.003940812,0.009994653,0.1871026,0.17651461,-0.08201612,-0.3886441,-0.23102506,0.12800004,-0.22000661,0.24160361,0.058542013,-0.048726592,-0.23299564,0.030362677,0.037396677,-0.08316806,193.16048,343.35034
7_6_3_0_tr_reg_005_0_0_0_0.obj,-0.08244117,0.10394705,-0.09009994,-0.36460721,0.07668352,-0.3106495,0.083757706,-0.021713918,0.26624587,-0.020042792,0.16193275,0.04175851,0.039659884,0.013290418,0.27685347,0.17760609,-0.29343775,0.015563705,-0.0128252,0.045384124,0.18212503,-0.15218264,-0.0013870947,0.05933348,0.097109824,-0.22413817,-0.07840091,-0.39875025,-0.14498368,-0.09569419,-0.336911,0.073136196,356.83508,234.78935
4_1_tr_reg_008_0_0.obj,0.19866395,0.091573484,-0.316049,0.019398967,0.106467575,0.03765208,0.32255092,0.02553101,0.13806158,0.12030581,0.10884696,-0.37293512,0.024953563,0.23543626,0.1474951,-0.22847217,0.18603024,0.019741884,0.18431418,0.02951491,0.15401405,-0.14244771,0.084766515,0.18063411,-0.2475885,-0.2177705,-0.046129163,0.0472387,-0.23569714,-0.19296722,-0.15761158,-0.18865258,442.88306,674.33124
8_6_5_4_0_tr_reg_004_0_0_0_0_0.obj,-0.0132328635,-0.0038458097,0.13409744,0.22876546,-0.03541392,-0.2308175,0.015983768,-0.30601966,0.07419579,0.17796071,-0.090982,-0.16566537,0.30413613,0.0048997994,0.24295716,0.12096894,-0.17315955,-0.12855439,-0.13623498,0.16267854,0.17239022,0.077825375,0.1517674,-0.09911905,0.28740877,-0.39214686,-0.21314421,-0.042980514,-0.26876578,0.015502625,-0.14078508,0.076507166,481.23758,246.94724
8_7_6_5_4_3_0_tr_reg_008_0_0_0_0_0_0_0.obj,0.34562278,0.017117785,-0.02263014,-0.23763876,-0.07074868,0.011922955,0.096636236,-0.112962104,-0.22037433,-0.07069809,0.28342882,0.06557462,-0.10112279,0.204371,0.084743164,0.074342385,0.24382237,0.16286808,0.21957035,-0.24160624,0.14153801,-0.19613384,-0.16849609,0.16414706,-0.23811556,0.058422968,0.13312289,0.009023816,0.29785898,-0.21635151,0.112947375,-0.24602295,350.20776,619.5241
6_5_3_2_0_tr_reg_008_0_0_0_0_0.obj,0.3312076,0.014225853,-0.2602565,-0.29782346,-0.09311773,0.08480528,0.13685913,-0.045300372,-0.015170324,0.035709377,0.21384747,-0.036225043,0.028008817,0.062036756,0.104749314,-0.042955346,0.27650002,0.19867413,0.300821,-0.21349475,0.109534174,-0.16959453,-0.08041838,0.1918328,-0.40256062,-0.064680725,0.064620025,0.013724704,0.21310002,-0.114347145,0.12435556,-0.22459869,377.00055,663.80676
1_0_tr_reg_008_0_0.obj,-0.07868526,-0.24073082,-0.21804067,0.0719214,-0.0925147,-0.18129344,0.29092002,-0.053443104,0.30085418,-0.10928503,0.23665217,-0.11849795,-0.056131627,-0.19359727,-0.0540402,-0.1129285,-0.028644612,-0.22024904,-0.119610086,0.21751438,-0.1794817,-0.002063599,0.0551879,0.022414504,0.07055961,-0.11704597,0.29296815,0.28102776,-0.39198172,-0.02560741,0.06985499,0.18982625,683.8766,364.20474
8_2_1_0_tr_reg_009_0_0_0_0.obj,0.2913396,-0.22554933,-0.14051938,-0.23123339,-0.23699951,0.045200318,-0.27698237,-0.14554441,0.11885335,-0.06486762,-0.029808521,0.024799813,0.063459635,-0.14584263,-0.030516414,0.039518487,0.112339646,0.2205413,0.21979916,-0.069205895,0.03845315,0.12220228,-0.09293052,-0.07281059,-0.42383078,0.20089525,0.012960201,-0.27654287,0.27694353,0.030211572,0.22784038,0.12816401,46.9321,547.73376
8_7_5_4_3_2_0_tr_reg_007_0_0_0_0_0_0_0.obj,0.18447842,-0.09708078,-0.0816723,0.108849965,-0.058528524,0.10112318,-0.12569907,0.21975541,0.23487674,-0.024896342,-0.05873332,0.025126869,0.0043933005,-0.1511961,-0.21103762,-0.19756709,-0.19234146,0.13379851,0.24600172,-0.15905656,0.21811618,-0.015227221,-0.08525583,0.26797226,-0.21708798,-0.092585675,-0.16135173,-0.44867516,-0.11339982,0.1663735,-0.09224051,0.30704173,649.2562,612.8324
8_7_6_3_2_tr_reg_006_0_0_0_0_0.obj,-0.26049963,0.11676301,0.12818395,0.2777866,0.12730327,0.11634892,0.12585531,0.18074991,0.20513456,-0.17190494,0.08462531,-0.17166942,-0.08491929,-0.07376938,-0.09662185,-0.27545595,-0.17472774,-0.078136526,-0.2095417,-0.03303392,-0.35796484,0.002889326,-0.13473412,0.048629884,-0.39417416,0.16052534,0.12393732,0.23721334,-0.025598386,-0.029470682,-0.005417523,0.2364392,240.74051,502.19904
8_7_6_5_2_tr_reg_004_0_0_0_0_0.obj,0.19622587,0.035701215,0.16290884,0.16468887,0.21020655,-0.019383123,-0.29626572,-0.18657042,-0.30335748,0.13408977,0.101126924,-0.11941637,0.1905404,0.38242337,0.28418785,0.24448091,-0.085711375,-0.352904,-0.083431624,0.081799544,-0.053515468,-0.08784251,-0.096320786,-0.07953965,0.2179587,-0.10387914,-0.015509543,0.12820894,-0.014701718,-0.08140894,-0.09676253,-0.13758413,501.77298,239.01225
8_6_5_2_1_tr_reg_006_0_0_0_0_0.obj,0.16250345,-0.09339025,-0.44458336,-0.1913227,-0.13009174,0.09476047,0.03761914,0.10227668,0.089736894,0.15014452,-0.26451132,-0.0443389,0.10841839,-0.25468552,-0.101191334,-0.08022568,0.22406499,0.16698812,0.35351926,0.071795136,0.16962098,0.26606393,0.17961636,0.052997004,-0.019242065,-0.04806695,-0.086056314,-0.31701162,-0.14632317,0.06370385,0.08219653,0.10653354,394.4243,427.97195
8_6_3_1_tr_reg_007_0_0_0_0.obj,-0.0584314,-0.15137689,-0.26696885,-0.34063992,-0.028852187,0.18157181,-0.3329861,0.008393813,0.22992358,-0.13006611,-0.08098278,-0.041095305,0.047272332,-0.10502378,0.0055428175,-0.05463927,-0.05194669,0.08842014,0.12919371,0.09810714,-0.1911071,0.20413432,-0.17415123,-0.13073504,-0.37186489,0.28160295,0.09033533,-0.1523897,0.28666446,0.02856789,0.06606518,0.22030044,500.58255,539.09875
6_5_3_tr_reg_006_0_0_0.obj,-0.12929358,0.14912517,0.06936141,0.09643721,0.13248055,0.083251484,0.13319336,-0.039673597,0.036060702,-0.117243804,0.086539224,-0.16380057,-0.018736023,-0.08068391,-0.1151797,-0.16804287,0.101717986,0.011130237,-0.18186162,0.06574618,-0.5173903,-0.052583523,0.055423718,-0.078369,-0.22162005,0.46843877,0.22821163,0.23541348,-0.14766757,-0.03319662,0.270982,0.074014366,222.25673,518.111
8_7_4_2_1_tr_reg_007_0_0_0_0_0.obj,0.106527746,-0.09438256,0.017549027,0.03509115,0.14947353,0.18116271,-0.21920511,0.20698537,0.3227967,0.047080804,0.049160503,-0.13786735,0.00054343283,0.016684102,-0.061499182,-0.30013794,-0.06646643,0.17423779,0.33680212,-0.021544743,0.26330444,-0.21342395,-0.20624176,0.1579472,-0.10995996,-0.081732824,-0.18174674,-0.22094809,-0.35175446,0.15856661,-0.12654473,0.116697185,551.05176,460.49402
8_7_6_2_0_tr_reg_009_0_0_0_0_0.obj,0.26766464,-0.116971515,0.13239142,-0.22737503,-0.25009507,0.006685938,-0.085261054,-0.23119245,0.03798388,0.049267355,0.07004681,0.09673293,0.0019643228,-0.14417912,0.014443702,0.11100206,0.21746476,0.34492865,0.016073367,-0.068273,0.020693101,-0.10974021,-0.023748666,-0.07125667,-0.33226785,0.43966997,0.14013265,-0.04859754,0.20243365,-0.033073742,0.3300431,-0.06832511,75.27551,484.18713
7_4_2_1_0_tr_reg_008_0_0_0_0_0.obj,-0.13940589,-0.045836624,-0.09570021,0.20190616,0.05838553,-0.063158594,0.18095061,-0.060849708,0.24335481,0.017144285,0.1509666,-0.25412312,0.10032112,-0.1982745,0.065984175,-0.13301273,0.046498496,-0.25701818,-0.083466515,0.23941985,-0.22897193,0.048098627,-0.012026903,-0.03205595,-0.040344775,-0.17878045,0.14744765,0.38703173,-0.48683736,-0.039945666,0.13801345,0.12323537,722.77637,319.90424
0_tr_reg_002_0.obj,-0.06751256,0.29353836,0.21710266,0.13247989,-0.03882907,0.11017907,0.2363442,0.30432078,-0.26127854,-0.13084671,-0.15576047,0.19074638,-0.32979515,0.04429678,-0.10271841,-0.021988917,-0.0030212742,0.07487759,-0.031375073,-0.13217668,0.23814572,0.12317095,-0.062422168,0.15634064,0.0892463,-0.042733986,-0.0070657125,-0.21530727,0.2370768,-0.2087031,-0.34317288,0.12906954,361.09763,177.89206
8_5_2_1_tr_reg_003_0_0_0_0.obj,-0.2021542,0.17627253,0.3583008,0.47270808,0.14567454,0.17619689,0.07658199,0.13593441,-0.15786077,-0.0096295625,-0.24546294,-0.15865077,0.0021901438,0.08388814,-0.24242969,-0.3447925,-0.0662322,0.068999514,-0.15815857,-0.15263914,-0.13575384,-0.01975323,0.20464015,0.039059404,0.15962121,-0.019563494,-0.13885605,0.005525333,-0.0018239873,0.0793333,-0.17498204,0.05212488,415.04218,11.801239
8_7_6_5_4_3_2_tr_reg_006_0_0_0_0_0_0_0.obj,0.2235525,0.06993441,0.20139785,0.23845363,0.035719752,0.23862198,-0.0629676,0.10677678,-0.29436168,0.012446721,-0.034283027,0.0007769976,-0.22301684,0.016567888,-0.24994394,-0.027813517,0.3108858,-0.023510372,-0.05684623,0.117340036,-0.12909976,0.028624948,0.034419175,-0.0326359,0.19667147,0.4847774,0.26527366,-0.004440613,-0.23259293,-0.1281982,0.14313856,0.06207413,255.68906,455.95184
8_7_6_4_tr_reg_006_0_0_0_0.obj,0.18007202,0.13106461,0.28144127,0.27994546,0.011218135,0.33485892,-0.044180743,0.2321189,-0.30986598,-0.026807917,-0.062470607,-0.022806147,-0.1920406,-0.0018449941,-0.24952857,-0.055165436,0.14583436,0.019184854,-0.05387152,-0.03612498,-0.12840384,0.038268674,-0.067885056,0.074064456,0.1780812,0.4507834,0.23718397,0.0070256083,-0.15744375,-0.11236385,0.0764415,0.18168789,280.89227,491.71744
8_6_1_0_tr_reg_001_0_0_0_0.obj,0.15859617,-0.04891524,0.26784274,0.32442063,-0.015896048,0.0143600255,-0.121864766,-0.21860872,-0.39921045,0.10071512,-0.29847965,-0.023841944,0.11772803,-0.00753082,-0.25575995,-0.057444904,0.21440239,-0.08237318,-0.09108585,0.003821273,-0.13122655,0.12719221,0.33233696,-0.12225238,0.2716679,0.12654527,-0.114234455,-0.0591231,-0.042554293,0.13107029,0.21150543,-0.024937127,216.6253,184.19902
8_7_5_tr_reg_009_0_0_0.obj,0.05483327,-0.015826397,0.053359535,-0.44608212,-0.11969099,-0.19765115,-0.09024839,-0.22015634,0.26677072,-0.013551053,0.1710723,0.12349793,-0.0077520907,-0.08398271,0.13471778,0.12094771,0.079502344,0.3231112,-0.03664085,0.0037745493,0.022718139,-0.22377594,-0.016185397,-0.17229836,-0.35706872,0.32825878,-0.0062115565,-0.11761214,0.19694765,0.0309079,0.17858146,-0.1255619,17.093536,428.9863
8_4_1_0_tr_reg_000_0_0_0_0.obj,0.2655243,-0.036615893,0.07033986,-0.119927496,0.021477591,-0.0028849605,0.14363466,-0.06250708,-0.26413134,-7.804586e-05,0.18508442,0.062168866,-0.21482946,0.35863104,-0.041367687,-0.008265727,0.11896369,0.25125244,0.098267354,-0.17325501,0.05885221,-0.36217365,0.029880453,0.16924646,0.07519195,0.25836945,0.2519405,-0.0593056,0.16615,-0.2532434,-0.04646672,-0.2914837,423.78754,329.87314
7_6_5_4_3_1_tr_reg_007_0_0_0_0_0_0.obj,0.021788785,-0.25495982,-0.19588178,-0.2333561,-0.031491037,0.038083103,-0.32293493,-0.113908574,0.17959236,-0.16495655,0.01295885,-0.060106706,-0.009496851,0.035844553,-0.06777328,-0.11638809,-0.012168178,-0.005013837,-0.030535227,0.08848087,-0.27352178,0.062348686,-0.03425295,-0.16710114,-0.47210112,0.36208537,0.10327577,-0.13341676,0.31759694,0.020843375,0.08057636,0.1795952,458.42056,506.35168
8_6_5_4_2_0_tr_reg_006_0_0_0_0_0_0.obj,0.17711854,-0.0879724,0.16623895,0.04739424,-0.11356292,0.20732759,-0.04186522,-0.14239849,-0.26177484,-0.021953614,-0.022486594,-0.009145051,-0.0067988867,-0.06532757,-0.1762759,0.019390935,0.17147128,0.124103025,-0.09912319,-0.05719067,-0.2800086,0.039788783,0.029300794,-0.01410106,-0.040683184,0.58555675,0.30803797,0.116478465,0.0915648,-0.09954438,0.35488632,0.1075502,252.37404,523.9683
4_1_0_tr_reg_000_0_0_0.obj,0.18437415,0.021651436,0.18729675,0.10997252,-0.1704886,-0.066518895,0.32365945,-0.052392755,-0.29937616,-0.114213675,0.18379107,0.041628927,-0.26427415,0.19800435,-0.046579458,0.1013249,0.18848996,0.07827705,-0.02830337,-0.25015697,0.14159213,-0.101235025,-0.17271249,0.11979699,-0.12576744,0.0979055,0.14723746,0.28377315,0.20696475,-0.2947267,0.14236593,-0.24620624,416.072,298.11716
8_6_5_4_2_0_tr_reg_007_0_0_0_0_0_0.obj,0.18538143,-0.37323552,-0.2437352,-0.1929119,-0.07910214,0.014484545,-0.27355933,0.0025790792,0.27920026,-0.0784663,0.09976333,-0.06709039,0.04041848,0.025566861,-0.17668323,-0.25351265,-0.06687736,0.15555383,0.3638445,-0.17108221,0.13192756,-0.11682711,-0.14730254,0.09349393,-0.3224499,-0.068172015,-0.09598102,-0.21911763,0.060169086,0.1461846,0.046755366,0.08500406,608.7029,612.5499
7_4_3_tr_reg_006_0_0_0.obj,0.10979683,0.081408545,0.23156038,0.28383255,0.10881379,0.15735553,-0.0820125,-0.025953604,-0.24344915,0.04852688,-0.036160797,-0.083085984,-0.059834085,0.0321698,-0.22003347,-0.08966063,0.23534729,-0.034732603,-0.15488233,0.09574829,-0.33205265,-0.06795765,0.1510995,-0.10708897,0.13844158,0.48923197,0.20088056,0.1285812,-0.2453493,-0.008608074,0.23907244,-0.021906745,239.76038,514.1632
7_5_3_0_tr_reg_006_0_0_0_0.obj,-0.11368331,0.26202124,0.012605804,0.07490016,0.34755504,0.19528694,0.13364413,0.21587026,0.296178,-0.01379971,0.15290287,-0.09914439,-0.08338335,-0.144959,0.09422872,-0.1216032,-0.0035239942,-0.080831,-0.043350004,0.21143134,-0.23166293,-0.09909234,-0.2564175,0.09032861,-0.35623962,0.1850325,0.0904744,0.16422085,-0.3164201,-0.020401236,0.06499452,0.15786722,234.25864,370.6328
6_2_1_tr_reg_007_0_0_0.obj,0.098519824,-0.5548257,-0.22041509,-0.021812161,-0.026526274,0.1251286,-0.31281602,-0.05992867,-0.014277827,-0.18754409,0.036374617,-0.032489482,-0.16494784,0.22861701,-0.36373395,-0.24649282,0.1792007,0.013457198,0.1720596,0.017887317,-0.046614278,0.04707766,0.025329858,-0.14088729,0.056341346,0.18421796,0.13745338,-0.0066908896,0.1950434,0.105413646,0.055706974,-0.09951428,550.5072,492.07086
7_6_5_4_3_2_1_0_tr_reg_006_0_0_0_0_0_0_0_0.obj,0.11977455,0.13634539,-0.105738826,-0.09153634,-0.023788562,0.49763992,-0.010289703,0.23706281,-0.22042546,0.110176414,-0.2611471,0.07397245,-0.017143274,-0.14473161,-0.11100655,0.018661952,0.13392612,0.28067732,0.14244501,-0.032132905,-0.11576403,0.16407812,-0.018106867,0.11087535,0.038887016,0.43112203,0.20376427,-0.07558774,0.16745555,-0.08081963,0.117026545,0.14428115,317.68356,438.94553
8_6_4_1_tr_reg_004_0_0_0_0.obj,0.18925957,-0.3369184,-0.006367592,0.13336807,-0.35112858,0.11456661,0.09759412,-0.03314376,0.026799696,0.08990813,-0.09491271,0.17186913,0.051921695,-0.3064291,-0.20659167,0.12543485,-0.18120866,0.23728591,0.09982195,-0.13211975,0.15661795,0.058465302,-0.037193704,0.3163695,0.27156204,0.07635916,0.24270007,-0.044123564,-0.037578862,0.087837614,0.19267398,0.22534876,566.83325,311.44714
5_4_2_0_tr_reg_007_0_0_0_0.obj,0.15461704,-0.26745328,-0.12056094,-0.019785466,0.019963657,0.10796278,-0.24432807,0.13214642,0.32650158,-0.021845568,0.030440735,-0.05732544,0.009997607,0.003108087,-0.17568566,-0.25602743,-0.18188703,0.23011462,0.30367094,-0.09270964,0.22492966,-0.16959466,-0.12075346,0.21495542,-0.13154525,-0.06755341,-0.121544115,-0.39903733,-0.08161967,0.13941412,-0.12938796,0.16402303,649.50574,554.20215
4_3_2_1_tr_reg_008_0_0_0_0.obj,0.37307557,0.05895395,-0.23505817,-0.30616322,-0.07975764,0.12938148,0.09265901,-0.045478784,-0.03609118,0.07749206,0.14174184,-0.03442736,0.07140043,0.00839633,0.099579185,-0.052349012,0.2948758,0.2372116,0.33321428,-0.19830522,0.12128341,-0.12914287,-0.05958696,0.18838473,-0.39399844,-0.022857675,0.036110748,-0.06344462,0.19968991,-0.09308026,0.1462872,-0.18208858,360.58917,649.1144
7_6_5_4_3_1_0_tr_reg_007_0_0_0_0_0_0_0.obj,0.30029973,-0.31281865,-0.27083877,-0.1412064,-0.105620325,0.044968102,-0.31202742,-0.08742722,0.07734683,-0.080053635,0.03815677,-0.05921359,0.07249712,0.01718574,-0.16243409,-0.14559826,0.01303799,-0.07024217,0.15671776,-0.08500349,-0.23976597,0.030153569,-0.009082814,-0.07161463,-0.45468494,0.2394961,0.06965951,-0.058530536,0.17501213,0.19046846,0.25030038,0.16604276,517.9252,467.18927
8_6_5_4_2_1_0_tr_reg_009_0_0_0_0_0_0_0.obj,0.01626992,-0.11585442,0.14623013,0.116568565,0.03030006,-0.03139803,0.008941078,-0.26373646,-0.061687153,-0.11529045,0.093014486,-0.13923714,0.024770442,0.06839884,-0.114299044,-0.07465827,0.07212004,-0.025262626,-0.25970554,0.029584294,-0.41350526,-0.043944284,0.069386505,-0.13351865,-0.26262274,0.5128337,0.16150425,0.24485944,0.09540288,-0.036803782,0.33416966,0.029653257,149.12926,506.0251
2_tr_reg_008_0.obj,-0.0894341,-0.33191687,-0.27851734,-0.068590455,-0.095704325,-0.2874547,0.24686769,-0.13479708,0.33570176,-0.0977863,0.22534388,-0.01275316,-0.03621743,-0.15218444,-0.026081262,-0.051489174,-0.10226,-0.18355104,-0.13410753,0.2413109,-0.14984488,-0.077221505,0.14045489,-0.015193524,0.16459656,-0.12389941,0.25224242,0.18731567,-0.30240437,0.05517834,0.028302431,0.14986557,692.1089,314.16318
8_7_6_5_4_1_tr_reg_002_0_0_0_0_0_0.obj,-0.12866598,0.25684258,0.030338654,0.05890653,0.15957431,-0.00085983373,-0.13170275,-0.18692967,-0.2647263,0.085975565,-0.33911565,-0.16324948,0.23547848,-0.008644878,0.049277075,-0.059217315,0.27031264,-0.11684093,-0.09386716,0.17338449,-0.27487192,0.27953768,0.30904657,-0.33661598,0.016772486,0.056875683,-0.2016636,-0.045802277,0.03536116,0.032499265,0.09882481,-0.091033176,200.06668,172.88748
7_6_4_1_0_tr_reg_002_0_0_0_0_0.obj,0.317493,0.31126133,0.16722654,0.044361275,0.08422036,0.055020217,0.21879283,-0.030859608,-0.31519058,0.098912604,-0.023422485,-0.09699289,-0.054032028,0.35514405,0.13630708,-0.062423598,0.12399316,0.1956361,0.048889443,-0.19387178,0.20515049,-0.22003435,0.030809723,0.16473798,-0.10632676,0.06572353,-0.056220442,-0.09572185,0.18718797,-0.27352548,-0.1698072,-0.25294015,330.51816,587.3241
8_5_tr_reg_004_0_0.obj,0.015754784,-0.39878327,0.0761951,0.2217141,-0.14540002,0.002862081,-0.05552694,-0.15541722,0.10996619,0.09657336,-0.100502186,0.20448321,0.15806592,-0.293262,-0.14937691,0.17978361,-0.31905326,-0.025462572,-0.1256001,0.10341695,-0.015318617,0.061599508,0.103692636,0.20567441,0.3575252,-0.029292703,0.07606382,-0.1007764,-0.06255285,0.26850575,0.13477862,0.27133596,545.07574,297.3463
7_5_2_1_0_tr_reg_008_0_0_0_0_0.obj,0.026931394,-0.14378558,-0.13835222,0.0967011,0.1337538,0.0039644926,0.16250232,0.16859758,0.23938741,-0.072321594,0.20561935,0.037586216,-0.14479451,-0.19830598,-0.12404826,-0.14803778,0.023039691,-0.2996661,0.047638226,0.25614572,-0.038672075,-0.07641463,0.03158637,0.16842717,0.13555782,-0.18486317,0.15733449,-0.03344194,-0.52782196,0.1791051,-0.08574759,0.2866818,709.49316,259.24603
7_6_4_tr_reg_006_0_0_0.obj,-0.0031896373,0.21804869,0.33187798,0.37735313,0.04746796,0.3334914,0.0761559,0.23067528,-0.02518548,-0.023891617,-0.110789746,-0.19179428,-0.1545704,-0.10691275,-0.13042836,-0.19626267,0.13473071,0.12904932,-0.037497476,0.054766092,-0.020056399,0.049412142,-0.10854413,0.051176615,0.09565835,0.2886366,0.1373107,0.025499871,-0.39032045,-0.13872333,-0.027077278,0.21344477,257.5105,419.99304
8_6_5_3_2_1_tr_reg_008_0_0_0_0_0_0.obj,0.3926917,-0.056434453,-0.0067434437,-0.18400496,-0.13773994,-0.037990868,0.036184087,-0.21930932,-0.3152589,-0.106684566,0.26982322,0.021977317,-0.026463887,0.16137855,0.0054357913,0.07865406,0.31500632,0.10622173,0.20961839,-0.25976697,0.03387619,-0.06347304,-0.07763086,0.0590814,-0.20952776,0.08275042,0.1309695,0.0133338645,0.2994604,-0.16181718,0.261419,-0.18155171,329.0606,620.699
8_7_5_4_2_1_0_tr_reg_001_0_0_0_0_0_0_0.obj,0.26856574,-0.1431537,0.04226666,0.0813558,-0.11363531,0.18195106,-0.13250998,-0.04577596,-0.36799008,0.10977632,-0.30267364,0.18133304,0.028480705,-0.17337169,-0.3370672,0.029221814,0.19230565,0.065179795,0.09041809,-0.028546924,-0.09641048,0.18066989,0.19495708,0.025135579,0.21077418,0.28081173,0.0487248,-0.17462254,0.07376554,0.14695607,0.30541492,0.093500584,212.63266,148.42804
7_6_5_3_2_0_tr_reg_009_0_0_0_0_0_0.obj,0.12732106,0.004410027,0.39022645,0.3831058,-0.03335308,0.0459747,-0.13991542,-0.10497645,-0.030842785,0.27704078,-0.08146731,-0.06277034,0.025976636,0.033747856,0.016044276,0.08785028,0.08240249,0.008982171,-0.17038567,0.15034753,0.09165145,-0.16942906,-0.044631254,-0.1357679,0.2462905,0.198573,-0.03333006,0.3359391,-0.3937073,0.03825896,0.18771124,-0.1761631,76.30109,391.54532
8_7_6_5_3_2_tr_reg_008_0_0_0_0_0_0.obj,-0.13915043,-0.18715258,-0.3175799,-0.076071545,0.053656083,-0.2151282,0.26015502,-0.11952252,0.37278792,-0.05163147,0.21174419,-0.1753763,0.07783771,-0.1563012,0.06299832,-0.11611959,-0.040869247,-0.17213562,-0.0805311,0.27810502,-0.19718696,-0.03587422,0.15129924,-0.012262286,0.060308337,-0.16264185,0.1571821,0.15492752,-0.39609283,0.010185943,0.02623708,0.16688731,719.9492,300.9171
8_7_5_4_3_1_0_tr_reg_004_0_0_0_0_0_0_0.obj,0.17552869,-0.1453136,0.3158394,0.38934135,-0.21884297,-0.00090025004,0.06538013,-0.2293348,-0.07247088,0.22274911,-0.17749181,-0.055404894,0.20202467,-0.07091508,-0.02718835,0.078186356,-0.19832712,0.15387139,-0.024719197,-0.09056708,0.23611578,-0.045249593,0.06606063,0.15840198,0.4493581,-0.13127884,0.00084966014,0.017229943,-0.23942609,0.04377544,0.040558178,0.10205628,542.3894,250.87878
7_6_5_4_2_tr_reg_006_0_0_0_0_0.obj,-0.0035170773,0.20822196,0.21376252,0.23883714,0.19891837,0.24135405,0.18701564,0.23112965,0.17813721,-0.022274481,0.12900223,-0.17448112,-0.15224636,-0.03657999,-0.124465875,-0.26752502,0.050834626,0.08643355,-0.010305845,-0.0064594345,-0.12384286,-0.24054164,-0.12279628,0.13769366,-0.13946709,0.27045703,0.08015434,0.1744645,-0.46507052,0.03237567,0.06866907,0.088495076,205.36641,359.8598
8_6_4_3_2_0_tr_reg_008_0_0_0_0_0_0.obj,0.4358453,0.25907433,-0.0071503455,-0.20391494,0.17816311,0.17045511,-0.026171874,-0.048694555,-0.20924856,0.1577696,0.022160873,-0.086835794,0.088700056,0.21592869,0.12777916,-0.121517815,0.22962147,0.19447388,0.30609354,-0.11405492,0.17002147,-0.23861074,-0.055723865,0.18441838,-0.17139478,0.04992213,-0.076749265,-0.23072137,0.086401045,-0.1520363,-0.041886054,-0.17778547,339.76263,650.3108
6_4_1_tr_reg_008_0_0_0.obj,0.22071226,0.34397376,0.04637772,0.14388195,0.19320714,0.17903847,0.10674126,0.050071165,0.008327036,0.22313447,-0.14756596,-0.26700568,0.087892465,0.1588224,0.19149022,-0.21242039,0.16874504,0.118346445,0.1690481,0.06047074,0.3437579,-0.083281316,-0.06556047,0.094851375,-0.13911004,-0.1497943,-0.26041684,-0.10154467,-0.23551515,-0.15288669,-0.2159498,-0.1032222,333.46515,690.0713
8_7_1_tr_reg_008_0_0_0.obj,0.22860426,-0.0024919969,-0.19746862,-0.26078606,-0.1170027,-0.012028541,0.2725497,-0.015166631,0.020496417,0.03895472,0.24639323,-0.034314755,-0.07084059,0.19366719,0.1128309,-0.053713422,0.11799303,0.26153514,0.16183047,-0.250759,0.080159426,-0.3535131,0.018121397,0.230119,-0.2810552,-0.024287382,0.16335747,0.056730837,0.20502572,-0.18347946,-0.04044266,-0.29584244,420.35736,643.3544
6_2_0_tr_reg_005_0_0_0.obj,-0.006184848,0.18035072,-0.08485684,-0.23774354,0.34758267,-0.13506432,-0.14101668,0.043779753,-0.21965079,-0.044301573,0.06259058,0.025649926,-0.07662587,0.27676344,-0.059693456,-0.07719271,0.16651212,-0.13312735,0.053330638,0.10365111,-0.15182732,-0.18111709,0.3037442,-0.10519263,0.33879828,0.027592061,-0.025063792,-0.3979181,-0.09594492,0.05462907,-0.24539232,-0.17589875,390.5595,222.53166
8_7_6_3_2_1_0_tr_reg_001_0_0_0_0_0_0_0.obj,0.34886333,-0.084020756,-0.12958136,-0.011187451,-0.1878974,0.14903156,-0.051998995,-0.0045540337,-0.3515772,0.039445274,-0.26170063,0.0807594,-0.050142366,-0.15203345,-0.23178571,0.043018032,0.38172656,0.029924415,0.18564749,0.040268052,0.041831333,0.3491386,0.10349941,-0.04017998,0.0408707,0.25324032,0.07782814,-0.19121854,0.078570805,-0.058432806,0.24980003,0.116707176,238.1941,159.04723
8_6_5_4_2_tr_reg_009_0_0_0_0_0.obj,0.14572328,-0.07885581,-0.13242708,-0.23689212,-0.21292053,0.317688,-0.098309815,-0.0171933,0.08175576,0.056685567,-0.15197895,0.062067185,0.08284294,-0.20361261,0.028685281,0.062105134,0.071757846,0.42898345,0.20119628,-0.08156031,0.035938147,0.13259509,-0.12154081,0.03104444,-0.29766226,0.3426732,0.12152,-0.092738286,0.3246011,-0.049184285,0.19567016,0.08023935,60.30896,541.2401
8_5_3_1_0_tr_reg_007_0_0_0_0_0.obj,0.39754805,-0.18337882,-0.17052436,-0.07695043,-0.0072203954,0.16115749,-0.2717191,0.0027523867,-0.25073993,0.058019117,-0.08198705,0.050459556,-0.031190727,-0.021367472,-0.2725735,-0.1762243,0.33633623,-0.10298098,0.33998373,-0.01647829,-0.13448961,0.08707916,0.06439514,-0.052753393,-0.09086919,0.1907606,0.06334301,-0.020560903,-0.08756677,0.18036473,0.35860592,0.033355545,609.2078,456.3872
8_7_4_3_tr_reg_006_0_0_0_0.obj,0.0680833,0.16875498,0.33411807,0.42635855,0.123946026,0.16014378,0.012546207,0.07921724,-0.34002408,0.008067219,-0.09525558,-0.17384002,-0.1292408,0.15800469,-0.27345276,-0.2576492,0.2658857,-0.04450895,-0.08457914,-0.05514359,-0.18112978,-0.035679065,0.14863616,-0.077432364,0.17673385,0.19990347,0.04636014,0.13448991,-0.19935036,-0.062209498,0.05385567,-0.07239271,215.04266,521.07404
8_7_6_5_3_1_tr_reg_008_0_0_0_0_0_0.obj,0.012696618,0.0979381,0.19659342,0.47934088,0.009420598,0.035173096,0.09790166,-0.0709858,-0.019919759,0.10588867,-0.04399777,-0.41206402,0.07311994,0.12901703,0.059252918,-0.19019602,0.17411278,-0.09892606,-0.009822804,0.06515753,0.12481342,0.058604416,-0.0062095714,-0.09452235,0.106674686,-0.26197994,-0.088668995,0.29802975,-0.4166178,-0.16528887,-0.06206862,-0.08361772,740.9048,323.08093
8_7_5_1_tr_reg_008_0_0_0_0.obj,0.065556,-0.22027636,-0.27906388,-0.0050363136,-0.13081722,-0.22387661,0.3782554,-0.04298115,0.14802895,-0.049473267,0.30144876,-0.23686188,-0.17301343,0.30870572,0.005554995,-0.12454345,0.05955252,0.01899513,0.031718798,-0.074904196,0.053476922,-0.23111786,0.10475432,0.08471786,-0.03752476,-0.15938537,0.20337181,0.26474452,-0.09645103,-0.2056383,-0.10715167,-0.2423378,451.74036,641.3053
8_6_4_3_2_0_tr_reg_007_0_0_0_0_0_0.obj,0.023807397,-0.4455526,-0.15908355,-0.04132051,-0.017264673,0.15163657,-0.29779136,0.14722584,0.33811802,-0.10465573,0.048231892,0.0325126,-0.098914504,0.02883262,-0.22572473,-0.16104199,-0.17754756,0.19736253,0.24860653,0.007899836,0.25526083,-0.087805234,-0.21399012,0.14710583,0.03919379,-0.024944713,-0.02518978,-0.29277372,0.042088687,0.12982556,-0.16945633,0.124897026,619.49335,604.87964
8_7_5_2_1_tr_reg_004_0_0_0_0_0.obj,0.13436696,-0.3725708,0.05035693,0.24331263,-0.3073941,0.15073489,0.15606864,-0.090137966,0.06473534,0.12729472,-0.0672156,0.018886188,0.107142136,-0.18883476,-0.11987296,0.107277654,-0.29703552,0.22132842,-0.060490344,-0.06131209,0.072670996,0.013093875,-0.016966686,0.32800245,0.28759104,0.13295361,0.30633703,0.10136226,0.0017739994,0.006882506,0.12139766,0.23700099,573.57086,258.2376
1_0_tr_reg_007_0_0.obj,0.008634859,-0.22162782,0.23702738,0.40194583,0.04051892,0.2563116,-0.20266151,0.16478392,-0.06326548,0.041289125,-0.111981764,-0.09054292,-0.13859677,0.13165116,-0.23612599,-0.2090684,0.1457011,0.04277975,0.19605248,-0.00027547035,0.25054845,-0.01292765,-0.13152006,-0.019207826,0.3826144,-0.1292869,-0.10116963,0.17362384,-0.2524526,0.10017521,-0.057111558,-0.11147902,627.6349,576.317
8_6_4_0_tr_reg_008_0_0_0_0.obj,0.30739444,0.109051324,-0.35699242,-0.10527391,0.08646089,0.107965514,0.27099675,0.03481484,0.09461865,0.1741966,0.095028,-0.29176205,0.084482245,0.14863464,0.13732417,-0.19422081,0.20501417,0.0974945,0.2743529,-0.03988439,0.13770577,-0.16265646,0.06821357,0.25882176,-0.2999005,-0.15742922,-0.019671984,-0.031322222,-0.14639659,-0.15419042,-0.063952394,-0.17663011,395.73447,678.12036
6_5_2_1_tr_reg_007_0_0_0_0.obj,-0.034658317,-0.34107134,-0.15230249,-0.10896483,-0.022791913,-0.010873063,-0.30484337,-0.13021494,0.094080955,-0.23813312,0.031199103,-0.07090461,-0.14778258,0.15068403,-0.16980097,-0.17440332,0.1354583,-0.07592306,-0.07681168,0.1301365,-0.22318216,0.11172348,0.009739227,-0.2732056,-0.3695527,0.35792142,0.11642886,-0.046179295,0.30133438,-0.029514723,0.046421193,0.057896525,485.5412,512.5314
8_6_4_3_2_1_0_tr_reg_008_0_0_0_0_0_0_0.obj,0.06689747,-0.12366278,-0.067406856,0.30308267,-0.07767998,-0.071222514,0.35870644,0.05523219,0.10461162,-0.11230015,0.23259456,-0.33453313,-0.18561739,0.16228591,-0.10347495,-0.24497321,0.08651636,-0.08731566,0.035588298,-0.04012852,0.01142322,-0.106485195,0.053287286,0.10880566,0.107352324,-0.17496961,0.23121276,0.27966204,-0.4111512,-0.16207291,-0.07881483,-0.021379607,736.1913,323.30164
8_6_4_3_2_1_tr_reg_005_0_0_0_0_0_0.obj,0.2799218,0.23401597,0.03552238,-0.119411886,0.1553321,-0.09270911,0.18989243,-0.032365907,-0.21886304,0.06525113,0.025491476,-0.11578782,-0.06630954,0.39102995,0.05875373,-0.14526919,0.043172978,0.20327227,0.08718416,-0.14588529,0.078484826,-0.3494462,0.2284395,0.15496482,0.0599302,0.07630822,-0.017600091,-0.3198621,0.034173813,-0.21316628,-0.25330853,-0.18468985,408.33047,312.93588
8_5_tr_reg_007_0_0.obj,0.26606372,-0.28137037,-0.15062252,0.02337276,0.05527792,0.0953671,-0.210855,-0.03484909,-0.2364898,-0.054284193,-0.014852719,-0.097526215,-0.039041955,0.18553689,-0.34963688,-0.35151857,0.29728067,-0.12229213,0.27486512,-0.14546354,-0.20387402,0.020436935,0.17052652,-0.091993146,-0.119848095,0.08157856,-0.009372683,0.065056205,0.018027289,0.20762756,0.25110462,-0.084997274,571.8263,505.61163
8_6_5_4_1_0_tr_reg_007_0_0_0_0_0_0.obj,-0.3502784,-0.28802067,-0.12013102,0.16285281,0.024666589,0.024727292,-0.09855082,0.19419186,0.21044333,-0.3078253,0.026810542,-0.121821165,-0.28949982,0.22583267,-0.22561155,-0.28206047,-0.035313923,-0.06583172,-0.0913767,0.0022731556,-0.029334351,0.12374816,-0.088790625,-0.14108706,-0.25209218,-0.037189502,-0.04184187,0.068115324,0.2893518,-0.055475477,-0.26170525,0.019186256,623.86914,506.17157
6_5_4_2_0_tr_reg_003_0_0_0_0_0.obj,0.14332692,-0.06245366,-0.0012634313,-0.17884631,-0.096134774,0.062273886,-0.026351085,-0.079794794,-0.13129021,0.18276902,-0.20091231,0.18708698,0.13300937,-0.22306398,-0.2827978,-0.11885132,0.09166168,0.36051664,0.1564474,-0.17901894,-0.08290211,-0.13029648,0.37710127,0.10406608,0.1707337,0.14222063,-0.009377578,-0.2908904,0.06091422,0.26366675,0.23296593,-0.04961002,363.33218,39.932648
8_6_5_3_tr_reg_009_0_0_0_0.obj,0.21826345,-0.2001865,0.22149067,-0.04071193,-0.14523785,-0.05477493,-0.14535668,-0.23486422,0.038765717,0.09088894,0.10209765,0.13011967,-0.08580224,-0.07461082,-0.0018047073,0.24161124,0.18759874,0.14073338,-0.16771822,0.18068387,0.03099783,-0.12701064,-0.053418927,-0.14961995,-0.017556293,0.55325735,0.17384057,0.12605786,-0.04520326,-0.010804775,0.3550058,-0.11811071,70.42612,441.34787
7_6_5_4_3_tr_reg_009_0_0_0_0_0.obj,0.051909033,-0.06269325,-0.10076692,-0.3741619,-0.12479389,0.22144097,-0.26942286,-0.051192813,0.14874355,-0.036874663,-0.08258233,0.07891997,0.08722355,-0.14725971,0.037961613,0.038576324,-0.015543305,0.37079057,0.18689641,-0.056203987,-0.00956789,0.098437406,-0.1306989,-0.041891485,-0.30842838,0.31312513,0.06712715,-0.26175404,0.38190007,0.0038616725,0.096671686,0.09386266,70.72626,549.45557
7_5_4_3_2_tr_reg_007_0_0_0_0_0.obj,0.22909816,-0.3268332,-0.19218644,-0.185309,-0.111751944,0.08187989,-0.32507333,-0.008415881,0.22208698,0.0061039827,0.012716877,0.035657864,0.116182104,-0.088464744,-0.15151829,-0.12473281,-0.13032,0.24729456,0.3665884,-0.14162865,0.19094376,-0.057210643,-0.14077452,0.16096024,-0.15896569,-0.018697327,-0.04971,-0.36458498,0.095060274,0.1497282,0.053051513,0.14326504,584.6786,561.1758
8_7_5_3_0_tr_reg_007_0_0_0_0_0.obj,0.3127967,-0.29834694,-0.23563907,-0.114284955,-0.039773338,0.045094572,-0.21279894,-0.005173073,0.01559099,-0.0063223685,0.009943425,-0.052346714,0.043855663,0.016493205,-0.31719366,-0.3667891,0.11573671,0.03401278,0.3818382,-0.21086556,-0.09078414,-0.09411239,0.057514608,0.04338376,-0.28050566,-4.669276e-05,-0.055085823,-0.083601214,-0.029091578,0.27635115,0.2480455,0.024820657,552.9258,467.4843
8_6_1_0_tr_reg_004_0_0_0_0.obj,0.19445004,0.09884326,0.17479908,0.14179018,-0.03406656,-0.14495623,0.14107375,-0.25124186,0.053889062,0.20848349,-0.069590166,-0.21054801,0.17176332,0.19841588,0.31132767,0.043972313,-0.21038027,0.15502328,-0.019746091,0.039975658,0.33500558,-0.1934978,0.05692916,0.11726419,0.2190098,-0.18609482,-0.07150459,-0.17925672,-0.23378143,-0.19673918,-0.28625193,0.034720164,513.50024,264.90894
7_6_5_4_2_0_tr_reg_007_0_0_0_0_0_0.obj,0.14583105,-0.44525743,-0.26659104,-0.112073556,-0.1079416,-0.016567158,-0.21892102,0.0073117507,0.28316128,-0.095967785,0.08488654,-0.07901571,-0.012370227,0.092077725,-0.2637194,-0.31474963,-0.09646215,0.13052186,0.25656658,-0.18519002,0.040431358,-0.14513405,-0.057631046,0.05883243,-0.351125,-0.040066097,-0.067326345,-0.13069092,0.15009733,0.1716887,0.026075298,0.041464377,608.4004,611.6439
8_7_5_3_2_tr_reg_009_0_0_0_0_0.obj,-0.0913859,-0.056325395,-0.0018553057,-0.24753104,-0.15232883,-0.0019430981,-0.1408792,-0.045269884,0.32580578,-0.07529402,-0.034325074,0.10964438,-0.019511625,-0.09090815,0.06578894,0.002845581,-0.14368604,0.33253837,-0.07388,-0.057205766,0.097140476,-0.038394447,-0.12545183,-0.03227771,-0.5222035,0.24219006,-0.07455338,-0.2298852,0.42846522,-0.03251633,-0.044191062,0.009886882,10.0,447.92682
8_7_6_5_4_3_2_0_tr_reg_003_0_0_0_0_0_0_0_0.obj,0.32452726,-0.1655196,-0.13935912,0.066682056,-0.14408164,-0.08681485,-0.11617569,-0.055070695,-0.2067518,-0.050176237,-0.24055646,0.1580677,-0.11547749,-0.088953786,-0.25290483,0.041838024,0.2329953,-0.16229357,0.030883892,0.13625404,0.11754018,0.33194897,0.16018143,-0.05065288,-0.11655552,0.14319533,-0.09537596,-0.46045595,0.123913415,-0.015778372,0.07149673,0.23498917,258.1454,151.15234
6_4_3_2_1_0_tr_reg_008_0_0_0_0_0_0.obj,-0.023767078,-0.027107174,-0.15184762,0.1114757,0.24749142,0.07400027,0.13507247,0.18636361,0.2753765,-0.014509056,0.18828806,-0.086926006,-0.07174395,-0.16437383,0.0026969619,-0.15207045,0.048137538,-0.29215556,0.04946141,0.3213349,-0.06634839,-0.049826466,-0.06128385,0.13004157,0.05400537,-0.17670938,0.109427184,0.039189264,-0.5656304,0.0841121,-0.08390004,0.2579362,727.8163,279.4936
0_tr_reg_008_0.obj,0.067786664,-0.10688717,-0.26541886,0.13971835,-0.04194646,-0.13601184,0.33378753,-0.040078882,0.13587411,-0.024913654,0.22918606,-0.42837754,-0.06028655,0.26908857,0.014402387,-0.20705034,0.17874001,-0.1300928,0.058162052,-0.006274993,0.05490248,-0.043192077,0.06762627,0.028026136,-0.17249195,-0.23818605,0.04310331,0.30783194,-0.23898754,-0.21855442,-0.0601986,-0.17987165,700.8633,346.24664
4_tr_reg_006_0.obj,-0.036780667,0.268,0.21267636,0.312747,0.15696973,0.37629056,0.098347634,0.24429716,0.06023887,-0.004967565,-0.08830673,-0.22505528,-0.1393883,-0.09491435,-0.03547311,-0.18418941,0.18574332,0.12978718,0.037245315,0.14784947,-0.0070126285,0.069358885,-0.14462751,0.047953032,0.032191183,0.24874726,0.11091613,0.019480513,-0.4224412,-0.17105527,-0.048158802,0.18485954,210.63889,409.12097
8_4_tr_reg_006_0_0.obj,-0.022078767,0.31655043,-0.2195752,-0.039991267,0.33852416,0.38336834,0.058842376,0.14609948,0.08753811,0.17650841,-0.16216445,-0.24180484,0.08431846,-0.0022647975,0.173804,-0.040040456,0.25498995,0.15830751,0.13131852,0.31769124,-0.10739263,0.057318613,0.024905903,-0.03559064,-0.0067774705,0.2745078,0.0058148694,-0.045826003,-0.27537018,-0.14828205,-0.014053385,0.010023001,309.6498,411.9644
8_5_2_1_0_tr_reg_007_0_0_0_0_0.obj,0.04356839,-0.38395202,-0.25790712,0.015909499,-0.12234439,0.06599008,-0.2286874,0.046517286,0.26880518,-0.18531671,-0.048398804,-0.14112385,-0.08087698,0.09047459,-0.22004034,-0.25351965,-0.09939256,0.015667276,0.093720235,-0.063755035,-0.058520757,0.12913258,-0.07010978,-0.075829245,-0.49444136,0.100203946,-0.050681677,-0.0911622,0.2847018,0.057781253,-0.018590232,0.22357473,581.2695,488.56644
8_4_3_2_1_tr_reg_008_0_0_0_0_0.obj,0.35426226,0.2246226,-0.06885322,0.03894074,0.17313722,0.19653878,0.008259023,-0.06639589,-0.18166287,0.2669092,-0.22098577,-0.24122114,0.13108268,0.16902319,0.053686302,-0.24238496,0.3497775,0.15934026,0.2846686,0.083651274,0.22484843,-0.036808055,0.07562674,0.016245227,-0.037818443,0.008177924,-0.17315744,-0.15859683,-0.18414184,-0.1626965,-0.04177102,-0.116779864,323.68054,679.87634
8_6_4_3_0_tr_reg_000_0_0_0_0_0.obj,0.10445918,0.13908075,0.29372317,0.2560975,0.10029788,-0.1694862,0.08267262,-0.20648567,-0.2942264,0.057629764,-0.12743707,-0.14408077,0.006689726,0.40885448,0.049615234,-0.08362069,0.015292095,-0.0012807203,-0.12537608,-0.0018163329,0.17543793,-0.100151606,0.2271813,-0.09632464,0.32851973,-0.11094356,-0.16826302,-0.13633627,0.017149145,-0.14876537,-0.31141427,-0.1479334,403.94363,243.3412
8_7_6_5_4_0_tr_reg_008_0_0_0_0_0_0.obj,0.2004824,0.28155744,-0.024865195,0.21360071,0.17286249,0.09435359,0.08474843,-0.06271281,-0.040768575,0.22070739,-0.13340807,-0.33527315,0.09340982,0.17987804,0.21099333,-0.13109154,0.29490972,-0.025159763,0.11605391,0.23858602,0.27970546,0.051200997,-0.007192879,-0.056405414,-0.0402599,-0.13050234,-0.18264842,-0.013390222,-0.33953187,-0.24823129,-0.1508823,-0.0841489,340.35132,703.0232
8_7_5_4_2_1_0_tr_reg_009_0_0_0_0_0_0_0.obj,0.026613368,-0.100442186,-0.0027306953,-0.07338078,-0.21967174,0.19545339,-0.054514147,-0.02037774,0.24941039,0.038069934,-0.12005334,0.022681965,0.047431666,-0.14192326,0.046605565,0.018138604,-0.21105006,0.3516622,-0.077876545,-0.043214373,-0.0153016,0.02237318,-0.14085566,0.0867072,-0.47084713,0.3836735,0.0988262,-0.06294033,0.37405524,-0.117873326,0.048323072,0.2178993,93.54254,528.64453
8_7_6_2_1_0_tr_reg_002_0_0_0_0_0_0.obj,-0.18293801,-0.004319647,-0.017532492,-0.20023322,-0.24098743,-0.21049108,0.12410903,-0.025400966,0.21212888,-0.08700614,-0.045020334,0.345172,-0.000499446,-0.3450297,0.03873275,0.20711851,-0.31325492,0.12177072,-0.09363091,-0.08338333,0.21291168,0.18114404,-0.024453415,0.093349196,-0.08566224,-0.114943646,-0.044675462,-0.34937733,0.1870514,0.027279358,-0.08867,0.25722206,336.2821,176.9912
2_1_0_tr_reg_008_0_0_0.obj,0.036766548,-0.23256963,-0.13091284,0.11440515,0.0944141,-0.02905985,0.15218762,0.068557054,0.276675,-0.07069276,0.21834536,0.04127802,-0.11946578,-0.21163945,-0.12448099,-0.14097735,-0.014324836,-0.28451705,0.010740912,0.2824033,-0.050522465,-0.0917581,0.0133539755,0.14868635,0.14971673,-0.14487562,0.21096738,0.05683227,-0.50677705,0.18884751,-0.011592292,0.27076298,714.1616,288.59198
3_1_tr_reg_001_0_0.obj,0.20894702,-0.020216325,0.06661501,0.2143679,-0.03713382,-0.0693286,-0.10757001,-0.27753007,-0.34214237,0.042988073,-0.27739418,-0.11809039,0.0963448,0.010630309,-0.13536365,-0.042397756,0.37584952,-0.1495457,-0.06514492,0.1782461,-0.09146586,0.28159973,0.35417914,-0.2526519,0.09850871,0.14059381,-0.10328759,-0.15027167,-0.057227742,-0.0007909006,0.16985798,0.0035651757,229.4783,175.91145
7_6_4_3_2_1_tr_reg_009_0_0_0_0_0_0.obj,-0.09883515,-0.091858074,0.02234699,0.014969864,-0.27339354,0.039885435,0.0911649,-0.08928665,0.26125774,-0.05016441,-0.122226246,-0.021301113,0.02887855,-0.16864176,0.0064909845,-0.042228557,-0.17490959,0.32135826,-0.1962039,-0.093620494,-0.067969434,0.059357233,-0.018542148,0.027259931,-0.54896986,0.28262627,0.033884034,-0.022013409,0.37777126,-0.1246179,0.07360455,0.1851916,116.83484,550.49554
8_7_6_4_3_2_1_0_tr_reg_009_0_0_0_0_0_0_0_0.obj,0.14290448,-0.15740435,0.078168154,-0.113176055,-0.29950818,-0.0062652454,-0.030366505,-0.10833803,0.25690356,0.041141056,0.025666688,0.05388506,0.0026396152,-0.123746544,-0.014606672,-0.00014709459,-0.11769144,0.32153693,-0.11961761,-0.12995608,-0.0065185577,-0.17376323,-0.05824154,0.050171733,-0.5501401,0.36145744,0.07532289,-0.024163214,0.30350435,-0.023449052,0.15322861,0.08003157,31.33191,452.63892
8_7_6_4_3_1_0_tr_reg_006_0_0_0_0_0_0_0.obj,0.007529962,0.2746389,-0.30477905,-0.06404722,0.2545202,0.22000517,0.009467568,0.015105452,0.13501585,0.17807189,-0.14887281,-0.3352317,0.16055128,0.05025306,0.2966825,0.022242127,0.2647213,0.0019118674,0.13022256,0.3726014,-0.013559104,0.16279611,-0.025653807,-0.15773986,-0.073427275,0.082981884,-0.07767596,0.027616356,-0.27705708,-0.18964194,-0.032514345,-0.04208973,292.8909,372.09827
8_5_3_tr_reg_007_0_0_0.obj,-0.16384552,-0.52201575,-0.13610333,-0.0023670283,0.04593799,0.15417077,-0.27508673,0.13330877,0.20280235,-0.2344302,0.06978821,0.027632922,-0.24539782,0.18702526,-0.29345673,-0.17084892,-0.010515777,0.06835249,0.16101487,0.08399456,0.19897741,0.027327074,-0.172717,-0.036518935,0.23593713,-0.014458997,0.023836287,-0.074728966,0.14000292,0.10776951,-0.20963174,-0.06419436,599.202,531.4347
6_3_tr_reg_006_0_0.obj,-0.14733323,0.08481114,0.24831691,0.3139177,0.19965547,0.087697595,-0.0043286067,0.012321087,-0.09571354,-0.10485767,0.14185713,-0.1847302,-0.023385646,0.087512165,-0.1315357,-0.18616317,0.029534034,-0.17348655,-0.20938088,-0.037053138,-0.48194897,-0.06511499,-0.024796356,-0.07719552,-0.14991902,0.269646,0.15056843,0.38281178,-0.08921287,0.005140507,0.19201055,0.008747157,216.4247,461.56842
8_7_6_5_3_2_tr_reg_007_0_0_0_0_0_0.obj,0.24034159,-0.27541083,-0.17807028,-0.16462776,-0.04176172,0.0078054625,-0.2573801,-0.023591453,0.22833575,0.012479329,0.085750915,-0.072794504,0.14138496,-0.035330977,-0.1520482,-0.26701567,-0.06745121,0.16631988,0.41476995,-0.2125338,0.119617544,-0.16134897,-0.064921096,0.16091312,-0.25855234,-0.14011715,-0.1303432,-0.27046242,-0.066303,0.20229006,0.096394345,0.08527223,620.2302,624.4353
3_tr_reg_006_0.obj,-0.21713187,0.17998734,0.09325959,0.19605225,0.14006305,0.13596365,0.17313775,0.18369873,0.2380621,-0.12854515,0.11062602,-0.133972,-0.10259649,-0.1297782,-0.0792247,-0.25670817,-0.10145206,-0.030660601,-0.16517337,0.016111976,-0.36697567,-0.06871433,-0.14476734,0.06248123,-0.39049572,0.2356122,0.16903196,0.25926438,-0.1355451,-0.010344524,0.06811452,0.19655295,226.9808,462.6014
1_tr_reg_003_0.obj,-0.22344972,0.12398288,0.13791962,0.14453484,0.033304416,0.060578212,0.09221635,0.03217754,0.1931,0.13273962,-0.19953239,-0.17856663,0.16630703,0.05112176,-0.07364266,-0.356701,-0.19654225,0.2741245,-0.14082511,-0.22257042,-0.17589772,-0.24258502,0.2557892,-0.04931169,-0.2366505,0.07422861,-0.25383753,0.21397556,0.046915904,0.24066125,0.0007265169,-0.13523936,417.24228,28.729767
8_6_4_2_tr_reg_006_0_0_0_0.obj,0.23810986,0.04728455,-0.2086396,-0.39384982,0.30158088,0.07481862,-0.2608538,0.02410253,0.21309137,0.1272733,0.28230003,-0.08033763,0.07175392,0.13188313,0.12829797,0.040618405,0.052655812,-0.0075439727,0.22237907,0.1825239,-0.16212544,-0.32613078,-0.17659564,0.0412533,-0.14959666,0.23847765,0.10330422,-0.09603256,-0.120442696,0.026435265,0.063240916,-0.1391372,188.60837,330.64062
8_6_5_4_2_1_tr_reg_009_0_0_0_0_0_0.obj,0.18825418,-0.1517028,0.102237254,-0.11985005,-0.23493724,-0.075033806,0.03367501,-0.2927054,-0.027091958,-0.029107064,0.07480769,0.035474043,-0.042313106,-0.051836498,-0.08210894,0.05821901,0.23546468,0.24698655,-0.14326231,-0.04696439,-0.15411411,-0.098494045,0.15630761,-0.15076825,-0.29170102,0.5012368,0.16039003,0.039980203,0.17478025,-0.054678928,0.35390964,-0.061785225,95.194244,519.3592
8_7_2_tr_reg_008_0_0_0.obj,0.06399139,-0.32061213,-0.20082031,-0.012064134,-0.215461,-0.27099127,0.3665111,-0.13645694,0.2724128,-0.008834246,0.22122371,-0.060239393,-0.09817873,-0.019279255,-0.026072636,0.0060585844,-0.10297211,0.042060614,-0.07769577,0.111059576,0.0106613785,-0.2059448,0.17981198,0.08628485,0.29552674,-0.043511532,0.30974105,0.18073285,-0.32921442,-0.046162263,0.016712151,0.023920158,702.8704,308.31964
5_2_1_0_tr_reg_004_0_0_0_0.obj,0.4015623,-0.08861225,0.051693123,0.102198705,0.031140959,0.20665887,-0.07716276,-0.103173226,-0.2582856,0.16625573,-0.05778736,-0.11237533,0.101465404,0.3576648,0.10926963,0.030699905,-0.21040125,0.18128507,0.108476974,-0.08969134,0.118231505,-0.22502652,-0.040807303,0.29754972,0.17976631,0.18449679,0.2127654,-0.16481352,0.16162136,-0.21205308,-0.17935489,0.04770212,528.87366,274.773
6_4_3_1_tr_reg_006_0_0_0_0.obj,-0.009479955,0.12047568,-0.40587306,-0.34163573,0.06001931,-0.06447681,-0.002495139,0.007218017,0.22759388,0.14826694,-0.11933101,-0.18687893,0.26608184,-0.10445749,0.1639547,-0.05224261,0.10169677,0.09908539,0.27294806,0.10945061,0.12137751,0.11494959,0.2031513,-0.07325798,0.03689614,-0.19160888,-0.23908368,-0.29233155,-0.290108,0.100887164,-0.05637255,-0.04926368,388.6712,415.02768
6_5_4_2_1_0_tr_reg_000_0_0_0_0_0_0.obj,-0.0677033,0.08824484,0.22947468,0.0876636,0.02895642,-0.28617862,0.13902462,-0.2810743,0.05686149,0.10305036,-0.084459476,-0.06989527,0.19302806,0.09216614,0.21532843,0.087287694,-0.26521954,0.04412045,-0.15240727,0.055895064,0.21744531,-0.10189813,0.19930097,-0.030376572,0.3856102,-0.29696706,-0.20527318,-0.19340698,-0.17141558,-0.0030107363,-0.27869964,0.012792336,336.13712,247.12079
8_6_5_tr_reg_007_0_0_0.obj,0.37220535,-0.18483661,-0.28047526,-0.26352933,0.08754257,0.12367317,-0.2858168,-0.053693276,-0.019965464,0.030180972,0.15068005,-0.03678207,0.04817608,0.09450233,-0.0767288,-0.058182027,0.13876958,-0.122938044,0.17796819,0.06264391,-0.32082942,-0.13681813,-0.036245365,-0.03291423,-0.2531334,0.36891085,0.1975476,0.02111706,-0.0023760821,0.13374066,0.271225,0.025439028,572.79285,430.56583
8_5_4_3_tr_reg_006_0_0_0_0.obj,0.015047029,0.069975056,0.24574463,0.32111645,0.15298778,0.11659204,-0.08703098,-0.0059437384,-0.21426822,-0.06830418,0.040496536,-0.13317387,-0.07504999,0.08046426,-0.22498664,-0.15899803,0.17449553,-0.14092389,-0.18589161,0.04417614,-0.42585504,-0.041595347,0.11645973,-0.119207196,0.033143528,0.421165,0.18270975,0.19744682,-0.18483002,0.0235687,0.2133138,0.008122141,224.72281,491.6856
6_4_2_1_0_tr_reg_002_0_0_0_0_0.obj,0.14110518,-0.29528418,0.04627359,0.16118434,-0.37517962,0.072362915,0.17223929,-0.09563671,0.020754509,0.061361678,-0.079349466,0.105345994,0.056584008,-0.312612,-0.16010445,0.1453555,-0.17239805,0.2226016,0.032926854,-0.07866236,0.15430553,0.13316755,-0.012695879,0.27281013,0.34317714,0.066548534,0.2905406,-0.03900529,-0.07326039,-0.011946956,0.15105923,0.26748505,370.88657,145.67241
8_7_6_3_0_tr_reg_009_0_0_0_0_0.obj,-0.070064776,0.0012191902,0.20434155,0.0030525518,0.015882395,-0.12147262,-0.17246984,0.00066797005,0.3403697,0.17332989,0.1122271,0.11393653,-0.13163488,-0.04117587,0.13028006,0.19932185,0.046358228,0.049277667,-0.13291574,0.25436896,0.20870003,-0.25738975,-0.24219069,-0.21610132,0.07331308,0.18791434,-0.071383625,0.29783255,-0.34570077,0.08578806,0.12695019,-0.28599584,68.857666,398.22464
4_2_tr_reg_006_0_0.obj,0.1354724,0.18073772,-0.13990054,-0.09603372,0.38519806,0.16190746,0.013781832,0.15336902,0.3070146,0.15973747,0.1963061,-0.1577674,0.0064473,0.03851831,0.1677512,0.0017720758,0.05062468,-0.05040232,0.09057993,0.26835468,-0.13021024,-0.26264548,-0.21321948,0.10746122,-0.26873496,0.25276718,0.017929293,0.102264374,-0.35143605,0.01534332,0.09762354,-0.024107201,238.45746,348.42136
8_7_6_3_2_1_0_tr_reg_004_0_0_0_0_0_0_0.obj,0.017800152,-0.1516674,0.19649285,0.07323666,0.0115153715,-0.24066997,0.0018496036,-0.29186454,0.0371725,0.083560795,0.037601653,0.1043625,0.19042902,-0.017864278,0.12147581,0.26231846,-0.37493426,-0.075103514,-0.22566003,0.12933476,-0.036389537,-0.16380829,0.18739684,0.054797057,0.52933174,-0.07460905,0.044192143,-0.12906675,-0.16446596,0.14592288,-0.06795244,0.10569334,512.28406,228.16551
8_7_6_5_4_2_1_0_tr_reg_002_0_0_0_0_0_0_0_0.obj,0.022899725,-0.0725007,-0.16570437,-0.105961,-0.27536213,0.010934341,-0.01350792,0.044567976,0.06962988,-0.041255813,-0.24126951,0.26328024,0.007667151,-0.36850134,-0.110622324,0.07680794,-0.019698096,0.11160227,0.09454635,-0.07592696,0.20777957,0.3618462,-0.04897614,0.05983269,-0.31791756,-0.02418499,-0.11779823,-0.3255838,0.2880121,0.06557196,0.09076573,0.25435576,302.1675,167.68832
8_7_6_2_tr_reg_006_0_0_0_0.obj,0.080396235,0.14879467,-0.09311971,-0.103506655,0.3131177,0.10453801,-0.0026422348,0.120721765,0.34357446,0.10041722,0.23667242,-0.08857115,-0.0120807765,-0.0062640356,0.09511426,-0.09941092,-0.04418687,-0.05787552,0.027129835,0.19269346,-0.22405632,-0.31841457,-0.21217392,0.10653012,-0.39943668,0.28917372,0.087171264,0.15265323,-0.26557252,0.07536021,0.11887982,0.042687785,200.52878,344.81995
8_7_6_4_2_0_tr_reg_007_0_0_0_0_0_0.obj,0.20455731,-0.1501577,0.011512045,0.05340585,0.054472223,0.23076463,-0.19820143,0.15467232,0.10606694,0.08008735,-0.051068667,-0.079871565,0.00030092342,-0.04402769,-0.18054678,-0.29825887,0.10390202,0.24386992,0.4769631,-0.075833164,0.283524,-0.11786517,-0.12685393,0.162206,0.13952637,-0.14142692,-0.101652116,-0.20822567,-0.32633924,0.14998212,-0.0051526544,0.02606854,641.8064,595.4764
5_3_2_1_tr_reg_009_0_0_0_0.obj,0.11787454,-0.061610837,0.07793342,-0.37541318,-0.14359581,-0.16187765,-0.05176472,-0.24615787,0.21754254,0.010344659,0.16752309,0.11184527,-0.024577506,-0.05999849,0.11287281,0.13083734,0.12142934,0.34764445,-0.052810736,0.010545366,0.01676363,-0.23656234,-0.004693731,-0.15215102,-0.3475866,0.38817462,0.038521968,-0.070640594,0.20384845,-0.01350747,0.21769731,-0.13461207,59.912598,487.4352
8_7_6_4_2_1_0_tr_reg_007_0_0_0_0_0_0_0.obj,0.1080197,-0.15919642,-0.14027818,0.024599345,0.022102054,0.16441022,-0.26681045,0.31935835,0.27440917,-0.09108515,0.0091340225,0.0070744175,-0.16598807,-0.03590445,-0.19444674,-0.2234211,-0.041220795,0.12124757,0.30770636,-0.011323878,0.27007583,-0.01998103,-0.21555677,0.1372112,-0.16309783,-0.04283379,-0.09600177,-0.39257157,-0.12505989,0.08234472,-0.18241785,0.21072604,649.43726,570.0531
8_7_6_3_2_1_tr_reg_006_0_0_0_0_0_0.obj,0.27474785,-0.038028747,-0.16891345,-0.17575414,-0.110373825,0.43193382,-0.10368949,0.12801528,-0.23009501,0.147437,-0.22354938,0.108357295,0.040343452,-0.09372918,-0.118664555,0.03180373,0.120223045,0.29285833,0.2570213,-0.10170126,-0.015505966,0.11909456,-0.04558418,0.12774004,0.010731178,0.35389477,0.1787087,-0.09385931,0.25029665,-0.042702306,0.16594997,0.09109651,340.90967,456.64246
5_4_3_2_tr_reg_006_0_0_0_0.obj,-0.12255608,0.24369986,0.26201752,0.3746335,0.1592248,0.26083052,0.1344106,0.22711617,0.06640151,-0.12501222,-0.0035429553,-0.2451658,-0.17361982,-0.051635742,-0.14271961,-0.323655,0.11644719,0.032535702,-0.069382526,0.033056818,-0.17603087,0.015350066,-0.0948657,0.028308516,-0.108238965,0.24142912,0.12460023,0.12357972,-0.3405372,-0.094524674,-0.024687955,0.16615346,236.83426,407.3018
8_7_6_5_4_3_2_1_0_tr_reg_000_0_0_0_0_0_0_0_0_0.obj,0.2165379,0.081488244,0.28842238,0.3705936,-0.25388256,-0.16806522,0.1740741,-0.2697665,-0.16348955,0.15955146,-0.19787583,-0.17758566,0.15520397,0.009264696,0.052993685,-0.023523677,0.072995245,0.058614634,-0.05755229,-0.084800884,0.3939868,0.15224148,0.11359291,-0.028200475,0.1124007,-0.2869462,-0.20221901,-0.029124131,-0.100313306,-0.13477771,-0.058283675,0.0068071703,369.80414,278.8051
8_7_6_5_4_tr_reg_006_0_0_0_0_0.obj,-0.033508457,0.2076387,0.17827521,0.22606628,0.053860273,0.34187347,0.096262366,0.22190464,-0.096128866,-0.0815947,-0.070921846,-0.13618645,-0.13916305,-0.16264772,-0.1933037,-0.18013148,0.1407339,0.08542028,-0.072238,0.02076683,-0.3054463,0.08641319,-0.023810685,0.07286571,-0.012097839,0.43085518,0.29095846,0.046057407,-0.20113336,-0.1275175,0.09846379,0.24721456,263.16415,436.25616
7_6_5_3_2_1_tr_reg_009_0_0_0_0_0_0.obj,0.34094355,-0.11612531,-0.1544692,-0.20290728,-0.27991417,0.15246557,-0.17536452,-0.025271662,0.04879365,0.023922244,-0.11192533,0.086142644,-0.0047050156,-0.17206813,-2.4055e-06,0.06492751,0.18236789,0.26754457,0.24402659,-0.05085776,0.19544774,0.1696328,-0.12290197,0.005569348,-0.37500155,0.21836339,0.0450353,-0.24284574,0.27696818,-0.07332607,0.1609986,0.09539873,50.678406,557.6024
7_6_4_3_2_tr_reg_003_0_0_0_0_0.obj,-0.2567665,0.2495024,0.12907895,0.2680444,0.24239308,0.03776414,-0.07167139,-0.016540162,0.025528312,0.10079282,-0.14460987,-0.35032713,0.22201476,0.21406353,0.16409437,-0.23588903,-0.02466527,-0.09767513,-0.12740244,-0.00185115,-0.0974351,-0.0053639174,0.03507374,-0.20956826,-0.17232522,-0.20119704,-0.32254344,0.26841772,-0.04172868,0.03945762,-0.14267515,-0.18605123,431.75458,19.677124
