filename,l1,l2,l3,l4,l5,l6,l7,l8,l9,l10,l11,l12,l13,l14,l15,l16,l17,l18,l19,l20,l21,l22,l23,l24,l25,l26,l27,l28,l29,l30,l31,l32,embed_x,embed_y
tr_reg_000.obj,-0.060079623,0.20406155,-0.08222143,-0.11535935,0.43912575,0.15306728,-0.18566589,0.20174824,-0.21415421,-0.05388869,-0.12618287,0.10154116,-0.14214025,0.07332322,-0.09133291,-0.022790214,-0.091099545,-0.14719293,0.10207364,0.135703,-0.26887894,-0.037942834,-0.11129892,0.29545382,-0.08990725,0.33000746,0.124960296,-0.3610669,0.14224601,-0.08168531,-0.034996945,0.10240588,464.23648,188.3168
tr_reg_001.obj,0.25713134,0.34284356,-0.19603437,-0.09881605,-0.23106255,0.06741935,-0.009794581,0.21901415,0.042124107,0.05435532,-0.31620038,-0.31941622,0.035663996,-0.11041654,0.009792506,-0.04633471,0.31747437,0.12192811,0.062665194,-0.13986179,0.0614409,0.10131653,0.17328028,-0.119476594,-0.17712268,0.08645766,-0.22475307,-0.27121258,-0.26463714,0.029365761,0.010763351,-0.091051206,463.67728,188.01309
tr_reg_002.obj,-0.1983675,0.1946894,-0.11556979,-0.13916853,0.10681841,0.14040042,-0.056224853,0.3260306,0.037398033,-0.04252119,0.38333943,-0.26122898,-0.075690135,0.12645197,0.124299936,0.17918894,0.08277318,-0.19790038,-0.02769329,0.06337866,-0.3986467,0.11350109,-0.0754748,-0.076094955,0.14216101,0.06734963,0.21767,0.27782065,-0.002059975,-0.21239519,0.0072313137,0.1822111,464.2709,188.30142
tr_reg_003.obj,-0.23063403,-0.17073794,0.29670754,0.047162928,-0.018347219,0.110300295,0.17985614,-0.028959611,0.0013987258,-0.0008664613,-0.4087966,0.1702055,-0.14289193,-0.20902182,-0.1611548,0.020743027,-0.13092713,0.3059236,-0.21192862,-0.060706325,0.23259327,0.04306168,-0.09993606,0.29598325,-0.01982843,0.30193114,-0.08105561,-0.23643886,0.15273505,-0.049392402,-0.01604791,-0.04668041,36.5123,345.8318
tr_reg_004.obj,0.1981933,0.2471547,0.23495354,0.12788965,0.08380824,0.2561761,0.0241698,0.020902755,-0.45806125,-0.15276857,0.11363716,0.058032494,-0.06977224,0.009243201,-0.02713931,-0.038379457,0.0075134104,0.14786877,0.1606638,-0.15350246,-0.12275187,-0.059163846,-0.16929415,0.28222647,0.15643518,0.2505778,0.38765064,-0.09648067,0.06537543,-0.12687458,0.12539893,0.12916797,467.14215,188.97282
tr_reg_005.obj,-0.3080941,0.1366603,0.064584844,-0.24298024,0.09827848,0.12252503,-0.0913302,0.27241474,-0.13282688,-0.33364293,0.18319862,0.25653365,-0.3139191,0.109485626,0.06426016,0.1276432,-0.18567842,-0.019290717,-0.0020926595,-0.19670837,0.030548334,0.013813113,-0.2331581,0.0486966,0.2349118,0.027510313,0.15620317,-0.15236323,0.15863083,-0.15353683,-0.232186,0.13811544,464.22675,188.31712
tr_reg_006.obj,-0.19098288,0.08001965,-0.057168208,-0.25152868,0.173583,0.08642766,-0.04615624,0.002989927,-0.028856402,-0.033883926,0.25683343,0.37085325,-0.063432544,-0.32298732,0.080590025,-0.12186512,0.29656205,-0.08012291,0.20075504,-0.04476948,-0.061297707,0.0020431413,-0.1119906,-0.016889865,-0.288826,-0.29829612,0.17401892,0.11073666,-0.1000088,0.14588423,0.25635973,-0.22464614,36.604095,345.51715
tr_reg_007.obj,0.21413861,0.038591858,0.04732027,0.34060478,0.34129652,-0.04417001,-0.16287784,-0.29512447,-0.1358566,-0.037731834,0.0831,-0.049632743,-0.118388936,0.44154608,-0.008562109,-0.17587537,0.08378768,-0.16995189,0.071016334,0.2840355,0.19484507,-0.097156435,0.044324957,-0.03118963,-0.13417254,-0.053169854,-0.037298653,-0.21344575,0.036152925,-0.2067994,-0.17812148,-0.13252784,649.53107,502.80368
tr_reg_008.obj,-0.040149838,-0.23297776,-0.22084767,0.11713131,-0.15356745,-0.2692263,0.04898648,-0.30357996,0.12381429,-0.24859536,0.10923001,-0.0005157682,0.20823166,-0.085565194,-0.04371899,-0.047276266,-0.22879596,-0.17702481,0.027858304,0.13957182,-0.12352037,0.21993989,0.28904444,-0.07210165,0.22814856,-0.27584824,0.09852207,-0.07813756,0.054093495,0.06261711,-0.07190998,0.36716247,681.94,297.687
tr_reg_009.obj,0.15799168,-0.12914716,-0.15605487,-0.11639321,-0.011002052,-0.11916923,0.40432894,-0.06183686,0.26164797,0.19139415,-0.019962242,-0.024772348,0.020240048,0.00074379833,0.2649514,0.07596994,-0.21953459,0.037085265,-0.10486499,0.11647584,0.22415827,-0.28779727,-0.17202933,0.2654725,-0.30518147,-0.13261372,0.009048807,0.01900933,-0.09618416,-0.069903836,-0.21972233,-0.27474967,22.31842,375.61194
2_tr_reg_006_0.obj,-0.23190388,-0.06791557,0.01737279,-0.16831401,0.21179396,0.002628167,-0.11940218,-0.17478551,-0.08734797,-0.027710432,0.230555,0.41360435,-0.038605206,-0.31387922,0.04278402,-0.029821556,0.2903287,-0.12874216,0.20680952,0.09763064,-0.029198725,0.1425281,-0.08962835,-0.12194172,-0.12599593,-0.28631037,0.16864146,0.13790591,-0.079969026,0.052075423,0.32856074,-0.16837895,248.12979,351.96896
7_6_4_2_1_0_tr_reg_009_0_0_0_0_0_0.obj,0.11813636,-0.09852651,-0.10092952,-0.009866694,0.021691967,-0.088420294,0.33017963,-0.041232236,0.21665026,0.13283043,0.024612686,-0.013608153,-0.106698185,0.09828147,0.30999175,0.14202145,-0.14840469,0.01031649,-0.16673318,0.11384591,0.32083556,-0.23334032,-0.2663098,0.17076752,-0.35732132,-0.12798932,-0.028267063,0.09263092,-0.044817634,-0.19493854,-0.19137686,-0.3064849,350.75842,691.3949
7_tr_reg_008_0.obj,-0.0068973307,-0.20370084,-0.19634764,0.2217254,-0.1501892,-0.2601517,0.0597852,-0.3223712,0.020436555,-0.23819922,0.030271996,0.027001286,0.26810965,-0.15888561,-0.0345438,-0.024903296,-0.21300067,-0.21012163,0.024744514,0.099536546,-0.10352125,0.29044902,0.21969588,-0.03357112,0.09710753,-0.30598798,0.03803183,-0.019687189,0.107322946,0.10468777,0.044901796,0.37599277,604.0974,300.57724
7_6_4_1_tr_reg_008_0_0_0_0.obj,0.15384994,-0.1442694,-0.18390167,0.28395423,-0.11724262,-0.1972125,0.0622288,-0.1491891,-0.14981724,-0.10924147,-0.10554898,0.045473278,0.30035937,-0.16343841,-0.12058009,-0.08312246,-0.18735442,-0.26101154,0.037662562,-0.031024061,-0.109833494,0.23264253,0.035606768,0.06234514,-0.14223093,-0.2568127,-0.10635977,0.14744537,0.23108537,0.23556659,0.18639946,0.36947536,711.7224,241.33928
0_tr_reg_009_0.obj,0.13127689,-0.16825382,-0.12255426,-0.1478859,0.03245324,-0.10455555,0.40119815,-0.11777667,0.31389022,0.23043086,-0.011709451,-0.045983102,0.053351834,-0.008830295,0.23482549,0.030255657,-0.19982661,0.07994802,-0.073344536,0.17206076,0.22481954,-0.29238626,-0.13334493,0.2538295,-0.22748995,-0.13445993,-0.0035277514,0.0015369318,-0.14435793,-0.041883446,-0.21716285,-0.280609,633.39166,623.3062
7_5_4_3_tr_reg_006_0_0_0_0.obj,-0.03651096,0.2628459,-0.03268231,-0.17277998,-0.09540447,0.1479696,0.17967013,0.22675753,-0.07531957,-0.15878391,0.2528873,0.19877979,-0.11446524,-0.22029722,0.08273556,-0.2569637,0.19281189,0.06710575,0.104713134,-0.3492826,-0.03344024,-0.17363676,-0.06281133,0.21375713,-0.34729105,-0.22556348,0.23366979,-0.0044784495,-0.020092856,0.1478719,-0.0072884266,-0.10544448,234.34996,213.85574
1_tr_reg_000_0.obj,-0.12517738,0.055267874,-0.074169666,-0.2051665,0.2457121,-0.1783914,-0.39120734,0.0987715,0.028125089,0.22569756,-0.023516014,0.05227812,0.18459637,0.20300485,0.028868329,0.2156107,-0.27332747,-0.25717306,0.044661142,0.09004927,-0.30296725,-0.16873576,0.11527852,-0.14077745,0.31668827,0.08857612,-0.17975433,0.0297114,-0.100052215,0.21052659,-0.032791298,0.0019108305,138.55876,530.16693
7_6_5_4_1_tr_reg_002_0_0_0_0_0.obj,0.070609406,0.06830116,-0.20754656,0.1773787,-0.13664237,0.057023413,0.029900506,0.24244067,0.14908005,-0.08275993,0.01858587,-0.31774393,-0.24613649,0.10520863,0.08119552,0.10312664,0.35738593,-0.14147964,-0.19933288,0.082416624,0.090969495,0.2012477,-0.072188444,-0.17702396,-0.4503888,0.03222081,-0.123284645,0.12830226,0.07003307,-0.30371574,-0.016121175,-0.04906074,689.86206,343.37363
5_2_tr_reg_004_0_0.obj,0.2985345,0.062319778,0.3093972,0.18110982,-0.11390063,0.10342947,-0.16726154,-0.089471295,-0.2177567,0.074407205,0.12990274,0.05520908,0.1837443,0.023253174,0.03282148,0.15402773,-0.22259048,0.17950906,0.03370828,-0.20463224,-0.10908792,-0.23338518,-0.1446299,0.026193885,0.3014174,0.26114663,0.20270808,0.26139778,-0.0595674,0.13388821,0.28156218,0.06969532,328.10123,105.07391
5_4_2_tr_reg_009_0_0_0.obj,-0.020408992,-0.095214166,-0.19202082,-0.098176695,-0.038814753,0.12771721,0.43826458,0.037272014,0.12363647,0.14350393,-0.026664417,-0.28357047,0.10642845,-0.23052998,-0.024295457,-0.12382998,0.05252671,0.08775923,-0.040956732,0.20837824,-0.35794857,0.057346348,0.07379081,0.3351819,-0.25904295,0.15880316,0.33657834,0.037988644,0.061042454,-0.13436195,0.0040982203,0.041383628,184.87881,329.69186
7_6_4_3_1_0_tr_reg_004_0_0_0_0_0_0.obj,0.29221284,0.014210785,0.20289992,0.4110721,-0.09422808,-0.03731192,-0.074898005,-0.24899203,-0.0034496458,0.24031365,-0.023620777,-0.1340981,0.3092334,0.03632117,0.098734625,0.113652125,-0.052755065,0.020940645,-0.13936414,0.0023990436,0.048562907,-0.09359819,-0.05020251,-0.13767855,-0.15609367,0.05616417,-0.16854364,0.41979983,-0.05526393,0.17554681,0.3105517,-0.11293606,365.27988,425.533
7_5_4_2_1_0_tr_reg_007_0_0_0_0_0_0.obj,-0.044033553,-0.12081497,0.03326658,0.10399971,-0.16075127,0.1789867,0.2414645,0.1368184,-0.08252778,-0.08378738,0.2346681,-0.15337631,-0.13660584,0.17180973,-0.31698224,-0.4509553,0.16876237,0.134793,0.018554352,-0.15068226,-0.20537952,-0.09722918,0.20175545,0.0707997,0.07140198,-0.039088666,0.2794851,0.16966651,0.25548103,-0.02051666,-0.20150878,0.072967775,420.15497,326.98065
7_5_4_3_1_tr_reg_006_0_0_0_0_0.obj,-0.2630728,-0.14768136,0.069868185,-0.09233291,0.29750744,0.1386643,-0.20259035,-0.1851127,-0.012124387,0.04650504,0.07786034,0.2289397,-0.08653452,-0.25274172,-0.014647228,0.018454092,0.36955488,-0.0068968656,0.11423668,0.28971136,-0.04764289,0.25629634,-0.078314096,-0.19290017,-0.12735583,0.04335487,0.1399993,0.09634092,-0.03489811,-0.093061805,0.38171047,-0.17988004,620.8446,466.18912
6_5_3_2_1_tr_reg_008_0_0_0_0_0.obj,0.1457642,-0.17420918,-0.14288801,-0.0720276,0.12730438,0.17676665,-0.13309377,0.30655518,-0.24160661,0.10239232,-0.1418349,0.13170134,-0.14061064,0.113732204,-0.4048345,-0.24082199,0.108427934,-0.084549196,0.15524966,-0.08918488,-0.13463838,-0.022130165,-0.2154554,-0.08520568,-0.08012893,0.12358275,-0.08344677,0.28638875,0.32023036,0.17979965,0.1725508,0.06448962,441.38953,37.513092
6_4_tr_reg_006_0_0.obj,-0.14207006,0.134365,-0.018044962,-0.23085238,-0.009057571,0.09411413,0.041855827,0.08736116,-0.07366433,-0.12563546,0.28253564,0.36871248,-0.09554746,-0.3100064,0.065227315,-0.18744044,0.28086796,0.0030693628,0.17512776,-0.24526685,0.0070063677,-0.05168374,-0.09044771,0.01189489,-0.27491626,-0.34363714,0.18362072,0.09813913,-0.053363953,0.17665336,0.15848117,-0.17681746,550.63715,315.43747
7_5_2_1_tr_reg_004_0_0_0_0.obj,0.33545834,-0.05145667,0.19033906,0.2137578,0.06569037,0.023797993,-0.33670193,-0.14563033,-0.080280244,0.21520159,-0.06696778,0.15908906,0.21718216,0.111386456,-0.040924445,0.010987487,-0.21387346,0.028884098,0.041185305,-0.087809026,0.03910531,-0.3068439,-0.15491508,-0.09900011,0.057171263,0.13713601,-0.14366966,0.2790664,-0.04921253,0.3492591,0.27220014,-0.12232651,320.67297,621.1987
7_6_5_2_1_0_tr_reg_004_0_0_0_0_0_0.obj,0.20685294,0.17936118,0.2655982,0.43243435,-0.14858712,-0.09684657,0.10950717,-0.33692873,-0.09234019,0.111977056,0.09073911,-0.1937187,0.2646089,-0.010499147,0.27679542,0.22309537,0.04753666,0.032571506,-0.1479326,0.0060599516,0.11633905,0.041124742,0.0074255783,-0.08252737,-0.09833827,-0.07725432,-0.06583261,0.29976296,-0.14256993,-0.046901844,0.24624547,-0.082833625,500.38583,397.14648
7_6_3_1_0_tr_reg_007_0_0_0_0_0.obj,0.13000159,-0.030646406,0.033261716,0.19344163,0.0222452,0.14157246,0.23430368,-0.033646867,-0.17150229,-0.13111988,0.19299647,-0.13277778,-0.12144097,0.2919085,-0.23124096,-0.5289694,0.118321255,0.098232634,0.10004814,-0.057662778,-0.051949766,-0.1758103,0.18276992,0.18367574,-0.016792774,-0.09355689,0.23176368,-0.06264037,0.21198855,-0.029451896,-0.28657916,0.0016528507,203.48608,524.55994
7_6_3_2_1_0_tr_reg_008_0_0_0_0_0_0.obj,-0.00058622385,-0.19908173,-0.19765462,0.23383096,-0.14275104,-0.2528558,0.06027503,-0.3176627,0.006342778,-0.2286936,0.024218526,0.023210533,0.28072998,-0.1653737,-0.033569504,-0.024859343,-0.21034916,-0.21889135,0.025168668,0.098355085,-0.11460088,0.2955311,0.20630081,-0.025204787,0.07174461,-0.3046916,0.034502164,-0.00050848344,0.11789117,0.11195193,0.06332647,0.37502658,211.00473,130.98749
7_6_3_2_0_tr_reg_006_0_0_0_0_0.obj,-0.32352605,-0.03816481,0.062405765,-0.0071767294,0.36399376,0.13024256,-0.09919736,-0.26969364,0.028657056,0.08085791,0.11130767,0.07200165,0.09885535,-0.26606414,0.023104543,-0.04898136,0.24969353,-0.016231153,0.08679234,0.3709981,-0.28117725,0.23214301,0.10876329,-0.015912885,-0.09557457,0.06732753,0.22703007,0.034287523,-0.0670139,-0.05064364,0.34309512,-0.074151404,570.47253,431.51947
6_5_4_2_tr_reg_009_0_0_0_0.obj,-0.14594626,-0.16645937,-0.029676396,0.03381206,-0.09573469,0.23563339,0.35422912,0.05368616,0.065629356,0.07278952,0.012010332,-0.23242581,0.005714148,-0.22212343,-0.14336456,-0.16220671,0.14644825,0.17440191,-0.10477957,0.121849805,-0.33413252,0.15598094,0.050172746,0.20627822,-0.20195998,0.221327,0.35815763,0.19244106,0.19379641,-0.16679779,0.1045404,0.07607815,739.1821,316.77695
7_5_4_2_tr_reg_006_0_0_0_0.obj,-0.2719345,-0.06257524,0.0048883352,-0.14691499,0.3273264,0.018377753,-0.16691199,-0.21755338,-0.06668982,-0.01706538,0.18289307,0.35891733,-0.02952805,-0.27896732,0.020379072,-0.044994812,0.28808844,-0.16341725,0.21134819,0.22358769,-0.077277556,0.19228613,-0.04082041,-0.10030249,-0.10468494,-0.21395919,0.15896422,0.042317834,-0.09087128,0.018001206,0.3100381,-0.14892383,537.5178,479.81793
7_5_4_2_tr_reg_009_0_0_0_0.obj,-0.06489172,-0.17424616,-0.16114852,-0.07142536,-0.06367843,0.16973932,0.3838901,0.030009665,0.17046595,0.13680309,0.055746425,-0.29541197,0.08494819,-0.19028936,-0.07744142,-0.1764254,0.097825736,0.1228652,-0.054060057,0.2035187,-0.37678385,0.058159515,0.099188864,0.23888741,-0.2250421,0.15973341,0.36128944,0.13799341,0.099690236,-0.12504284,0.022266602,0.038163465,302.1062,632.11786
7_6_5_4_1_0_tr_reg_008_0_0_0_0_0_0.obj,-0.003771103,-0.2024089,-0.19467293,0.23583573,-0.14219868,-0.25162792,0.06428188,-0.31775194,0.00582941,-0.23360969,0.024597337,0.02840922,0.2749628,-0.165715,-0.037214797,-0.029413134,-0.21160911,-0.21857667,0.022832468,0.096547805,-0.1096932,0.29512566,0.20215397,-0.019505547,0.06573223,-0.30632114,0.03535522,-0.003201476,0.12507708,0.11029645,0.05942219,0.37682837,368.4356,147.70226
6_5_tr_reg_007_0_0.obj,0.1903215,0.022366641,0.024401803,0.33562744,0.1825873,0.011619795,-0.003726033,-0.17093505,-0.1877378,-0.13659997,0.12959479,-0.10130911,-0.1848638,0.45756912,-0.12906,-0.3699776,0.16742614,-0.10382815,0.08019275,0.11897825,0.16591413,-0.083749525,0.13223255,-0.005237284,-0.11007646,-0.14332902,0.011625089,-0.16912824,0.1429266,-0.168398,-0.28642547,-0.0748684,84.864716,393.8539
7_tr_reg_001_0.obj,0.25074705,0.3516982,-0.124167,-0.07128329,-0.3025765,0.12790279,0.049122583,0.28227237,-0.0069538113,0.06735669,-0.2527094,-0.3323528,-0.005458253,-0.13363178,0.03617939,0.022242459,0.3767037,0.16185588,0.01106542,-0.2078841,0.032881018,0.1025424,0.091231845,-0.12973136,-0.18126494,0.13463823,-0.15222028,-0.08827106,-0.2303837,-0.01509565,0.09168815,-0.11174598,339.15295,51.609222
6_5_3_1_0_tr_reg_003_0_0_0_0_0.obj,-0.28630668,-0.28420419,0.059485964,0.07195074,0.10376942,0.19925298,-0.21044968,-0.12396318,0.2723714,0.033105586,-0.2656305,-0.17083474,0.043365702,-0.08605695,-0.18361582,-0.09032006,0.044484265,0.24315232,-0.16645196,0.25576398,-0.08127697,0.25233087,0.18502825,-0.17060797,-0.020586474,0.39526612,-0.080773875,-0.10910899,0.1212953,0.010305499,0.118560664,0.02058448,209.05789,318.27332
6_4_3_1_0_tr_reg_001_0_0_0_0_0.obj,-0.0625851,0.115512304,0.0037008543,-0.17854889,-0.0602024,-0.14675368,-0.02498175,-0.09700408,-0.004890555,-0.08355543,-0.21470322,0.15909094,0.066920884,-0.14039467,-0.10791109,-0.21346001,0.060238954,0.083316244,0.21313228,-0.1470755,0.24345057,0.047580343,0.26663285,-0.047099818,0.21436226,-0.29649052,-0.26281542,-0.4582464,-0.2149912,0.24111313,-0.161381,-0.007020507,583.71027,552.8622
7_6_1_0_tr_reg_004_0_0_0_0.obj,0.18170798,0.22075729,0.25467554,0.39944425,-0.13347287,-0.10983197,0.115895085,-0.36605406,-0.09929904,0.06496084,0.13108891,-0.217324,0.22425653,0.008557709,0.312938,0.22033702,0.120216824,0.033364195,-0.104420625,0.039615285,0.14613147,0.08693746,0.053561483,-0.114252865,-0.044375505,-0.12884046,-0.04224955,0.2150042,-0.19795196,-0.12273905,0.20043436,-0.085514076,250.03365,472.6331
7_6_5_4_3_2_1_tr_reg_003_0_0_0_0_0_0_0.obj,-0.2515543,-0.36347705,0.2153683,0.13159604,-0.06202021,0.19805992,-0.12568714,-0.06833576,0.11936052,0.03504317,-0.04647594,-0.12937221,-0.15016575,0.08794673,-0.23829852,-0.08489666,0.23632003,0.28313646,-0.15257005,0.1049363,0.055587616,0.20221052,0.1287383,-0.34359637,0.18463056,0.2653495,-0.0011438598,0.19806506,0.1601513,-0.13538522,0.082878016,-0.07226686,49.63965,566.7761
5_3_2_0_tr_reg_009_0_0_0_0.obj,0.08732165,-0.14834791,-0.2017063,-0.21538392,-0.031844944,-0.10520731,0.52142054,-0.07975786,0.25682583,0.19501132,0.039117865,-0.08198004,0.12486057,-0.13356347,0.17853507,-0.020616446,-0.19605796,0.043417443,-0.029681887,0.16189592,-0.015694866,-0.22256896,-0.023180978,0.3665812,-0.19429436,-0.13083634,0.17811525,-0.011096055,-0.10753359,-0.027184159,-0.20369293,-0.14957368,422.87015,248.69353
5_4_2_tr_reg_006_0_0_0.obj,-0.23479396,-0.052920908,-0.012005381,-0.19181693,0.26450533,0.05641397,-0.17006971,-0.13731198,-0.061748274,-0.016847786,0.21687903,0.3687306,-0.07834102,-0.2791248,0.025585996,-0.04675552,0.33983138,-0.12094302,0.21433823,0.1465404,-0.055115893,0.15033804,-0.08377297,-0.1501541,-0.1418593,-0.21340078,0.17434902,0.104243375,-0.08956426,0.026907362,0.32421905,-0.19157852,368.07895,618.5436
7_6_3_0_tr_reg_005_0_0_0_0.obj,-0.2779684,-0.08083454,0.086422525,-0.20924535,-0.015838705,-0.072660886,-0.16976249,0.24776854,0.013462478,-0.057358526,0.21803552,0.18037617,-0.18768747,0.295488,0.02472896,0.17419271,-0.20907891,-0.14043058,-0.073687725,-0.19057946,0.06573274,-0.10350106,-0.17226471,-0.24369101,0.37285128,-0.15101326,-0.11778759,0.28240168,0.11100491,7.5479606e-05,-0.23180865,0.03719341,108.70676,566.1327
4_1_tr_reg_008_0_0.obj,0.05584785,-0.19746633,-0.1414397,0.28007022,-0.13914278,-0.214617,0.06419443,-0.27143756,-0.11079903,-0.20057823,-0.020784676,0.06412941,0.28286165,-0.17790593,-0.10383607,-0.06907771,-0.17585889,-0.21899527,0.05009821,0.01892271,-0.1023196,0.29148686,0.11733066,0.0019734986,0.00851066,-0.2974976,-0.013296364,0.09642509,0.19768417,0.17452456,0.15047453,0.38828576,192.79181,177.00304
6_5_3_2_0_tr_reg_008_0_0_0_0_0.obj,0.22435574,-0.14572725,-0.096615344,0.2017591,-0.1334009,0.0025473821,0.10004443,0.086984105,-0.23428087,0.0011096043,-0.09565963,0.02840905,0.1751133,-0.12794608,-0.21848343,-0.12596893,-0.08559226,-0.15010595,0.038312033,-0.16795558,-0.14145637,0.13005069,-0.1836825,0.086027734,-0.19837609,-0.08155511,-0.05509533,0.3945971,0.31929973,0.23017438,0.28060386,0.302505,556.05786,262.12872
1_0_tr_reg_008_0_0.obj,-0.034824815,-0.23538412,-0.18454932,0.13262045,-0.18092543,-0.26742724,0.0655498,-0.32021844,0.08893046,-0.266138,0.12114712,0.032544535,0.20277803,-0.103518136,-0.042871922,-0.040310703,-0.22013725,-0.16190597,0.030907622,0.09946792,-0.09413751,0.22996417,0.263059,-0.08129227,0.24056055,-0.30036584,0.10299292,-0.038621403,0.064102,0.07211776,-0.04098135,0.36962235,530.8098,454.7193
6_5_3_tr_reg_006_0_0_0.obj,-0.023828268,0.25996113,-0.104235195,-0.14500773,-0.04007897,0.067129925,0.13597879,0.1874641,-0.062166676,-0.19785634,0.13715546,0.25045544,-0.07117966,-0.21917567,0.045036558,-0.2995389,0.08880243,-0.024623299,0.12255891,-0.32536775,0.007464564,-0.1559026,-0.036897372,0.27875867,-0.40278283,-0.27666548,0.11163652,-0.15831843,0.0020245707,0.23718564,-0.05758761,-0.046018515,700.818,283.31775
7_4_2_1_0_tr_reg_008_0_0_0_0_0.obj,0.11961153,-0.1517162,-0.19743833,0.31170812,-0.13654466,-0.21629083,0.11193616,-0.15976259,-0.11966778,-0.15735339,-0.104955144,0.020299377,0.25073087,-0.12658393,-0.14135419,-0.123880245,-0.17529215,-0.26771596,0.0013413405,-0.014541757,-0.080590285,0.24427201,0.09108319,0.08213423,-0.16538697,-0.27800944,-0.10707571,0.07729724,0.26024425,0.1865724,0.09228716,0.37599587,382.37946,10.0
0_tr_reg_002_0.obj,-0.077404864,0.11506231,-0.19448988,-0.026821325,0.14355125,0.07949267,-0.023820141,0.29243895,0.07668956,0.067195214,0.30880603,-0.3136439,-0.047561552,0.17252903,0.15169434,0.21508478,0.06982757,-0.29332346,-0.09100793,0.17448889,-0.3766776,0.06660343,-0.12918957,-0.042550936,-0.08780107,0.082430996,0.13839173,0.36347988,0.034296006,-0.22238488,0.041300196,0.105837904,560.12976,319.9278
7_6_5_4_3_1_tr_reg_007_0_0_0_0_0_0.obj,0.1639929,-0.006482529,0.07428257,0.3129152,0.2988569,-0.0026342864,-0.1958843,-0.221525,-0.14439094,-0.053908437,0.114713915,-0.05546079,-0.16121534,0.49683204,-0.12794876,-0.29148784,0.16084462,-0.14184931,0.094992034,0.20984694,0.1616382,-0.1074587,0.10720543,-0.11777586,-0.029032836,-0.07092036,-0.057724528,-0.1406276,0.08018666,-0.14075418,-0.21328244,-0.12611057,212.8736,340.16586
4_1_0_tr_reg_000_0_0_0.obj,-0.039999787,0.05971377,-0.18876722,-0.15949091,0.23804188,-0.14784813,-0.3708993,0.21505785,0.09101441,0.27672586,-0.11666855,-0.019870622,0.16410719,0.18384703,0.034233958,0.236718,-0.2574263,-0.3095583,-0.036052674,0.1104162,-0.3150385,-0.17652102,0.033982515,-0.090758644,0.040641867,0.16637127,-0.24671297,0.07470447,-0.04129489,0.20311944,0.007508218,-0.020829335,422.5321,656.1569
7_4_3_tr_reg_006_0_0_0.obj,-0.006105916,0.2619669,-0.03364605,-0.17416541,-0.0623458,0.13028583,0.05918113,0.1859618,-0.07736971,-0.14351696,0.2493654,0.25459647,-0.12415016,-0.19642809,0.08709671,-0.2492613,0.2743692,0.049919486,0.15739039,-0.3457424,0.04673887,-0.16886228,-0.058734328,0.08432202,-0.33709222,-0.28908423,0.14200865,0.0045793573,-0.07781644,0.19350918,0.05051541,-0.19194965,59.26593,521.46204
7_5_3_0_tr_reg_006_0_0_0_0.obj,-0.12046915,0.15266725,-0.05524162,-0.24045451,0.123829186,0.03350733,-0.04455082,0.042671673,-0.063536495,-0.05326392,0.23071532,0.40366292,-0.060120605,-0.26976112,0.09358737,-0.15001959,0.24626952,-0.09037537,0.22187838,-0.16615164,0.020264603,-0.09507765,-0.0898033,0.022686314,-0.2764549,-0.37388232,0.094443224,0.04118489,-0.13556574,0.22472857,0.16885531,-0.24988791,205.46106,141.89717
6_2_1_tr_reg_007_0_0_0.obj,0.10071276,-0.060107898,0.1743802,0.26858014,0.38913628,0.016928095,-0.32625785,-0.26301962,-0.07995454,0.072059825,0.07267474,0.007183825,-0.13286667,0.46875456,-0.051218987,-0.11691152,0.10842815,-0.10151863,0.052535255,0.27950373,0.18244968,-0.14366105,0.0016164669,-0.18223988,0.04000276,0.050351884,-0.10614154,-0.043380205,0.0056201494,-0.13120349,-0.08606554,-0.23183304,274.81122,129.52023
7_6_5_4_3_2_1_0_tr_reg_006_0_0_0_0_0_0_0_0.obj,-0.10249995,0.13457994,-0.009864247,-0.22114016,0.116205744,0.14254163,-0.08491967,0.06282255,-0.053149242,-0.05176264,0.2732209,0.34933788,-0.13022347,-0.2434053,0.0682053,-0.16407143,0.36536592,-0.0022377446,0.20324634,-0.1422655,0.021020053,-0.07261664,-0.11476864,-0.063114226,-0.292059,-0.261346,0.14772817,0.09874471,-0.11519096,0.15217748,0.22659387,-0.27671883,651.19836,583.58044
5_4_2_0_tr_reg_007_0_0_0_0.obj,0.19210106,0.060607117,-0.029945018,0.32264772,0.14967497,-0.01610781,0.16343692,-0.19219053,-0.2089785,-0.18428762,0.10832295,-0.09489991,-0.1337957,0.33023635,-0.07120422,-0.3496877,0.0682151,-0.097017154,0.072746895,0.11442119,0.11373731,-0.062879466,0.13877575,0.19406763,-0.18702278,-0.16363257,0.11808122,-0.28057933,0.15600872,-0.18906169,-0.30767846,-0.0010631804,330.14175,588.17267
4_3_2_1_tr_reg_008_0_0_0_0.obj,0.09482661,-0.18166006,-0.1239983,-0.113726765,0.13564594,0.22252014,-0.124410145,0.33011153,-0.20156546,0.10941572,-0.07082871,0.13624337,-0.19355515,0.110788345,-0.3766779,-0.22217308,0.15566608,-0.04181351,0.14005822,-0.07484674,-0.13811278,-0.041820418,-0.24236271,-0.108924165,-0.08258558,0.14668533,-0.02231132,0.32721028,0.30578774,0.13135786,0.17532367,0.011826689,288.52405,255.81932
7_6_5_4_3_1_0_tr_reg_007_0_0_0_0_0_0_0.obj,-0.056090653,-0.11863672,0.09204849,0.16058001,-0.04028793,0.19372605,0.22653417,0.082358696,-0.20714705,-0.11524584,0.1788776,-0.0427377,-0.16817361,0.20483163,-0.31906784,-0.47237992,0.12358079,0.12645386,0.03366639,-0.14345205,-0.15897852,-0.09808824,0.1495345,0.12836383,0.066280164,-0.030974908,0.26840323,0.12569635,0.32783508,-0.01781214,-0.18422994,0.06657151,614.96875,627.789
2_tr_reg_008_0.obj,0.0092035085,-0.20110989,-0.20587431,0.26445845,-0.115255035,-0.23339124,0.07882276,-0.2863371,-0.039230697,-0.23565109,-0.016958436,0.030845823,0.24908195,-0.14401847,-0.100198425,-0.099539034,-0.18527246,-0.23963729,0.032377742,0.08732191,-0.10795301,0.29739156,0.19452828,0.01573533,0.0027298867,-0.30660766,0.00920849,-0.020368468,0.18401928,0.12008957,0.041857675,0.3833904,337.1403,90.570526
7_6_4_1_0_tr_reg_002_0_0_0_0_0.obj,0.054921072,0.03917246,-0.28732714,0.1879545,-0.056419104,-0.004999057,0.019194242,0.16039814,0.14564237,-0.08410229,0.091492735,-0.32236972,-0.17999542,0.12601793,0.10786853,0.09767933,0.32094464,-0.2504341,-0.15904815,0.19400802,0.0026736315,0.23835509,-0.017729644,-0.18501219,-0.43334788,-0.047306497,-0.07142019,0.1348261,0.071084544,-0.3153106,-0.02004892,-0.004721483,337.07422,632.6423
7_5_2_1_0_tr_reg_008_0_0_0_0_0.obj,0.14844137,-0.09620854,-0.23022437,0.24726927,-0.08940119,-0.18286689,0.072491616,-0.12315702,-0.13193707,-0.04124872,-0.06664567,-0.06550394,0.36651927,-0.16245143,-0.031027623,0.00855698,-0.20223504,-0.2891406,0.025023978,0.036806032,-0.23276858,0.25037852,0.037755474,0.06536325,-0.12796615,-0.20671457,-0.0478805,0.20651646,0.17779358,0.1816602,0.21514124,0.37297305,14.394501,390.2717
7_6_4_tr_reg_006_0_0_0.obj,-0.16512556,0.07375203,-0.04448845,-0.25380057,0.08872393,0.14371467,0.026930941,0.048073627,-0.025365941,-0.043152854,0.2947822,0.32532772,-0.09216389,-0.3326878,0.06678041,-0.14821465,0.3297517,0.0035251002,0.17958249,-0.090000674,-0.08120436,-0.016211035,-0.11033976,-0.013509097,-0.29245657,-0.2512718,0.25715286,0.15431805,-0.071569495,0.106606476,0.24307837,-0.21447173,644.8744,499.33557
7_6_5_3_2_0_tr_reg_009_0_0_0_0_0_0.obj,-0.0002291833,-0.091484874,-0.14435224,-0.19419116,-0.06831729,-0.11138122,0.57491136,-0.08805322,0.11485744,0.115859255,0.18165396,-0.026803292,0.049802635,-0.15225115,0.2800669,0.10050083,-0.12758721,0.014309312,-0.032793444,0.112718955,-0.015965648,-0.113383204,-0.08502105,0.30441985,-0.114810705,-0.21858342,0.31751135,0.11717028,-0.097703114,-0.18700147,-0.14354202,-0.13894348,518.0756,533.2791
7_6_5_4_2_tr_reg_006_0_0_0_0_0.obj,-0.2442757,0.046726964,-0.027189465,-0.22317034,0.21564652,0.00288018,-0.061378352,-0.09847587,-0.08153767,-0.050589703,0.21767023,0.4177627,-0.0050598052,-0.3425054,0.06286651,-0.10513611,0.2432151,-0.1431533,0.23581645,0.00018538385,-0.051339343,0.07556405,-0.06695879,0.0036532513,-0.18892395,-0.367211,0.13379893,0.045892335,-0.10650115,0.15671617,0.2533981,-0.15941848,213.83981,314.39542
6_4_1_tr_reg_008_0_0_0.obj,0.09837056,-0.17576323,-0.14784965,0.27961725,-0.11904184,-0.20070893,0.05645125,-0.22694074,-0.14403802,-0.14720927,-0.053361766,0.057612382,0.30968904,-0.18830152,-0.09934362,-0.05496663,-0.18415347,-0.23220757,0.05516728,0.0050955284,-0.122827336,0.27658457,0.06509623,0.026426898,-0.043569706,-0.27121505,-0.041358963,0.14137213,0.20614584,0.19998786,0.2012382,0.38708845,293.64996,165.19434
6_2_0_tr_reg_005_0_0_0.obj,-0.24199043,-0.19994043,0.10301972,-0.1386374,-0.063816816,-0.14140417,-0.13801384,0.11900589,0.05838584,-0.074602894,0.1752422,0.25958976,-0.16406019,0.25144956,0.014196959,0.15765336,-0.2562729,-0.11830687,-0.0949074,-0.1639271,0.18301223,-0.10357244,-0.18360326,-0.2571851,0.32799995,-0.21992636,-0.16721602,0.28356892,0.13808079,0.026764352,-0.2175958,0.031648763,471.7989,495.5174
1_0_tr_reg_007_0_0.obj,0.17384078,-0.096819505,0.04330081,0.24763477,0.10209821,0.0808496,-0.08338885,-0.12347149,-0.077958256,-0.098299235,0.13572028,-0.13881485,-0.13896853,0.45007762,-0.27397808,-0.50243795,0.18973857,0.0125031965,0.111143224,0.057401333,0.08749311,-0.14226942,0.21977663,-0.11068072,0.04395347,-0.08574122,-0.0028321836,-0.08614349,0.14082237,-0.0046792305,-0.27333367,-0.060821254,312.93527,139.02617
6_5_2_1_tr_reg_007_0_0_0_0.obj,0.12806927,0.09598728,0.21035565,0.19616824,0.4527009,-0.06010464,-0.25295603,-0.35150564,-0.14056346,0.13220723,0.031643044,0.16363443,-0.006623433,0.27412334,0.15132496,0.06164259,-0.056488264,-0.104350686,0.089309365,0.26129976,0.17899773,-0.23501687,-0.069736615,0.03959859,0.004558299,0.020974029,-0.043142613,-0.16759565,-0.15367699,-0.08149624,0.0015793745,-0.28974032,48.918,549.8522
6_5_4_2_0_tr_reg_003_0_0_0_0_0.obj,-0.30778044,-0.0020972695,0.25054017,-0.072714485,-0.17791826,0.05286395,0.44025517,0.1701543,-0.096753396,0.04157784,-0.29990968,0.029460458,-0.15503274,-0.22269735,-0.13329498,0.12555324,-0.04646359,0.22926281,-0.20923577,-0.16157036,0.032405015,0.08148705,-0.03526593,0.33389398,0.12215539,0.22829428,0.043010563,-0.08036585,0.11388883,-0.1636281,-0.10387178,-0.0033853983,213.35205,409.1764
7_6_5_4_3_tr_reg_009_0_0_0_0_0.obj,0.04609116,-0.1632585,-0.16189142,-0.23910625,-0.05396739,-0.11355119,0.5474271,-0.09486735,0.23047653,0.18632501,0.097064584,-0.03325434,0.10667644,-0.15142988,0.19595867,0.004717485,-0.18380861,0.062594116,-0.020050628,0.13348617,0.00045302903,-0.21579061,-0.03709209,0.33591837,-0.121018864,-0.17581931,0.22278516,0.047236945,-0.118737265,-0.047618918,-0.18836905,-0.16212264,573.06213,302.3527
7_5_4_3_2_tr_reg_007_0_0_0_0_0.obj,0.1718824,0.19893442,0.08351928,0.28872934,0.3241265,-0.07261959,0.08460831,-0.30169472,-0.2376582,-0.03602059,0.072524846,0.04032401,-0.10000021,0.24893893,0.22719774,0.041190434,0.0019505536,-0.14995633,0.03311768,0.22105698,0.23965244,-0.07426516,-0.1084812,0.18864588,-0.23749709,-0.10227933,0.06796936,-0.22847351,-0.03666895,-0.30285153,-0.1168165,-0.17008005,433.16672,217.32265
7_6_5_4_2_0_tr_reg_007_0_0_0_0_0_0.obj,0.10592365,0.06512954,0.07817714,0.2648285,0.075432345,0.12898079,0.36114866,-0.05645055,-0.3046953,-0.16283888,0.071834,-0.042657334,-0.17137577,0.2253781,-0.1035784,-0.3792299,0.040457927,0.07952593,0.023587879,-0.06287205,0.033160035,-0.11804399,0.041175976,0.34337664,-0.14793651,-0.06507413,0.23241377,-0.119449735,0.25509313,-0.15012829,-0.24873786,-0.017720433,491.9598,275.99234
6_4_3_2_1_0_tr_reg_008_0_0_0_0_0_0.obj,-0.019529922,-0.24759986,-0.13895497,0.07295669,-0.19949296,-0.19959413,0.043628335,-0.3363844,0.17767292,-0.33405423,0.2743443,0.026122142,0.06657846,-0.04297895,0.0010544375,-0.043415163,-0.18203469,-0.05588843,0.018074857,0.13145679,-0.050348468,0.15700437,0.23875135,-0.12220509,0.30925855,-0.21933411,0.25394404,-0.07195471,0.013130733,-0.06113238,-0.08997249,0.33661303,203.84056,511.8105
0_tr_reg_008_0.obj,0.004432755,-0.2030368,-0.17134684,0.25927052,-0.12515344,-0.20296617,0.09118357,-0.2996095,-0.021901023,-0.18647945,0.076844655,-0.018924167,0.3121995,-0.17382558,-0.0017540418,-0.0005384541,-0.19496426,-0.22418965,0.0023931498,0.10807278,-0.1700852,0.30845666,0.1274281,-0.01953697,0.0136820385,-0.2802821,0.07604577,0.15326247,0.15843245,0.095669836,0.13817795,0.36880326,315.9318,673.8159
4_tr_reg_006_0.obj,-0.16958298,0.10978381,-0.018297205,-0.22853144,0.057352427,0.085211754,-0.007968944,0.037790086,-0.067409076,-0.09999156,0.27262402,0.38539135,-0.084656715,-0.32470942,0.07394122,-0.14964207,0.3029852,-0.029661102,0.18810807,-0.17201585,0.00035709137,-0.008694263,-0.10247316,-0.022514516,-0.27034432,-0.34195438,0.16729356,0.10982765,-0.07378124,0.16152586,0.21687375,-0.19838415,577.2019,465.32797
2_1_0_tr_reg_008_0_0_0.obj,0.06767085,-0.16715103,-0.2270186,0.2778836,-0.09575592,-0.22458641,0.09116523,-0.20894858,-0.09872813,-0.17795505,-0.054925133,0.0021225475,0.26762208,-0.11722426,-0.123106495,-0.11985127,-0.18431166,-0.27988148,0.0347553,0.056254517,-0.14139605,0.27298382,0.15108955,0.05685144,-0.07447368,-0.2911171,-0.039074086,0.036133688,0.22676593,0.1528775,0.06638499,0.39780298,200.33144,321.02014
3_1_tr_reg_001_0_0.obj,-0.015507554,0.1816255,0.0005221236,-0.21820554,-0.14384885,-0.12421363,-0.022866812,-0.036752623,0.00633853,-0.03668659,-0.21225843,0.06643141,0.07979978,-0.1408752,-0.068401806,-0.1674024,0.13844968,0.12676717,0.2114267,-0.19578527,0.22524844,0.041340258,0.27338782,-0.122739315,0.24991429,-0.26249355,-0.26911268,-0.3844886,-0.29663485,0.22779797,-0.12937394,-0.05133782,273.9311,136.14223
7_6_4_3_2_1_tr_reg_009_0_0_0_0_0_0.obj,0.08746718,-0.2710569,-0.21129271,-0.23662291,-0.05718279,0.07741308,0.23939213,-0.036375657,0.4033446,0.26278806,0.19035946,-0.29415467,0.09787518,-0.04181292,-0.012867366,-0.15578529,0.102987565,0.1812277,0.025273882,0.27149865,-0.2220325,-0.16669042,0.14568615,-0.0038358206,-0.038177762,0.087095544,0.26001838,0.16862468,-0.13421485,-0.03992152,-0.040954527,-0.13259897,357.11145,266.74216
6_3_tr_reg_006_0_0.obj,-0.06737552,0.2131579,-0.07451656,-0.23135701,-0.0041001686,0.054648716,0.10460713,0.14618629,-0.08753068,-0.116497256,0.24354292,0.33380172,-0.04823372,-0.27463236,0.099028744,-0.20877323,0.15613258,-0.047262218,0.17574857,-0.286804,-0.03618824,-0.14975661,-0.081629924,0.16671279,-0.32488868,-0.34283054,0.17596532,0.019052492,-0.061361153,0.23064199,0.06425222,-0.13808268,308.7697,637.7721
3_tr_reg_006_0.obj,-0.07567324,0.17673343,-0.051997565,-0.22424003,-0.022305619,0.06709799,0.044607975,0.13472228,-0.07323538,-0.12442431,0.2338955,0.3658081,-0.08140535,-0.28055045,0.077057146,-0.20074475,0.21617146,-0.023056673,0.17110215,-0.29705128,0.0315134,-0.11785255,-0.10311696,0.072543636,-0.32616916,-0.34841552,0.1261351,0.052507594,-0.05861873,0.23511149,0.11011821,-0.17644049,729.3592,261.3004
1_tr_reg_003_0.obj,-0.3618957,-0.2688497,0.09749438,0.11930873,0.094338715,0.16996135,-0.13875009,-0.16671786,0.20863311,-0.020236555,-0.23124917,-0.1853045,0.04569035,-0.0898561,-0.17584261,-0.07591265,0.047086034,0.21741046,-0.17177247,0.2589234,-0.098704584,0.33783662,0.22231416,-0.14964317,0.06706861,0.33283773,-0.042416506,-0.10659477,0.13971065,-0.05372564,0.09633752,0.087923974,284.27896,394.10556
5_2_1_0_tr_reg_004_0_0_0_0.obj,0.2013877,0.2163543,0.24380292,0.41912797,-0.19064222,-0.08541935,0.13634078,-0.29079798,-0.09151339,0.085524105,0.11313323,-0.24769433,0.2304198,-0.010209643,0.27994853,0.22006775,0.117194206,0.032962337,-0.14709164,-0.008778029,0.11787705,0.08388863,0.026234116,-0.10332033,-0.10381786,-0.09197455,-0.055223737,0.2878236,-0.15353815,-0.097974636,0.22237751,-0.06564658,326.66293,107.07736
6_4_3_1_tr_reg_006_0_0_0_0.obj,-0.30146724,-0.08796842,0.04461248,-0.08863655,0.35597327,0.032188654,-0.14435582,-0.29410967,-0.054765597,-0.0052582365,0.13800837,0.30184364,0.03529997,-0.29744333,0.0027993354,-0.052019004,0.2465297,-0.123228006,0.1907844,0.2936911,-0.116528586,0.24411373,0.011058817,-0.06732504,-0.05228238,-0.14984813,0.17044434,0.0068399464,-0.08015993,0.005288046,0.32306215,-0.096310504,336.71844,703.8722
6_5_4_2_1_0_tr_reg_000_0_0_0_0_0_0.obj,-0.06338836,0.21981224,-0.10529514,-0.20244291,0.40809864,0.09532284,-0.21689536,0.2302157,-0.19321725,0.02050748,-0.13518873,0.07635288,-0.046953596,0.07274654,-0.09118397,0.028345779,-0.1515621,-0.16829732,0.12603635,0.11453479,-0.3578388,-0.07896689,-0.041262966,0.2632128,0.039048318,0.33521482,0.09329627,-0.3375494,0.07443085,0.0026077277,-0.04359856,0.10906445,526.8035,467.68362
6_4_2_1_0_tr_reg_002_0_0_0_0_0.obj,0.05895228,0.06979224,-0.22185087,0.19505095,-0.13943154,0.01874274,0.049835265,0.19297647,0.11385727,-0.12824619,0.09709952,-0.3033002,-0.22925487,0.108894445,0.10116755,0.08988021,0.3739553,-0.18884979,-0.16699748,0.09445135,0.07350766,0.23575065,-0.04131414,-0.19644901,-0.41935045,-0.061639465,-0.08159698,0.14806208,0.07236633,-0.32159886,-0.02274698,-0.01744465,244.06511,142.87103
4_2_tr_reg_006_0_0.obj,-0.23941156,-0.08097572,0.003264529,-0.17610763,0.28089163,0.069430046,-0.16579385,-0.16780315,-0.056608364,-0.002093027,0.18327887,0.35470366,-0.06628579,-0.29391536,0.013357521,-0.042883743,0.3361205,-0.100094795,0.20729132,0.18508299,-0.054781985,0.17866085,-0.08575382,-0.14178078,-0.13791978,-0.17273779,0.17654257,0.09387917,-0.0817184,0.00914952,0.34427997,-0.18328503,340.39618,205.91765
5_3_2_1_tr_reg_009_0_0_0_0.obj,0.15356235,-0.316908,-0.0347535,-0.15652496,-0.00872663,0.056684677,0.0831716,-0.13760185,0.4603017,0.29023015,0.13601843,-0.22017407,0.032348186,0.13617772,0.024563346,-0.1366417,0.04621159,0.27247146,0.0015647048,0.24769358,0.116004266,-0.29941112,0.02954494,-0.14010818,0.071354695,0.060709182,0.032576658,0.16129483,-0.20482783,-0.012396778,-0.10163634,-0.2637321,71.99216,515.7867
5_4_3_2_tr_reg_006_0_0_0_0.obj,-0.21075569,-0.008948282,-0.040874228,-0.23503567,0.20145671,0.07550797,-0.09090667,-0.059791576,-0.036495913,-0.010923998,0.25622648,0.37049505,-0.07869605,-0.31389314,0.05399918,-0.068681054,0.33198625,-0.09178785,0.20299469,0.056786407,-0.06951935,0.07462627,-0.11124462,-0.10082055,-0.21747704,-0.24994883,0.20155464,0.15103073,-0.09076211,0.07071678,0.30713892,-0.21667412,52.80664,413.1907
7_6_5_3_2_1_tr_reg_009_0_0_0_0_0_0.obj,0.111471556,-0.33041048,-0.004023577,-0.14246824,-0.022770323,0.07342728,0.004336838,-0.14544287,0.4194185,0.2689297,0.19046123,-0.22246532,0.040326312,0.14276724,-0.018683609,-0.12613115,0.07853907,0.28597993,0.022256425,0.24444579,0.020640679,-0.25164714,0.092323996,-0.23325634,0.18891288,0.109012686,0.10129008,0.21017274,-0.1884856,-0.023086293,-0.042846724,-0.20964846,201.84344,378.412
7_6_4_3_2_tr_reg_003_0_0_0_0_0.obj,-0.29797173,-0.30991432,0.2511482,0.12576993,0.040630303,0.2343149,-0.062766895,-0.10397186,0.16193801,0.02734724,-0.32776916,-0.055491794,-0.05607618,-0.10412008,-0.22281152,-0.0819449,-0.00019358516,0.35029605,-0.23413184,0.104812905,0.08104797,0.17985995,0.05464171,-0.008438233,0.0007047107,0.40317032,-0.10109716,-0.09311646,0.18993402,-0.022680007,0.091625534,-0.015177032,117.644104,468.1638
6_5_3_2_tr_reg_002_0_0_0_0.obj,-0.028357664,0.06266631,-0.23984724,0.039730847,0.12095377,0.08231814,0.0076758573,0.27697003,0.108669706,0.095810845,0.20756648,-0.37044415,-0.054920927,0.16425087,0.112309635,0.17913,0.12200711,-0.28766587,-0.12932895,0.22479321,-0.33388403,0.10562976,-0.1149185,-0.047280997,-0.2247075,0.110526316,0.07953047,0.34542984,0.07004328,-0.2407189,0.047464255,0.074529685,186.87563,335.7378
7_6_5_1_0_tr_reg_007_0_0_0_0_0.obj,0.17904992,-0.012795485,-0.01141394,0.2705353,0.09139384,0.027919732,0.09380889,-0.12736307,-0.15267166,-0.16860367,0.1369197,-0.12295938,-0.1327885,0.38723722,-0.20268615,-0.48549452,0.114267804,-0.036655437,0.10427224,0.039810207,0.076526895,-0.123507306,0.2150347,0.08903451,-0.059849147,-0.16161409,0.07800638,-0.20437019,0.17095895,-0.06597764,-0.34213537,-0.002107298,500.7326,397.5538
7_5_3_2_tr_reg_000_0_0_0_0.obj,-0.13903473,0.15708579,-0.08380223,-0.2808097,0.3227195,-0.020512363,-0.34936944,0.24250638,-0.067612186,0.14344779,0.042577807,0.022534758,0.07552063,0.18178476,-0.009351863,0.18249384,-0.21546786,-0.23613226,0.083669074,0.075113095,-0.43287635,-0.13944744,0.03285325,-0.001917325,0.291299,0.23724395,0.0047802757,-0.031930793,-0.03292292,0.11410127,-0.021434078,0.0747469,387.69138,294.0398
6_5_4_3_0_tr_reg_008_0_0_0_0_0.obj,0.0800932,-0.17667812,-0.14726153,0.2919514,-0.1166895,-0.18582366,0.09164935,-0.23828638,-0.12353689,-0.16240454,-0.012226325,0.02536964,0.30617818,-0.18439095,-0.068924166,-0.04641893,-0.19167916,-0.23033611,0.026166407,0.030061262,-0.13824031,0.28728646,0.053087488,0.047146115,-0.07057577,-0.2631021,0.0015404236,0.15845278,0.22201343,0.15675914,0.18833843,0.39789996,116.85028,558.2622
7_5_4_3_2_0_tr_reg_009_0_0_0_0_0_0.obj,0.0839359,-0.13373834,-0.20107658,-0.21926402,-0.043642424,-0.10738464,0.5346884,-0.07588769,0.22608636,0.18321908,0.05250718,-0.07360764,0.12306069,-0.14194131,0.18541439,-0.012265778,-0.19250484,0.03927043,-0.02145323,0.14642967,-0.034107547,-0.21657409,-0.021876752,0.37355512,-0.1833508,-0.13642637,0.21052425,-0.004911952,-0.10337029,-0.0384787,-0.20080243,-0.14539656,629.44604,526.1379
7_5_4_3_2_0_tr_reg_008_0_0_0_0_0_0.obj,0.21415076,-0.1271733,-0.18223712,0.2623818,-0.13477819,-0.11146008,0.08787832,-0.01559601,-0.15746155,-0.033779636,-0.11303134,-0.014461991,0.27304778,-0.14136894,-0.13802797,-0.082389615,-0.16240554,-0.23814245,0.0012234298,-0.0855083,-0.14861631,0.1799883,-0.072305076,0.0853032,-0.23919989,-0.16174373,-0.10762702,0.2869985,0.27399245,0.23994486,0.23309144,0.34112006,325.08688,472.0608
7_6_5_4_3_0_tr_reg_008_0_0_0_0_0_0.obj,0.10528612,-0.15356681,-0.18652403,0.2779643,-0.09967582,-0.19254158,0.07067237,-0.1870356,-0.1208996,-0.10827982,-0.02477137,-0.015147566,0.33454257,-0.15667011,-0.055764455,-0.023945205,-0.20763563,-0.27002275,0.021575907,0.036900096,-0.18364492,0.26592952,0.04930229,0.044109326,-0.08844334,-0.24589549,-0.026535217,0.19326907,0.21093777,0.17341788,0.1920894,0.39303634,369.61356,58.789093
6_tr_reg_005_0.obj,-0.26111862,0.20346443,0.06186547,-0.24292397,0.03956805,0.16872784,-0.011765141,0.2653474,-0.14357324,-0.3501978,0.2672484,0.16847119,-0.29451862,0.0591759,0.114194006,0.11616182,-0.09659636,0.039440773,0.038454007,-0.21100476,-0.015499246,0.04312589,-0.21381679,0.051828302,0.25889868,0.009664871,0.2667598,-0.11057241,0.09190237,-0.20724404,-0.18449129,0.15437141,96.481964,552.4499
6_5_3_1_0_tr_reg_005_0_0_0_0_0.obj,-0.14917229,-0.19933991,0.084759966,0.045619354,-0.11275444,-0.20767199,-0.20598175,0.0006009906,0.09636106,-0.034272105,0.15080138,0.13155724,-0.15115497,0.28811374,0.05108854,0.1720131,-0.029962376,-0.16365892,-0.115632415,-0.056059904,0.2518937,-0.015190962,-0.07001405,-0.44226182,0.22254936,-0.26292598,-0.2591624,0.3487079,0.05395067,-0.046192255,-0.12613875,-0.071841516,327.6847,677.6039
7_6_5_4_tr_reg_007_0_0_0_0.obj,0.064428814,0.12063282,0.04499767,0.32966325,0.037816536,-0.029073197,0.3967099,-0.22533612,-0.19080897,-0.16234781,0.034147624,-0.09740341,-0.0384466,0.015700549,0.18926421,-0.037856255,-0.009578328,-0.030116495,-0.08151036,0.09473559,0.15247793,0.11571859,-0.04869851,0.36351615,-0.37521574,-0.14682315,0.15311238,-0.19124277,0.13844408,-0.3171672,-0.12811768,0.03815752,714.3331,329.3055
3_2_tr_reg_006_0_0.obj,-0.19718617,0.03473871,-0.047154844,-0.24825329,0.15636104,0.078940846,-0.065276004,-0.011308794,-0.032281607,-0.036257036,0.25618544,0.38544473,-0.08629258,-0.3223389,0.06556599,-0.09655406,0.32170135,-0.07578169,0.19519426,-0.026790775,-0.038007066,0.034051828,-0.120068565,-0.07320135,-0.26046708,-0.2868855,0.17619565,0.13843432,-0.088211104,0.11529998,0.27470598,-0.22833413,610.4434,582.3218
6_5_4_tr_reg_004_0_0_0.obj,0.30071008,-0.0066373744,0.030220088,0.21595065,0.078758895,-0.07905385,-0.28199297,-0.18048894,0.109604925,0.28617823,0.024154345,-0.11946163,0.35822952,0.15958259,0.09355012,0.12967525,-0.2644909,-0.09085727,-0.048389595,0.11843237,-0.16844107,-0.26325202,0.007990374,-0.11850309,0.008138279,0.14637837,-0.11716591,0.28783008,-0.121855766,0.25321865,0.20456363,-0.063748114,599.3734,448.41092
7_3_1_0_tr_reg_004_0_0_0_0.obj,0.13886745,0.2504671,0.29352406,0.262983,-0.120573655,-0.076962195,0.08265123,-0.31047606,-0.18075305,0.03214388,0.24404247,-0.13327374,0.2021637,0.006806259,0.3484026,0.34253052,-0.016715435,0.073274724,-0.062648594,-0.014400183,-0.022431958,0.011435882,0.021431642,-0.05425804,0.19896147,-0.0037470164,0.17826656,0.21402845,-0.21125644,-0.16153233,0.21544884,-0.013462747,573.56006,430.4287
7_6_1_tr_reg_006_0_0_0.obj,-0.20611954,0.032491926,0.06651396,-0.14652887,0.20025472,0.1910994,-0.22076917,-0.032357074,-0.08663906,-0.06910148,0.24890293,0.24834064,-0.2167546,-0.15463023,-0.020409064,-0.115104795,0.519936,0.010903758,0.18721202,0.07130716,-0.017105404,0.13860552,-0.022454139,-0.2456518,-0.12598753,-0.079062,0.19156855,0.064882345,-0.0704215,-0.05207309,0.26758534,-0.2246073,211.88925,165.18556
0_tr_reg_001_0.obj,0.22805668,0.33444956,-0.17370395,-0.18310905,-0.26856396,0.053511307,-0.029766204,0.19038571,0.07996153,0.114885785,-0.086409,-0.4292524,0.12760864,-0.05415703,0.107335284,0.086779505,0.25034115,0.14377387,0.071725935,-0.08170336,-0.16970433,0.045895237,0.25236416,-0.19921893,0.104051344,0.16067831,-0.0058599254,-0.110489756,-0.35812506,-0.034730762,0.032028936,-0.043680526,399.98923,42.719788
6_4_3_0_tr_reg_006_0_0_0_0.obj,-0.23099968,-0.0050520315,0.01556662,-0.20878965,0.19229273,-0.022244804,-0.12534328,-0.13530202,-0.103619,-0.04356955,0.19568022,0.46022204,-0.026519962,-0.3140071,0.038323004,-0.074018285,0.2652648,-0.12885882,0.23771606,-0.002318763,0.0151760895,0.089050464,-0.05949991,-0.08959245,-0.12177145,-0.35848823,0.09312239,0.060312375,-0.10980349,0.15008666,0.27046117,-0.18897814,262.28714,192.1181
7_5_3_2_1_tr_reg_006_0_0_0_0_0.obj,-0.19192474,-0.108704984,0.010625185,-0.21416453,0.14580502,0.15821029,-0.066165425,-0.05686521,-0.010172927,0.03750405,0.20931756,0.2883205,-0.12945926,-0.31815445,0.011898651,-0.015114998,0.39892218,0.036621887,0.1448058,0.11895999,-0.06522402,0.12836431,-0.1382366,-0.17072389,-0.19091009,-0.063668445,0.2579615,0.21729085,-0.045354776,-0.045181327,0.36236286,-0.22452231,695.94666,289.2657
6_5_4_2_1_tr_reg_007_0_0_0_0_0.obj,0.03460655,-0.030570054,0.18239853,0.26173204,0.3771384,0.021938229,-0.32652918,-0.2466141,-0.13635693,0.019413011,0.17579868,0.03631386,-0.16677845,0.450093,-0.050284207,-0.124139875,0.19864929,-0.1497441,0.07568129,0.2537582,0.13550739,-0.08141465,0.025571605,-0.22473626,0.06889924,-0.01785177,-0.045888897,0.017592583,0.007954466,-0.15201743,-0.05335218,-0.2115462,305.77753,631.8451
7_6_5_3_1_tr_reg_008_0_0_0_0_0.obj,0.021235391,-0.19803518,-0.17842051,0.23746334,-0.15155007,-0.2431316,0.049337063,-0.30815098,-0.023227299,-0.20473887,0.026939562,0.035604727,0.30730784,-0.18723285,-0.024967631,0.0006515034,-0.20796482,-0.21735662,0.03491673,0.07291388,-0.12475572,0.29544443,0.16454448,-0.036926195,0.06993938,-0.30247673,0.027857518,0.07064905,0.11917642,0.13913245,0.124392815,0.37224147,591.5479,291.9456
6_5_4_2_0_tr_reg_008_0_0_0_0_0.obj,0.08269006,-0.076036274,-0.12122527,0.021495046,-0.10982958,-0.015453254,0.15466501,0.13554925,-0.29341203,-0.13332027,-0.16806796,0.26131248,0.0014741257,-0.20468934,-0.3344907,-0.29107675,0.006891372,-0.12042096,0.13605434,-0.26202303,-0.050613947,0.113438666,-0.09805563,0.1589664,-0.18046372,-0.19257444,-0.05647164,0.092559226,0.32215682,0.2572096,0.12568876,0.24401405,527.46545,292.06897
4_2_0_tr_reg_009_0_0_0.obj,0.1033497,-0.1473696,-0.2430968,-0.20694982,-0.021674719,-0.05825931,0.48299834,-0.059469905,0.2813937,0.19565994,0.0048109586,-0.14934073,0.14364387,-0.14966609,0.12960337,-0.06859426,-0.16458471,0.05100847,-0.023369355,0.20221661,-0.097996935,-0.19443828,0.017770544,0.37969062,-0.24409857,-0.04976784,0.19700076,-0.05741669,-0.08778198,-0.022807395,-0.1828543,-0.108698994,357.77225,22.734863
7_6_4_3_2_tr_reg_009_0_0_0_0_0.obj,0.010210268,-0.12574846,-0.2136961,-0.17803377,-0.02580629,1.4123961e-05,0.54018235,-0.03874272,0.18175846,0.16741027,0.062428396,-0.14737877,0.11587328,-0.22623163,0.12170092,-0.055389997,-0.06470467,0.035873596,-0.028730212,0.20181635,-0.19834413,-0.07577067,-0.010807085,0.3858408,-0.26750416,-0.043144632,0.31857383,0.05503758,-0.02696136,-0.10691578,-0.085800305,-0.070937306,313.5543,165.81523
7_5_4_1_tr_reg_008_0_0_0_0.obj,0.28110617,-0.063793294,-0.17838658,0.15457119,0.05188645,0.0039305235,-0.045810126,0.09949112,-0.235319,0.13411812,-0.1493511,-0.026501123,0.2438245,-0.06878878,-0.18133566,-0.06759921,-0.07297665,-0.23643994,0.10930831,-0.027268633,-0.25838995,0.10092458,-0.15368977,0.046856035,-0.19701351,0.005836579,-0.110350646,0.35033578,0.2196041,0.26166734,0.344066,0.25091687,337.14346,607.2366
6_5_3_2_tr_reg_007_0_0_0_0.obj,0.12759514,0.18680528,0.12864217,0.2625237,0.41875434,-0.07721817,-0.05581326,-0.3208483,-0.22696456,0.045519404,0.04164101,0.09264192,-0.07139774,0.23711222,0.22674067,0.115312375,0.009886243,-0.18449426,0.041163977,0.27964646,0.21029073,-0.0741481,-0.12548473,0.12098088,-0.18099673,-0.04504621,0.008806787,-0.18661703,-0.08429408,-0.26096377,-0.019943964,-0.2159084,40.419586,376.99524
5_3_2_1_0_tr_reg_006_0_0_0_0_0.obj,-0.23366559,-0.11823595,0.0042993543,-0.16645776,0.27802482,0.067328565,-0.19330396,-0.17771493,-0.038465627,0.02363065,0.15508461,0.34151086,-0.07223868,-0.27694938,-0.0023058436,-0.020482974,0.3431133,-0.08979873,0.18852127,0.21678254,-0.050644808,0.1865048,-0.076691315,-0.18378435,-0.12448289,-0.12489085,0.16152906,0.10908956,-0.077015996,-0.0055007017,0.35712376,-0.19983274,193.16048,343.35034
5_4_3_1_0_tr_reg_004_0_0_0_0_0.obj,0.17372775,0.22510657,0.23942928,0.3881797,-0.13390672,-0.11654443,0.11032437,-0.34604898,-0.09858193,0.08150139,0.13783646,-0.22407751,0.23186755,0.0054308665,0.31576392,0.24279755,0.11943386,0.0132238045,-0.10970179,0.044144493,0.1107068,0.08959228,0.05535187,-0.122636884,-0.044251084,-0.11953918,-0.03628228,0.24183135,-0.19785954,-0.1239969,0.21364835,-0.08158438,356.83508,234.78935
6_5_3_1_0_tr_reg_007_0_0_0_0_0.obj,0.16188613,-0.056788053,0.011309762,0.22909705,0.07154995,0.050516184,0.008091981,-0.09793284,-0.11016649,-0.13199854,0.15855776,-0.13469644,-0.14963827,0.4284495,-0.25422987,-0.5104264,0.18738337,-0.011883536,0.12152195,0.025007164,0.08054126,-0.13622172,0.2323048,-0.048279356,0.026754946,-0.15444368,0.027791595,-0.11471949,0.14427505,-0.02502815,-0.32126975,-0.038866818,442.88306,674.33124
7_5_4_3_1_0_tr_reg_007_0_0_0_0_0_0.obj,0.08806725,-0.005265772,0.015494862,0.22931994,0.08323424,0.04791131,0.24396843,-0.091678545,-0.2348235,-0.18054174,0.13290866,-0.09957971,-0.14545949,0.32059586,-0.19219498,-0.45549703,0.07743111,-0.00904769,0.09282237,0.009318938,-0.004084483,-0.09448526,0.1922234,0.2149038,-0.020706896,-0.14404799,0.18357368,-0.1826919,0.2229143,-0.11207079,-0.34653366,0.03341395,481.23758,246.94724
4_3_2_1_tr_reg_003_0_0_0_0.obj,-0.34753242,-0.27147955,0.122295976,0.12289519,0.12574488,0.16532114,-0.19758485,-0.20285045,0.16967273,0.009183192,-0.106687464,-0.17502366,0.04044514,-0.03264924,-0.1589867,-0.080601856,0.15555851,0.19202036,-0.11226059,0.28633493,-0.11999805,0.32696497,0.2423738,-0.27337804,0.14037502,0.2796109,-0.004307003,0.020291349,0.09796189,-0.06134677,0.15431795,0.028765367,350.20776,619.5241
6_5_3_2_1_tr_reg_009_0_0_0_0_0.obj,0.11486864,-0.3368855,-0.038071293,-0.1313549,-0.0349841,0.061758682,0.028875696,-0.1446489,0.4272888,0.25858888,0.20075113,-0.2548739,0.053899463,0.14365064,-0.028674478,-0.14490898,0.08254053,0.26414922,0.023220262,0.2575729,-0.010435718,-0.23292336,0.12318042,-0.22502911,0.17507051,0.09116257,0.112041116,0.2109756,-0.17532377,-0.023135008,-0.05547875,-0.18365002,377.00055,663.80676
7_5_4_3_0_tr_reg_008_0_0_0_0_0.obj,0.07409281,-0.15721631,-0.19283667,0.2755161,-0.10196343,-0.20110585,0.086503856,-0.22734623,-0.09235931,-0.13418306,0.00042379322,-0.023213312,0.33550698,-0.16783215,-0.028659308,-0.014448407,-0.20464484,-0.26397023,0.015934002,0.06878545,-0.18358319,0.28701642,0.080146186,0.038300514,-0.07210997,-0.26163492,0.0054710195,0.16293024,0.19197275,0.14274992,0.17060694,0.3882891,683.8766,364.20474
3_1_0_tr_reg_007_0_0_0.obj,0.19566602,-0.06893945,0.012353053,0.2485714,0.09580195,0.05086051,-0.046094876,-0.13079473,-0.08707538,-0.123089775,0.12649897,-0.12858976,-0.11918648,0.4285685,-0.26149747,-0.5128341,0.14557157,-0.0068572187,0.11953975,0.04743847,0.083310954,-0.15560502,0.23678218,-0.043223348,0.013852274,-0.11402502,0.010467339,-0.15595077,0.14045492,0.0072077475,-0.30671316,-0.0340022,46.9321,547.73376
7_6_5_4_0_tr_reg_004_0_0_0_0_0.obj,0.3285306,-0.009359395,0.15794174,0.29946205,0.002785494,-0.0012194187,-0.19922352,-0.14444557,0.008856577,0.27297798,-0.03817774,-0.017615119,0.28524423,0.09425492,0.045159306,0.08335367,-0.19282539,-0.009966817,-0.08850805,-0.03453797,-0.0070065586,-0.25265065,-0.13562295,-0.088868864,-0.11767342,0.13414016,-0.16504033,0.40298727,-0.037924066,0.29219016,0.28298038,-0.12784928,649.2562,612.8324
7_6_5_4_2_1_0_tr_reg_009_0_0_0_0_0_0_0.obj,0.112995245,-0.10791066,-0.089642935,0.045964576,0.03217984,-0.084988646,0.31421506,-0.0692871,0.22235924,0.10565662,-0.00997217,-0.034744676,-0.11541328,0.120685324,0.2952335,0.12791541,-0.16627106,0.023688266,-0.18642384,0.13304336,0.34481943,-0.21266712,-0.24274516,0.18878749,-0.37063092,-0.102991864,-0.047422197,0.02683527,-0.020613747,-0.21437849,-0.21270221,-0.28000042,240.74051,502.19904
7_6_4_1_tr_reg_001_0_0_0_0.obj,0.0015056959,0.06588181,-0.12521991,-0.24235618,-0.026121834,-0.1786245,-0.029460536,-0.16498622,0.13531327,0.035443313,-0.105237156,-0.081827044,0.24865578,-0.09162578,-0.020086208,-0.11045247,-0.07939556,0.065816455,0.209659,0.07083778,-0.052553356,0.0011308613,0.4054189,-0.022032056,0.3521803,-0.13810721,-0.07593959,-0.44646057,-0.3152314,0.18147026,-0.1688136,0.06462655,501.77298,239.01225
3_2_tr_reg_008_0_0.obj,-0.041071665,-0.23666355,-0.17699929,0.2028044,-0.16038525,-0.25364006,0.077511944,-0.3267549,0.04197217,-0.26740196,0.06947544,0.042077586,0.21862851,-0.13267623,-0.0668325,-0.06323132,-0.20162654,-0.18786271,0.020084634,0.09777282,-0.091022894,0.27450857,0.2378832,-0.047128856,0.14063221,-0.31031853,0.06914048,-0.022993032,0.123271815,0.08723394,-0.001004488,0.37514457,394.4243,427.97195
7_4_2_tr_reg_006_0_0_0.obj,-0.25475904,0.020230277,-0.012234758,-0.2005422,0.24622841,-0.006200466,-0.1175148,-0.13717416,-0.100149535,-0.065141425,0.21508108,0.41953897,-0.025483593,-0.30917534,0.045405425,-0.091462016,0.26921472,-0.16375805,0.24566889,0.051050395,-0.036417067,0.121162444,-0.052393712,-0.050592948,-0.13937782,-0.35072,0.12663732,0.027498227,-0.10554898,0.117200434,0.2596332,-0.15080705,500.58255,539.09875
6_5_4_1_tr_reg_009_0_0_0_0.obj,0.119803205,-0.31571034,-0.120488085,-0.11654002,-0.03252576,0.088417664,0.022578841,-0.08710722,0.4009814,0.22885709,0.21934839,-0.3262104,0.032516208,0.15569684,-0.068873286,-0.17818357,0.16127126,0.20474978,0.034020226,0.28420553,-0.117753774,-0.1707835,0.17266306,-0.22715096,0.101212956,0.12100598,0.1621226,0.20575655,-0.12680684,-0.058624834,-0.047616273,-0.14774138,222.25673,518.111
7_3_2_1_0_tr_reg_008_0_0_0_0_0.obj,0.07911461,-0.1482236,-0.22476171,0.27390343,-0.09154741,-0.22963707,0.055214006,-0.21985158,-0.083734654,-0.12259869,-0.03672807,-0.032621004,0.33774546,-0.14019103,-0.050014056,-0.030290138,-0.20138066,-0.289391,0.025842413,0.08117763,-0.18585321,0.28059497,0.13565211,0.02078614,-0.059768166,-0.26850206,-0.036512505,0.10949812,0.17434818,0.16073598,0.13676828,0.3801814,551.05176,460.49402
7_5_4_3_1_tr_reg_000_0_0_0_0_0.obj,-0.01940348,0.00040524773,-0.15319169,-0.050229385,0.22920504,-0.19514747,-0.4237542,0.081712864,0.14237452,0.273459,-0.04791328,0.010638951,0.17796186,0.21193941,0.087481536,0.2282578,-0.2038416,-0.32355267,-0.04330409,0.1556737,-0.20560808,-0.17376651,0.04394819,-0.2096492,0.008817171,0.051105894,-0.292593,0.15945192,-0.08048742,0.20537114,0.048915345,-0.086566366,75.27551,484.18713
6_4_3_2_1_tr_reg_009_0_0_0_0_0.obj,0.10653158,-0.28258517,-0.1358826,-0.3049213,-0.07564064,-0.00074429583,0.236021,-0.06962996,0.46434593,0.32503828,0.1273953,-0.1770789,0.12653376,-0.04884165,0.054100197,-0.08137988,-0.029230075,0.2323572,0.008493612,0.20296615,-0.035659365,-0.2912441,0.070875004,-0.008873069,0.04880695,0.019762482,0.1147589,0.15177812,-0.230326,0.05277427,-0.0856412,-0.21171446,722.77637,319.90424
0_tr_reg_000_0.obj,-0.06092831,0.19777675,-0.10234234,-0.20113415,0.41081524,0.078090586,-0.2747085,0.23479247,-0.16412891,0.06644111,-0.10912263,0.0543625,-0.014927095,0.114507765,-0.08284934,0.064898394,-0.17605342,-0.19015762,0.10909671,0.123874746,-0.39422292,-0.10862204,-0.030349316,0.21081226,0.06995606,0.3560603,0.07102842,-0.26735553,0.062615745,0.03134599,-0.024284007,0.09742848,361.09763,177.89206
6_0_tr_reg_002_0_0.obj,-0.09284419,0.21910286,-0.1331969,-0.04677549,0.135612,0.12601174,0.06092336,0.25269166,-0.00605095,-0.013671776,0.37196484,-0.30876938,-0.03432538,0.1152486,0.18197522,0.18433544,0.06715614,-0.22458813,-0.034092017,0.12748678,-0.3999978,0.09467095,-0.114201844,0.05233207,0.005469817,0.06616929,0.26857635,0.27089506,0.0012634809,-0.26517075,0.024922231,0.16782404,415.04218,11.801239
5_4_1_0_tr_reg_007_0_0_0_0.obj,0.06674597,-0.1648559,0.040833138,0.15879415,-0.05368508,0.19329172,0.124647655,0.015736306,-0.07196252,-0.085787706,0.208725,-0.13632715,-0.12009807,0.25890857,-0.3376062,-0.5534208,0.17905572,0.15418895,0.07483359,-0.07415535,-0.11103727,-0.14397079,0.22235724,0.020628413,0.043659773,-0.031392638,0.21831116,0.08012359,0.24363855,0.036318343,-0.20329833,0.0147458445,255.68906,455.95184
2_0_tr_reg_004_0_0.obj,0.2771477,0.13957025,0.31860656,0.15275893,-0.08419109,0.11439026,-0.11905517,-0.10875686,-0.290574,0.024450388,0.16938758,0.058587216,0.13723306,0.0011233526,0.08372283,0.18746269,-0.15974262,0.18700248,0.07533662,-0.18606247,-0.11754934,-0.18550923,-0.13174197,0.07109929,0.33196586,0.25587973,0.29382715,0.17130214,-0.09762405,0.03392121,0.27638045,0.06855651,280.89227,491.71744
6_5_4_3_2_1_0_tr_reg_001_0_0_0_0_0_0_0.obj,0.047115475,0.23424748,0.016719365,-0.19365469,-0.23209047,-0.064130686,-0.046895806,0.0077954843,0.009134341,0.0035420156,-0.22698078,-0.052824143,0.08695245,-0.15366735,-0.034488462,-0.101299025,0.25041494,0.19393712,0.18224561,-0.22073297,0.19872957,0.08149285,0.26578262,-0.23110852,0.24343093,-0.16311936,-0.266182,-0.27467462,-0.34827003,0.18290095,-0.027939226,-0.087880984,216.6253,184.19902
6_4_2_1_0_tr_reg_009_0_0_0_0_0.obj,0.13971068,-0.19581479,0.026907297,0.022860736,0.09158479,0.0009960798,0.2367317,-0.16858321,0.30379444,0.19756867,0.0042643733,-0.04068532,-0.07455936,0.13624063,0.21068747,0.005695904,-0.10863731,0.1653272,-0.13215859,0.18273881,0.3807911,-0.30137223,-0.22973987,0.1120224,-0.26078203,-0.040118393,-0.07209902,0.076863155,-0.091456994,-0.11614263,-0.15285917,-0.3597309,17.093536,428.9863
6_4_0_tr_reg_000_0_0_0.obj,-0.06685286,0.23010658,-0.08081151,-0.17448147,0.42068964,0.13651785,-0.2070385,0.2290579,-0.21710001,-0.011656399,-0.10891131,0.07615559,-0.08368414,0.07854307,-0.09345455,0.0053434614,-0.11581502,-0.15300596,0.12552293,0.110784866,-0.34225738,-0.0619341,-0.07065423,0.27114335,0.01584688,0.34076595,0.124643825,-0.32788828,0.097808495,-0.03155425,-0.033628546,0.11109322,423.78754,329.87314
7_5_2_1_0_tr_reg_003_0_0_0_0_0.obj,-0.21565025,-0.24759142,0.059399866,0.09577986,0.08258497,0.21763739,-0.12880535,-0.014094247,0.24845275,0.04062593,-0.40072742,-0.12503824,-0.04490546,-0.096038796,-0.21214585,-0.08802408,-0.011083828,0.2433655,-0.23273405,0.17264077,0.025362574,0.18368168,0.06034906,-0.010864449,-0.18641812,0.43909597,-0.16372122,-0.17858443,0.17910768,0.00019176964,0.07161906,0.00065444043,458.42056,506.35168
7_6_3_2_1_tr_reg_008_0_0_0_0_0.obj,0.21967107,-0.1467165,-0.11536288,0.060343813,-0.020947652,0.08931202,-0.015221185,0.23314503,-0.28659546,0.038859144,-0.18788269,0.12682667,0.005770348,-0.03999763,-0.35088563,-0.2156585,0.015198011,-0.117480546,0.12280216,-0.18950638,-0.10720794,0.05419561,-0.22379579,0.03868954,-0.17709014,0.018062316,-0.10881267,0.30445677,0.3445481,0.24482614,0.23833333,0.20311525,252.37404,523.9683
5_3_1_tr_reg_008_0_0_0.obj,-0.008243063,-0.21455476,-0.158335,0.2348597,-0.16904727,-0.25094634,0.067154236,-0.33185023,-0.009791652,-0.25439125,0.043286253,0.052810624,0.25192842,-0.16523702,-0.056244433,-0.042416286,-0.18213545,-0.19454858,0.033689715,0.06746936,-0.08043814,0.29611108,0.20559314,-0.046585806,0.10326619,-0.32206035,0.04051959,0.011454929,0.12635618,0.11406236,0.063989274,0.371141,416.072,298.11716
7_3_2_1_tr_reg_009_0_0_0_0.obj,0.18285784,-0.24984491,0.011938333,-0.15189187,0.04248704,0.061938364,0.12628917,-0.13402517,0.41728863,0.30177552,0.07294965,-0.13198538,-0.0010179569,0.11497983,0.109054476,-0.08188565,-0.01392049,0.28005388,-0.026231002,0.20443313,0.23393163,-0.36860117,-0.105271436,-0.02259662,-0.043293536,0.061378222,-0.007507347,0.11690688,-0.21709004,-0.016892327,-0.103396334,-0.34764367,608.7029,612.5499
5_4_3_0_tr_reg_000_0_0_0_0.obj,-0.055484343,0.20655447,-0.098684594,-0.1710599,0.427467,0.11951628,-0.24741466,0.23330395,-0.18959527,0.029630408,-0.11504056,0.058993235,-0.053410575,0.0985149,-0.0950087,0.02593402,-0.13599302,-0.17716035,0.11304882,0.12933134,-0.37081912,-0.07967547,-0.06263602,0.24252748,0.009436441,0.35887772,0.09522617,-0.28765652,0.095378466,-0.00309698,-0.015186075,0.103853196,239.76038,514.1632
6_4_3_2_1_tr_reg_008_0_0_0_0_0.obj,0.048987847,-0.15953298,-0.08491523,-0.13054307,0.11385697,0.25755292,-0.08950541,0.3335251,-0.18849064,0.088383436,0.056972045,0.13155729,-0.24257408,0.1388328,-0.33528963,-0.22050105,0.20759135,0.00066352106,0.13783751,-0.09268597,-0.13858286,-0.07172979,-0.24152681,-0.1438923,-0.036868315,0.112679996,0.06585886,0.38405347,0.28305995,0.06769129,0.14417604,-0.029029999,234.25864,370.6328
5_3_tr_reg_006_0_0.obj,0.0059819054,0.1864702,-0.08228986,-0.15485129,-0.06640494,0.050504673,0.12567274,0.13809772,-0.066541396,-0.17288002,0.18031469,0.31800222,-0.048967272,-0.2442414,0.03386328,-0.29651713,0.08745504,-0.014819196,0.14614089,-0.3351668,0.023212323,-0.18052046,-0.067780204,0.21711399,-0.37515542,-0.31885377,0.13029148,-0.05161732,-0.0004944435,0.28081477,0.004212824,-0.07872268,550.5072,492.07086
4_2_1_0_tr_reg_008_0_0_0_0.obj,0.111243926,-0.19126756,-0.18270531,0.32094273,-0.13628621,-0.19870798,0.10262338,-0.14806741,-0.123301655,-0.16571249,-0.07264854,0.024750507,0.21551871,-0.07467952,-0.18863139,-0.1743969,-0.15390933,-0.26352704,0.007243668,-0.028316798,-0.076534145,0.22594565,0.09350328,0.048739716,-0.13873158,-0.28871307,-0.10297741,0.12530737,0.29648775,0.19566919,0.07154921,0.3678737,317.68356,438.94553
6_3_2_1_tr_reg_006_0_0_0_0.obj,-0.120192535,0.036478594,-0.0017363782,-0.22928245,0.10851314,0.14061934,-0.1400564,0.05504608,-0.020609451,-0.01858186,0.27150413,0.3479845,-0.19850428,-0.20249006,0.042224966,-0.090003654,0.420396,0.005184142,0.16422881,-0.062267642,0.044494864,-0.03576713,-0.13073301,-0.19814336,-0.24280952,-0.18195076,0.15399054,0.17205077,-0.09557724,0.06562592,0.24956937,-0.3213481,566.83325,311.44714
7_6_5_3_0_tr_reg_006_0_0_0_0_0.obj,-0.1454654,0.06652016,-0.04341435,-0.2578782,0.07322963,0.096163824,-0.032926444,0.048605457,-0.027788911,-0.034769792,0.25041273,0.38319546,-0.086672,-0.32069075,0.06466005,-0.12975554,0.30931154,-0.018024351,0.18693708,-0.13608633,-0.0068970243,-0.03824672,-0.11973701,-0.056822617,-0.283642,-0.2970003,0.16101958,0.14888816,-0.09073073,0.16950515,0.2454368,-0.25014794,649.50574,554.20215
7_6_5_4_3_2_0_tr_reg_007_0_0_0_0_0_0_0.obj,0.14093755,0.22075194,0.101542585,0.2657429,0.38119897,-0.08903126,0.033238813,-0.31941664,-0.22936313,0.028262451,0.07398255,0.051938213,-0.028113246,0.20217176,0.27688193,0.13177934,-0.039258365,-0.18560754,0.036756534,0.25742358,0.17442398,-0.071151935,-0.122365065,0.19727224,-0.20968576,-0.07926091,0.06568416,-0.19395208,-0.087135,-0.26937118,-0.039061926,-0.17316788,360.58917,649.1144
6_5_4_1_0_tr_reg_007_0_0_0_0_0.obj,0.016207982,-0.12458097,0.06721363,0.14064461,-0.0593559,0.2256249,0.17862245,0.084317476,-0.13611346,-0.08412357,0.18327154,-0.10553636,-0.1479429,0.21331082,-0.33660668,-0.5157671,0.16720979,0.1709163,0.05258045,-0.12434415,-0.15928794,-0.13385311,0.17900021,0.08465636,0.042067554,0.012368761,0.25939602,0.10665364,0.28038222,0.009814707,-0.17628421,0.03419668,517.9252,467.18927
6_5_4_2_0_tr_reg_006_0_0_0_0_0.obj,-0.25258365,-0.0816145,0.0337017,-0.18210474,0.23113315,-0.018219968,-0.18880987,-0.17447162,-0.096431114,-0.025376346,0.184785,0.44685638,-0.058300614,-0.2769507,0.015377189,-0.02024961,0.28586003,-0.1378494,0.21499154,0.096205935,0.014723698,0.14554146,-0.06953334,-0.16667882,-0.06646638,-0.27845865,0.10423102,0.08993494,-0.08915491,0.07097331,0.3021667,-0.1883381,149.12926,506.0251
7_3_2_1_tr_reg_008_0_0_0_0.obj,0.2607182,-0.14976919,-0.13329886,0.12142418,-0.05988578,0.061482288,0.019069998,0.19956195,-0.25005502,0.05417895,-0.17055176,0.053963665,0.07133422,-0.038018703,-0.31746227,-0.20271736,-0.014403635,-0.13854297,0.08961958,-0.17380749,-0.12423143,0.05951392,-0.19928053,0.04845134,-0.20928507,-0.0062025446,-0.11723185,0.34688258,0.3339993,0.25436443,0.24294794,0.22756623,692.1089,314.16318
5_4_3_2_1_0_tr_reg_008_0_0_0_0_0_0.obj,-0.032750495,-0.23379403,-0.17727107,0.103342675,-0.17518745,-0.25302914,0.057283748,-0.33134946,0.13698547,-0.2627943,0.1627337,-0.002907467,0.1880792,-0.07633607,-0.02129646,-0.03338097,-0.22518341,-0.12448259,0.024959972,0.13511775,-0.10607432,0.20009197,0.28465348,-0.09200567,0.28999856,-0.25487116,0.14964168,-0.06474728,0.025854478,0.0334047,-0.069303945,0.35943592,200.06668,172.88748
7_3_2_1_0_tr_reg_005_0_0_0_0_0.obj,-0.076873876,-0.14381039,0.028687185,0.07245894,-0.073022276,-0.14295836,-0.2626658,0.14254496,0.10987325,0.021351779,0.07554988,0.122171216,-0.17257723,0.29217058,0.055631932,0.17128852,-0.022861483,-0.20202462,-0.16339439,-0.09816625,0.26189083,-0.07830175,-0.19129816,-0.38407415,-0.024471464,-0.18141744,-0.34701118,0.38553643,0.09924821,0.0033294675,-0.076797426,-0.1291857,330.51816,587.3241
7_6_5_4_2_1_tr_reg_009_0_0_0_0_0_0.obj,-0.030936038,-0.3116293,-0.080224164,0.039717615,-0.05897453,0.16313519,0.021001192,-0.021624569,0.19397804,0.07537082,0.23116268,-0.27948847,-0.074795246,0.15072866,-0.26134637,-0.31105918,0.30293244,0.13008624,0.025746016,0.19756432,-0.24923037,0.010535434,0.24677654,-0.22642687,0.03601436,0.120621264,0.25956923,0.25101495,0.11377221,-0.103284955,-0.017809974,-0.041779466,545.07574,297.3463
5_3_1_tr_reg_007_0_0_0.obj,0.11595824,0.010587322,0.14721693,0.27116606,0.39422217,-0.0320133,-0.32537198,-0.2917255,-0.14769182,0.032867208,0.108154096,0.028250376,-0.09114856,0.4495804,-0.05547212,-0.15824106,0.118496224,-0.16961797,0.11327271,0.26537716,0.13087672,-0.1283281,0.08409374,-0.14831951,0.051918283,-0.030604202,-0.07326747,-0.12264123,-0.018868228,-0.10053291,-0.10667313,-0.18782139,709.49316,259.24603
7_5_3_tr_reg_006_0_0_0.obj,-0.044146407,0.28137437,-0.06189442,-0.13332632,-0.07821266,0.11064506,0.20932557,0.2156723,-0.06530652,-0.19614701,0.15092078,0.17977941,-0.09244006,-0.22493617,0.035238724,-0.3006165,0.11927869,0.029150872,0.08526059,-0.3363906,-0.024422452,-0.14769383,-0.027912794,0.31936067,-0.3847729,-0.21163405,0.1677696,-0.1419435,0.011114384,0.17960535,-0.07054674,-0.02852974,257.5105,419.99304
4_3_2_0_tr_reg_006_0_0_0_0.obj,-0.2674342,-0.09814945,0.07000339,-0.056488965,0.3712306,0.10080342,-0.15517426,-0.2891871,-0.022781579,0.04412048,0.107647955,0.22562861,0.034950815,-0.29157373,0.02238096,-0.015338628,0.2661735,-0.05133096,0.15450668,0.3401223,-0.12456836,0.24498138,-0.025771927,-0.07337433,-0.085834436,-0.025266187,0.18148246,0.03720927,-0.084202796,-0.043950956,0.37885952,-0.11676893,329.0606,620.699
6_4_1_0_tr_reg_002_0_0_0_0.obj,0.058153912,0.053136144,-0.2678876,0.18770976,-0.0806188,0.008733886,0.036342267,0.17959018,0.13475342,-0.08437537,0.09907645,-0.3326547,-0.18591647,0.123029865,0.1067813,0.09933977,0.33661333,-0.23278905,-0.16372408,0.16493884,0.0042794994,0.23476496,-0.026854804,-0.18512386,-0.42608178,-0.042239405,-0.06808388,0.15953717,0.0708281,-0.31556672,-0.014688201,-0.0074378927,212.63266,148.42804
7_6_5_4_3_2_0_tr_reg_006_0_0_0_0_0_0_0.obj,-0.21911584,-0.06799518,0.058748487,0.03027348,0.3988563,0.19112717,-0.079335995,-0.25829017,0.048309512,0.1041747,0.03865536,-0.018344626,0.057483055,-0.20929396,0.015533874,-0.0340935,0.23773023,0.026863467,0.061058648,0.4402733,-0.23827973,0.22103149,0.02267416,0.035602164,-0.15536883,0.20640667,0.21647462,-0.008651618,-0.0470963,-0.13089134,0.3325044,-0.07095905,76.30109,391.54532
5_4_tr_reg_006_0_0.obj,0.008722133,0.29060617,-0.029948264,-0.15486844,0.06083185,0.1286042,-0.034781937,0.13388558,-0.06876406,-0.09387606,0.2779191,0.25668186,-0.13001822,-0.13921008,0.11050436,-0.22310121,0.3250785,-0.0054447176,0.19291121,-0.25256276,0.043687474,-0.1900746,-0.057016056,0.03501732,-0.33599222,-0.28976288,0.11206405,0.0019032892,-0.1486082,0.18371682,0.092617005,-0.27060857,719.9492,300.9171
6_5_1_0_tr_reg_006_0_0_0_0.obj,-0.20841698,0.004889377,0.02601801,-0.19559711,0.24272768,0.1387125,-0.18867016,-0.07732536,-0.08097171,-0.020921139,0.24871331,0.32953307,-0.12828673,-0.24111342,0.01500401,-0.087085456,0.41672882,-0.041335434,0.22330527,0.09149717,-0.061081666,0.10719715,-0.0663421,-0.16954292,-0.1385821,-0.15069354,0.21089855,0.09491053,-0.101254754,0.015610334,0.316934,-0.2229424,542.3894,250.87878
5_4_3_1_tr_reg_008_0_0_0_0.obj,-0.008978876,-0.20948762,-0.18726984,0.23842481,-0.14948304,-0.25966743,0.06551014,-0.316251,-0.0013109347,-0.25492463,0.006402408,0.050750755,0.23937945,-0.14731601,-0.082027584,-0.07525995,-0.19047683,-0.2135958,0.029514188,0.07879211,-0.07859551,0.2845143,0.22936852,-0.02085354,0.068291806,-0.3185411,0.014440563,-0.04702424,0.14067557,0.12001691,0.022163024,0.37235218,205.36641,359.8598
6_5_tr_reg_005_0_0.obj,-0.30233508,0.14646514,0.065648,-0.28433594,0.04454035,0.13615674,-0.05352912,0.28405565,-0.110021204,-0.3201103,0.2520061,0.19546327,-0.29064405,0.09726519,0.06822394,0.119374536,-0.14540043,0.014580962,0.021390365,-0.21344653,-0.011677508,0.021741232,-0.20329243,0.011619339,0.3143106,0.008430687,0.20345993,-0.088685416,0.11412387,-0.15758117,-0.22065184,0.15707509,339.76263,650.3108
7_6_5_4_1_tr_reg_004_0_0_0_0_0.obj,0.33622104,-0.019204136,0.24341683,0.20664638,0.015457512,0.084048934,-0.3155395,-0.090214126,-0.16442914,0.15566471,0.0045294925,0.13971753,0.19806731,0.10539454,-0.06983219,0.024420667,-0.24110678,0.08801163,0.06039086,-0.15996826,-0.04194438,-0.3070582,-0.16106598,-0.042623185,0.19160204,0.21251103,-0.0053060707,0.27507117,-0.021357933,0.30220476,0.27231303,-0.024133768,333.46515,690.0713
7_6_2_tr_reg_008_0_0_0.obj,0.08721117,-0.16053881,-0.19599852,0.29863465,-0.11685918,-0.225312,0.09776985,-0.20977549,-0.11085946,-0.17142038,-0.07508046,0.02260352,0.27338645,-0.14371082,-0.11280705,-0.10020419,-0.18330278,-0.265239,0.019083228,0.026598053,-0.105546616,0.27075002,0.116379604,0.06501635,-0.11296592,-0.2874441,-0.06742969,0.058222786,0.23372617,0.16826963,0.10159356,0.38888162,420.35736,643.3544
5_1_0_tr_reg_003_0_0_0.obj,-0.2428956,-0.2673271,0.08669072,0.08953592,0.091037974,0.21412455,-0.13956837,-0.037911836,0.23117636,0.040444948,-0.40143162,-0.09025852,-0.030391166,-0.10673471,-0.22810781,-0.09945619,-0.017517217,0.25393027,-0.21942149,0.16280891,0.033307288,0.19251323,0.06814143,-0.026164634,-0.14085726,0.4228063,-0.17019111,-0.16813676,0.18328278,0.030768119,0.08377673,0.0014207087,390.5595,222.53166
7_6_5_4_0_tr_reg_008_0_0_0_0_0.obj,0.15396008,-0.1350881,-0.19601214,0.29428464,-0.11567438,-0.19099939,0.08223891,-0.13021784,-0.14326996,-0.1112977,-0.114267655,0.019989705,0.2881838,-0.14903995,-0.12615526,-0.09405757,-0.19067942,-0.26800597,0.017571753,-0.025098072,-0.11722931,0.23179364,0.037771128,0.08732547,-0.17474563,-0.24128942,-0.10691939,0.13375026,0.24965791,0.21751723,0.16218925,0.37864685,238.1941,159.04723
5_4_2_0_tr_reg_006_0_0_0_0.obj,-0.25391522,-0.10096782,0.02591559,-0.1737371,0.27177238,0.0031346155,-0.19514534,-0.20135252,-0.07608275,-0.0046144626,0.16096696,0.42040944,-0.042606417,-0.28453216,-0.000117209755,-0.03681604,0.28619105,-0.12847368,0.22018011,0.1531368,-0.014547215,0.15909795,-0.054966763,-0.14958899,-0.06991098,-0.2350992,0.1188707,0.06830489,-0.094644785,0.06630886,0.31895813,-0.18461157,60.30896,541.2401
6_0_tr_reg_001_0_0.obj,0.25858745,0.32863054,-0.22484928,-0.15823992,-0.23491444,0.07989438,0.018738817,0.21521558,0.07228322,0.121670134,-0.103470914,-0.46924934,0.12675495,-0.05686342,0.08668867,0.07021858,0.24014941,0.109419994,0.053873904,-0.03496899,-0.23247235,0.053553347,0.2375927,-0.12155912,0.014587098,0.20995028,0.031785395,-0.116697505,-0.30532217,-0.05497012,0.03265678,-0.022064969,609.2078,456.3872
3_2_tr_reg_009_0_0.obj,0.028598055,-0.12654254,-0.18937159,-0.21299495,0.009906579,-0.106021754,0.54792184,-0.11311496,0.19514611,0.16033933,0.105638854,-0.056000605,0.103751235,-0.15551995,0.23353852,0.026957097,-0.15615492,0.005894311,-0.011328967,0.19395229,-0.032427676,-0.14817078,-0.054245725,0.35372224,-0.1730255,-0.18384367,0.24702889,0.028332828,-0.1070117,-0.10575193,-0.16657099,-0.14180337,215.04266,521.07404
2_1_tr_reg_008_0_0.obj,0.27090555,-0.14028536,-0.14830162,0.14570312,-0.029499678,0.048616976,0.031498767,0.16560431,-0.2567433,0.054115023,-0.15287425,0.03010496,0.10182211,-0.032526657,-0.2989065,-0.20214942,-0.024013309,-0.16813707,0.10020943,-0.13224255,-0.15103231,0.07525484,-0.18977064,0.0645932,-0.21635236,-0.023711594,-0.10475334,0.34603325,0.33081675,0.24443604,0.24931304,0.25066817,740.9048,323.08093
7_5_3_0_tr_reg_007_0_0_0_0.obj,0.029199608,-0.10732455,0.09839654,0.19906507,-0.0039536958,0.24778505,0.19445275,0.06306744,-0.1965783,-0.09646275,0.14684607,-0.07855281,-0.17342946,0.23359104,-0.30682907,-0.49851072,0.14826623,0.1719571,0.032293957,-0.11264314,-0.11966776,-0.125713,0.11905077,0.1270414,-0.008540311,0.03859084,0.25483453,0.10344215,0.3217989,-0.024994047,-0.15748315,0.015236323,451.74036,641.3053
7_5_4_3_tr_reg_001_0_0_0_0.obj,0.21512336,0.3371185,-0.08888905,-0.015801854,-0.32774097,0.16043808,0.10524438,0.3521526,-0.021227196,0.04311666,-0.20745903,-0.33365446,-0.07207425,-0.12488098,0.06544702,0.10653609,0.35090172,0.13959709,-0.08462118,-0.23178796,0.019804172,0.10660906,-0.0064860196,-0.072342835,-0.24399622,0.18267728,-0.10484328,0.014659442,-0.14104064,-0.09154712,0.0999504,-0.0875656,619.49335,604.87964
6_4_2_1_tr_reg_003_0_0_0_0.obj,-0.3560404,-0.29859748,0.15931255,0.13464537,0.09211556,0.21296021,-0.15816958,-0.14772376,0.13831007,-0.0073171994,-0.13761291,-0.15947604,-0.028149066,-0.025577253,-0.2078254,-0.11013952,0.1759275,0.22997363,-0.1425721,0.23162521,-0.07453893,0.32287818,0.18590426,-0.23627196,0.096946664,0.31241345,-0.004547414,0.03281788,0.16801699,-0.08919402,0.13018885,0.018062007,573.57086,258.2376
7_4_1_0_tr_reg_007_0_0_0_0.obj,0.10513572,-0.20048173,0.059129696,0.17324775,-0.03506355,0.17833063,-0.044918764,-0.0092287,-0.037356567,-0.074982986,0.14571115,-0.111423515,-0.15222488,0.33362898,-0.3624085,-0.5432675,0.22224645,0.15059441,0.083441235,-0.060584553,-0.0010265153,-0.14451028,0.22620253,-0.14226533,0.077601306,-0.01103747,0.08473494,0.06428866,0.20752805,0.06665033,-0.19079682,-0.046004687,627.6349,576.317
6_5_4_3_0_tr_reg_000_0_0_0_0_0.obj,-0.063795775,0.22086562,-0.09566954,-0.19423637,0.41186798,0.11311711,-0.2351935,0.23988783,-0.19076627,0.02457196,-0.11478698,0.057064146,-0.051505532,0.09218105,-0.092989124,0.029528707,-0.13918588,-0.16654684,0.11945228,0.11510855,-0.37155706,-0.0801198,-0.04639445,0.24440648,0.043955706,0.35279268,0.099099085,-0.30763087,0.07889132,-0.002627521,-0.033127565,0.10820233,395.73447,678.12036
5_0_tr_reg_000_0_0.obj,-0.08502644,0.13555731,-0.12862529,-0.24945144,0.37000304,-0.023398003,-0.34050897,0.21823181,-0.08161554,0.1606622,-0.07684362,0.05106954,0.08349966,0.13835222,-0.052601147,0.14389837,-0.23274451,-0.24408814,0.0935987,0.12784363,-0.4285367,-0.14289221,0.029260313,0.08486825,0.16662185,0.2903068,-0.01573002,-0.13949038,0.0009853339,0.12870046,-0.005722539,0.06864102,485.5412,512.5314
7_6_4_3_2_0_tr_reg_008_0_0_0_0_0_0.obj,0.2090187,-0.11489393,-0.16696736,0.27716717,-0.14792235,-0.11024905,0.14072041,-0.0078051477,-0.18968083,-0.08088502,-0.14041787,0.021050245,0.20550871,-0.13730592,-0.18184951,-0.14478517,-0.12625957,-0.22597471,0.0019548119,-0.11961191,-0.08634891,0.17912836,-0.06671483,0.13402805,-0.27986223,-0.18986939,-0.11936809,0.2135971,0.31061584,0.21815093,0.17907226,0.33623296,736.1913,323.30164
7_6_5_tr_reg_007_0_0_0.obj,0.13034517,-0.074826926,0.08343179,0.28543767,0.087630495,0.12003463,0.03544377,-0.068126656,-0.17541905,-0.1355417,0.12663533,-0.0997133,-0.2140754,0.44051653,-0.25846887,-0.48881346,0.18780236,0.04010777,0.06585005,-0.011001275,0.109772466,-0.124128915,0.15394776,-0.023868771,-0.000445673,-0.08440558,0.04234556,-0.043479476,0.22438619,-0.069631554,-0.27747595,-0.06463873,408.33047,312.93588
5_2_0_tr_reg_009_0_0_0.obj,0.14232764,-0.18332113,-0.21509716,-0.25092965,-0.050898064,0.012484627,0.42909452,-0.065136306,0.3290286,0.23464042,0.12490523,-0.21217093,0.12549296,-0.09762454,0.085996814,-0.13503988,-0.050519545,0.14688045,0.023724057,0.21145442,-0.13287863,-0.24284627,0.06214633,0.25644723,-0.138177,-0.010324971,0.26594433,0.03117736,-0.1428463,-0.027387831,-0.1452855,-0.14875197,571.8263,505.61163
6_3_2_1_0_tr_reg_007_0_0_0_0_0.obj,0.13892975,-0.04652971,0.017342245,0.24927749,0.03811079,0.09233491,0.14128238,-0.07389386,-0.1577178,-0.15215129,0.18627265,-0.14756055,-0.17139824,0.37990287,-0.22850673,-0.51184297,0.19907707,0.022415545,0.09244858,-0.0028888737,0.050618157,-0.10928124,0.19907492,0.041271605,-0.03611167,-0.15176733,0.122327365,-0.06668858,0.19655368,-0.08160415,-0.30623695,-0.030746166,623.86914,506.17157
6_5_4_3_2_0_tr_reg_001_0_0_0_0_0_0.obj,0.09985676,0.20402917,-0.077954344,-0.22843696,-0.2027005,-0.08391813,-0.051907692,-0.050006565,0.11775937,0.06964762,-0.10806514,-0.25075418,0.20053792,-0.08201928,0.04000505,-0.0358532,0.15249324,0.17701942,0.17867085,-0.047677908,-0.009349235,0.044063058,0.37341025,-0.22062996,0.35579413,-0.054877758,-0.10651727,-0.27777293,-0.42495078,0.10583982,-0.064265996,-0.027656373,363.33218,39.932648
1_tr_reg_007_0.obj,0.041044075,-0.042569187,0.18753183,0.21371935,0.38497296,-0.0044366904,-0.40845665,-0.23777838,-0.109993435,0.08056692,0.10661092,0.05094552,-0.10233223,0.4431492,-0.08011113,-0.11201983,0.1405534,-0.145429,0.09568592,0.24369517,0.10314984,-0.12745641,0.060274176,-0.24626347,0.13900252,0.017325036,-0.109183684,-0.0071911286,-0.025790611,-0.06140773,-0.048018266,-0.21619743,70.42612,441.34787
3_1_tr_reg_006_0_0.obj,-0.2554508,-0.1260149,0.06342184,-0.08563066,0.29336676,0.072893,-0.18438007,-0.2519732,-0.0488886,0.0043040398,0.13358362,0.3035546,-0.029139267,-0.29221156,0.006793775,-0.008260313,0.323002,-0.06411283,0.16544425,0.25889352,-0.047148738,0.24813274,-0.056211077,-0.16316257,-0.09213812,-0.09545038,0.15709421,0.08685478,-0.0657708,-0.033801075,0.38231233,-0.14842564,70.72626,549.45557
7_5_4_2_0_tr_reg_006_0_0_0_0_0.obj,-0.21754386,-0.10155099,0.01688589,-0.19259307,0.22507787,0.041945394,-0.19631334,-0.13586518,-0.059271295,0.0076645995,0.19400258,0.4091808,-0.090708405,-0.27104223,0.017208165,-0.013012015,0.3273121,-0.09286438,0.19489059,0.1140946,0.00031265948,0.124314494,-0.1093597,-0.19709417,-0.12032411,-0.20062773,0.13876565,0.14733626,-0.08243419,0.041606095,0.33997518,-0.22793084,584.6786,561.1758
6_5_4_3_1_0_tr_reg_006_0_0_0_0_0_0.obj,-0.27515548,-0.11049919,0.07999203,-0.052936167,0.31648517,0.077090584,-0.1855378,-0.26670316,-0.04758249,0.0026179946,0.13013189,0.2655121,-0.021386752,-0.2741711,0.0143406615,-0.0018228213,0.32538867,-0.068593346,0.1476045,0.28935084,-0.061706316,0.2700811,-0.03646033,-0.15479025,-0.08987258,-0.07225914,0.15105978,0.07192437,-0.06098041,-0.059458356,0.3758963,-0.13305035,552.9258,467.4843
4_0_tr_reg_000_0_0.obj,-0.08360293,0.21509019,-0.098347366,-0.19887403,0.4235085,0.081795014,-0.2337748,0.21265827,-0.19956502,0.021170544,-0.124965325,0.09287608,-0.03335937,0.077860154,-0.09145993,0.029061375,-0.15856972,-0.18472801,0.13250163,0.12034411,-0.36406833,-0.07282346,-0.027826346,0.24959515,0.0603644,0.31404668,0.08430905,-0.330583,0.074419044,0.017173437,-0.0405026,0.11105552,513.50024,264.90894
6_5_4_1_0_tr_reg_006_0_0_0_0_0.obj,-0.21938626,-0.14420943,0.04612327,-0.19513057,0.23097922,0.11613949,-0.18924856,-0.13686249,-0.036146678,0.04744723,0.115953065,0.35462332,-0.103051655,-0.29331473,-0.019564493,-0.015312738,0.3633942,0.0047326204,0.17516075,0.1560703,0.0031302588,0.16098599,-0.11904575,-0.20041019,-0.12743635,-0.070014276,0.1451501,0.12982455,-0.06479853,0.005711509,0.37832206,-0.2359011,608.4004,611.6439
7_6_5_4_3_2_1_0_tr_reg_008_0_0_0_0_0_0_0_0.obj,0.07892282,-0.1530855,-0.22687253,0.26343942,-0.09208718,-0.23941061,0.043078315,-0.22246476,-0.07965657,-0.12835298,-0.06336435,-0.005739313,0.3353213,-0.14989842,-0.0663451,-0.036452886,-0.2190836,-0.28227067,0.03544447,0.07356347,-0.17320883,0.2708055,0.14602078,0.02791864,-0.04029458,-0.2675936,-0.05124439,0.070350714,0.16663603,0.18010768,0.12796703,0.38424584,10.0,447.92682
6_5_4_2_tr_reg_006_0_0_0_0.obj,-0.23511718,0.0077822725,-0.032403607,-0.22730412,0.23192063,0.053117074,-0.10741026,-0.08924772,-0.05929004,-0.027884528,0.23818314,0.38596597,-0.053851124,-0.317403,0.05069951,-0.08339755,0.311614,-0.117433846,0.2246546,0.060471073,-0.06790827,0.09593725,-0.08579984,-0.07732109,-0.19116366,-0.28340533,0.17600435,0.09791202,-0.10015175,0.092592604,0.29613665,-0.19173992,258.1454,151.15234
7_6_5_4_3_2_1_0_tr_reg_001_0_0_0_0_0_0_0_0.obj,0.15707429,0.30324003,-0.066620186,-0.16866153,-0.2555228,0.012074096,-0.040230922,0.105561554,0.017110724,0.035373677,-0.26128596,-0.1948612,0.06661893,-0.13485582,-0.01926111,-0.090188384,0.3314952,0.19447476,0.15363574,-0.20136523,0.13739888,0.0940365,0.24315447,-0.22948003,0.09388081,-0.04816131,-0.24449898,-0.2563678,-0.34627432,0.11819289,0.004893888,-0.107096516,727.8163,279.4936
7_6_3_2_1_tr_reg_009_0_0_0_0_0.obj,0.14369047,-0.30289915,-0.029156918,-0.16863753,0.0056210905,0.0649907,0.05630083,-0.1468859,0.44922787,0.29476675,0.16043253,-0.21606535,0.03943962,0.11752418,0.039961923,-0.10684388,0.067636274,0.27505088,0.015438862,0.26448694,0.085148744,-0.27915245,0.03162617,-0.17024443,0.09777875,0.07931704,0.06442171,0.17640038,-0.22591074,-0.02910949,-0.058066,-0.26051274,700.8633,346.24664
5_4_1_0_tr_reg_001_0_0_0_0.obj,-0.0020080276,0.1983623,0.010336013,-0.20485319,-0.15104897,-0.09421752,-0.030529197,-0.018138366,-0.012395937,-0.037245233,-0.24303994,0.058190968,0.06893689,-0.15585941,-0.08020606,-0.16987632,0.17457122,0.14769691,0.20987031,-0.21148424,0.23391819,0.06230708,0.25694478,-0.1357788,0.22187173,-0.23395215,-0.28437778,-0.3762478,-0.28786266,0.22679889,-0.095418,-0.058084946,210.63889,409.12097
6_5_3_2_1_0_tr_reg_008_0_0_0_0_0_0.obj,-0.031689275,-0.2211172,-0.17615347,0.17364061,-0.1706399,-0.2563914,0.083433576,-0.336881,0.058395945,-0.26388192,0.094671346,0.029771063,0.23007527,-0.14396624,-0.026881546,-0.026697764,-0.21679181,-0.16868986,0.021949299,0.10527983,-0.097181074,0.2690374,0.23584305,-0.0518969,0.18225539,-0.29854718,0.09921645,-0.025044749,0.082411095,0.069088414,0.006298955,0.37953144,309.6498,411.9644
6_3_2_1_0_tr_reg_002_0_0_0_0_0.obj,0.02451908,0.092777334,-0.069277704,0.16856405,-0.23950319,0.01573889,0.07558205,0.16335812,0.0037845522,-0.22263241,0.21298434,-0.17970899,-0.2941769,0.099508554,0.07815437,0.045388225,0.46976638,-0.10672071,-0.09480355,-0.066128574,0.17547691,0.21927296,-0.044239953,-0.2753874,-0.23811297,-0.18795167,-0.04662957,0.21117042,0.050547887,-0.30105853,-0.021163726,-0.034552258,581.2695,488.56644
7_6_5_4_0_tr_reg_009_0_0_0_0_0.obj,0.010390642,-0.22052571,-0.097133294,-0.3004744,-0.14944977,-0.070550606,0.50716734,-0.042771038,0.26425064,0.2251572,0.16578163,-0.006023781,0.076849565,-0.18686292,0.14914939,0.026637202,-0.14128093,0.16343454,-0.029891115,0.062517054,-0.02398964,-0.2420535,-0.035810146,0.2322228,0.0076852865,-0.120401904,0.28245902,0.17291424,-0.14240101,-0.040619943,-0.11885219,-0.16497643,323.68054,679.87634
6_3_2_tr_reg_000_0_0_0.obj,-0.13306038,0.18581747,-0.050830446,-0.23960042,0.39089102,0.07707594,-0.3313304,0.24318355,-0.14586936,0.10245852,0.019476479,0.028578997,0.02053948,0.16217548,-0.054582063,0.118415445,-0.1559979,-0.19940667,0.1014615,0.0972155,-0.45371053,-0.10280836,-0.011828576,0.06951074,0.22267222,0.3222671,0.07671277,-0.07756426,0.028699609,0.06356319,0.020011352,0.08707245,403.94363,243.3412
6_5_4_3_1_0_tr_reg_007_0_0_0_0_0_0.obj,0.06917527,-0.058569398,0.03961108,0.17721388,0.00035202285,0.16326955,0.23943831,0.013321777,-0.19128557,-0.12557942,0.2080502,-0.116393484,-0.14646119,0.27169207,-0.25953072,-0.51296926,0.14104119,0.10136539,0.084364526,-0.07476602,-0.107059374,-0.14356443,0.17375089,0.15804069,0.005175463,-0.07260149,0.26642057,0.012737932,0.25603232,-0.049641877,-0.2540561,0.024016017,340.35132,703.0232
7_6_5_3_1_0_tr_reg_006_0_0_0_0_0_0.obj,-0.22700484,-0.16658168,0.03279063,-0.18332817,0.23171808,0.14864413,-0.1340852,-0.13190803,0.005012136,0.07508589,0.096820146,0.28373703,-0.09543677,-0.31624672,-0.016418412,0.0045494535,0.3628721,0.032528426,0.134673,0.21639341,-0.047569558,0.18604253,-0.12576781,-0.16836873,-0.16496143,0.009672169,0.18625489,0.1509243,-0.04309732,-0.045974303,0.39313212,-0.21880952,93.54254,528.64453
4_2_1_0_tr_reg_009_0_0_0_0.obj,0.1018077,-0.2249088,0.09814168,0.073909104,0.11045429,0.018024933,0.21583697,-0.22019996,0.28498226,0.163942,0.011543558,-0.034977335,-0.103083625,0.1809575,0.17942421,-0.01656515,-0.115121394,0.20587869,-0.1425492,0.19517036,0.410376,-0.2871425,-0.20799874,0.103420615,-0.18727297,-0.014973505,-0.066035114,0.046846744,-0.06647009,-0.14515395,-0.17054035,-0.34026235,336.2821,176.9912
7_5_3_2_1_0_tr_reg_002_0_0_0_0_0_0.obj,0.015897006,0.038748335,-0.13228865,0.13782163,-0.15439661,-0.08448992,0.07757454,0.026113596,-0.00863592,-0.21839678,0.3658888,-0.16965495,-0.21244122,0.16952586,0.11576931,0.02200782,0.39878565,-0.20621333,-0.0061336453,0.055220056,0.08409134,0.21509458,0.043912,-0.30825922,-0.0856655,-0.3239325,0.05483151,0.22829457,0.012998124,-0.31380016,-0.0661836,0.023291323,714.1616,288.59198
7_5_4_tr_reg_007_0_0_0.obj,0.1721266,0.18939824,0.0056407466,0.30614665,0.2923464,-0.063563846,0.14251551,-0.27758023,-0.22625287,-0.090867646,0.0817752,-0.0022729957,-0.09522303,0.19763659,0.19030549,-0.015602589,0.018694483,-0.17529134,0.025173174,0.23488833,0.17437159,-0.009515206,-0.06205493,0.24580742,-0.3217215,-0.111951545,0.1157841,-0.26901063,0.018989408,-0.3102455,-0.121147126,-0.09163516,229.4783,175.91145
7_6_5_3_tr_reg_003_0_0_0_0.obj,-0.35184404,-0.0894324,0.31086367,-0.047410443,-0.27375537,0.03537559,0.42699668,0.1247327,-0.08298276,0.0074797072,-0.17041983,0.04481064,-0.18363896,-0.16919185,-0.14640643,0.11187553,0.011010082,0.27016494,-0.21510889,-0.20871125,0.08254456,0.095216766,0.008402128,0.19312626,0.23850136,0.1324953,0.061972678,0.040520847,0.13017379,-0.18589325,-0.11508986,-0.009710514,116.83484,550.49554
3_2_1_tr_reg_006_0_0_0.obj,-0.21756636,-0.017158259,-0.031218491,-0.22642313,0.20133427,0.07213357,-0.11915573,-0.0646958,-0.048254114,-0.027181963,0.26253548,0.37162173,-0.10080638,-0.29244554,0.04704474,-0.05551754,0.35115376,-0.09932469,0.20232163,0.06816646,-0.057437703,0.09719998,-0.10600637,-0.13938777,-0.18825375,-0.24249406,0.19921263,0.14852569,-0.085960306,0.045247823,0.3036709,-0.21241526,31.33191,452.63892
7_6_5_4_2_tr_reg_009_0_0_0_0_0.obj,-0.24601778,-0.19860378,0.053672638,0.08397815,-0.11103949,0.24620844,0.32225183,0.062548704,0.043157816,0.040063925,0.043674707,-0.18429513,-0.046613675,-0.19315793,-0.16706121,-0.15174556,0.15937005,0.18873468,-0.14147022,0.06693424,-0.28787142,0.18569931,0.038460605,0.14964974,-0.14766778,0.19601323,0.34097078,0.25915498,0.24391195,-0.18334176,0.10445389,0.072274834,292.8909,372.09827
7_6_5_0_tr_reg_002_0_0_0_0.obj,-0.037902948,0.13372894,-0.19283062,0.03056883,0.12793782,0.13663575,0.10166613,0.29313648,0.023928924,0.07226885,0.20442833,-0.37104955,-0.049488846,0.11292709,0.110913604,0.1585686,0.11193569,-0.24237216,-0.108841464,0.17912403,-0.37560365,0.114749424,-0.14459354,0.06662674,-0.20343722,0.13883294,0.15894733,0.32019624,0.08497219,-0.25834125,0.056813493,0.1136255,599.202,531.4347
7_4_3_2_1_tr_reg_009_0_0_0_0_0.obj,0.18157513,-0.24514253,0.025525484,-0.11098415,0.05271977,0.063741736,0.15404591,-0.14206165,0.393675,0.28833777,0.066099904,-0.12049364,-0.020648936,0.12780361,0.12687908,-0.07203381,-0.022594983,0.27034292,-0.048840124,0.19996774,0.26653388,-0.36446536,-0.14101891,6.069906e-05,-0.0880529,0.04881632,-0.0154398745,0.13265756,-0.18921372,-0.038566884,-0.106288224,-0.36313853,216.4247,461.56842
5_1_0_tr_reg_007_0_0_0.obj,0.16057573,-0.09014739,0.039986897,0.2375967,0.123729035,0.09751671,-0.12000462,-0.107791744,-0.081542514,-0.098872475,0.15224643,-0.13776354,-0.15210259,0.44728425,-0.28250045,-0.49705946,0.22519197,-0.0019187668,0.11925366,0.0717325,0.06354049,-0.1220689,0.216256,-0.13686188,0.04302812,-0.06657049,0.004761316,-0.0733175,0.13948628,-0.012338197,-0.24388494,-0.057057533,620.2302,624.4353
7_5_4_2_1_0_tr_reg_009_0_0_0_0_0_0.obj,0.14226069,-0.173795,-0.029156486,-0.03241888,0.05807871,-0.032552805,0.2586239,-0.10823636,0.31350133,0.21608861,-0.006433884,-0.028073808,-0.05942395,0.09774789,0.23349938,0.037191484,-0.115423575,0.122943155,-0.13024248,0.14960511,0.36246932,-0.30590308,-0.24150239,0.11418491,-0.29141954,-0.07978755,-0.090567596,0.102224715,-0.10688865,-0.08973798,-0.15585703,-0.36332625,226.9808,462.6014
4_3_2_1_tr_reg_006_0_0_0_0.obj,-0.242852,-0.053748265,-0.02496919,-0.20910075,0.24738482,0.082283266,-0.123261906,-0.11220125,-0.042489763,-0.01272628,0.22783418,0.3412623,-0.0860299,-0.30293465,0.029527286,-0.043026023,0.3501043,-0.09869779,0.19817041,0.1533487,-0.08426415,0.15728487,-0.09590027,-0.13547742,-0.16637243,-0.18750197,0.21392246,0.12712163,-0.07565324,0.0025238933,0.32630157,-0.18534285,417.24228,28.729767
6_5_1_tr_reg_008_0_0_0.obj,0.28674662,-0.12150283,-0.18087861,0.24909295,-0.120773606,-0.053765293,0.04620643,0.07922239,-0.1638434,0.01978381,-0.18963845,-0.019351177,0.20399475,-0.07326892,-0.21485962,-0.14858273,-0.112812325,-0.19955672,0.0094378395,-0.13019264,-0.10650246,0.10352963,-0.10184872,0.07053505,-0.29254875,-0.08671693,-0.18100739,0.28527582,0.29505396,0.27877104,0.22108953,0.2750718,188.60837,330.64062
7_6_4_3_1_tr_reg_003_0_0_0_0_0.obj,-0.29239717,-0.2645642,0.08785476,0.12865952,0.07862107,0.21939062,-0.09130716,-0.0692932,0.21462332,0.02557242,-0.3242239,-0.18793617,0.0010268998,-0.10599038,-0.21010982,-0.083748385,0.019773228,0.23904173,-0.22254312,0.2167013,-0.07711888,0.26960126,0.12712173,-0.03923998,-0.08490258,0.41898513,-0.07499124,-0.10889157,0.19028124,-0.04817558,0.09912181,0.06551988,95.194244,519.3592
1_tr_reg_001_0.obj,0.06349479,0.25345054,-0.040121656,-0.23893122,-0.19638671,-0.07516494,-0.026537595,0.048971742,0.020303,0.0073329103,-0.23408984,-0.052025896,0.081886634,-0.12811495,-0.045907907,-0.13498521,0.19739221,0.15508957,0.19905452,-0.21456085,0.17700137,0.03162164,0.26993558,-0.15334612,0.21963446,-0.1749461,-0.2612314,-0.3537155,-0.34463796,0.19642948,-0.10702474,-0.07677185,702.8704,308.31964
7_4_3_1_0_tr_reg_007_0_0_0_0_0.obj,0.16021368,-0.016160464,0.001230834,0.2515243,0.08714388,0.03157705,0.14425871,-0.12338382,-0.17416032,-0.1730311,0.114420995,-0.10205313,-0.120661005,0.3551157,-0.20981807,-0.48860627,0.06604059,-0.0105708735,0.104206935,0.019081239,0.051758215,-0.13701175,0.2155864,0.15716457,-0.03438839,-0.14642076,0.10950904,-0.22918184,0.18778312,-0.052737918,-0.3537538,0.01803401,528.87366,274.773
1_0_tr_reg_009_0_0.obj,0.09039108,-0.35635242,0.1459292,0.027846755,0.06023435,0.118156396,-0.0057248115,-0.20796303,0.3514868,0.21896017,0.10369274,-0.13652076,-0.08011557,0.24285588,-0.04354572,-0.18223366,0.08544857,0.30233133,-0.047354758,0.22158295,0.27226457,-0.25241905,-0.03773023,-0.1920273,0.073324546,0.0821058,-0.041958455,0.18414614,-0.08912247,-0.057081483,-0.0859048,-0.29658768,388.6712,415.02768
7_2_1_0_tr_reg_008_0_0_0_0.obj,0.15720816,-0.13953999,-0.20752189,0.3159803,-0.13462506,-0.19049647,0.11048681,-0.116353236,-0.13043594,-0.121057354,-0.12030491,-0.009911957,0.25645185,-0.11559122,-0.14714076,-0.12617284,-0.16398303,-0.269499,-0.004609167,-0.026352502,-0.09810389,0.23127101,0.05928339,0.085120924,-0.20844948,-0.24613594,-0.12110713,0.12534681,0.27224565,0.19681871,0.11891153,0.366461,336.13712,247.12079
5_4_2_1_0_tr_reg_009_0_0_0_0_0.obj,0.11509869,-0.2305423,0.015290849,-0.052267503,0.043977775,-0.013539646,0.28439674,-0.13987912,0.3318213,0.22939314,0.011768901,-0.024071308,-0.05340805,0.08781641,0.1968282,0.0034356017,-0.11364101,0.18538068,-0.119850785,0.15378338,0.359784,-0.31645322,-0.2180131,0.10527614,-0.20619468,-0.071336724,-0.062163945,0.12489847,-0.11126966,-0.07654036,-0.15676935,-0.3632232,572.79285,430.56583
3_1_0_tr_reg_000_0_0_0.obj,-0.13106889,0.189055,-0.085429825,-0.25655344,0.38423985,0.015855005,-0.30268916,0.21707836,-0.14253905,0.08690525,-0.08191803,0.07142792,0.035626702,0.12360576,-0.073514886,0.099887654,-0.20740075,-0.20346574,0.11640407,0.10149149,-0.40945077,-0.10337142,0.042146638,0.13483948,0.21220377,0.29391596,0.028594436,-0.23919028,0.016711434,0.08624592,-0.047405075,0.09871643,224.72281,491.6856
7_6_3_tr_reg_006_0_0_0.obj,-0.05680515,0.23645589,-0.08441161,-0.21430413,-0.042449646,0.09420536,0.16787799,0.20447713,-0.07189901,-0.13887104,0.23767857,0.25499704,-0.07107645,-0.25048414,0.09111707,-0.2448058,0.13960813,-0.0076852194,0.13545716,-0.30982736,-0.06311856,-0.16981545,-0.06938439,0.23679431,-0.35251373,-0.27995926,0.2162731,-0.011993626,-0.026943438,0.19405839,0.0008760422,-0.09797763,370.88657,145.67241
6_2_0_tr_reg_009_0_0_0.obj,0.085198246,-0.11455989,-0.20819512,-0.166364,0.006780884,-0.14184701,0.506356,-0.12383594,0.2173183,0.14269099,0.0424255,-0.04655756,0.1203209,-0.12028945,0.23185064,0.009738693,-0.22483504,-0.013454783,-0.030876191,0.17329465,0.031570442,-0.18920429,-0.043075133,0.37984934,-0.23222765,-0.18937758,0.1622427,-0.059427023,-0.0981293,-0.056006953,-0.21519253,-0.13773595,68.857666,398.22464
7_5_4_1_tr_reg_004_0_0_0_0.obj,0.33695152,-0.010707181,0.24292783,0.205577,0.011657511,0.08852432,-0.3057377,-0.0796512,-0.1689625,0.15391289,0.018230695,0.12567513,0.199961,0.10689182,-0.066203326,0.0339546,-0.24766222,0.08637869,0.057047904,-0.16125268,-0.062258776,-0.30766943,-0.16336128,-0.031310234,0.19727734,0.22396466,0.013639939,0.28194168,-0.017675487,0.2916366,0.27107218,-0.010581708,238.45746,348.42136
6_5_3_1_0_tr_reg_004_0_0_0_0_0.obj,0.18000543,0.24927656,0.27831027,0.37835512,-0.16086446,-0.08976078,0.12527663,-0.32467988,-0.1301942,0.067029685,0.14684312,-0.19970432,0.21973886,-0.011773588,0.3235156,0.2589081,0.099512465,0.05438298,-0.1129409,-0.010040062,0.10941743,0.06435908,0.027797682,-0.09060486,-0.021788934,-0.090606794,0.00022140639,0.2427921,-0.19380459,-0.12407354,0.22270027,-0.07616796,512.28406,228.16551
7_6_5_3_1_0_tr_reg_007_0_0_0_0_0_0.obj,0.15856314,-0.04261136,0.023700986,0.24021986,0.11135024,0.007639727,-0.012440001,-0.13773683,-0.12451627,-0.127636,0.15900825,-0.10504331,-0.14070797,0.4511878,-0.22511157,-0.47110325,0.1468999,-0.05055415,0.12688707,0.053286545,0.101220265,-0.15014546,0.22508627,-0.03781139,0.045640778,-0.17228888,0.016468534,-0.1503298,0.1256632,-0.040817305,-0.34210393,-0.044817764,302.1675,167.68832
6_3_1_0_tr_reg_000_0_0_0_0.obj,-0.072388984,0.22957584,-0.073817156,-0.18370038,0.43221256,0.12197018,-0.2024853,0.19895765,-0.22992128,-0.022341589,-0.09933425,0.10984423,-0.080077685,0.06921619,-0.088356666,-0.002701855,-0.119839296,-0.15306371,0.14859913,0.11422673,-0.32830626,-0.064914696,-0.062449727,0.27713475,0.038133293,0.31072092,0.13452798,-0.35184103,0.08567974,-0.026254468,-0.039582644,0.10567404,200.52878,344.81995
4_2_tr_reg_009_0_0.obj,0.008457523,-0.14177303,-0.21704474,-0.18479064,-0.0045832703,0.03061027,0.49793467,-0.040312856,0.20765911,0.17379229,0.0096146725,-0.18690415,0.14068112,-0.23281556,0.06425415,-0.099471554,-0.0644964,0.06831331,-0.012197261,0.23389933,-0.24543333,-0.06633434,0.037206236,0.39344388,-0.24003497,0.03003709,0.30631486,-0.0097400565,-0.023086714,-0.07675631,-0.08379321,-0.035901777,641.8064,595.4764
5_3_1_0_tr_reg_007_0_0_0_0.obj,0.17873877,-0.047966473,0.015427638,0.24578217,0.1339244,0.03727295,-0.059297178,-0.13481852,-0.11641063,-0.12275562,0.13609211,-0.11447197,-0.13803111,0.4427206,-0.25086972,-0.4873711,0.16513407,-0.042266537,0.13073814,0.07438412,0.082368545,-0.1376568,0.22842264,-0.050442442,0.022160891,-0.120591536,0.010969749,-0.167045,0.13296065,-0.02834157,-0.30538616,-0.037218567,59.912598,487.4352
6_2_1_tr_reg_003_0_0_0.obj,-0.28798622,-0.26175508,0.08114403,0.0589836,0.16788644,0.17391095,-0.27851632,-0.17206629,0.21219856,0.08349513,-0.12876803,-0.16696928,0.04401742,-0.017125659,-0.14228082,-0.052632865,0.16935427,0.18911508,-0.086822234,0.3108025,-0.13060755,0.24881808,0.22460409,-0.30781585,0.09771862,0.3299312,-0.035507735,0.013743462,0.040570974,-0.018454246,0.18317272,-0.05505736,649.43726,570.0531
6_4_3_2_1_tr_reg_005_0_0_0_0_0.obj,0.12121355,0.03358307,-0.20203224,0.032834813,0.02843184,-0.07729582,-0.27635798,0.3023786,0.19625793,0.18379754,-0.25941545,-0.010215925,-0.007819255,0.12495165,0.059715997,0.18685442,-0.17611577,-0.21418905,-0.20174553,-0.043655314,0.059454735,-0.17640631,-0.17553972,-0.06281132,-0.39582378,0.13169126,-0.40766838,0.09267022,0.043763377,0.15136003,0.0052179554,-0.10617838,340.90967,456.64246
6_5_4_3_2_tr_reg_008_0_0_0_0_0.obj,0.03075104,-0.24534164,-0.121929996,0.022105074,-0.20681179,-0.13870418,-0.037421044,-0.28270897,0.21044666,-0.37165308,0.36993384,0.040056616,-0.05686243,0.030241834,0.012363746,-0.05968526,-0.12768935,-0.0046682176,0.038258977,0.09848355,0.0091760075,0.087841645,0.17535077,-0.17481421,0.3197318,-0.17536432,0.3122641,-0.07733254,-0.013327078,-0.12592892,-0.10549733,0.30200338,236.83426,407.3018
7_6_3_1_tr_reg_008_0_0_0_0.obj,0.03306846,-0.18898207,-0.18179794,0.2628456,-0.12923433,-0.233943,0.041183744,-0.29816213,-0.038600422,-0.17571393,0.00031065458,0.018264476,0.3274591,-0.18893842,-0.02492558,0.004533757,-0.20215537,-0.23319912,0.02775773,0.086702004,-0.14042994,0.3034587,0.15065286,-0.028665861,0.022216506,-0.28533235,0.006156209,0.09087956,0.1326896,0.14592372,0.15028131,0.3636019,369.80414,278.8051
7_5_4_3_2_tr_reg_006_0_0_0_0_0.obj,-0.17750093,0.030720243,-0.0063257976,-0.23177582,0.16889341,0.13391443,-0.119589195,-0.002708879,-0.04392871,-0.02745979,0.26843247,0.35367915,-0.1454336,-0.26691425,0.044033922,-0.09463002,0.40126008,-0.026797004,0.19591783,-0.002722468,-0.019338591,0.03672374,-0.11656931,-0.14197025,-0.22810857,-0.20396385,0.19289728,0.14094831,-0.094009325,0.06002174,0.28816473,-0.26101837,263.16415,436.25616
7_6_4_3_0_tr_reg_004_0_0_0_0_0.obj,0.12368865,0.21245614,0.2860597,0.11435471,-0.12520936,0.024744073,0.05209956,-0.19931675,-0.19863205,-0.046999767,0.31372148,-0.06580194,0.11571393,-0.017892467,0.27892733,0.30964026,-0.07480627,0.17064574,0.009367661,-0.08508436,-0.10933111,-0.04216184,-0.010377192,0.02742685,0.35190746,0.12869716,0.3714782,0.1280721,-0.18246946,-0.1709967,0.1901047,0.063356735,50.678406,557.6024
7_6_4_3_2_1_0_tr_reg_008_0_0_0_0_0_0_0.obj,1.4469699e-05,-0.24199118,-0.15028502,0.04625667,-0.20340584,-0.19690132,0.01928369,-0.32038465,0.2015199,-0.33654585,0.28838986,0.019072138,0.043865014,-0.021468105,0.0045158463,-0.047285847,-0.17399591,-0.043895047,0.027415171,0.13185395,-0.04027239,0.12904684,0.24359149,-0.13313703,0.3190418,-0.20365115,0.2596463,-0.10232274,-0.0096658515,-0.073131256,-0.11119025,0.32692134,431.75458,19.677124
6_5_3_1_tr_reg_008_0_0_0_0.obj,0.0577536,-0.18531421,-0.17817347,0.27123258,-0.13201977,-0.24236934,0.059193425,-0.26893294,-0.08833157,-0.20302805,-0.05826196,0.063272625,0.2779528,-0.17024162,-0.1061877,-0.07537726,-0.19127245,-0.23529044,0.047903717,0.036112603,-0.09133195,0.28313333,0.15557198,0.016671667,-0.0035701836,-0.30253953,-0.040675852,0.016860096,0.18105416,0.17359515,0.10574238,0.38636744,360.70053,188.17458
